tree
version=v4
num_class=1
num_tree_per_iteration=1
label_index=0
max_feature_idx=37
objective=regression
feature_names=log_return rsi_z63 macd_z252 foreign_net_pct volume_norm_30 atr_pct_z252 bb_pct volatility_20 short_ratio_pct revenue_z operating_inc_z net_income_z revenue_yoy_growth_z operating_inc_yoy_growth_z net_income_yoy_growth_z opm_ttm_z npm_ttm_z roe_ttm_z roa_ttm_z debt_ratio_z earning_surprise_z kospi_volatility_20 macro_usdkrw_chg_20d is_market_stress macro_usdkrw_chg_5d mom_5 mom_20 mom_60 mom_12_1 foreign_flow_20d foreign_flow_5d inst_flow_5d indiv_flow_5d inst_flow_20d indiv_flow_20d foreign_flow_60d inst_flow_60d indiv_flow_60d
feature_infos=[-0.35667494393873245:0.28837675813445934] [-5.7361924959878978:4.9142374354768776] [-5.920466155203199:8.3278134455646864] [-0.059482593071895427:0.061946775477133682] [0.00012755369354637113:30] [-3.6532505665248429:12.151088938613309] [-0.56213228944960647:1.5621322893698986] [0.0031133095101305119:0.34172909414285252] [0:66.890000000000001] [-8.2051964690737051:11.936150915565305] [-8.7936017155596957:11.83903789216642] [-5.7134976590656184:10.304783896387692] [-10.894726517144589:13.423434503578939] [-9.2213165127813834:9.8947141829325584] [-5.4157986141656185:7.3849249254189067] [-7.7050476473925338:5.6787328429057427] [-5.9155956295951277:5.7599184098426033] [-5.7176809642102402:6.182477699589036] [-6.2725101825087535:5.7254970795856135] [-13.160134230851362:13.075006673499264] [-8.0040083791047536:7.1458878191404853] [0.0028834494504:0.04485129879142237] [-0.084350615934188827:0.10451770060582898] [0:1] [-0.041632806695596859:0.062951363766911114] [-0.5377777777777778:1.0636704119850187] [-0.64417177914110435:3.4011544011544013] [-0.8167361447729844:5.2781186094069525] [-0.88657499334488343:24.751366120218581] [-0.22303197568570959:0.10037131751689252] [-0.21642051280784375:0.093736137274766235] [-0.11522063114739299:0.38354202248081493] [-0.26565028819488345:0.20942829419482198] [-0.26501154972769203:0.38561825827497392] [-0.2629688105535552:0.25409319358699911] [-0.26379052045144563:0.13785239285950746] [-0.30141949348703612:0.39449193370127167] [-0.30056023603684257:0.30314279980997444]
tree_sizes=5886 6303 6220 6274 6239 6243 6285 6270 6246 6266 6277 6249 6256 6267 6297 6301 6258 6285 6258 6261 6259 6288 6196 6250 6218 6286 6281 6299 6273 6267 6240 6286 6195 6250 6276 6225 6247 6278 6258 6294 6206 6230 6244 6262 6226 6258 6250 6226 6265 6184 6197 6197 6201 6214 6260 6264 6268 6250 6215 6204 6155 6195 6232 6180 6169 6232 6180 6257 6154 6215 6148 6235 6234 6199 6172 6245 6219 6170 6163 6111 6230 6194 6190 6227 6193 6149 6163 6227 6270 6166 6279 6236 6261 6218 6175 6122 6166 6199 6175 6181 6176 6147 6186 6233 6121 6127 6159 6251 6235 6145 6080 6221 6143 6170 6184 6198 6133 6168 6183 6126 6205 6196 6213 6134 6213 6239 6092 6117 6234 6274 6195 6180 6124 6172 6131 6193 6095 6220 6120 6086 6145 6064 6160 6179 6226 6226 6128 6144 6193 6224 6081 6108 6203 6208 6109 6139 6135 6155 6151 6172 6136 6259 6114 6178 6207 6105 6126 6198 6143 6232 6217 6200 6200 6192 6167 6230 6149 6251 6151 6166 6125 6103 6157 6198 6103 6205 6159 6207 6106 6097 6194 6089 6185 6161 6145 6087 6202 6149 6172 6205 6149 6161 6102 6070 6092 6110 6166 6212 6164 6178 6166 6118 6096 6099 6123 6115 6215 6229 6072 6166 6134 6128 6160 6111 6139 6170 6240 6173 6124 6144 6119 6216 6137 6109 6168 6214 6190 6135 6179 6210 6126 6215 6095 6124 6166 6102 6134 6110 6158 6100 6174 6203 6149 6187 6134 6109 6202 6141 6167 6161 6192 6051 6221 6092 6150 6105 6130 6139 6176 6103 6187 6134 6171 6158 6140 6214 6205 6139 6226 6087 6185 6170 6207 6089 6123 6217 6176 6149 6093 6105 6205 6107 6130 6143 6194 6151 6120 6160 6112 6143

Tree=0
num_leaves=63
num_cat=0
split_feature=7 27 37 33 27 7 11 18 33 7 10 19 9 36 37 22 2 37 2 34 19 13 36 3 27 36 36 27 22 19 19 37 9 7 2 9 14 19 11 19 36 36 19 36 10 10 11 2 11 19 9 33 36 7 20 18 10 33 27 36 37 14
split_gain=38.0104 36.1347 24.8715 15.6463 14.8313 13.1543 12.913 17.1061 14.1785 10.9791 12.8441 10.6427 10.708 9.88385 9.09892 8.77052 8.6981 8.43326 9.51921 8.1853 8.14754 8.12869 9.52588 7.59262 7.33782 7.31351 7.31207 6.92133 6.36325 7.0299 6.14136 8.16107 8.01043 5.9612 5.92678 5.86841 6.57763 5.85336 5.82568 7.29298 10.8984 9.81971 8.54419 7.98791 6.69538 5.66814 5.41072 5.28948 5.23299 5.22601 5.19327 8.22471 5.26458 6.08126 5.13421 5.11834 5.27253 5.78009 5.09913 4.93599 8.3281 4.93484
threshold=0.033752758942584137 -0.20487054498373033 -0.006307579083974695 -0.0089422486722357687 -0.33049986664964892 0.043404724214425677 -0.13480760434511221 -2.5887093714861575 -0.02558053252385924 0.016578561077300016 0.092188257683621641 1.2592928114459492 0.09221652351771642 0.048860783303766191 -0.017808084248785046 -0.024830646276737544 1.5950001632545543 -0.020699708100841745 0.049963412269900177 -0.0041101912480016279 -0.37293873601305122 -0.21810772711721618 0.0020582483699366819 0.00043805036909059744 -0.42701380145853618 0.010699205150725295 0.0065443664956249753 -0.035414068994181196 0.012286019779148945 0.10961897300735253 0.17643070962064467 0.0081161595103531967 -0.39993166188988777 0.050860095822448263 1.4117630245623733 1.8964317760000104 0.19500091131463596 0.24181677157971312 -0.13348837978575845 0.051010459346428484 0.006712830528001615 0.013760759597535959 0.018088563820793862 0.045250197330060617 -0.27343144150441073 0.11711993749634363 2.3176019241185717 -0.56712553560983114 -0.28565126502486676 -0.24450478443489371 -0.38209111599350259 0.00078270469895900553 0.00465989888913929 0.050860095822448263 0.73025649175387086 -0.71590621599653226 -0.29793699686788622 0.0032861145262332763 0.011301287103172577 0.035647964925544597 -0.027504746589926143 -0.18523063379682986
decision_type=2 2 8 8 2 2 8 10 10 2 8 10 8 8 10 2 2 10 2 10 8 10 10 2 2 10 10 2 2 8 8 10 8 2 2 10 10 8 8 8 10 10 10 10 8 8 10 2 10 8 10 8 10 2 10 8 8 10 2 8 10 8
left_child=2 19 9 14 47 49 7 20 58 10 26 23 -13 15 -3 -7 38 34 25 -2 -6 22 -9 35 -21 -19 -1 -12 29 33 32 -32 -23 -16 -17 36 46 61 55 40 44 -41 -42 45 -40 -43 54 -4 -24 -5 52 -52 53 -20 -10 -11 57 -57 -8 60 -51 -18
right_child=1 3 4 5 6 13 8 21 11 16 27 12 -14 -15 28 17 37 18 50 24 -22 30 48 -25 -26 -27 -28 -29 -30 -31 31 -33 -34 -35 -36 -37 -38 -39 39 41 42 43 -44 -45 -46 -47 -48 -49 -50 59 51 -53 -54 -55 -56 56 -58 -59 -60 -61 -62 -63
leaf_value=0.49958937493957312 0.49995855041460724 0.50747744532322614 0.50731691183665406 0.49861567627228215 0.50382737705801595 0.50367572609014322 0.49930003228344377 0.50298167034881958 0.50304556019197089 0.50538498234767237 0.50113870900634117 0.50239823772869896 0.50929856312052346 0.49284983707344537 0.50372273461851469 0.4991957687754609 0.50635793706035237 0.50212204632102986 0.50017307180938253 0.50740683895332495 0.50067890653574598 0.49991189083858639 0.50217846553679601 0.50242109659110568 0.50362560694188374 0.49647065234159754 0.50259724911660519 0.50357287280431295 0.49976601521194236 0.50160639853633571 0.5041258309328267 0.4958333212450422 0.5047741036359068 0.50983429274809522 0.50436912623864272 0.50451200948319475 0.50020244292257576 0.50371859621563497 0.50871871278322378 0.5010842620458813 0.50108726723499641 0.49984193852137881 0.50589460789906371 0.50017299491285783 0.50345985341149191 0.50286176347078193 0.50561156451487022 0.50332104897793895 0.49715985831526593 0.50426580881409999 0.49917354170029105 0.49429495288991415 0.501454167559368 0.49522883430373277 0.5051391236644327 0.49524919649043442 0.50083344625521675 0.5012003883499706 0.50332795454746704 0.4991504145058856 0.50114754077845303 0.50146454978971033
leaf_weight=4047 1345 959 2563 2059 2314 1143 3496 5263 244774 501 3253 967 1342 585 1295 1054 558 2451 1155 1449 18298 930 838 47344 11154 746 4034 28487 1828 2655 692 518 9414 576 1164 7251 1984 10081 643 39727 9947 1670 1018 3768 10072 22169 2112 1224 1366 2362 1415 2226 1275 1350 2963 993 6447 693 1013 2596 22826 6581
leaf_count=4047 1345 959 2563 2059 2314 1143 3496 5263 244774 501 3253 967 1342 585 1295 1054 558 2451 1155 1449 18298 930 838 47344 11154 746 4034 28487 1828 2655 692 518 9414 576 1164 7251 1984 10081 643 39727 9947 1670 1018 3768 10072 22169 2112 1224 1366 2362 1415 2226 1275 1350 2963 993 6447 693 1013 2596 22826 6581
internal_value=0.502539 0.501406 0.502684 0.500797 0.502914 0.500444 0.502881 0.50203 0.502988 0.502155 0.50287 0.503029 0.50641 0.499213 0.50294 0.49948 0.501907 0.499106 0.49852 0.503665 0.501032 0.503112 0.501826 0.503003 0.504061 0.500802 0.501091 0.503323 0.502255 0.503261 0.503942 0.500573 0.504337 0.505607 0.50191 0.50311 0.503069 0.502943 0.501724 0.501844 0.502642 0.501588 0.501534 0.502312 0.503776 0.50265 0.503092 0.506026 0.499067 0.501046 0.497538 0.496189 0.498838 0.497507 0.503071 0.500484 0.500182 0.497693 0.500205 0.501226 0.50144 0.501848
internal_weight=577023 65668 511355 51720 356666 44407 352879 39633 313246 154689 39821 308737 2309 14564 7313 13979 114868 12836 10618 13948 20612 19021 7467 306428 12603 3197 8081 31740 6354 4526 11554 1210 10344 1871 2218 259084 251833 17220 97648 89014 21680 67334 10965 27607 10715 23839 249849 3787 2204 29843 7421 3641 3780 2505 247737 8634 8133 1686 4509 27784 25188 7139
internal_count=577023 65668 511355 51720 356666 44407 352879 39633 313246 154689 39821 308737 2309 14564 7313 13979 114868 12836 10618 13948 20612 19021 7467 306428 12603 3197 8081 31740 6354 4526 11554 1210 10344 1871 2218 259084 251833 17220 97648 89014 21680 67334 10965 27607 10715 23839 249849 3787 2204 29843 7421 3641 3780 2505 247737 8634 8133 1686 4509 27784 25188 7139
is_linear=0
shrinkage=1


Tree=1
num_leaves=63
num_cat=0
split_feature=27 36 11 27 33 28 8 21 9 2 9 35 2 17 35 27 22 36 22 28 21 19 28 21 9 15 8 35 9 27 8 36 2 35 28 2 28 19 29 21 11 12 2 8 34 36 11 20 29 21 34 19 11 9 19 9 35 29 9 29 10 9
split_gain=30.9645 28.8815 14.6685 13.3395 13.6974 13.897 19.1408 22.4092 22.4442 16.9523 14.8907 13.5721 13.0213 12.9563 11.3809 11.5151 10.9502 10.6968 11.6261 10.5187 9.63217 9.81385 9.5019 10.192 9.41184 8.95792 8.84607 8.57358 9.18557 9.05284 8.47634 13.3969 9.39679 9.24504 8.37836 8.26378 11.8955 8.24746 8.2206 8.10276 7.97969 7.82047 7.63468 7.48791 7.19677 6.97086 7.05086 11.9343 7.9302 6.90617 11.8477 6.81807 6.76114 6.68922 12.7987 7.40167 6.66626 6.58686 6.76911 6.516 6.16732 6.13006
threshold=-0.30208556398132158 0.048860783303766191 -0.13480760434511221 0.63624071442074104 -0.028272995043287608 0.16327202430638946 3.7750000000000004 0.01387982126937389 -0.19239462133096083 1.0002322511151194 0.10594606822816212 0.020412932693213658 -0.59106667036164706 0.07019906589014982 -0.0061430195655756666 0.11612832910415562 -0.0055812064652307957 0.0029718940778668671 -0.0061818803660935008 0.02758120214203497 0.0073030518530800064 0.56887374865763152 -0.48429696170860614 0.0082383211780998819 -0.11491634163956828 0.41117789798265031 0.15500000000000003 0.031225090958680271 -0.23580028920628862 0.48501497005988031 11.555000000000001 -0.00093364619948937543 1.1527648392564387 0.016492366491078044 -0.17813370272761717 -0.27411883473263232 0.77853843828573721 0.077507621914770577 0.00056729801954089455 0.0076381885748656201 -0.092305891252473515 -0.054846112810076529 0.35047878697614604 0.015000000000000001 -0.02267741716255554 -0.037194767995762316 -0.64421505050585604 -0.36492364652806397 -0.0046492527205241772 0.0061355351267093549 0.0042177712193748416 0.10961897300735253 -0.52575416440801137 -0.4236763152197463 -0.19873223015798605 -0.29797958878572534 -0.0169969686352726 -0.0087697724100457581 -0.23580028920628862 0.0028824302313125911 0.24708217541720831 0.12396784716496995
decision_type=2 8 8 2 10 2 10 2 8 2 10 10 2 10 10 2 2 10 2 2 2 10 2 2 10 10 10 10 10 2 8 10 2 10 2 2 2 10 10 2 8 8 2 10 10 10 10 8 8 2 10 10 10 8 8 8 10 10 8 10 10 10
left_child=12 2 13 4 24 10 7 9 -9 17 14 16 -1 27 15 40 19 18 37 -5 -19 -22 23 -16 -4 -15 -17 29 -29 45 31 53 33 49 -3 59 44 -7 -27 -36 -6 -35 -10 -11 -37 -2 47 -47 -48 50 -32 -39 -50 54 -24 -55 -28 58 -42 60 -8 -12
right_child=1 34 3 11 5 6 35 8 42 43 61 -13 -14 25 22 26 -18 20 -20 -21 21 -23 30 -25 -26 38 56 28 -30 -31 32 -33 -34 41 39 36 -38 51 -40 -41 57 -43 -44 -45 -46 46 48 -49 52 -51 -52 -53 -54 55 -56 -57 -58 -59 -60 -61 -62 -63
leaf_value=0.003391333227357358 -0.0054110247210260205 -0.0063238990190035973 -0.0033424577224857605 -0.0067521859457057055 0.005244208418944356 0.00074289105676737701 0.00047102974038996243 0.0042505509875529644 -0.0011472763524280007 0.0033969768757915013 0.0044301736784299137 0.0021832552814927872 5.0012000085860601e-05 0.00098587890248312267 -0.0062766266883478418 0.00016796342148149747 -0.0057581912948834772 0.0013138145963076371 0.002020587788748327 0.0017798926663276588 -0.00065327216409916946 0.0063655792933719237 0.0084947327965474578 -0.0010794033204545867 0.0025114086634119479 0.00042977677280576978 -0.0045793558139742381 0.004569603128430722 -0.0033276471910638965 -0.0066466342705418808 -0.00078158313915941075 -0.00059181395654516302 0.00045132029934544249 0.0028338222278980543 -0.00032581405556363367 0.0046079642528816696 -0.0045651166115731664 -0.0056105233199462102 -0.0075787010234873511 -0.003666191531050036 -0.0011434986964890717 -0.002349693173547213 -0.0042562265879398419 0.00094330737088464808 -0.00092118359952849066 -0.0027065236527555533 0.00021585723015102331 0.0041563165446470004 -0.0069635780658533113 -0.00037311693097378683 -0.0039172307496205469 0.00025656915586147136 -0.0015362255779947263 -0.0017587215737773954 0.0011024350988648875 0.00066607043301356408 -0.0010878441790371193 0.00021685441386238115 0.0016635736116246359 -0.0011957637935143342 0.0040339917875120814 0.00074145211015473785
leaf_weight=9429 968 1476 4424 504 889 12866 15209 1732 8520 11031 1157 1280 4221 12512 1343 6111 2570 12018 27164 1268 19613 510 761 3166 812 670 2393 1244 522 782 13345 41584 18504 774 3241 613 2288 1005 613 4127 2472 11951 2570 4331 14190 1062 7083 1567 584 70594 3890 975 30307 3413 2530 40273 3189 57576 16336 5771 1319 41209
leaf_count=9429 968 1476 4424 504 889 12866 15209 1732 8520 11031 1157 1280 4221 12512 1343 6111 2570 12018 27164 1268 19613 510 761 3166 812 670 2393 1244 522 782 13345 41584 18504 774 3241 613 2288 1005 613 4127 2472 11951 2570 4331 14190 1062 7083 1567 584 70594 3890 975 30307 3413 2530 40273 3189 57576 16336 5771 1319 41209
internal_value=5.20853e-06 -5.18636e-05 -6.60381e-06 8.13106e-05 0.000109074 0.000136527 0.000553098 0.000913597 -0.00104129 0.00119363 -3.53678e-05 -0.00234016 0.00235817 -0.000759593 -0.000158863 0.000315808 -0.00367384 0.000880415 0.00140569 -0.000649278 0.000193836 -0.000475078 -0.000357939 -0.00262844 -0.00243433 0.000577802 -0.00114645 -0.00117777 0.00223475 -0.00132011 -0.000308617 6.18065e-05 -0.000584154 -0.000774705 -0.00288646 -0.000383476 -0.00121067 0.000280528 -0.00339949 -0.00219709 0.00053709 -0.00203421 -0.00186806 0.00270532 -0.000691923 -0.00121976 -0.0011197 0.00138406 -0.00129307 -0.000592202 -0.0014895 -0.00272275 -0.00163905 0.000640391 0.00281387 0.000476596 -0.00258521 0.000482238 0.00129459 0.000250551 0.000755595 0.000842292
internal_weight=576451 562801 553957 496043 490421 485185 141725 102335 12822 89513 343460 5622 13650 57914 301094 88966 4342 74151 42010 1772 32141 20123 212128 4509 5236 13795 11693 44119 1766 42353 207619 88561 119058 100554 8844 39390 17091 14846 1283 7368 77273 12725 11090 15362 14803 41571 40603 2629 37974 87829 17235 1980 30891 46977 3291 43686 5582 76384 18808 22299 16528 42366
internal_count=576451 562801 553957 496043 490421 485185 141725 102335 12822 89513 343460 5622 13650 57914 301094 88966 4342 74151 42010 1772 32141 20123 212128 4509 5236 13795 11693 44119 1766 42353 207619 88561 119058 100554 8844 39390 17091 14846 1283 7368 77273 12725 11090 15362 14803 41571 40603 2629 37974 87829 17235 1980 30891 46977 3291 43686 5582 76384 18808 22299 16528 42366
is_linear=0
shrinkage=0.05


Tree=2
num_leaves=63
num_cat=0
split_feature=36 27 30 27 9 28 21 12 8 18 35 26 8 5 21 34 11 21 16 11 35 5 35 33 27 19 27 18 14 14 12 11 33 27 1 28 5 19 27 19 8 35 29 19 27 21 35 28 9 8 35 19 28 21 14 26 35 8 12 28 34 28
split_gain=29.6728 27.0943 14.4062 16.2491 12.5988 12.8429 12.8033 10.5163 10.1333 10.0451 9.8662 9.01373 8.24307 12.5635 8.33058 16.4182 8.08587 7.77798 7.76023 11.7615 7.56939 8.1716 7.32096 10.0746 7.18182 7.13672 7.0962 6.77169 7.78072 6.75044 6.91603 6.56683 6.66758 6.24421 6.13104 11.9188 6.12271 6.02086 6.00811 5.86995 5.79257 5.73066 5.66905 5.64201 5.5444 7.04659 5.95884 5.90797 5.4337 6.97795 5.75809 5.41738 6.08289 7.27384 5.37414 5.33156 5.90911 5.58093 5.51329 5.31628 7.87391 5.2541
threshold=0.048860783303766191 -0.30208556398132158 0.00070033156922150587 0.75012554402410458 0.41553714723904683 0.22554491681470248 0.0068265847875312044 -0.16718872785706354 inf -0.86880137150107217 -0.0037351947755972031 -0.12636161709502511 inf 0.54249986548423912 0.0061355351267093549 0.0042177712193748416 0.017292378409878108 0.014057911650987269 0.096701739172835491 -0.21226467604815816 -0.0022674719100053407 -1.6763423071598238 -0.010202652575397634 0.0035492021808447324 0.11612832910415562 0.70784132107472841 0.058604596411779737 0.006356435859464364 0.038930184265396371 0.16308753441905835 -0.14913072830305121 -0.20887145174872176 -4.2048125323892771e-05 0.5230991551800801 0.46861564793907029 -0.061095252223139877 -1.2253299502857657 -0.49223342011316856 -0.015562184154866985 -0.14107120754398514 8.0150000000000023 -0.043065225472977732 0.01199718729833118 -0.30461894153001418 -0.10982400908340216 0.015388723179896318 0.0059789440357056571 -0.33428582360371661 -0.33926986908616602 2.1050000000000004 -0.043065225472977732 -0.042957428862467353 -0.24079934774289083 0.012249328559593863 -0.37440568856859557 0.037981221401027006 0.0079687061308351664 1.8250000000000004 -0.21448305332974801 0.42049839584842624 0.0022093280948380528 -0.34978757423935741
decision_type=8 2 8 2 8 2 2 8 8 8 10 2 8 2 2 8 8 2 8 10 10 2 10 10 2 10 2 10 8 10 10 10 10 2 2 2 2 8 2 10 10 10 8 10 2 2 10 2 10 10 10 8 2 2 10 2 10 10 10 2 10 2
left_child=1 11 3 4 7 12 8 16 -7 -9 -5 42 13 29 15 26 18 25 19 -3 21 -16 36 27 -10 41 -14 28 54 30 -6 32 -20 38 -4 -36 -11 -30 -2 -33 -37 -8 -1 -19 45 46 -15 -47 49 -38 -50 -40 -53 -54 -24 57 58 -18 -57 60 -29 -32
right_child=33 2 34 10 5 6 17 9 24 22 -12 -13 14 44 20 -17 55 43 31 -21 -22 -23 23 -25 -26 -27 -28 59 37 -31 61 39 -34 -35 35 40 48 -39 51 -41 -42 -43 -44 -45 -46 47 -48 -49 50 -51 -52 52 53 -55 -56 56 -58 -59 -60 -61 -62 -63
leaf_value=0.0036589200364046618 -0.0055761963173382488 -0.0023906363849468793 -0.00063444978054983032 -0.0075859855032716335 0.00074996128352872605 0.00071312568460818958 -0.0043843664413458433 0.0056365705818474526 0.0020303103945019827 0.0021566466467628511 -0.0011201418560937118 0.00068350810289224029 -0.00092399521588417137 0.002372292422488635 -0.0034248481787209914 -0.0033121572183039821 0.0031296974084334185 -0.0019804051778002573 0.0051811600037813561 0.0044018978707738585 -0.0003322003359808884 0.00080726130605807177 0.0017217696764586508 -0.0017941349354915097 0.0046820451568551818 0.0052227788987631784 0.0014198642728468734 0.00029062826006165772 0.0027985425708387285 -0.0031443791438694503 -0.00242161752578492 -0.0070049595700207024 -0.0025359418228200776 -0.0074234093524548532 -0.00066335886509196699 0.00079065248572720399 0.0011804052266250527 -0.00044159742324911279 -0.0051531566374290339 -0.0019826895492377089 -0.00091658162262937273 0.00083750880465461414 -0.001763837412157937 0.0014537742988968783 -0.0010943928774067681 0.0016186997609731987 -0.0030824027258760378 -0.0044058846293232113 0.0033636531343256559 -0.003021498806281503 9.5805269596322895e-05 -0.0058304842055948956 0.00019207118641445867 -0.0045665111968373239 -0.0026239217331864451 -0.0020664825318280444 0.0035839294349638696 0.0010126183870464425 0.0015477114368357954 -0.0033953342339450737 0.0043293638491727496 0.0025358865246800991
leaf_weight=7603 1309 1176 98923 1041 56559 6824 533 681 5822 3818 1361 5430 9418 4071 1179 5604 4826 4477 504 1389 41015 34181 803 16147 4551 917 4913 3420 1474 1018 569 871 627 689 39877 35281 1502 51272 1070 1752 5782 32712 514 1631 13776 667 570 1041 1491 2884 13969 653 4216 991 6196 3012 920 8771 1623 562 1864 8622
leaf_count=7603 1309 1176 98923 1041 56559 6824 533 681 5822 3818 1361 5430 9418 4071 1179 5604 4826 4477 504 1389 41015 34181 803 16147 4551 917 4913 3420 1474 1018 569 871 627 689 39877 35281 1502 51272 1070 1752 5782 32712 514 1631 13776 667 570 1041 1491 2884 13969 653 4216 991 6196 3012 920 8771 1623 562 1864 8622
internal_value=6.43883e-06 5.13948e-05 -2.58265e-06 0.000174009 0.000200467 0.000415533 0.00106768 -0.000192985 0.00220969 -0.000412038 -0.00392436 0.00226057 0.000210965 0.000564057 -0.000107605 -0.00101778 0.000719319 0.000579946 -0.00083152 0.00128794 0.000129975 0.000666058 -0.000451171 -0.000675382 0.00319406 0.000873772 -0.000120423 -0.000399948 -0.000558871 0.000894132 0.000956707 -0.00227964 0.000904518 -0.00285353 -0.000370394 -4.7667e-05 0.000323276 -0.000351 -0.00247051 -0.00365243 0.000550244 0.00075366 0.00331535 -0.0010633 -0.000531013 0.000691383 0.00170184 -0.00205362 -2.95211e-05 -0.0015826 0.000411162 -0.00188316 -0.0012853 -0.000714289 -0.00212516 0.00123102 -7.41594e-05 0.00176421 -0.000800869 0.00122403 0.00171589 0.00222875
internal_weight=576964 568036 554489 374626 372224 240670 57467 131554 17197 106083 2402 13547 183203 86893 96310 19935 25471 40270 6319 2565 76375 35360 105402 81738 10373 34162 14331 65591 59745 66768 65750 3754 1131 8928 179863 80940 23664 52746 8239 2623 41063 33245 8117 6108 20125 6349 4641 1708 19846 4386 15460 6930 5860 5207 6999 19152 5555 13597 4635 5846 5284 9191
internal_count=576964 568036 554489 374626 372224 240670 57467 131554 17197 106083 2402 13547 183203 86893 96310 19935 25471 40270 6319 2565 76375 35360 105402 81738 10373 34162 14331 65591 59745 66768 65750 3754 1131 8928 179863 80940 23664 52746 8239 2623 41063 33245 8117 6108 20125 6349 4641 1708 19846 4386 15460 6930 5860 5207 6999 19152 5555 13597 4635 5846 5284 9191
is_linear=0
shrinkage=0.05


Tree=3
num_leaves=63
num_cat=0
split_feature=37 27 5 27 21 36 13 30 9 19 5 27 33 12 10 27 21 36 21 5 14 13 19 14 19 20 29 26 12 5 29 31 10 9 8 14 10 19 10 37 21 8 37 18 8 10 10 12 21 10 12 21 11 18 34 15 9 13 19 27 21 26
split_gain=25.9319 18.5638 24.857 17.2557 15.0794 12.6692 11.8043 11.3062 10.9227 12.7165 11.8925 10.7539 9.43417 9.263 8.38379 8.33576 8.41169 7.96036 8.28462 7.98226 7.79357 7.58081 7.43926 9.98281 9.40047 8.32518 7.73125 7.43296 7.24431 7.12567 6.97222 7.41361 6.87448 6.59976 6.4248 6.36924 11.3609 9.80602 6.45292 6.31845 7.28446 6.69865 6.31991 6.28085 6.09389 6.14649 8.73293 5.97839 6.03813 5.85364 5.84358 7.6168 5.49465 6.88057 5.25435 5.25333 5.79637 5.823 5.2189 6.11972 9.94993 5.14283
threshold=-0.006307579083974695 -0.20487054498373033 -0.48038169609808695 0.5697070057535174 0.0069078767347355288 0.048860783303766191 -0.020725443163849267 0.00093430674509070299 0.39181235016139943 1.2592928114459492 1.8366302771910423 -0.058963585362543862 -0.032222259628383883 -0.089894577945235074 0.088004347932966714 -0.42701380145853618 0.0095770248021536004 -0.050857104161705628 0.016806968502340498 0.25819302623891266 0.45511546762613714 0.021337070993226414 -0.24450478443489371 -0.20851627686902305 -0.18118365513615808 0.0063720016584061972 0.012453306932674548 0.054924668028600639 0.71423701171419041 1.7000893758756475 0.022181310506616005 -0.0019686615440812818 -1.6788729094861903 -0.14858803310104893 2.6050000000000004 0.077577418937146356 0.35210991675298897 0.037284030616344797 -0.56906646627605961 0.017568005432852758 0.0073030518530800064 1.0000000180025095e-35 0.062630750463644649 -0.51394306518468458 0.31500000000000006 0.040131969891628622 0.14916930770774953 -0.10709163294179293 0.0086333894690457033 0.48208871065817688 -0.10011488514127463 0.005823589224112532 -0.36428365857514938 0.030116266731537514 0.010169274716855312 -0.16523725847440104 2.0393397176987427 0.021337070993226414 -0.28405429587775127 0.0082394952658544369 0.011240304497057102 1.0000000180025095e-35
decision_type=10 2 2 2 2 10 8 8 8 10 2 2 8 8 10 2 2 10 2 2 10 8 8 8 8 8 8 2 10 2 8 10 8 8 10 8 10 8 8 10 2 10 10 8 8 10 10 10 2 8 10 2 10 8 8 10 8 8 10 2 2 2
left_child=4 2 -2 7 6 22 -1 8 10 12 13 -8 -10 32 -9 16 -4 -17 19 -19 39 -13 -6 25 33 -24 28 -15 35 -5 31 -23 -3 -25 52 36 37 -26 -37 58 41 42 -41 -40 49 47 -47 -46 -49 -28 51 -21 -34 -54 -31 56 57 -16 59 -14 -61 -45
right_child=1 3 15 29 5 -7 11 14 9 -11 -12 21 20 27 55 17 -18 18 -20 50 -22 30 23 24 26 -27 44 -29 -30 54 -32 -33 34 -35 -36 38 -38 -39 43 40 -42 -43 -44 61 45 46 -48 48 -50 -51 -52 -53 53 -55 -56 -57 -58 -59 -60 60 -62 -63
leaf_value=-0.0022799738909260437 -0.00095903816934917124 0.0054565631989761778 0.0005737945861550908 -0.0017023058086143229 -0.0022081110328505409 -0.0032813474491404249 -0.0027941441091805393 -0.00056427074790024723 -0.0047397242958615651 0.0055494035965781945 -0.0026203756263644832 0.0061083172997971995 0.00024746873621099975 -0.00023259360104442301 0.00037698118535072097 -0.0010201769814001363 0.0073657222212338419 0.0011107418434755966 0.000237291704772799 -0.00060246972393940832 -0.00508732335386232 -0.0010832317884058881 0.00034705127497556372 0.0051250219475285318 -0.00055643639797220998 0.0061206184310884874 -0.00037127875399982466 -0.0019026666577138173 -0.0045732412136956085 -0.0094487270791752155 0.0038903108875660841 0.00073665048941289383 0.001715210127446817 -0.00094629067271898503 -8.8550564539237051e-05 0.0029818400998034887 0.0028008524745760195 -0.0053868714324498126 0.0045328541085373269 -0.0025686295654133145 0.00049748146561447366 0.00031589649314639023 0.0030351577595879122 -0.00037652224446392611 0.00023928489921819213 0.0078020932856118982 -0.00031893618607060301 0.00086056468004018201 -0.0055696136345457746 0.0065071940408897456 0.00072225019227009418 0.0038044853697870931 0.0028874981107087669 -0.0010925244955164593 -0.0031087229103937469 -0.00080388923931909168 0.00032977349652042845 0.005263037306265813 0.0013067529283657812 0.001333403634865037 -0.00069920437341997141 -0.0011428621110206394
leaf_weight=4307 10603 681 708 2699 7728 4977 2404 72026 861 1244 4630 624 75253 37222 913 2636 1280 9180 6344 1073 620 6699 1776 1173 1708 962 515 8114 1309 637 1515 33965 12494 723 27238 1154 843 2730 552 6296 17486 4796 546 38495 6531 586 759 578 989 773 2388 11338 1430 4502 673 2319 2545 1836 25630 36031 7228 50765
leaf_count=4307 10603 681 708 2699 7728 4977 2404 72026 861 1244 4630 624 75253 37222 913 2636 1280 9180 6344 1073 620 6699 1776 1173 1708 962 515 8114 1309 637 1515 33965 12494 723 27238 1154 843 2730 552 6296 17486 4796 546 38495 6531 586 759 578 989 773 2388 11338 1430 4502 673 2319 2545 1836 25630 36031 7228 50765
internal_value=-1.04466e-05 0.000211008 0.00116141 8.93851e-05 -0.000518119 -0.000809386 0.000220878 0.000126545 0.000279806 0.000514066 -0.000148265 0.000459187 0.000478189 -2.33928e-05 -0.000397481 0.00180476 0.00494837 0.00161501 0.00184411 0.00226919 0.000504053 0.000641969 -0.000707386 -0.000604662 -0.000678778 0.0023771 -0.000739899 -0.00053153 -0.000880019 -0.00317202 0.000560956 0.000436823 0.000473682 0.00281058 0.000399253 -0.000829742 -0.00251772 -0.00352838 -0.000731721 0.00052409 -0.000147626 -0.00111685 -0.00212106 -0.000779469 0.000533897 9.36887e-05 0.00322246 -0.000426305 -0.00319876 0.00375872 0.00298767 0.00342346 0.00112031 -0.000132754 -0.00619647 0.00118037 0.00204955 0.003641 0.00065981 0.000519889 0.000993774 -0.000812372
internal_weight=576640 401500 45550 355950 175140 125626 49514 351941 272302 175991 96311 45207 174747 91681 79639 34947 1988 32959 30323 23979 173886 42803 120649 112921 110183 2738 108287 45336 97556 4009 42179 40664 46345 1896 45664 96247 5281 4438 90966 173266 29124 11638 6842 89812 10731 9443 1345 8098 1567 1288 14799 12411 18426 5932 1310 7613 5294 2749 144142 118512 43259 89260
internal_count=576640 401500 45550 355950 175140 125626 49514 351941 272302 175991 96311 45207 174747 91681 79639 34947 1988 32959 30323 23979 173886 42803 120649 112921 110183 2738 108287 45336 97556 4009 42179 40664 46345 1896 45664 96247 5281 4438 90966 173266 29124 11638 6842 89812 10731 9443 1345 8098 1567 1288 14799 12411 18426 5932 1310 7613 5294 2749 144142 118512 43259 89260
is_linear=0
shrinkage=0.05


Tree=4
num_leaves=63
num_cat=0
split_feature=36 27 9 28 21 8 21 8 5 28 10 2 29 21 34 2 36 28 17 11 19 12 9 20 12 22 29 27 2 29 11 28 14 19 9 8 27 14 28 20 22 27 5 28 36 29 28 2 5 19 12 2 19 5 27 27 2 21 8 20 28 15
split_gain=23.4789 21.7763 12.6264 12.7801 18.9054 20.9577 17.3107 16.4883 16.6678 14.6189 13.6643 12.0106 15.2463 12.1595 11.2824 10.7837 10.491 12.696 10.6273 12.8945 15.2887 11.0169 11.8466 9.77453 9.85311 9.6724 9.34296 8.95882 8.82236 8.572 8.55991 8.37253 8.19184 8.94003 8.14104 8.12204 7.96468 8.06195 7.78444 7.21713 7.0621 8.4139 10.4326 8.12187 7.21952 7.0167 6.89578 6.80203 6.77746 6.75056 6.70362 6.68722 9.26195 6.83905 6.58877 6.466 6.42552 6.34493 6.28967 6.17772 6.16632 10.0976
threshold=0.048860783303766191 -0.30208556398132158 0.10594606822816212 0.22554491681470248 0.01387982126937389 inf 0.0062243725158073393 inf 1.1609655786278958 0.77853843828573721 0.095107981267779806 1.2609958642937837 0.0028188139086595728 0.0062243725158073393 0.0030729152386317431 1.2386697669123172 0.0032027342119392717 2.18616338518438 0.037516063044480789 -0.64421505050585604 -0.065938896758347271 -0.22355319162835566 -0.17278705184487261 0.26409150069414877 -0.035790615463930787 -0.0061818803660935008 0.012453306932674548 0.13687472840340145 -0.60373836693825167 0.0075641886090219903 -0.50397563066885143 0.92983127428096912 -0.13080511663950753 0.70784132107472841 0.378530413341779 1.1150000000000004 0.11111162342718962 0.11708434600880328 -0.32496453007961457 0.4249883529454106 -0.0068590321979381313 0.22271017100430737 0.68512200906852216 -0.10129779577555341 0.030094689581774425 -0.009898945321489841 0.50717277472469946 0.27669753208228404 0.8201372755109525 -0.49223342011316856 -0.12801727724679565 -1.0415090674466196 0.08826149782783714 -0.20899331392574474 -0.094407766146896541 0.34286107060151133 -2.0358963890104427 0.0081331847661891537 5.7250000000000005 -0.65210100133902227 -0.020206458255667411 -0.19615123754215663
decision_type=8 2 8 2 2 8 2 8 2 2 10 2 10 2 8 2 10 2 10 10 10 8 10 8 10 2 10 2 2 10 10 2 10 10 10 10 2 10 2 10 2 2 2 2 10 10 2 2 2 10 10 2 10 2 2 2 2 2 10 8 2 10
left_child=1 28 16 7 5 9 31 8 34 23 15 12 13 14 -9 25 18 40 19 20 21 22 -3 24 57 -8 30 45 -1 -20 -21 -7 33 58 36 -6 37 60 -13 46 55 43 -43 44 59 -15 -22 -33 -27 -38 -23 -48 53 -53 56 -18 -10 -5 -25 -42 61 -4
right_child=-2 2 3 4 35 6 10 11 54 -11 -12 38 -14 27 -16 -17 17 -19 29 26 39 50 -24 32 -26 48 -28 -29 -30 -31 -32 47 -34 -35 -36 -37 49 -39 -40 -41 41 42 -44 -45 -46 -47 51 -49 -50 -51 -52 52 -54 -55 -56 -57 -58 -59 -60 -61 -62 -63
leaf_value=0.0028929756412581701 -0.0025394524446637652 0.0020190293668339294 0.0010507644046516031 -0.0023285885359025042 -0.0020213620230919451 0.0027122000446525643 -0.00072890590975240412 -0.00044721846371289435 -0.0033684689648230078 -0.0016719862976829845 0.0079418293071233624 -0.0015631371557388665 -0.0015093322971761155 0.0016650646253902565 -0.0029828696512702209 0.0030758023064098336 -0.00029597594146569124 -0.0077347718561130811 0.00096555256915624758 -0.0078408873123938828 -0.00049166933180440527 -0.00056207502022749577 0.008797686842023221 0.0013127617576713529 -0.0058576469274645116 0.001874741577704273 0.0031602082004419507 -0.0019871817123033003 0.00014174058074183245 0.0060924365475745071 -0.0012758191770814245 0.0034852694380044175 0.0048284783331465422 0.0063473298220072891 0.0013910392026116681 0.0015439372800664279 -0.001410475965358243 -0.0029268859329040068 0.0012277798681139579 0.003274415129553994 -0.0062548251887601077 -0.0010989389440348568 -0.0048094360479260653 -0.00021209639862668065 0.0025697737135716237 1.5072449571390155e-05 0.00053135317013566763 0.0095520023802827068 -5.5896244860917717e-05 0.00065464668750542796 0.001075747846453882 -0.0050445743935890186 -0.0078225631119617552 0.0020094800188368706 -0.0018291696324084263 0.0029319535381080722 0.0009547683070518136 0.0011912653883954134 -0.00038071913765815664 -0.0017940410651177997 2.0876479824599569e-05 -0.0024467237581690705
leaf_weight=9221 8973 4630 55148 2273 8580 9322 9732 11862 1035 9432 707 2970 32385 7189 6961 4987 15743 671 10644 506 32087 9761 748 13605 960 12896 1170 5088 4260 882 24112 967 1334 704 23602 1962 10504 1631 15711 1167 829 4507 3268 20689 891 62044 1029 887 7020 6348 17354 698 1046 675 11117 1720 5043 2929 9183 12014 28592 2143
leaf_count=9221 8973 4630 55148 2273 8580 9322 9732 11862 1035 9432 707 2970 32385 7189 6961 4987 15743 671 10644 506 32087 9761 748 13605 960 12896 1170 5088 4260 882 24112 967 1334 704 23602 1962 10504 1631 15711 1167 829 4507 3268 20689 891 62044 1029 887 7020 6348 17354 698 1046 675 11117 1720 5043 2929 9183 12014 28592 2143
internal_value=-1.94769e-06 3.82014e-05 -1.01429e-05 0.00014666 0.000641804 0.000884278 0.00160791 -2.01394e-05 0.000356042 5.14572e-05 0.00106546 -0.000398807 -0.000574836 -0.00024991 -0.00138505 0.000924869 -0.000373719 -0.000900514 -7.53099e-05 -0.000249297 0.000106355 0.000896234 0.0029633 0.000576069 -0.00120623 0.000562975 -0.00120356 3.75961e-05 0.00202366 0.00135837 -0.00141107 0.00332305 0.00101848 0.000801932 0.000552439 -0.00135773 0.000362781 0.000554454 0.000784006 -0.000592945 -0.000823522 -0.00117346 -0.00265896 -0.000837873 -0.00178046 0.000186426 -0.000720041 0.00639133 0.00119426 -0.00063257 0.000486157 -0.0028445 -0.00428015 -0.00157769 -0.00110552 2.21053e-05 0.000218147 -0.000346877 0.000630344 -0.00208244 0.000620602 0.000919899
internal_weight=576148 567175 553694 386853 97480 86938 46518 289373 145163 40420 35342 144210 125529 93144 18823 34635 166841 60332 106509 94983 69195 32493 5378 30988 6162 29648 25788 74321 13481 11526 24618 11176 24826 23492 127968 10542 104366 87514 18681 36702 59661 42198 7775 34423 13734 69233 35535 1854 19916 16852 27115 3448 2419 1373 17195 17463 6078 5202 22788 12843 85883 57291
internal_count=576148 567175 553694 386853 97480 86938 46518 289373 145163 40420 35342 144210 125529 93144 18823 34635 166841 60332 106509 94983 69195 32493 5378 30988 6162 29648 25788 74321 13481 11526 24618 11176 24826 23492 127968 10542 104366 87514 18681 36702 59661 42198 7775 34423 13734 69233 35535 1854 19916 16852 27115 3448 2419 1373 17195 17463 6078 5202 22788 12843 85883 57291
is_linear=0
shrinkage=0.05


Tree=5
num_leaves=63
num_cat=0
split_feature=7 27 37 28 35 8 2 22 7 12 15 27 7 7 10 35 8 8 13 30 26 17 17 28 27 35 28 17 29 27 28 17 12 2 29 8 19 12 14 29 22 37 10 8 13 19 28 2 37 11 17 14 14 37 6 26 29 35 8 28 8 10
split_gain=29.3744 31.3905 19.3069 16.6566 15.6341 14.3372 12.7364 12.8518 12.0007 14.0952 11.1109 9.04802 8.69682 8.65423 10.5818 10.4061 8.64024 8.46749 8.1902 7.95795 7.57238 7.28778 10.0162 8.20869 7.00129 6.99468 6.90348 6.17376 6.16606 6.13016 6.11402 6.07636 5.84723 5.70756 8.34291 6.02113 5.68665 8.9154 7.33071 5.33821 5.29923 5.27854 5.72602 5.19135 5.13207 10.4021 7.58305 6.90793 7.52856 5.0576 7.82389 6.82411 5.57829 5.20015 5.027 4.91601 4.89619 4.84612 5.63941 4.78883 7.22057 4.75867
threshold=0.033459937519205972 -0.20487054498373033 -0.006307579083974695 0.17309117372105223 0.023028278143916153 5.455000000000001 1.2168374559815287 -0.0061818803660935008 0.043404724214425677 -0.16277762306556251 -0.45225470826736924 -0.35034231771289703 0.020733082701967828 0.016057913724621359 0.092188257683621641 0.063881892978876934 11.555000000000001 0.10500000000000002 0.11964265951887108 0.0013566503482743124 -0.18127337125106055 0.0068168441363320046 -0.089960642427458049 -0.40014962624084227 0.071974662700964101 -0.012779062998897531 -0.29466601868003828 -0.26596205766936609 0.0026175359382592787 0.056824391455539087 1.265367254091311 0.050920204280063851 0.063967848832720289 1.5950001632545543 -0.0050899079243742918 0.085000000000000006 0.018088563820793862 -0.0019296702747911038 -0.29824679404246079 0.00212663733067609 -0.0071085559748729965 0.017141023674674374 -0.049019455272194055 1.0150000000000003 -0.36740153714958296 0.08181407005116699 0.71997195970037708 2.206351053078476 0.0094843986057549391 -0.13673183572189357 -0.72826681203878607 0.19500091131463596 -0.2416937733862432 0.00011095102084968734 0.16881945704217441 0.0042974217021478642 -0.0072750434634324132 0.0093245072738289674 9.4150000000000009 0.58811942399513029 0.71500000000000008 -0.18774511901898081
decision_type=2 2 8 2 10 10 2 2 2 8 8 2 2 2 8 10 8 10 10 8 2 8 10 2 2 10 2 8 8 2 2 8 8 2 10 10 8 10 8 10 2 10 8 8 10 8 2 2 10 8 10 10 8 8 2 2 10 10 8 2 10 10
left_child=2 20 13 11 8 6 7 12 27 40 -11 -4 -5 14 -1 21 49 -8 24 -18 -2 22 36 -23 -6 29 -16 -3 55 -12 -26 -25 -17 34 -33 -35 37 38 -15 -37 -10 -29 -43 -31 45 47 -46 48 -27 50 61 52 -51 -54 -36 -7 -47 -28 -59 -56 -61 -13
right_child=1 4 3 5 18 28 17 -9 9 10 25 16 -14 15 26 32 19 -19 -20 -21 -22 23 -24 31 30 44 57 41 -30 43 -32 33 -34 35 54 39 -38 -39 -40 -41 -42 42 -44 -45 46 56 -48 -49 -50 51 -52 -53 53 -55 59 -57 -58 58 -60 60 -62 -63
leaf_value=-0.0013541294387855217 0.0025016411485254235 0.0036302178042141469 0.0033713649929000391 0.0012214926453643028 -0.003018829069447582 0.00086075271212841104 0.0049403765015299146 0.0016852821806134556 0.0059010444359262788 -0.0095651033688586556 -0.0023337871050583929 -0.0017964861788306022 -0.00088856708879480077 0.00032749292375122615 -0.0032581431297654187 0.0077560508827621199 2.4300681080442953e-06 -0.00024769098403070263 0.007110880338148752 -0.0010578665965210237 0.00015705568459428292 -0.0033680625932200913 -0.0089049253525971522 0.0049732604449488713 0.0027336425494976697 -0.0059169572406783041 0.00039108674850809021 -0.0016400241522448377 -0.0018624854394363151 -0.0027431539080217293 -0.0023016773704160661 0.00074508121758379026 0.001253169429945921 0.0013803271454702402 9.4781020621876371e-05 -0.0024232539974003214 0.0011814927776935989 0.0025996101171643681 -0.0064784719196036289 0.00032667487532277081 -0.00041978076003736716 -0.0035101978998970359 0.00079282011521717355 -0.0078513173430354802 0.0025266786095420359 0.0018230055883518535 -0.0048008171143459743 -0.010595489015694 0.001101397389597241 0.0038456385185972868 0.00075237908372901359 -0.0027907706561325369 -8.7650496873805866e-06 0.00075741831549194327 -0.001115204383188914 -0.0011229047925108494 -0.002297081114909243 0.0031369797248663508 0.00081843247425411765 0.0013824640301780429 -0.0015373987217739086 0.00021938850084038148
leaf_weight=7242 5790 634 2158 9183 1099 10399 3708 36672 503 693 1490 8386 10427 547 1014 539 114605 998 513 20927 8497 2473 552 512 2610 1556 16091 26596 4417 696 783 9871 962 7847 13431 2612 1176 550 1428 5436 969 930 4558 1755 1108 844 517 530 506 1295 10366 1517 30577 80313 61745 4463 4924 4406 6480 4976 3684 4497
leaf_count=7242 5790 634 2158 9183 1099 10399 3708 36672 503 693 1490 8386 10427 547 1014 539 114605 998 513 20927 8497 2473 552 512 2610 1556 16091 26596 4417 696 783 9871 962 7847 13431 2612 1176 550 1428 5436 969 930 4558 1755 1108 844 517 530 506 1295 10366 1517 30577 80313 61745 4463 4924 4406 6480 4976 3684 4497
internal_value=-8.18161e-07 -0.000975989 0.000129788 0.000332458 -0.0015291 0.00096606 0.00134177 0.00113279 -0.001802 -0.00291994 -0.00338951 0.000147278 9.95467e-05 -0.000338579 0.000349302 -0.000543379 0.000121732 0.00384033 0.0011321 -0.000161293 0.00110734 -0.000596534 -0.00262804 -0.000519771 0.000447878 -0.00308153 0.000790057 -0.00125212 -0.000222473 -0.00486519 0.00157131 -0.000455773 0.00359192 -0.000481179 -0.000629783 0.000394878 -0.0016897 -0.00302687 -0.00459427 -0.000566012 0.00174266 -0.00134871 6.31213e-05 -0.00640248 -0.00237712 -0.00287683 0.000193889 -0.00550733 -0.004195 0.000401823 -0.000270125 0.000539219 0.000584273 0.000546151 -0.000791668 0.000265033 -0.001694 0.000942334 0.00175704 -0.000960773 0.000140308 -0.00109285
internal_weight=576583 68101 508482 354908 53814 80267 60988 56282 48809 16091 14619 274641 19610 153574 35233 118341 272483 4706 5005 135532 14287 116840 4253 112587 4492 13926 27991 32718 19279 3941 3393 110114 1501 109602 93707 15895 3701 2525 1975 8048 1472 32084 5488 2451 9985 8360 1625 2592 2062 136951 23249 113702 112185 110890 83836 14862 5768 26977 10886 70405 8660 12883
internal_count=576583 68101 508482 354908 53814 80267 60988 56282 48809 16091 14619 274641 19610 153574 35233 118341 272483 4706 5005 135532 14287 116840 4253 112587 4492 13926 27991 32718 19279 3941 3393 110114 1501 109602 93707 15895 3701 2525 1975 8048 1472 32084 5488 2451 9985 8360 1625 2592 2062 136951 23249 113702 112185 110890 83836 14862 5768 26977 10886 70405 8660 12883
is_linear=0
shrinkage=0.05


Tree=6
num_leaves=63
num_cat=0
split_feature=27 5 36 5 30 9 2 28 10 11 20 33 27 35 34 12 28 5 10 8 28 21 2 9 10 10 10 20 28 10 9 19 33 13 9 28 19 27 28 10 21 32 36 27 36 21 11 21 5 20 10 2 17 35 35 9 9 8 34 21 9 16
split_gain=21.3536 20.6434 16.7098 13.0268 13.4242 11.3557 9.51671 12.8307 10.9266 8.91579 9.2707 9.05205 8.02374 9.97294 7.83305 7.26111 11.0482 9.39343 8.72129 8.55581 15.7118 15.1252 12.1685 7.58193 8.74958 7.50468 7.46904 8.10342 7.23903 7.17524 7.51839 8.26575 7.09847 8.17478 7.08594 6.81636 6.62187 6.56808 6.43576 7.45986 6.85342 6.77592 6.31642 7.26837 9.70011 8.60799 7.64454 6.83262 6.42012 6.3059 7.38571 6.28932 6.02819 5.88577 5.81829 7.59816 7.82294 7.08353 5.98746 9.08315 6.07373 5.70086
threshold=-0.21296783259593169 -0.38911982592089039 0.048860783303766191 1.3550895739194944 0.00080221443581798228 -0.25506541043059677 1.2168374559815287 -0.061095252223139877 0.095107981267779806 -0.14452439744597453 -1.0443632603468951 -0.032222259628383883 0.63624071442074104 -0.0004146178291127395 -0.012093019776654839 -0.088872263333667892 0.16327202430638946 0.013043841605879255 0.051946953377050707 inf 0.81238382899628259 0.014057911650987269 1.2386697669123172 0.054181650035431302 -0.033958359483491449 0.25795091945308507 -0.56906646627605961 -0.11415136343172601 -0.37237797347510421 0.12943828021609946 0.013753398036839804 -0.40068718047598034 0.00021834848681645107 0.14227524104171416 -0.048406225278667246 1.1765586474110603 0.23173416795202637 0.18220642949201174 0.26695220974882 0.19585774442435125 0.0069078767347355288 -1.0000000180025095e-35 -0.050857104161705628 -0.37963672947766258 -0.016184026086534024 0.0095770248021536004 -0.36428365857514938 0.016806968502340498 0.61101977622248793 0.052293359115839218 0.092188257683621641 -0.97154504528611052 0.01174839848065889 0.0005308655295192796 -0.014042100292306079 -0.10333458437370026 -0.21209858819661445 5.2550000000000008 0.005825905147398793 0.0065971851582495283 -0.42979244146534162 0.18270248098071715
decision_type=2 2 10 2 8 10 2 2 10 8 10 8 2 10 10 10 2 2 10 8 2 2 2 10 10 10 8 8 2 10 10 10 8 10 10 2 10 2 2 10 2 8 10 2 10 2 8 2 2 10 10 2 10 10 10 10 10 8 10 2 10 8
left_child=1 28 3 4 9 12 8 -8 -6 10 36 -11 38 -14 -3 16 26 23 19 20 -18 22 35 24 -17 -25 27 -13 -1 -10 31 -31 33 -7 54 -21 -2 -19 39 -5 53 -42 -16 44 -44 -46 -45 48 -48 -36 -51 -22 -12 -40 55 56 -28 -56 60 -60 -59 -34
right_child=2 14 -4 5 6 32 7 -9 29 11 52 15 13 -15 42 17 18 37 -20 21 51 -23 -24 25 -26 -27 34 -29 -30 30 -32 -33 61 -35 49 -37 -38 -39 40 -41 41 -43 43 46 45 -47 47 -49 -50 50 -52 -53 -54 -55 57 -57 -58 58 59 -61 -62 -63
leaf_value=-0.0029871487168413526 -0.0016740947573822568 -0.0044618286020549555 -0.0022759816430788964 -0.00048004714522324092 -0.00072918665521026587 -0.0012716428773097595 -0.000676812073459148 0.001499384790847322 0.0048722196586591026 -0.0044555801815487983 -0.00049068175817701843 0.0061327275064281383 -0.0086838574940417655 -0.00026991289636704474 -0.00042385559218179232 7.4047325823898275e-05 0.0007375655305254076 -0.00079678239228921056 0.002978036489217187 0.0010900483650786873 0.00056531513769757355 -0.0026472967939864768 0.0045741294407743872 0.00052097335972604375 -0.0029185121353560105 0.0034667753615421123 0.00070738058945130262 -0.00059817422946756337 -5.3641607623664264e-05 -0.00582244870107831 0.0018572173778645515 -3.0718567903192957e-05 0.00057812122957124116 0.0040328984784517912 0.0014265751606774403 0.0041255348347574664 0.0027830181552755571 -0.0035094700466487211 4.8498003968560956e-05 -0.0050958210672135988 -0.0013615205196791695 0.0011785138238975517 0.0076081741816531939 -0.003614934971553377 -0.0028427236120783603 0.0042740376204038373 0.001401569520992543 0.00030729035984800013 0.0032213969418130694 0.0036292344098708927 -0.0028566446634929604 -0.0033868077421728318 0.0013792832845144836 0.0040566828380253789 0.00058642226492430804 -0.0050549709369373027 0.0048416459056765185 4.3629686789266298e-05 -0.0030009527590645377 -0.00035482312152469004 -0.0013517342133967966 -0.0032385765275735725
leaf_weight=2808 15132 506 8641 27637 104148 7606 12857 14312 1042 995 11363 1093 632 794 2892 11743 23514 11913 5058 23865 1378 2161 3243 11784 3083 2647 22707 756 8368 722 5096 4164 1113 802 17029 2004 881 2745 1510 903 4851 5721 1295 648 619 1350 9604 5387 9788 576 1834 3732 6942 2327 32154 544 1204 74462 4728 10322 8710 8071
leaf_count=2808 15132 506 8641 27637 104148 7606 12857 14312 1042 995 11363 1093 632 794 2892 11743 23514 11913 5058 23865 1378 2161 3243 11784 3083 2647 22707 756 8368 722 5096 4164 1113 802 17029 2004 881 2745 1510 903 4851 5721 1295 648 619 1350 9604 5387 9788 576 1834 3732 6942 2327 32154 544 1204 74462 4728 10322 8710 8071
internal_value=-8.58118e-06 0.00105972 -9.52586e-05 -5.93351e-05 3.18516e-05 -0.00074012 -0.00037217 0.000469571 -0.000570739 0.000211398 -0.000550109 0.00030278 -0.000313932 -0.00400243 0.00170425 0.000319409 0.000427127 -0.000271911 0.000984484 0.000816092 0.000191457 0.00138779 0.0016874 0.000245697 -0.000548397 0.00106151 0.000221562 0.00338183 -0.000790894 0.000926112 0.00051374 -0.000887574 -0.00181508 -0.000765248 0.000188012 0.00132535 -0.00142872 -0.00130499 -0.000191375 -0.000626263 0.000669993 1.29914e-05 0.00180318 0.00202767 0.00424868 0.00203641 0.00174241 0.00188265 0.00232024 0.00108779 -0.00130563 -0.00232115 0.000218522 0.00247974 7.50383e-05 0.000782729 0.000915749 -5.77103e-05 -0.000268578 -0.00118626 -0.000102511 -0.00277602
internal_weight=576516 43265 533251 524610 462643 61967 142341 27169 115172 320302 34318 285984 44375 1426 32089 284989 241074 43915 64955 59897 28624 31273 29112 29257 14826 14431 176119 1849 11176 11024 9982 4886 17592 8408 174270 25869 16013 14658 42949 28540 14409 10572 31583 28691 3264 1969 25427 24779 19392 19439 2410 5110 18305 3837 154831 24455 23911 130376 98222 15050 83172 9184
internal_count=576516 43265 533251 524610 462643 61967 142341 27169 115172 320302 34318 285984 44375 1426 32089 284989 241074 43915 64955 59897 28624 31273 29112 29257 14826 14431 176119 1849 11176 11024 9982 4886 17592 8408 174270 25869 16013 14658 42949 28540 14409 10572 31583 28691 3264 1969 25427 24779 19392 19439 2410 5110 18305 3837 154831 24455 23911 130376 98222 15050 83172 9184
is_linear=0
shrinkage=0.05


Tree=7
num_leaves=63
num_cat=0
split_feature=7 33 7 1 34 2 26 36 8 7 18 13 35 22 26 35 7 19 11 11 11 28 15 15 15 26 13 19 28 5 28 16 10 35 10 17 33 34 22 11 15 28 19 15 29 19 15 28 10 34 16 19 14 14 34 18 33 8 28 35 10 8
split_gain=29.8495 22.8356 11.5803 11.4945 11.1731 11.553 10.3141 10.4372 10.0315 9.71449 9.23653 9.13885 9.09593 9.19425 8.61207 8.49496 8.16414 8.1398 7.99911 7.54436 7.44238 7.05624 6.91158 8.83823 10.967 8.92233 6.98365 6.97036 6.68675 6.52933 6.45316 6.39783 6.3684 6.3495 6.00612 5.98962 6.13418 5.97863 5.93459 5.61015 5.57082 5.52831 5.43161 5.1114 5.10546 5.00178 4.92944 4.92573 4.91893 4.91331 4.89432 4.85112 4.80341 5.46708 4.79353 4.68392 4.62429 4.61906 8.38018 4.594 4.55936 4.96962
threshold=0.033752758942584137 -0.0091786096380724758 0.014529793384064028 -0.46513791118459996 -0.00047903889568870164 1.1743912762170254 0.087865062892243065 0.053296474275382762 0.025000000000000005 0.075017508962904669 -0.74629594467215465 0.15137960001855208 0.018759749394711919 -0.0067240097464862378 -0.23843024120940756 0.0074369142338157257 0.040877215191452577 0.10961897300735253 -0.11675693434257246 -0.50397563066885143 -0.28565126502486676 0.22554491681470248 -0.45673946328213183 -0.0018810885969139616 0.097128427097386769 -0.069424215261733688 0.040561014491453946 -0.10993259934819681 0.13498867245032267 1.4175995717620047 0.13063323439045985 -0.34742109845304908 0.092188257683621641 -0.015094403403864176 -0.26580025200059326 -0.16375814711709916 0.0065351956345593553 -0.0070252731181563799 -0.0068590321979381313 0.090924205431538743 -0.46988790951298426 0.15827296397665339 0.091925071714116541 -0.49250577053747085 -0.0062824769688290434 0.02892404250332627 5.3023594427633887 0.71997195970037708 -0.30274835631112684 0.0072709073106606414 -0.020059233915471365 0.25846598723010811 -0.18523063379682986 -0.12658906162183228 0.0022093280948380528 -0.10746944464596941 -0.012773458056022428 28.765000000000004 0.12644831420510008 -0.025263273265323582 -0.27343144150441073 0.25500000000000006
decision_type=2 8 2 2 10 2 2 8 10 2 8 10 10 2 2 8 2 10 8 10 8 2 8 8 8 2 8 8 2 2 2 8 10 10 8 8 10 10 2 10 8 2 8 8 10 8 8 2 8 8 10 10 8 8 10 8 10 8 2 10 8 8
left_child=2 11 3 28 5 18 37 9 21 12 -10 14 13 44 -2 22 -15 33 19 -4 48 -7 26 -24 -25 27 43 59 -1 -23 -5 -20 35 -16 -22 50 -37 -3 -12 54 -40 42 56 -6 -8 -14 -41 49 -17 -18 -27 -43 -42 -54 -34 -21 -36 58 -38 -26 -33 -62
right_child=1 6 4 30 15 8 7 -9 10 -11 38 -13 45 16 17 20 47 -19 31 55 34 29 23 24 25 32 -28 -29 -30 -31 -32 60 39 -35 41 36 57 -39 40 46 52 51 -44 -45 -46 -47 -48 -49 -50 -51 -52 -53 53 -55 -56 -57 -58 -59 -60 -61 61 -63
leaf_value=-0.00038960413998089346 0.0035913212949095843 -0.0025334432705040703 0.0020357240205750872 0.00079178044655891513 0.00048479634214823402 0.00068213291755234769 0.001886234175370983 -0.0084003342475452453 0.0063278577670987162 -0.0072996015004708446 0.00056499417390019327 0.0075211866760911258 -0.0021951863917400679 -0.0017870396889334947 -0.0022581770861291378 -0.0078602907355006628 -0.004470615054953316 -0.0046070291934870722 0.0034506755119832321 -0.00018872369950759 0.0030389714204831306 0.0036961396960732023 -0.0012032279844852124 0.0043797379013192292 0.0032941541850199938 -0.00093213557727202506 0.0048306974533618968 0.0010874297826169604 0.0011495965678184313 -0.00061945907744242069 0.0021779204720307815 0.0012131300130184585 0.0010377131566040513 0.0012290289258631661 0.0030228297132227013 -7.3733862804969093e-05 0.0018244621259935275 -0.00057959062857071192 -0.0049421624807492017 -0.0044319912984896554 0.0034208213570544339 0.00017456744017160244 -0.0013404479151732402 0.0054669284545556642 -0.0014843718718965215 0.0025511557696199709 0.0010828243486618095 -0.0074897101244759696 -0.0016798750021778442 -0.00019691715105433173 -0.0065921409626723037 0.0049782413343724755 -0.0048841720017538818 -0.00069493649532706783 0.0045651698612733382 -0.0024766045033997991 -0.00032035071137131993 0.0026637367871876656 -0.0040708896247283769 -0.0012183043528868453 0.0006811565667505428 -0.00054512838219076566
leaf_weight=32867 2094 4573 1287 54846 4404 16931 1433 671 524 853 10573 514 831 5950 1637 515 3871 855 1084 2865 1333 4132 8663 1744 631 1049 1637 49726 8984 1112 9914 4213 1919 6427 1319 80002 1927 27193 827 559 665 15521 16690 582 5188 1667 1465 1070 858 814 600 543 821 14835 1934 10209 4779 3753 876 5246 8887 117314
leaf_count=32867 2094 4573 1287 54846 4404 16931 1433 671 524 853 10573 514 831 5950 1637 515 3871 855 1084 2865 1333 4132 8663 1744 631 1049 1637 49726 8984 1112 9914 4213 1919 6427 1319 80002 1927 27193 827 559 665 15521 16690 582 5188 1667 1465 1070 858 814 600 543 821 14835 1934 10209 4779 3753 876 5246 8887 117314
internal_value=-5.82842e-06 -0.00100955 0.000123066 0.000586655 8.95909e-07 -0.000269779 -0.00143997 -0.00226294 0.000382662 -0.00207258 -0.000242241 0.00101101 -0.00185813 -0.00224392 0.00070651 0.000255981 -0.00308618 2.88887e-05 -0.000495314 -0.00161572 -0.000383592 0.0011786 0.000415411 0.000349923 0.000438783 0.000392838 0.0019981 0.000894973 -5.917e-05 0.00278107 0.00100401 -0.000372942 9.6073e-05 0.00052093 -0.000259861 -1.0118e-05 4.67673e-05 -0.000860936 -0.000366657 0.00168961 -0.000941088 -0.000373118 -0.000873867 0.00106732 -0.000754688 0.000971962 -0.000441726 -0.0044288 -0.00400213 -0.00372828 -0.00299431 0.000337242 -0.000738059 -0.000914918 0.00280903 -0.0019753 0.000403158 0.00151701 -1.87615e-05 -0.000733334 -0.00040475 -0.000458769
internal_weight=576806 65641 511165 106611 404554 196279 54114 22348 50420 21677 28245 11527 20824 18326 11013 208275 11705 8919 145859 14361 41558 22175 166717 160094 151431 149687 6623 55603 41851 5244 64760 131498 94084 8064 40185 88207 86558 31766 27721 5877 17148 38852 22788 4986 6621 2498 2024 5755 1373 4685 1649 16064 16321 15656 3853 13074 6098 6556 2803 5877 130414 126201
internal_count=576806 65641 511165 106611 404554 196279 54114 22348 50420 21677 28245 11527 20824 18326 11013 208275 11705 8919 145859 14361 41558 22175 166717 160094 151431 149687 6623 55603 41851 5244 64760 131498 94084 8064 40185 88207 86558 31766 27721 5877 17148 38852 22788 4986 6621 2498 2024 5755 1373 4685 1649 16064 16321 15656 3853 13074 6098 6556 2803 5877 130414 126201
is_linear=0
shrinkage=0.05


Tree=8
num_leaves=63
num_cat=0
split_feature=7 27 35 27 30 12 19 33 28 7 8 35 21 9 12 19 2 28 28 22 28 27 9 9 35 34 8 36 9 17 19 19 12 27 28 8 21 9 21 22 12 22 9 21 28 36 17 7 14 36 5 7 9 12 27 28 2 21 36 28 36 31
split_gain=24.7307 22.3209 14.7972 13.8035 13.1885 9.47754 13.2342 9.78724 7.96004 12.7287 9.8838 8.61049 8.47635 7.9925 7.68358 7.20733 7.14237 9.64489 7.06705 7.84898 6.99749 6.80386 6.79059 8.66837 7.75845 6.56028 6.44749 8.07712 6.135 7.34416 5.79408 5.70941 5.52675 5.30461 5.29853 11.2419 10.713 6.30435 6.29029 6.39622 5.23489 5.885 5.52729 5.12372 12.8605 7.35623 7.23231 6.68809 6.41436 4.97116 5.02683 4.92731 4.90623 6.91734 4.89864 4.89714 4.88322 4.83527 7.88249 5.68627 5.52814 5.26709
threshold=0.032588927589686283 -0.20487054498373033 0.0062780352373195169 0.5697070057535174 0.00051424194674034782 -0.011561236990348408 -0.089950858357393595 -0.0051739141373165565 0.17309117372105223 0.017806888550607393 inf -0.016200000435295389 0.0064009268974526178 0.41553714723904683 -0.076749139366411714 0.36142437475604677 1.1743912762170254 -0.17278193892081498 0.076922699020656418 -0.008132178213677857 0.58811942399513029 -0.10794003959802788 -0.0094209212840887981 0.26862647552326896 -0.0088548714414594647 -0.010657100504495212 8.0150000000000023 0.003704580949701062 -0.31893777315991778 -0.47342399241648786 0.17835994582354772 0.076014831423135892 -0.1918325260917518 -0.016874401387486745 0.26070853346746564 8.0150000000000023 0.006309721059720959 0.10594606822816212 0.013727834520607151 -0.0036527813981311213 0.037200030988296669 0.0018793974255409465 -0.013368848458907142 0.0078663062275092389 -0.48429696170860614 -0.0033942171983672178 0.37905127671748923 0.047163183366435893 -0.091882325687906372 0.035647964925544597 0.28878299554528425 0.038970098567226268 0.67172322423019415 -0.097519486676595796 0.088270035308153597 -0.37237797347510421 1.3329177897461593 0.0073939897713835171 0.0011395412222782173 -0.41683267525149303 -0.016184026086534024 0.0010492612076936274
decision_type=2 2 10 2 8 8 8 10 2 2 8 10 2 10 10 10 2 2 2 2 2 2 10 10 10 10 8 10 8 10 10 10 8 2 2 10 2 10 2 2 10 2 10 2 2 8 8 2 10 8 2 2 10 8 2 2 2 2 10 2 10 8
left_child=4 25 3 14 8 7 -7 -4 11 56 15 28 20 -13 22 33 26 -18 -5 -20 -12 -8 43 24 -24 -2 27 31 29 55 -23 -6 -27 -11 37 36 -36 57 39 -38 42 -42 -16 44 -3 46 -45 48 -47 50 -46 -44 -30 -54 -17 -1 -10 59 -59 -28 -61 -62
right_child=1 2 5 18 16 6 21 -9 9 10 12 13 -14 -15 40 54 17 -19 19 -21 -22 30 23 -25 -26 32 34 -29 52 -31 -32 -33 -34 -35 35 -37 38 -39 -40 -41 41 -43 51 45 49 47 -48 -49 -50 -51 -52 -53 53 -55 -56 -57 -58 58 -60 60 61 -63
leaf_value=-0.006373225754995911 -0.0046731066331666274 -0.0076409086075620832 0.0050753495043678754 -0.0079812364109742868 0.00064118307665950343 -0.0064235978765886026 -0.0037486791651348498 0.00032023751813018862 0.0015858370099087586 0.00040668481293687432 0.0015218928713500025 -3.9287933065219352e-05 0.00060331927640625493 0.0012167890953568277 -0.0022013292284010911 0.0054295262648648319 -0.00089022908713390467 0.00099302689746867613 0.0010354263558318574 -0.0048714826253847014 0.0052791911739400116 -0.00016105052149800389 0.0083238230995798055 -0.0015301632147894887 0.00063187862168834598 0.0045988442033673719 -0.005673404822841361 -0.00089400661956186419 0.0012773482123414719 0.0035116895058111548 0.0053263389633319488 -0.00069548797645757024 0.0007862679449569959 -0.00095736903465590576 0.003556404543344062 -0.001923524976570121 -0.0010408245442102137 0.00078216736647212636 -0.0039472089543628377 0.001661551813098786 -1.7031903385243317e-05 -0.0039025626944684342 -0.0040088357900289733 -0.0056395522344636064 -0.0015035127457702093 -0.0020918286363507412 0.00034370951995404833 -0.0045673976074284547 0.0034964780384135023 -0.0032636112115284454 0.0017774803672651312 -0.0097626049369945473 0.0022551931647419149 -0.003617127953519136 0.00034510483158834885 -0.0011392896947364452 0.0051814589772665723 -3.9535045790584656e-05 -0.0015698825395590447 -0.0027351850646485897 -0.0013082182838284398 0.0011362852121705976
leaf_weight=537 517 543 1541 1112 36865 969 1281 3629 21938 11652 3563 190592 19678 13565 1179 897 9579 23416 769 2089 1900 9068 597 1406 726 1021 801 17991 29837 737 507 10198 13610 18352 2919 4885 3835 5370 871 5101 2021 1881 775 559 1613 12841 5147 2771 534 830 4219 719 843 1235 1003 2644 986 21894 13666 5869 16310 2547
leaf_count=537 517 543 1541 1112 36865 969 1281 3629 21938 11652 3563 190592 19678 13565 1179 897 9579 23416 769 2089 1900 9068 597 1406 726 1021 801 17991 29837 737 507 10198 13610 18352 2919 4885 3835 5370 871 5101 2021 1881 775 559 1613 12841 5147 2771 534 830 4219 719 843 1235 1003 2644 986 21894 13666 5869 16310 2547
internal_value=-5.84406e-06 -0.000856098 -0.00129349 -0.00179383 0.000120277 -4.72366e-05 -0.000827962 0.00173828 0.000313613 0.000745642 0.000345742 0.00016965 0.00108712 4.41764e-05 -0.00150329 -0.000238499 -0.00021939 0.000446276 -0.00460016 -0.00328231 0.00282939 -0.000327954 -0.00118138 0.00120296 0.00410651 0.000856904 -0.000366679 7.06489e-06 0.00088451 -0.000982544 0.000130035 0.000351534 0.00105262 -0.000427645 -0.000655888 0.000115207 0.000897884 -0.000860226 0.000106308 0.000501805 -0.00305909 -0.00189061 -0.00476346 -0.00140535 -0.000249017 -0.00178658 -0.000243338 -0.00233192 -0.00186847 0.00035453 0.000869929 -0.00678256 0.00111374 -0.00123491 0.00274708 -0.00202458 0.00174071 -0.00100461 -0.000627688 -0.00152964 -0.00139518 -0.000977998
internal_weight=576550 74474 59326 42331 502076 16995 11825 5170 319959 79969 57045 239990 25141 204157 38361 31904 182117 32995 3970 2858 5463 10856 31786 2729 1323 15148 149122 65054 35833 3918 9575 47063 14631 30004 84068 17611 12726 66457 9807 8936 6575 3902 2673 29057 7205 21852 5706 16146 13375 6662 5832 1494 31915 2078 1900 3181 22924 61087 35560 25527 24726 18857
internal_count=576550 74474 59326 42331 502076 16995 11825 5170 319959 79969 57045 239990 25141 204157 38361 31904 182117 32995 3970 2858 5463 10856 31786 2729 1323 15148 149122 65054 35833 3918 9575 47063 14631 30004 84068 17611 12726 66457 9807 8936 6575 3902 2673 29057 7205 21852 5706 16146 13375 6662 5832 1494 31915 2078 1900 3181 22924 61087 35560 25527 24726 18857
is_linear=0
shrinkage=0.05


Tree=9
num_leaves=63
num_cat=0
split_feature=7 33 37 27 12 14 12 19 2 7 33 27 13 21 13 13 12 27 13 10 22 11 12 2 19 11 17 12 12 17 10 12 16 19 37 13 14 17 20 10 21 22 27 29 33 35 35 11 10 7 19 10 12 13 7 26 11 17 33 11 11 34
split_gain=24.6011 18.6745 16.663 12.9113 11.0804 9.22638 8.98829 11.1137 8.95544 8.57624 10.251 10.0516 9.4024 8.5751 9.66476 7.81018 7.7574 7.73602 7.41768 7.39848 6.86968 6.63874 6.91012 6.4526 6.15932 6.0956 7.01006 6.06542 8.78879 8.7449 7.6002 7.31998 7.75066 6.66602 6.07214 6.04175 5.81582 5.75588 6.29473 5.81382 5.71309 6.63876 5.90999 5.49424 5.4493 5.39217 5.3681 5.2355 8.4639 5.61293 5.91018 10.2678 7.3531 5.72388 5.19241 5.76526 5.15142 7.56773 5.89259 5.05316 5.81106 4.96557
threshold=0.03956870041201329 -0.007501117314453758 -0.006307579083974695 -0.30208556398132158 -0.18562524392862215 -0.69220966659925554 -0.1172374089015845 0.099161402100147622 -1.3379930424489339 0.020573370897543637 -0.0043240785280851271 -0.19064502051147766 -0.048022435290045927 0.0067324976394205127 -0.020725443163849267 0.11255972133680971 -0.15392323104439018 -0.05591751556310131 0.021337070993226414 0.011903169422790299 -0.0068590321979381313 -0.2787984629880999 0.20742172860118802 -1.1331275208100433 -2.2519630088585374 -0.13480760434511221 0.49193201923195401 -0.089894577945235074 -0.1201909231578101 0.12682730501617293 -0.26155074186995569 0.17437452368180381 -0.0092404433402653897 -0.070151178177958934 0.026528653720589896 -0.18673216497772879 -0.32207721199398248 0.5662592360259634 -0.55989916805471485 -0.3538665353973573 0.012029189360922803 -0.0053372603592604642 -0.35034231771289703 0.022181310506616005 -0.011207438109295363 0.018265900008634792 0.014570917034430394 -0.25327829932771884 0.11211341248206953 0.019035191874599244 -0.031210378034671197 -0.10352537875315117 0.23624198996583132 -0.095988746412217815 0.010039465356708866 -0.021732915703383312 -0.24299755813134052 -0.50781859561135612 -0.023269882057690022 -0.27235835983624651 -0.29602816982264207 -0.00057687723150326149
decision_type=2 8 8 2 8 8 10 10 2 2 10 2 10 2 8 10 8 2 8 8 2 8 10 2 8 8 10 10 10 8 8 10 8 10 10 10 10 8 8 8 2 2 2 8 10 10 10 8 8 2 8 8 10 10 2 2 8 8 10 10 10 10
left_child=2 4 5 -4 -2 -1 7 40 -8 10 12 -11 21 14 -7 19 -14 -16 -19 -6 -10 36 -23 -18 -13 37 54 28 56 -30 -31 32 -29 34 -32 -34 -5 -12 -39 -40 41 -3 -42 44 -20 -43 -22 48 59 50 52 -52 53 -49 55 -27 57 -26 -58 60 -15 -60
right_child=1 6 3 9 15 13 8 -9 20 11 25 24 16 47 17 -17 23 18 43 -21 46 22 -24 -25 27 26 -28 31 29 30 33 -33 35 -35 -36 -37 -38 38 39 -41 42 45 -44 -45 -46 -47 -48 49 -50 -51 51 -53 -54 -55 -56 -57 58 -59 61 -61 -62 -63
leaf_value=0.0057517639649628804 0.0078313076267950248 -0.00062126012006285278 0.0022421809402375058 -0.0056430852829428115 -0.0037127010828901237 -0.0022117937857665522 0.0015831213225249699 0.0034245856495177182 -0.0016317198472445276 0.00089932940670770791 0.00078182844660328878 -0.0053865650130193315 0.0071378486916891595 -0.0036580726903914606 -0.0024229205107993931 0.0063542801741104217 -0.0019670429555344055 0.006448632993423512 -0.0024475784482109542 0.00061010829248404116 -0.0057578102988358063 -0.00039417577588645521 0.0029715733205842973 0.0021853309499517406 0.0036390882995058268 8.4912578819258029e-05 0.0056102057110690865 0.0023957408406072196 -0.0036231377083850436 0.0063080743936434619 0.0019473805603693693 0.00042374193517347321 -0.0012386689767890065 -6.6275946191205083e-05 0.0072256050831060572 -0.003532388982151427 -7.737655383338093e-05 -0.004881243666681522 0.0031743996174175221 -0.0010192816195427664 0.0030564530106225651 -0.0038029598595448327 -0.0011510938816487795 0.0036903013266148922 0.00054107416101851396 0.00096136351061774721 -0.00091482143421989107 0.0015245046670398187 0.0026128966357966505 -0.00078302121631914083 -0.003597576574269084 -0.00011891726564919151 0.0059608843930618605 -0.0013706953968843757 0.00062246801869071124 0.0025154671011006907 -0.0024921025827373423 -0.0027884952749742523 -0.0005005432386942743 -0.0071710883053593636 0.0022957691925531614 0.00023320443131137549
leaf_weight=617 524 3342 8015 1104 1179 3740 815 1150 2154 23015 7971 576 601 1951 2226 502 1256 535 1593 6140 3935 44574 1578 3659 526 3576 734 1129 787 870 3025 6489 9798 3896 664 4061 816 950 914 8540 931 6146 7986 1323 35351 657 670 5733 692 75571 2289 28788 711 2430 126405 7678 2556 3499 38413 719 518 57678
leaf_count=617 524 3342 8015 1104 1179 3740 815 1150 2154 23015 7971 576 601 1951 2226 502 1256 535 1593 6140 3935 44574 1578 3659 526 3576 734 1129 787 870 3025 6489 9798 3896 664 4061 816 950 914 8540 931 6146 7986 1323 35351 657 670 5733 692 75571 2289 28788 711 2430 126405 7678 2556 3499 38413 719 518 57678
internal_value=-1.14494e-05 -0.00127456 7.30446e-05 0.000257052 0.000799584 -0.000346087 -0.00189749 -0.00134688 -0.00336648 0.000213732 0.000422436 -6.59331e-05 -0.000174558 -0.000369039 0.00022111 0.000327524 0.00178045 0.000442935 0.000607403 -8.66547e-05 -0.00396345 -0.000398916 -0.000279034 0.00112403 -0.000231767 0.000626506 0.000740113 -0.000209468 -6.17637e-05 0.001415 0.00188433 -0.000979095 -0.00158644 0.00137616 0.00289913 -0.00191099 -0.00327893 -0.000229127 -0.00100367 -0.000613549 -0.00163491 -0.00244639 -0.000711502 0.000525572 0.000412143 -0.00334277 -0.00505354 -0.000590307 -0.00239668 -0.000529617 -5.02718e-05 -0.000375248 0.00108772 0.000662586 0.000714105 0.00174323 -0.000194707 -0.00194782 -0.000123157 -0.00348455 -0.00240852 -6.01181e-05
internal_weight=576271 36131 540140 375353 8345 164787 27786 20212 7574 367338 210356 156982 53588 164170 44768 7821 5516 41028 38802 7319 6759 48072 46152 4915 133967 156768 138393 133391 111914 9242 8455 21477 14988 7585 3689 13859 1920 18375 10404 9454 19062 10145 8917 38267 36944 6803 4605 119402 3880 115522 39951 31077 8874 8163 137659 11254 102672 4025 98647 3188 2469 96091
internal_count=576271 36131 540140 375353 8345 164787 27786 20212 7574 367338 210356 156982 53588 164170 44768 7821 5516 41028 38802 7319 6759 48072 46152 4915 133967 156768 138393 133391 111914 9242 8455 21477 14988 7585 3689 13859 1920 18375 10404 9454 19062 10145 8917 38267 36944 6803 4605 119402 3880 115522 39951 31077 8874 8163 137659 11254 102672 4025 98647 3188 2469 96091
is_linear=0
shrinkage=0.05


Tree=10
num_leaves=63
num_cat=0
split_feature=7 27 35 13 27 37 28 21 8 27 36 33 8 37 11 37 12 7 12 9 19 28 35 9 7 9 19 8 20 15 32 28 22 5 9 13 34 13 21 21 33 14 28 9 28 12 21 21 33 19 9 12 28 14 21 16 35 27 33 5 20 9
split_gain=20.6758 21.7494 13.2589 14.4763 13.476 13.0662 14.9728 14.4594 12.7476 13.7919 12.6897 12.1162 11.4118 13.3813 8.37629 8.05137 7.76689 7.51843 7.38413 7.52616 9.29842 10.3936 6.93273 8.74188 7.75104 6.88823 6.86021 7.91096 6.78816 6.82527 6.75323 6.46587 7.72347 6.41373 8.88826 8.05037 6.57782 6.55508 6.38209 6.10599 6.04545 6.03468 5.99707 6.16106 5.97894 5.93479 5.86638 5.74738 5.93945 5.54181 5.50876 7.09093 6.72604 6.57429 5.75456 6.25925 5.50434 6.89346 6.20017 5.50056 5.41326 6.57414
threshold=0.031782087070311694 -0.21296783259593169 0.0062780352373195169 0.1233529426641143 0.5230991551800801 -0.006307579083974695 0.22554491681470248 0.0069078767347355288 1.0000000180025095e-35 0.08612477083241489 0.0016015950793170587 0.0011946254293421735 inf 0.0057366131186643967 -0.26481651322589012 0.0019750682031361758 -0.18562524392862215 0.019337154117337951 -0.076749139366411714 -0.0094209212840887981 -0.33703905745752311 -0.21255822014254452 0.063881892978876934 -0.38209111599350259 0.016578561077300016 2.1965025974306722 -0.24450478443489371 1.0650000000000002 -0.59208187414932623 0.42260253889405169 -0.00046811400226835342 0.12226041911937847 -0.011961447941847095 -0.68168083321807005 -0.17793724797012325 0.35163172888276673 0.0045453784466479323 0.48107547379441656 0.0055323178971376638 0.0055323178971376638 -0.0078708561834790521 0.65516103381208701 -0.069214584121270614 -0.21209858819661445 -0.18374000415792627 -0.14563176010071641 0.007434116050145787 0.0075343031010091403 0.01221052377863765 -0.047619076035209443 -0.064494164789348954 -0.17205390561863601 -0.13157125359299307 0.65516103381208701 0.014057911650987269 -0.14047056161489416 -0.061145896719437445 -0.35034231771289703 -0.020002362781680594 -0.50955749618424695 0.038433658238806449 0.029787977153013862
decision_type=2 2 10 10 2 8 2 2 10 2 8 10 8 10 8 8 8 2 10 10 10 2 10 10 2 10 8 8 8 10 10 2 2 2 10 8 10 8 2 2 10 8 2 8 2 8 2 2 10 8 8 8 2 10 2 8 10 2 10 2 10 8
left_child=5 30 4 16 18 22 7 10 9 -8 12 -5 14 44 -7 -9 49 -10 19 -3 -21 -22 24 -24 28 -19 27 -18 -1 40 -2 -6 -33 34 36 -35 47 -37 -11 -15 -30 -28 43 -16 -14 -45 -43 48 -26 -4 52 -52 -17 54 55 -53 -57 -58 -59 -56 61 -47
right_child=1 2 3 11 31 6 8 15 17 38 -12 -13 13 39 42 50 26 25 -20 20 21 -23 23 -25 33 -27 41 -29 29 -31 -32 32 -34 35 -36 37 -38 -39 -40 -41 -42 46 -44 45 -46 60 -48 -49 -50 -51 51 53 -54 -55 59 56 57 58 -60 -61 -62 -63
leaf_value=-0.0028910281594354196 -0.0007628513099300437 -0.0012152995756111718 0.0071146632117259443 0.0088870353134761389 -0.0067556474141828304 -0.0026853938761117161 0.00099332916633913565 -4.3284859226247485e-05 0.001210046828601697 0.0063663580502807439 0.00058554496606332603 -0.00090462754808823048 -0.0027316479211873484 -0.0042670493675367399 -0.0022476913862169772 -0.0005316217507552386 -0.00900277055013818 -0.00040239812152201824 -0.002754348710135834 -0.0046347197464800764 0.0073367913502214114 0.00043848618886539628 -0.00031027969980619666 0.00736312681314737 -0.0011382460811396294 0.0045752983636078116 0.0029887683095195764 -0.00041529888871748972 -0.0020269718338032142 -0.0036610826759516063 0.0016027820167641483 0.0021892128185778022 -0.0039752812336338161 -0.001268101833722265 0.00041406330791417197 0.005450986093039129 -0.0052641624167522744 -0.0001011831455806954 0.0027802175908154111 -0.0019647624194749258 0.00070093369115383029 0.0010929623872584511 0.00080975607278130758 -0.0045624952614110653 0.00020890441589036348 0.0029243563635008192 -0.0012516686937145414 -0.002294832055581461 0.0024845791294653198 2.5704474834162955e-06 0.0040846602164550895 0.0041167759885333164 0.00095609137093618374 -0.0048332408104285003 0.0039124262510890368 -0.0031020984315052944 0.0055092426613169137 -0.0019832842046252426 0.00065967850972431952 0.0012456773912190447 -0.0031259487945115346 -7.9755831145171687e-05
leaf_weight=1601 4131 32156 567 801 1529 3198 18656 74826 15408 1471 22764 521 2149 4355 4247 19503 513 20831 7143 527 806 1689 832 669 6079 718 1216 561 2156 991 11180 623 2741 17314 6227 535 1253 64903 7928 8510 34779 3532 13402 709 8820 2167 10895 10068 1389 529 1623 1269 12444 523 2512 1002 715 2287 73658 8396 1182 11383
leaf_count=1601 4131 32156 567 801 1529 3198 18656 74826 15408 1471 22764 521 2149 4355 4247 19503 513 20831 7143 527 806 1689 832 669 6079 718 1216 561 2156 991 11180 623 2741 17314 6227 535 1253 64903 7928 8510 34779 3532 13402 709 8820 2167 10895 10068 1389 529 1623 1269 12444 523 2512 1002 715 2287 73658 8396 1182 11383
internal_value=3.06851e-06 -0.000734096 -0.00112608 -1.5811e-05 -0.00157605 0.000124569 0.000292793 0.000134915 0.000976738 0.0017803 -0.000419856 0.00503038 -0.000800535 -0.0016505 -0.000242247 0.000366266 -0.000390577 0.0003667 -0.00128876 -0.000991094 0.00139421 0.002669 -0.00026735 0.0031124 -0.000301812 -0.00023634 -0.000657988 -0.00452169 0.000297082 0.000431737 0.000964512 -0.00406013 -0.00283333 -0.000521474 -0.00122301 -0.000309386 -0.00176556 -5.57078e-05 0.00334209 -0.00274439 0.000541648 -0.000392445 -6.05413e-06 -0.000561405 -0.000367393 -9.74812e-05 -0.000677623 -0.00151529 -0.000464181 0.00368504 0.000613538 0.00080999 4.78843e-05 0.000751129 0.000783692 0.000634914 0.000577968 0.000626109 0.000580064 0.0018601 0.0001177 0.000400861
internal_weight=577112 81660 66349 19135 47214 495452 346656 281644 65012 28055 82886 1322 60122 23834 36288 198758 17813 36957 42321 35178 3022 2495 148796 1501 147295 21549 16717 1074 39527 37926 15311 4893 3364 107768 25016 82752 18789 65438 9399 12865 36935 15643 33090 19688 10969 15441 14427 17536 7468 1096 123932 91985 31947 90362 89839 78931 77662 76660 75945 10908 14732 13550
internal_count=577112 81660 66349 19135 47214 495452 346656 281644 65012 28055 82886 1322 60122 23834 36288 198758 17813 36957 42321 35178 3022 2495 148796 1501 147295 21549 16717 1074 39527 37926 15311 4893 3364 107768 25016 82752 18789 65438 9399 12865 36935 15643 33090 19688 10969 15441 14427 17536 7468 1096 123932 91985 31947 90362 89839 78931 77662 76660 75945 10908 14732 13550
is_linear=0
shrinkage=0.05


Tree=11
num_leaves=63
num_cat=0
split_feature=7 27 37 33 13 21 27 8 8 19 37 2 27 7 15 12 35 21 35 21 7 35 34 10 2 9 34 12 12 11 35 9 17 11 12 7 15 35 14 19 14 12 36 10 7 17 17 5 29 10 35 19 36 19 21 10 21 8 5 13 36 14
split_gain=21.5747 20.8659 13.8013 10.0803 9.3906 8.99497 16.8314 11.0791 10.4946 9.90534 9.41432 9.47336 9.3682 8.95041 10.392 9.06841 7.98365 9.91464 7.49515 9.30101 7.18862 7.13066 7.07411 6.78829 6.58194 6.5354 6.46647 6.8127 6.33133 5.9336 7.09761 5.71272 11.2847 7.60799 8.91339 9.39669 6.99164 6.74408 6.0563 5.83436 5.67234 5.87644 7.30382 5.59559 5.56117 8.36056 9.084 9.26223 7.47942 6.84123 5.94332 6.18693 5.90375 5.54927 5.48378 5.36242 5.27161 5.17473 5.16037 5.46683 5.14761 5.9889
threshold=0.032588927589686283 -0.24899507738700014 -0.006307579083974695 -0.0080630037013447644 0.15137960001855208 0.0069078767347355288 0.048278132776528378 28.765000000000004 0.065000000000000016 1.2592928114459492 0.017568005432852758 -1.5445035936988256 -0.37963672947766258 0.043404724214425677 -0.45225470826736924 -0.14372547726848087 -0.022192815658094816 0.0067604888037381588 -0.0033673781093801519 0.0053274123762892724 0.018448180134192606 -0.07826478232985111 -0.0018209235106653628 -0.053838310906469601 1.3851405882798355 0.09221652351771642 0.0018000131811285363 -0.79435298556721834 -0.16277762306556251 -0.27235835983624651 0.0089175495830187673 0.013753398036839804 0.017745663202579028 -0.64421505050585604 -0.089433476477680851 0.021296572802147303 0.54745008524214767 -0.039992492917807092 0.45511546762613714 -0.40068718047598034 -0.12119479628358047 9.0085948729269152 0.01849044464828865 -0.033958359483491449 0.016284967072269094 0.0068168441363320046 -0.096930643855221835 1.1096717218659815 -0.0028994505051881062 0.092188257683621641 0.042122339713221317 0.051010459346428484 0.0073976272731758868 0.058696656202188953 0.01387982126937389 0.14916930770774953 0.014559464147583976 4.955000000000001 -0.49979898324321842 0.14227524104171416 0.0022849946274367959 -0.17473835348204328
decision_type=2 2 8 8 10 2 2 8 10 10 10 2 2 2 8 8 10 2 10 2 2 8 10 8 2 8 10 10 8 8 10 8 10 10 8 2 10 10 10 8 8 8 10 10 2 8 10 2 10 8 10 10 10 10 2 8 2 10 2 8 8 8
left_child=2 26 24 4 23 6 8 20 10 12 -4 -12 -7 -5 -15 53 54 -18 19 -10 -8 -14 -9 -3 44 -11 27 56 -25 30 -20 32 33 34 37 43 38 -23 -33 -35 -19 -42 57 -36 49 46 47 -46 58 52 -50 -52 -1 -16 -17 -51 -2 -43 -47 -60 61 -21
right_child=1 3 5 13 -6 9 7 22 18 25 11 -13 21 14 15 16 17 40 29 60 -22 31 -24 28 -26 -27 -28 -29 -30 -31 -32 36 -34 39 35 -37 -38 -39 -40 -41 41 42 -44 -45 45 48 -48 -49 50 55 51 -53 -54 -55 -56 -57 -58 -59 59 -61 -62 -63
leaf_value=-0.002648286591833074 -0.0055205618871622354 -0.0028481275018128311 -0.00062737289485954623 -0.00099812169816714869 0.006895157707375402 0.0051931731589703522 0.0012380577740574541 0.0004421683919292003 0.0024132190264156122 0.00085992350517851725 0.0033744796136621182 -0.0030632215699101326 -0.0046908745208797467 -0.0083679800122598083 -0.00066156524890914094 -0.0076062061929696697 0.0018952827620241841 0.0023068206896281894 -0.0013519683517550672 -0.0043524484368441798 -0.001248382652713171 0.0062803482948994259 0.0031181888141939562 0.0057810914431930607 0.00043455506749817924 0.0063926980387441767 0.0019405341520955491 0.0023728425613204606 0.00019942796461412996 -0.0002846712866029681 -0.008193796506651552 0.00063927131138765564 0.0018445129759504715 0.0012574901309919989 0.0008942559581760558 -0.0019955916157168552 -0.0022971920927859573 0.00060634083741529447 -0.0036892398099620453 -0.0014915752587168077 -0.0045030454960352561 -0.0016702623964539903 -0.0059380993237050338 -0.0019732146727544208 -0.0033803805361387138 -0.00091131944216194893 -0.0092859242918019811 0.0039724244117087179 -0.00084766407436284133 0.0056277656906269062 0.0022580495099471087 -0.0026301274669555492 0.00035296662528249404 0.0052639100014701366 -0.0018925767865731358 0.00040388349348354185 -0.00028461764207179637 0.0037086796645719742 -0.00161785529370852 0.0015572147081943466 0.0012668028936427093 -0.0002171963713723836
leaf_weight=3637 838 1759 24638 37954 513 1029 5983 3687 6079 990 617 7615 681 702 1353 1225 1354 538 1462 990 5652 533 7481 545 27093 1158 8149 1114 7311 26239 511 169579 7765 2240 8109 7970 2080 27193 811 13916 3700 3845 924 2152 2251 4678 502 528 69455 500 2954 828 2981 557 640 25300 1126 505 1594 9041 5472 7517
leaf_count=3637 838 1759 24638 37954 513 1029 5983 3687 6079 990 617 7615 681 702 1353 1225 1354 538 1462 990 5652 533 7481 545 27093 1158 8149 1114 7311 26239 511 169579 7765 2240 8109 7970 2080 27193 811 13916 3700 3845 924 2152 2251 4678 502 528 69455 500 2954 828 2981 557 640 25300 1126 505 1594 9041 5472 7517
internal_value=9.35787e-06 -0.000783664 0.000127408 -0.00113536 0.000310603 0.000299853 -9.01733e-05 0.00111 -0.000427471 0.000464514 -0.00111654 -0.00258036 0.000434753 -0.00141014 -0.00242921 -0.00214391 -0.00262587 -0.00210677 4.17745e-05 0.000780668 3.0202e-05 0.000414584 0.00223485 -4.13905e-05 -0.000271564 0.00384426 0.00120311 -0.000749203 0.000587335 -0.000483569 -0.00312723 0.00042895 4.75684e-05 -0.000177101 0.000151002 -0.000707699 0.000583469 0.00071564 0.000618648 -0.00111037 -0.00267659 -0.00297557 -0.00190331 0.000292739 -0.000425539 -0.000624286 -0.00310238 -0.00198245 -0.000532432 0.000137458 -0.000742554 0.00118746 -0.00129656 0.00106829 -0.00564756 0.000505336 -0.00252036 -0.0010451 0.000472495 0.00108122 7.06047e-05 -0.00069889
internal_weight=576143 74652 501491 63425 10128 350149 103943 22803 81140 246206 32870 8232 244058 53297 15343 14641 12731 10866 48270 20058 11635 243029 11168 9615 151342 2148 11227 3078 7856 28212 1973 242348 69878 62113 45957 18231 172470 27726 170390 16156 9512 8974 5274 10261 124249 91831 3281 2779 88550 32418 73237 3782 6618 1910 1865 25800 1964 4350 15313 10635 13979 8507
internal_count=576143 74652 501491 63425 10128 350149 103943 22803 81140 246206 32870 8232 244058 53297 15343 14641 12731 10866 48270 20058 11635 243029 11168 9615 151342 2148 11227 3078 7856 28212 1973 242348 69878 62113 45957 18231 172470 27726 170390 16156 9512 8974 5274 10261 124249 91831 3281 2779 88550 32418 73237 3782 6618 1910 1865 25800 1964 4350 15313 10635 13979 8507
is_linear=0
shrinkage=0.05


Tree=12
num_leaves=63
num_cat=0
split_feature=7 27 30 35 7 12 13 33 9 9 17 11 7 27 27 36 34 12 19 7 35 2 27 2 2 13 18 12 21 17 21 19 35 18 36 18 29 2 7 35 12 9 21 19 13 15 1 11 12 11 12 25 20 27 35 36 9 29 19 19 15 11
split_gain=17.9381 19.5599 12.0174 10.1899 10.4101 9.47435 8.96655 8.12473 8.78987 7.94798 7.90176 9.50171 6.85669 7.8402 6.45913 6.37076 6.31024 6.23862 6.21908 6.20416 6.18164 7.53082 8.48205 5.65566 5.23216 5.21493 5.29179 5.43889 5.43376 5.06845 5.74648 6.57933 5.0296 5.85237 5.07053 4.98431 4.89175 6.96394 6.90164 6.84176 6.93405 6.74056 6.89842 5.71457 5.59122 5.47853 4.88004 4.81384 5.93175 4.70433 4.66561 4.64338 4.56957 4.50784 7.63279 4.4594 4.50415 5.71525 7.25933 6.15899 5.41443 4.95175
threshold=0.031782087070311694 -0.21296783259593169 0.00072082702585873004 0.023028278143916153 0.043404724214425677 -0.16277762306556251 0.11964265951887108 8.4874730604433005e-05 -0.38209111599350259 0.013753398036839804 0.07019906589014982 -0.64421505050585604 0.066772269860755976 0.45520216148593479 -0.30208556398132158 -0.013717952801610804 -0.010657100504495212 -0.1918325260917518 1.8800215623895566 0.011861852184334118 -0.025263273265323582 1.3851405882798355 0.12600596496352803 -1.0415090674466196 1.2168374559815287 -0.37679278837970931 -0.15857311167215007 -0.15719504106190677 0.0049220048255574442 -0.26596205766936609 0.0078663062275092389 -0.077509746999268062 -0.022876741885599159 0.34721968728060554 0.0033216414701920222 0.85521415389157374 -0.0052097769651801356 1.2609958642937837 0.011312721027399697 -0.0019468392732767818 0.30545229098831145 0.22228667451282366 0.010714811440707022 0.098027738020698932 -0.22148969893630618 0.54745008524214767 -0.81109099674851948 -0.20747499183509757 -0.078496129396787129 0.02099343442275468 -0.21448305332974801 0.035831205880514035 0.63109745028613629 0.14510146716029074 0.039018744999401681 0.048860783303766191 -0.29797958878572534 0.011121604962695398 0.17643070962064467 0.032668025191270843 1.6912197666758588 -0.32142793326438229
decision_type=2 2 8 10 2 8 10 10 10 8 10 10 2 2 2 10 10 8 10 2 10 2 2 2 2 8 8 10 2 8 2 8 10 8 10 10 8 2 2 10 10 10 2 8 8 10 2 8 8 10 10 2 10 2 10 10 10 10 8 10 10 8
left_child=2 16 9 4 29 -6 53 12 20 10 11 -1 -7 -14 -11 -12 -2 -18 36 -13 -9 22 -22 -21 55 -25 27 -27 -28 -3 31 -31 -17 -34 35 -35 39 38 46 40 41 42 43 -16 -43 -40 -38 -32 50 52 -49 -19 -50 54 -5 56 60 59 -59 -58 -4 -61
right_child=1 3 24 6 5 7 -8 8 -10 14 15 19 13 -15 18 32 17 51 -20 23 21 -23 -24 25 -26 26 28 -29 -30 30 47 -33 33 34 -36 -37 37 -39 45 -41 -42 44 -44 -45 -46 -47 -48 48 49 -51 -52 -53 -54 -55 -56 -57 57 58 -60 61 -62 -63
leaf_value=7.6101817281752591e-05 -0.0045216301692895715 0.0030036037197450328 -0.0005192386920018704 0.00045934626213043966 0.0014999409702727293 -0.00064701856622757618 0.00634255625704154 -0.0066037589663525357 -0.0057384038011157532 0.0026687123126134527 0.0047529920217398098 0.0010681565239251082 -0.0012213515614222102 -0.0086881917677871148 0.0025651803610606981 0.0055409177441088711 0.0049287244141678803 0.0013924129104367249 0.004159256310668373 0.00057174040070247462 -0.00093373801371830095 0.0013472931925992849 -0.0071571283779882262 -0.0048873030823975688 0.00037917201634768649 0.0039896345699295928 0.0019431163733633836 -0.0011388203000561507 -0.0021230295828721618 -0.0038929099625459561 -0.0043484938528825633 0.00046390109164066805 0.0012234518884812013 -0.0030098892374283582 -0.0054991409250591998 0.0031881803244821444 -8.4465054554596231e-05 0.0012056278487580291 9.9379280779214642e-05 -0.0005146133725937263 0.0052768463417473231 0.0038989949227078088 0.002343464423035672 0.00051325855438030148 -0.0013169500086087393 -0.0029407911513509347 0.0017060932670911713 -0.0022807931981265583 -0.0013318774977009791 -0.0062803415344825728 0.00061784659188116704 -0.00068730360595712801 -0.0059226598493347191 0.0012948108437653703 -0.006145485129924938 -0.0031339421290626302 0.00042734453447082038 0.00063541163853985468 0.0052718666844318593 -0.0049077731324739041 -0.0056416924999800723 -0.00068591312796311462
leaf_weight=54748 512 835 85745 1350 1462 5411 669 718 3386 3185 1132 2847 790 633 3947 516 1001 10149 1096 3046 1450 1407 879 1239 27916 816 874 1407 13526 950 1213 9755 6028 693 657 608 5647 18050 156813 8148 954 578 9779 24150 4562 1495 11666 1760 21768 514 6557 3648 555 3512 646 1448 21218 3579 1104 728 518 14707
leaf_count=54748 512 835 85745 1350 1462 5411 669 718 3386 3185 1132 2847 790 633 3947 516 1001 10149 1096 3046 1450 1407 879 1239 27916 816 874 1407 13526 950 1213 9755 6028 693 657 608 5647 18050 156813 8148 954 578 9779 24150 4562 1495 11666 1760 21768 514 6557 3648 555 3512 646 1448 21218 3579 1104 728 518 14707
internal_value=6.9286e-06 -0.000680297 0.000120082 -0.00105268 -0.00125161 -0.0023376 0.00088097 -0.00272002 -0.00381842 0.000287887 -0.000120393 -0.000286246 -0.00145956 -0.00454663 0.000431784 0.00123096 0.000930312 0.00111924 0.000402916 -0.00112132 -0.00235785 -0.00154031 -0.0032846 -0.00141949 -0.000241486 -0.00175906 -0.00152562 0.000744637 -0.00187612 -0.000852465 -0.000927288 7.69346e-05 0.000761514 0.000452046 -0.00192225 -0.000113104 0.000386149 0.000270433 0.000174309 0.000816136 0.00106274 0.000969161 0.00119973 0.000801589 -0.000729766 7.06507e-05 0.00112209 -0.00125941 -0.001139 -0.00155535 4.25116e-06 0.000842515 -0.00144627 0.000216576 -0.0016803 -0.000375751 -0.000344427 8.47143e-05 0.00172933 -0.000125453 -0.000550064 -0.000885344
internal_weight=576700 81530 495170 66220 60043 16136 6177 14674 7840 338207 88137 78503 6834 1423 250070 9634 15310 14798 246885 23755 4454 3736 2329 20908 156963 17862 16623 2223 14400 43907 43072 10705 8502 7986 1958 1301 245789 193671 175621 52118 43970 43016 37876 28097 5140 158308 17313 32367 31154 22837 8317 13797 22323 5508 1996 129047 127599 41336 4683 36653 86263 15435
internal_count=576700 81530 495170 66220 60043 16136 6177 14674 7840 338207 88137 78503 6834 1423 250070 9634 15310 14798 246885 23755 4454 3736 2329 20908 156963 17862 16623 2223 14400 43907 43072 10705 8502 7986 1958 1301 245789 193671 175621 52118 43970 43016 37876 28097 5140 158308 17313 32367 31154 22837 8317 13797 22323 5508 1996 129047 127599 41336 4683 36653 86263 15435
is_linear=0
shrinkage=0.05


Tree=13
num_leaves=63
num_cat=0
split_feature=36 27 7 5 7 9 2 10 7 30 7 12 12 16 20 11 19 9 5 17 11 14 10 19 12 10 19 17 9 19 5 21 10 33 19 2 5 2 19 11 37 35 27 11 21 5 7 37 19 21 19 37 12 19 14 19 9 9 12 7 10 9
split_gain=15.7703 14.4061 21.8683 15.0366 11.1201 8.41018 8.40505 8.8969 8.21215 8.12464 8.02736 7.7627 14.5872 7.63812 7.57223 7.33896 7.83505 6.75585 6.89676 6.75341 6.52062 6.93418 6.46304 10.0802 9.0483 6.6594 6.59448 6.48141 6.63741 7.36078 6.60991 8.76354 8.04456 12.8436 6.89292 6.41843 6.31893 6.29616 5.93682 7.02764 6.94471 5.84126 7.22954 7.16773 7.21002 7.98921 7.68673 6.49555 6.19673 6.08 5.79101 6.02048 5.69025 5.5785 5.55014 5.47979 6.32493 10.0055 8.09126 7.02984 5.42092 7.01777
threshold=0.048860783303766191 -0.19416960675748754 0.02049419966391406 -0.73324474320996014 0.066772269860755976 0.029787977153013862 1.1743912762170254 -0.79916744920531935 0.043404724214425677 -0.00050237122227758484 0.012873113681843315 -0.089433476477680851 -0.090633852368507919 0.065278068440313752 -0.87925569095529632 -0.13673183572189357 -0.15690125786757103 1.3406315263553108 0.99107757925582607 -1.0003702335461804 -0.21462295650509164 0.65516103381208701 -0.22548171751931964 -0.037799343657440122 -0.37830727237169032 -0.45444448231102769 0.059291674990678341 0.10506734064414525 0.10087037211382996 -0.049160287281685804 -0.13641669897239958 0.012330001524266644 0.73457100982815959 0.0048746637198396883 0.16141445445489164 0.1820734383529132 1.2673033413885364 -0.17172465977096915 0.30612808981231254 -0.058975127776442461 -0.006812308287296137 0.0081535816908226057 -0.42701380145853618 -0.35914147990737155 0.016806968502340498 0.15958504857843184 0.047163183366435893 0.056664999788815028 -0.10667965655182761 0.0093879807007144957 0.03896736844506573 -0.015428894036897673 -0.087593782939565087 -0.07539082391469111 -0.2416937733862432 -0.41402897038376169 -0.015804674478443772 0.017810253154105001 -0.018644003652547956 0.027771460322111394 -0.077850450565009624 0.026302937222111907
decision_type=8 2 2 2 2 10 2 10 2 8 2 10 10 8 10 8 8 10 2 8 8 10 8 8 10 10 10 10 10 8 2 2 8 10 10 2 2 2 10 8 10 10 2 8 2 2 2 10 8 2 8 10 10 10 10 10 10 10 10 2 10 8
left_child=1 3 6 5 11 -1 9 -8 -2 -3 37 12 19 -13 17 -12 54 38 -19 -4 -21 22 23 24 -22 26 35 28 30 53 31 60 33 34 -32 -25 -26 -11 39 40 -15 42 49 -44 45 48 47 -47 -45 -5 -33 -52 -41 -30 -17 -16 58 -58 -57 -60 61 -24
right_child=8 2 4 41 -6 -7 7 -9 -10 10 15 13 -14 14 55 16 -18 18 -20 20 21 -23 27 25 36 -27 -28 -29 29 -31 32 50 -34 -35 -36 -37 -38 -39 -40 52 -42 -43 43 44 -46 46 -48 -49 -50 -51 51 -53 -54 -55 -56 56 57 -59 59 -61 -62 -63
leaf_value=-0.0016279450400733088 -0.0016473368285764628 0.00058646110843786137 0.0047733885877760847 0.00015037370668078375 -0.0035130339389197436 0.0030840460785724394 0.001629111306619565 -0.00033446779932019176 -0.0074839059214455821 -0.00014460142842722862 -0.0013647817691511911 0.001359671215914064 0.0071210156361641436 0.0064421050819371065 0.00084905218292146789 0.0020765944428327472 -0.0002131949266857614 0.0038626113018310976 -0.0019864455619436308 -0.0015492234824456474 -0.0029670049693158395 -0.0051060062891500613 -0.002436977547116399 0.0067295267443765357 0.0031056889540965315 0.0041389758379936489 -0.0038396487133547856 0.0015231493658026626 0.0017746862033030412 6.4617675280078652e-06 -0.00080073511617651829 0.0029805856576083901 4.5650486830795306e-05 -0.0035719574965473941 0.0029046254921271026 -0.00099311685738506014 -0.0030575363395449261 0.0011220866905423232 0.00234981345256784 -0.0065099505232518208 -0.00069552800152740955 -0.00016798621715830275 -0.0028076260485514135 -0.002629398244382377 -7.4392054022875815e-05 0.0030956724940407938 -0.0013145604538254362 -0.00020757103535538359 0.0011345140881501448 0.0064859200437122891 -0.0034251911866290774 0.00054829975111428701 -0.0012364888772171941 0.0068702597395944994 -0.0015875893298582544 -0.0034870703954978386 -0.010239347317586276 -0.003084538921740649 -0.0015547049997577909 0.0044242091848629931 0.00064094850260051602 -0.00090809258258763535
leaf_weight=7846 8300 80239 668 547 2803 1076 20653 8004 649 17053 12779 3235 674 585 1227 6209 101385 1496 759 9326 2103 715 9511 502 1696 3013 628 5051 3245 8791 9175 1999 87239 4156 1453 578 550 23096 1281 523 814 6784 1045 1213 6800 13938 1261 1666 11021 1230 1121 6339 21630 643 1239 1898 540 5077 1118 876 4232 35598
leaf_count=7846 8300 80239 668 547 2803 1076 20653 8004 649 17053 12779 3235 674 585 1227 6209 101385 1496 759 9326 2103 715 9511 502 1696 3013 628 5051 3245 8791 9175 1999 87239 4156 1453 578 550 23096 1281 523 814 6784 1045 1213 6800 13938 1261 1666 11021 1230 1121 6339 21630 643 1239 1898 540 5077 1118 876 4232 35598
internal_value=1.10864e-05 4.3903e-05 -3.80786e-05 0.000817396 -0.000382524 -0.00105939 0.000271002 0.00108068 -0.00207141 0.000175117 -2.89255e-05 -0.000345958 -0.000216808 -0.000971901 -0.00117135 -0.000231306 -9.82041e-05 -0.000725918 0.0018939 -0.000241781 -0.000258753 -0.000194845 -0.000176102 0.00112587 -0.000610788 0.00272547 0.000231011 -0.000242244 -0.000293647 0.00080772 -0.000380481 -0.000802712 -0.000137128 -0.00121561 -0.000293934 0.00259939 0.00159575 0.00058408 -0.000963881 -0.00114421 0.00229158 0.00118539 0.0014225 0.00127258 0.00139143 0.00173396 0.00243956 0.002743 0.000761138 0.00453688 0.000591367 -4.91682e-05 -0.00136128 0.00261895 0.00146691 -0.00229503 -0.00270078 -0.00377408 -0.0011512 0.00107284 -0.00106997 -0.0012305
internal_weight=576901 567952 513525 54427 242868 8922 270657 28657 8949 242000 161761 240065 199006 41059 37824 121612 108833 27088 2255 198332 197664 188338 187623 9070 4349 4721 1708 178553 173502 12679 160823 58800 102023 14784 10628 1080 2246 40149 24833 23552 1399 45505 38721 36944 35899 29099 16865 15604 12234 1777 9459 7460 22153 3888 7448 10736 9509 5617 3892 1994 49341 45109
internal_count=576901 567952 513525 54427 242868 8922 270657 28657 8949 242000 161761 240065 199006 41059 37824 121612 108833 27088 2255 198332 197664 188338 187623 9070 4349 4721 1708 178553 173502 12679 160823 58800 102023 14784 10628 1080 2246 40149 24833 23552 1399 45505 38721 36944 35899 29099 16865 15604 12234 1777 9459 7460 22153 3888 7448 10736 9509 5617 3892 1994 49341 45109
is_linear=0
shrinkage=0.05


Tree=14
num_leaves=63
num_cat=0
split_feature=36 27 7 28 8 7 35 9 2 35 18 27 18 13 5 7 26 2 28 7 36 11 28 37 1 12 28 37 19 37 29 35 19 8 11 7 2 9 13 12 37 15 29 11 18 15 31 13 12 5 11 34 19 19 12 36 15 19 15 9 9 29
split_gain=14.4527 13.1434 16.0986 10.3109 20.2666 11.8724 9.56353 11.1248 9.28942 8.74087 7.65363 7.44381 7.4197 8.07903 7.16583 7.1483 6.87662 6.81093 6.61229 6.34214 9.38779 10.168 6.75505 6.56988 6.61572 6.42298 8.57185 6.20541 5.99093 7.88845 9.35132 6.9784 6.65846 9.15408 6.17785 5.97948 11.7775 8.59116 6.86564 5.9408 5.93443 6.63566 6.50576 6.09418 9.50461 7.08153 5.68816 5.68024 8.26538 5.68848 8.10776 5.7424 5.67305 6.81962 5.62144 5.4543 5.35786 5.87397 5.65007 5.45282 5.61007 5.33945
threshold=0.048860783303766191 -0.33049986664964892 0.033752758942584137 0.13498867245032267 3.8350000000000004 0.017876640519840562 -0.016200000435295389 0.41553714723904683 0.88281084135039811 0.024587312707174579 0.088885189668850964 0.062331059510345573 -0.5600144286079537 -0.2241481356395621 0.68512200906852216 0.043404724214425677 -0.0166960394720948 -0.59106667036164706 0.34590847602629266 0.066772269860755976 -0.010087945713569279 -0.14818088838122098 0.84950283897583156 0.037092501735931656 -0.13142939797671113 -0.15392323104439018 0.58811942399513029 0.079632144029092036 -0.026813647021540776 -0.017375210654501042 0.0030196701506849367 -0.00077296932857637334 -0.065938896758347271 3.2450000000000006 -0.16987414172356266 0.013741636583408897 -0.30507822826287162 -0.19723534825394648 -0.13233165533052862 -0.088588673904766727 -0.003024965775411646 0.66377729569612032 0.017052627603427312 -0.35712698372504764 0.034167946329010455 -0.39808846130202008 -0.0028567256334100619 0.08297906592902983 0.60838403388174545 -0.40855008155948475 -0.11384172214190395 -0.01248788751281806 0.32678615195683924 0.044650743590094029 -0.25724922169622894 0.011209388128365973 1.0502654844540014 -0.028785493547871441 0.79995379870411532 -0.36749346517356102 -0.42619419827410532 0.0026175359382592787
decision_type=8 2 2 2 10 2 10 10 2 10 10 2 8 8 2 2 2 2 2 2 10 8 2 10 2 8 2 10 8 10 8 10 10 10 10 2 2 8 8 8 10 10 8 8 10 8 8 10 8 2 10 8 10 10 8 10 8 10 10 8 10 10
left_child=1 17 3 6 5 -5 27 12 10 19 52 -11 13 -8 -9 -2 -6 -1 -18 20 21 -4 23 24 -21 26 -22 -3 32 31 -31 -30 33 34 -27 36 -14 38 -38 -23 41 47 43 44 -42 -45 -32 49 -49 50 51 -37 53 -7 -47 -43 58 59 -56 60 -58 -34
right_child=15 2 9 4 16 8 7 14 -10 11 -12 -13 35 -15 -16 -17 18 -19 -20 22 25 39 -24 -25 -26 28 -28 -29 29 30 46 -33 61 -35 -36 40 37 -39 -40 -41 42 55 -44 45 -46 54 -48 48 -50 -51 -52 -53 -54 -55 56 -57 57 -59 -60 -61 -62 -63
leaf_value=0.0028008222214318383 -0.0015885377469341058 0.00077275773264882084 -0.0045020449902611918 0.0016875681401945679 0.00018752925268542621 0.0004147484730860251 -0.0025323787108491205 0.0013871118756857764 0.0016279544747830794 -0.0018897402868321659 -0.0034920910771519529 0.002596332861613843 -0.0007713456986754789 0.0029604185299928806 -0.0010066169384255316 -0.007009192028216156 -0.00026150727132194144 -0.00021583184480189252 -0.0019806093057785543 0.0041766393810229053 -0.00027817772786349317 0.0032007049243430955 -0.0084428657737256312 -0.0066317825363189148 -0.0023906108504649776 -0.0041482992489990968 0.0060548177317781542 -0.0029873060073080378 -0.0021641898636335605 -0.00095415111496952108 0.00038122470851296829 0.0019635856107598991 -0.0035456549696964881 0.00053895364250321437 0.0017158143093316171 0.00029671235834257889 0.0016696163576836347 0.0010092090748798318 -0.0020125996772644207 0.00028282578357022921 -0.0037848703745545862 -0.0019010979303131709 -0.0041024616408598764 0.0018265193408641964 0.0021256456422473688 0.00141916977326109 -0.0045187511273295285 -0.00046096185567063241 -0.0049289866056756882 -0.00016306443712377531 0.0034140914844157421 -0.0014196850129154226 0.0032014419705940359 -0.0013697066019467379 -0.00099066135735705095 -0.0073916262706070273 -0.00021554232879798181 0.00067464224778591379 -0.0056946386386709236 -0.00021015052357053264 -0.0044513389411102357 -0.0093863353546254254
leaf_weight=6470 8210 40341 947 29440 22343 50723 835 17601 14684 1288 1353 3272 20966 3362 3801 656 12189 2632 10337 510 3614 2219 501 618 1536 3233 626 1127 1443 17741 723 3519 1547 2569 521 5868 1747 33688 4590 8144 2533 1824 1037 4725 929 5489 3271 2380 1831 47335 1010 28729 1648 5985 9783 601 1562 19431 682 86389 1564 524
leaf_count=6470 8210 40341 947 29440 22343 50723 835 17601 14684 1288 1353 3272 20966 3362 3801 656 12189 2632 10337 510 3614 2219 501 618 1536 3233 626 1127 1443 17741 723 3519 1547 2569 521 5868 1747 33688 4590 8144 2533 1824 1037 4725 929 5489 3271 2380 1831 47335 1010 28729 1648 5985 9783 601 1562 19431 682 86389 1564 524
internal_value=1.26905e-05 4.39637e-05 1.32644e-05 0.000104912 0.000453969 0.000837681 -4.26482e-05 -0.000137956 0.000501331 -0.000772561 0.000224243 0.00132908 -0.000219445 0.00186727 0.000961958 -0.00199036 -0.000433991 0.00192858 -0.00105044 -0.000950694 -0.000814946 0.000454535 -0.00312176 -0.00211827 -0.000752372 -0.00118 0.000658042 0.000670499 -0.0014021 -0.0010357 -0.00144635 0.000762992 -0.00256716 -0.00176073 -0.00333421 -0.000250214 0.000188633 0.000691498 -0.000997374 0.000907872 -0.000369864 -0.000684982 -0.0001594 -0.000128646 -0.00219867 -7.33432e-05 -0.00363188 -0.000613176 -0.00240443 -0.000522206 -0.000999621 -0.00112857 0.000310465 0.000226395 -0.00014523 -0.00326433 -0.000217152 -0.000113344 -0.00129773 -0.000284398 -0.00233554 -0.00502727
internal_weight=576796 567930 558828 500462 148702 103833 351760 310292 74393 58366 59709 4560 288890 4197 21402 8866 44869 9102 22526 53806 50641 11310 3165 2664 2046 39331 4240 41468 35091 26697 21735 4962 8394 6323 3754 284693 60991 40025 6337 10363 223702 89578 134124 133087 3462 129625 3994 87153 4211 82942 35607 34597 58356 56708 124900 2425 119411 108946 10465 89515 3126 2071
internal_count=576796 567930 558828 500462 148702 103833 351760 310292 74393 58366 59709 4560 288890 4197 21402 8866 44869 9102 22526 53806 50641 11310 3165 2664 2046 39331 4240 41468 35091 26697 21735 4962 8394 6323 3754 284693 60991 40025 6337 10363 223702 89578 134124 133087 3462 129625 3994 87153 4211 82942 35607 34597 58356 56708 124900 2425 119411 108946 10465 89515 3126 2071
is_linear=0
shrinkage=0.05


Tree=15
num_leaves=63
num_cat=0
split_feature=7 33 37 28 21 36 12 34 7 35 13 27 19 19 7 2 7 10 28 9 19 19 22 2 19 10 29 2 9 28 10 18 36 10 22 17 9 12 16 17 36 29 12 12 17 20 35 28 35 13 9 11 12 35 9 5 22 33 11 36 12 6
split_gain=13.9 13.5438 12.589 11.6471 16.7806 13.1643 8.08694 7.96134 7.78117 7.50227 7.41558 7.33865 7.3969 8.32024 7.33753 7.19591 7.02987 7.66838 6.8719 6.63255 6.55642 6.46094 6.4096 7.34149 7.0987 6.36398 6.3538 7.6636 6.17258 6.13592 6.12716 7.29999 6.31975 7.43761 6.03054 5.76278 5.5147 5.85793 5.48763 5.92432 5.44182 5.29065 5.2814 6.38331 5.28094 5.61873 5.20975 5.1183 6.97497 6.07546 5.74304 10.9491 7.06708 10.189 5.15673 5.04209 7.39199 5.54605 5.18303 5.03409 5.02984 5.02267
threshold=0.033166143807875262 -0.0073261805788865843 -0.0061551163638866773 0.13063323439045985 0.0069078767347355288 0.013150728260788709 -0.10202435043728729 -0.00028664984466820326 0.019110165288100379 0.063881892978876934 0.15137960001855208 -0.19416960675748754 0.18934767961419993 1.2592928114459492 0.043404724214425677 0.76319991158218004 0.016057913724621359 0.092188257683621641 -0.29466601868003828 -0.38209111599350259 0.10961897300735253 -0.66223400165662316 -0.0030653164785250839 1.1334261071502569 -0.086616828042272859 0.20052143722283111 -0.0050899079243742918 1.6305652948787219 -0.31324451192180491 -0.28695465571935058 -0.3538665353973573 -0.57999291895561467 -0.025526046565243165 -0.42764247365012226 -0.0053372603592604642 0.073726222956424767 1.0379144412995427 -0.13139585346705043 -0.14047056161489416 -0.74364496567344995 0.0065443664956249753 -0.027840985920811908 -0.064699353092086367 0.027879064857486605 0.11976209394904376 -0.068848868556246057 -0.0036097265080047495 0.23112667846811455 -0.0099687865315385028 -0.15725558513875906 -8.0212572608958208 -0.11411173436540185 0.16537915679506535 0.010391836160359205 -0.033022563255382185 -0.5288302418884735 -0.012615475954363855 0.0038210249086232571 -0.15563740044210644 -0.0019280966511793331 -0.095553889630475439 0.42130116752913366
decision_type=2 8 8 2 2 8 8 10 2 10 10 2 10 10 2 2 2 8 2 10 10 8 2 2 8 10 10 2 8 2 10 10 10 10 2 8 8 10 8 10 10 8 10 10 8 10 10 2 10 8 10 8 10 10 8 2 2 10 10 10 8 2
left_child=2 10 9 4 5 15 -7 -6 -5 16 20 -3 14 -14 41 30 17 40 -19 -11 -2 -18 23 24 46 -16 -23 47 -17 34 32 -32 -4 -34 -30 -26 42 44 39 -9 59 -13 -24 -44 -38 -46 -10 50 -49 54 55 60 -53 -54 -50 57 -57 -28 -58 -1 -52 -37
right_child=1 11 3 8 7 6 -8 38 22 19 -12 12 13 -15 25 28 21 18 -20 -21 -22 26 36 -25 35 -27 27 -29 29 -31 31 -33 33 -35 -36 61 37 -39 -40 -41 -42 -43 43 -45 45 -47 -48 48 49 -51 51 52 53 -55 -56 56 58 -59 -60 -61 -62 -63
