tree
version=v4
num_class=1
num_tree_per_iteration=1
label_index=0
max_feature_idx=37
objective=regression
feature_names=log_return rsi_z63 macd_z252 foreign_net_pct volume_norm_30 atr_pct_z252 bb_pct volatility_20 short_ratio_pct revenue_z operating_inc_z net_income_z revenue_yoy_growth_z operating_inc_yoy_growth_z net_income_yoy_growth_z opm_ttm_z npm_ttm_z roe_ttm_z roa_ttm_z debt_ratio_z earning_surprise_z kospi_volatility_20 macro_usdkrw_chg_20d is_market_stress macro_usdkrw_chg_5d mom_5 mom_20 mom_60 mom_12_1 foreign_flow_20d foreign_flow_5d inst_flow_5d indiv_flow_5d inst_flow_20d indiv_flow_20d foreign_flow_60d inst_flow_60d indiv_flow_60d
feature_infos=[-0.35667494393873245:0.26240677032976423] [-6.3685493614873172:6.2904831780254051] [-5.920466155203199:8.2556506795337885] [-0.1659706844501744:0.043475881491550107] [0.00077375724913822787:30] [-3.6563078503772175:10.833693164851415] [-0.56213230560897554:1.56213228931421] [0.0031133095101305119:0.341216340817587] [0:86.939999999999998] [-8.2051964690737051:11.936150915565305] [-8.7936017155596957:11.83903789216642] [-5.7134976590656184:10.304783896387692] [-10.894726517144589:13.423434503578939] [-9.2213165127813834:9.8947141829325584] [-5.4157986141656185:7.3849249254189067] [-7.7050476473925338:5.6787328429057427] [-5.9155956295951277:5.7599184098426033] [-5.7176809642102402:6.182477699589036] [-6.2725101825087535:5.7254970795856135] [-13.160134230851362:13.075006673499264] [-8.0040083791047536:7.1458878191404853] [0.0028834494504:0.04485129879142237] [-0.084350615934188827:0.10451770060582898] [0:1] [-0.041632806695596859:0.062951363766911114] [-0.62331288343558278:0.99999296265279836] [-0.64294478527607368:3.0885040885040889] [-0.8404694750837427:5.2781186094069525] [-0.88888240338722779:25.344827586206897] [-0.22538070030314419:0.10037131751689252] [-0.21642051280784375:0.093736137274766235] [-0.11572364393907179:0.38389009211021624] [-0.26394928037000848:0.20942829419482198] [-0.25361786098944455:0.38614358887184613] [-0.26709493499731707:0.25190423873987167] [-0.26350679223956569:0.14135569296575476] [-0.30135735622759363:0.3942390039242879] [-0.29968586427992999:0.30308717010506792]
tree_sizes=5867 6270 6244 6272 6270 6266 6275 6293 6268 6275 6295 6289 6237 6251 6223 6246 6303 6268 6235 6248 6267 6205 6257 6301 6248 6322 6243 6270 6244 6263 6258 6238 6212 6257 6269 6171 6236 6189 6217 6215 6272 6239 6277 6230 6196 6267 6205 6228 6257 6300 6212 6200 6216 6169 6195 6219 6249 6269 6224 6188 6269 6228 6212 6183 6171 6183 6156 6210 6133 6113 6222 6236 6246 6105 6186 6214 6188 6216 6195 6253 6220 6217 6238 6180 6144 6127 6237 6198 6195 6207 6165 6174 6161 6180 6242 6174 6214 6125 6163 6282 6207 6190 6166 6181 6147 6205 6235 6132 6165 6201 6136 6251 6232 6142 6122 6157 6183 6136 6165 6105 6131 6165 6116 6155 6148 6124 6270 6179 6105 6210 6192 6159 6092 6184 6128 6107 6221 6100 6176 6228 6209 6108 6255 6192 6145 6181 6218 6231 6256 6180 6140 6102 6128 6246 6132 6205 6143 6186 6151 6133 6152 6201 6173 6118 6164 6140 6200 6134 6139 6197 6113 6132 6185 6205 6207 6175 6103 6119 6164 6199 6154 6213 6170 6084 6145 6250 6146 6119 6217 6119 6241 6137 6211 6157 6199 6159 6167 6158 6087 6067 6116 6106 6153 6121 6141 6201 6240 6173 6123 6162 6237 6201 6205 6116 6135 6162 6122 6202 6150 6175 6165 6199 6199 6219 6106 6172 6159 6130 6088 6236 6171 6152 6212 6175 6142 6186 6128 6165 6175 6094 6192 6068 6202 6188 6202 6117 6096 6184 6184 6126 6104 6119 6099 6110 6082 6184 6113 6161 6095 6161 6156 6130 6127 6131 6144 6126 6179 6185 6148 6098 6207 6101 6131 6092 6133 6184 6135 6182 6115 6110 6205 6186 6148 6121 6105 6190 6165 6139 6130 6097 6122 6178 6116 6238 6111 6090 6112 6141 6156 6164

Tree=0
num_leaves=63
num_cat=0
split_feature=7 27 37 35 28 21 8 36 8 27 2 22 37 11 37 13 22 12 2 21 27 8 21 28 19 37 7 8 22 34 28 26 7 21 28 11 22 36 27 36 27 36 7 26 21 7 5 13 15 12 21 19 37 35 26 14 34 7 5 15 12 28
split_gain=38.2387 41.6435 26.1653 18.8324 18.631 20.5168 16.8801 16.862 16.9757 13.7452 13.7156 14.8406 12.5503 12.4237 11.4491 10.8858 10.511 10.3891 10.2925 9.77094 9.50765 9.37634 8.83082 13.0762 8.73368 11.1015 8.39246 8.24933 8.06569 7.96292 7.88613 7.87851 7.79991 7.60567 7.60368 7.31098 6.79876 6.61013 6.53684 6.50334 6.44835 6.36655 6.31092 6.25283 6.20966 5.99709 6.22107 6.39808 7.35679 6.38393 6.094 8.01603 6.43642 5.98654 5.94207 5.91205 5.75602 5.89278 5.75355 5.6716 5.80044 10.4439
threshold=0.033427206835956021 -0.21303314465940129 -0.0063276570421782743 0.022930263341901753 0.18838247590529858 0.006739653667278721 5.5950000000000006 0.0013579654654633105 inf 0.57200998327598584 1.2267724375813525 -0.0060254017238558768 0.005717300178876652 -0.26481651322589012 0.0018213219710971854 0.12013342419235541 -0.0052855570243079226 -0.076693805370669263 1.2713690658325125 0.012312139406562016 -0.35077860497696506 0.095000000000000015 0.0078005558380059891 -0.48480654205607471 -0.24617559714409795 0.0091487379448015119 0.04091058623436724 inf 0.0038217868674231014 0.0080958586664249179 -0.40075854107905101 -0.14137446984244464 0.020692643305481536 0.011743242637067088 0.076696677875743649 -0.11411173436540185 -0.009606960102159284 0.048022210886348345 0.072178269051821689 0.035440801628659244 -0.42868080843800721 0.003735503465902624 0.047142641671414687 0.13657971996386634 0.0097506039890022152 0.013472955232443124 -0.31726255030443634 0.34560003706803433 -0.3140248121344012 0.1445155226648574 0.0062316527016339609 -0.29681436590843152 -0.034698258618430726 0.0033335653301540063 0.058825066678964817 -0.18014960481844491 -0.010307604308668864 0.015359027735238307 0.23187760404752647 -0.67695912413526904 0.23624198996583132 -0.39380474563727186
decision_type=2 2 8 10 2 2 10 8 8 2 2 2 10 8 8 10 2 10 2 2 2 10 2 2 10 10 2 8 2 10 2 2 2 2 2 8 2 10 2 8 2 8 2 2 2 2 2 8 10 10 2 10 8 10 2 8 10 2 2 8 8 2
left_child=2 31 18 9 5 7 10 8 13 17 11 32 -10 -4 -7 38 34 22 30 41 -16 -12 23 -3 25 -24 28 55 -19 -28 -1 33 -6 42 -11 -32 -14 45 -5 58 -35 -13 -2 44 -27 -37 50 49 -49 -48 52 -52 -47 -18 -8 -20 -57 -58 -25 -15 61 -61
right_child=1 3 4 15 6 14 54 -9 12 16 21 19 36 59 20 -17 53 26 27 -21 -22 -23 24 39 -26 43 29 -29 -30 -31 35 -33 -34 40 -36 37 -38 -39 -40 -41 -42 -43 -44 -45 -46 46 47 48 -50 -51 51 -53 -54 -55 -56 56 57 -59 -60 60 -62 -63
leaf_value=0.49871669678626995 0.50492111982163479 0.4949780094354943 0.49914212586417717 0.49964346589289738 0.50378305922154598 0.50251442627748022 0.50264783243599664 0.50324492047870062 0.50183286215626333 0.49660906894235401 0.50788671528563156 0.50524668974875031 0.4974337995274149 0.50739829748930843 0.50700731492226059 0.51038874365860909 0.49466050290888286 0.50259852714581577 0.50596359474494823 0.50256177038285199 0.50324423283493236 0.50228334523172313 0.49922004316776242 0.50103871995519067 0.50184841996160456 0.49942573374495008 0.49570350653905898 0.50390469323768539 0.49838710484963361 0.50110749177501068 0.50079491150488487 0.50264043748932818 0.50175591354172722 0.50994906586231736 0.50298046925079298 0.50323336172623523 0.50012913856497343 0.50002292953794403 0.50400472539996788 0.49898531855315914 0.50531382748652121 0.50357233263910584 0.49982559319487235 0.49867725910172167 0.50415943546168285 0.50646284567792765 0.50161073200364037 0.50259344276393292 0.50792179178329755 0.49685261058731428 0.50068479334937599 0.50234506761739228 0.50226580136089838 0.49939370197990929 0.50000294585941041 0.50295162619894973 0.50401669761514944 0.50058864505892464 0.50433616239635004 0.49516279068878932 0.50297167331173087 0.50190674385022849
leaf_weight=1863 1483 533 2841 1145 8858 74241 15369 21013 9703 709 3525 21467 3182 603 1700 544 2053 2347 1031 5830 127216 947 12177 1739 10693 914 2374 13277 2204 957 11479 6385 10218 939 1375 12275 8848 3622 3432 875 3733 7721 1028 1068 2852 1036 7911 41805 657 773 20534 11255 7668 993 2463 9181 1508 7412 5519 616 20174 8258
leaf_count=1863 1483 533 2841 1145 8858 74241 15369 21013 9703 709 3525 21467 3182 603 1700 544 2053 2347 1031 5830 127216 947 12177 1739 10693 914 2374 13277 2204 957 11479 6385 10218 939 1375 12275 8848 3622 3432 875 3733 7721 1028 1068 2852 1036 7911 41805 657 773 20534 11255 7668 993 2463 9181 1508 7412 5519 616 20174 8258
internal_value=0.502553 0.50144 0.502702 0.500823 0.502938 0.502748 0.503629 0.502043 0.501577 0.500524 0.504039 0.503819 0.500495 0.5023 0.503009 0.503709 0.498074 0.500808 0.502156 0.504431 0.503294 0.5067 0.501164 0.502557 0.500729 0.500025 0.499162 0.502947 0.500559 0.497255 0.501944 0.503918 0.502697 0.505054 0.500811 0.501994 0.499416 0.502122 0.502913 0.503055 0.506247 0.504804 0.502835 0.502052 0.50301 0.502196 0.502057 0.502423 0.502676 0.501187 0.501594 0.501273 0.502766 0.496202 0.502282 0.502283 0.502073 0.501168 0.503546 0.502603 0.502503 0.501438
internal_weight=576151 68071 508080 54503 354793 278395 76398 75238 54225 49382 58566 54094 21733 32492 203157 5121 5130 44252 153287 35018 128916 4472 36370 8666 27704 17011 7882 32409 4551 3331 120878 13568 19076 7183 2084 119015 12030 107536 4577 8133 4672 29188 2511 4834 3766 103914 91639 51146 42462 8684 40493 31789 8704 3046 17832 19132 18101 8920 7258 29651 29048 8874
internal_count=576151 68071 508080 54503 354793 278395 76398 75238 54225 49382 58566 54094 21733 32492 203157 5121 5130 44252 153287 35018 128916 4472 36370 8666 27704 17011 7882 32409 4551 3331 120878 13568 19076 7183 2084 119015 12030 107536 4577 8133 4672 29188 2511 4834 3766 103914 91639 51146 42462 8684 40493 31789 8704 3046 17832 19132 18101 8920 7258 29651 29048 8874
is_linear=0
shrinkage=1


Tree=1
num_leaves=63
num_cat=0
split_feature=7 27 37 33 27 7 15 30 9 19 36 13 2 29 6 12 21 19 7 37 17 17 5 29 12 20 19 29 27 21 12 19 8 29 19 36 2 33 13 19 36 19 9 20 11 14 33 13 14 17 19 11 19 37 9 9 27 5 27 8 21 8
split_gain=34.6183 35.889 24.0754 15.08 13.6569 12.9917 13.1346 12.6561 11.1887 12.9521 11.8174 10.2409 10.0657 9.52375 9.07212 8.94762 8.45661 8.45602 8.44534 8.07545 7.92468 10.6635 9.12448 8.48507 7.5199 7.48047 7.71768 6.92412 6.44853 9.34977 6.43186 7.34075 6.2335 6.32071 6.17867 6.26302 6.70017 6.11037 6.09137 6.07029 11.0521 7.81036 6.06447 8.00513 8.37176 7.3711 6.6896 6.03482 6.0032 6.79757 7.40185 6.19597 7.68273 6.28963 8.3743 5.76644 5.67127 8.16123 5.72385 7.37903 9.87946 5.91346
threshold=0.033727387146030872 -0.24292649044046086 -0.0061697853846979503 -0.0087906034594265429 -0.33165507517308024 0.043405841412874589 -0.45260170239039249 0.00093584627631051684 0.37734111248806862 1.3731325842851405 -0.026529302431683516 0.12392014332171657 1.3670217101463542 0.013049836808666592 0.57407070405137728 -0.092067644279114111 0.02892175493231338 0.20414392465218964 0.016203323623764521 0.030842018028448649 0.006094987733246301 -0.11287100834022393 1.0701373490927324 -0.0032750871325054761 -0.19744108096803961 0.01304184717487771 0.0057508785343559519 0.013675080112651313 0.038333923095069562 0.0069997062909761612 -0.15975484326198452 -0.1455972693610606 0.03500000000000001 0.0010643873893986372 0.057711128334552213 0.017888530827664988 1.3670217101463542 0.0079737719061015958 -0.069172439611758077 0.051872753513275603 0.0073243612211015049 0.023505151004098578 -0.43039100808955083 -0.8474671223708935 0.1233486286585579 -0.078218320117756646 -0.0022029057344331764 0.12739519056827633 -0.14038906131142165 -0.92640549430532815 0.0074590261976778703 -0.21350989788869912 0.09828392420721728 0.00010604798317738725 -0.35224840362483673 -0.0066664211272316389 -0.19067824204823411 -0.36778157963390318 0.026741076980475124 11.295000000000002 0.0069199471711817407 0.96500000000000008
decision_type=2 2 8 10 2 2 8 8 8 10 10 10 2 10 2 8 2 10 2 8 8 10 2 10 8 8 8 10 2 2 10 8 10 10 10 8 2 10 10 8 10 10 10 8 10 8 10 8 8 10 10 8 10 10 10 10 2 2 2 8 2 8
left_child=2 14 12 11 -4 -5 -7 8 15 10 38 19 18 16 24 42 17 30 25 -3 21 22 -20 -22 -2 26 -1 39 29 47 34 -32 37 -34 35 -8 -37 -14 -10 40 -25 -42 -6 46 55 -46 -44 -9 49 -17 -51 52 -50 -53 -55 -45 57 -12 59 -58 -61 -60
right_child=1 3 4 5 7 6 13 28 9 -11 56 -13 32 -15 -16 48 -18 -19 20 -21 23 -23 -24 27 -26 -27 -28 -29 -30 -31 31 -33 33 -35 -36 36 -38 -39 -40 -41 41 -43 43 44 45 -47 -48 -49 51 50 -52 53 -54 54 -56 -57 58 -59 61 60 -62 -63
leaf_value=-0.00013594171268571921 0.0080492279227479258 0.00093086066940876793 0.003390906117963706 -0.001374761181436952 0.0018040085704113516 -0.0098218411763479133 -0.0024396682061506867 0.0009986584101410725 -0.0010574821140573426 0.006221555318899603 0.00014857240487433759 0.0072565472607708757 0.0022156369209241356 0.0023119050918779917 -0.0012262573034955489 -0.0030781782724981542 0.0016978741815092961 0.0024813270130492164 -0.003218219814345947 -0.0025742448057280232 0.00036840420105341905 -0.0085980321727065611 0.0039746771036513013 0.00078762906206723739 0.0019044621715315379 0.00039306108970419074 -0.0048183428208183167 0.00055022840734114036 0.00050920983111752067 -8.4363605991436561e-05 -0.0012451515276890427 -0.0063176964928680236 -0.0017949542733548315 0.00041601308712280307 0.0024786784198950335 -0.0082768601457616012 -0.0020865571826667695 2.253133255548915e-05 0.0037516074436538017 -0.0013685046830633448 -0.0021666770322769026 0.0032572062604922349 0.00041057394024912965 0.00032736546112859834 -0.0070324659136880201 0.00070789588079089698 -0.005320890524339047 -0.0018139023425749129 -0.0038060946111659294 0.0064782959805422119 0.0010184194659273859 -0.0014468878320908899 0.0022063019720419677 -0.0020883658505260207 0.00031445467581758531 0.0021320064843390421 0.0010369853354327604 0.0026352569480449697 -0.00032770745228238938 -0.00067882013506439121 0.00061384983596020858 0.0014351759614203822
leaf_weight=2204 530 5580 3664 31199 7794 703 5742 2173 11916 1061 5138 502 7347 848 2341 738 846 572 2145 2328 14758 717 554 10195 8022 28481 1464 7076 20947 38982 898 3476 4507 11424 501 1094 729 5594 696 51640 7424 728 921 31404 690 554 1137 15559 2782 786 2941 11230 656 4270 24016 5152 41673 9221 5476 21997 45051 36213
leaf_count=2204 530 5580 3664 31199 7794 703 5742 2173 11916 1061 5138 502 7347 848 2341 738 846 572 2145 2328 14758 717 554 10195 8022 28481 1464 7076 20947 38982 898 3476 4507 11424 501 1094 729 5594 696 51640 7424 728 921 31404 690 554 1137 15559 2782 786 2941 11230 656 4270 24016 5152 41673 9221 5476 21997 45051 36213
internal_value=-1.22743e-05 -0.00109073 0.000126805 -0.00160988 0.00035453 -0.0019615 -0.00314932 0.00032284 0.000482785 0.000716209 0.000683244 0.000338814 -0.000390323 -0.0028297 0.00153128 4.46617e-05 -0.00314447 -0.00345941 -0.000581373 -0.000101186 -0.000817907 -0.00318225 -0.00174087 -0.000729913 0.00228617 0.000119333 -0.00200562 -0.00094025 -0.000240466 -0.000517358 -0.00373275 -0.00527681 0.000452598 -0.00020956 -0.00289489 -0.00325104 -0.00580392 0.0012677 -0.000791814 -0.00109095 -0.000309702 -0.00168197 0.000528534 0.000279083 0.000444448 -0.00358759 -0.00275698 -0.0014692 -0.000441589 0.00130314 0.0021713 -0.000622977 -0.00265857 -0.000445812 -4.83315e-05 0.000581753 0.000796154 0.00174553 0.00070551 0.000514503 0.000189749 0.00120361
internal_weight=577007 65911 511096 55018 354838 46608 15409 351174 273513 178442 177381 8410 156258 14706 10893 95071 13858 13012 127386 7908 95237 3416 2699 91821 8552 32149 3668 77063 77661 56714 12440 4374 28872 15931 8066 7565 1823 12941 12612 69987 18347 8152 47652 39858 37800 1244 2058 17732 47419 4465 3727 42954 3438 39516 28286 36556 164769 14359 150410 108721 67048 41689
internal_count=577007 65911 511096 55018 354838 46608 15409 351174 273513 178442 177381 8410 156258 14706 10893 95071 13858 13012 127386 7908 95237 3416 2699 91821 8552 32149 3668 77063 77661 56714 12440 4374 28872 15931 8066 7565 1823 12941 12612 69987 18347 8152 47652 39858 37800 1244 2058 17732 47419 4465 3727 42954 3438 39516 28286 36556 164769 14359 150410 108721 67048 41689
is_linear=0
shrinkage=0.05


Tree=2
num_leaves=63
num_cat=0
split_feature=7 27 37 28 21 8 35 13 27 2 33 8 37 9 13 7 35 9 21 12 27 7 28 2 20 35 9 12 14 15 19 17 17 28 12 9 33 26 28 27 19 28 9 19 28 12 20 14 30 15 12 21 18 11 14 14 11 11 17 1 21 2
split_gain=30.6172 34.987 18.8922 16.6727 20.6708 19.1801 15.259 16.1189 14.8667 14.0204 13.925 12.9756 15.1922 9.91354 13.6455 9.88344 9.66934 9.57339 9.45731 10.1939 9.17464 8.93677 8.49082 8.01634 7.86259 7.84496 8.45882 10.1235 8.0433 7.68472 7.56252 7.26998 9.3447 8.6113 7.22782 7.161 7.03395 7.03276 7.03197 6.7669 6.61312 6.5773 6.55662 8.5182 9.9597 6.95879 6.54625 6.90054 6.50935 6.44537 7.59432 6.33895 6.30052 6.24689 6.22474 6.18578 8.16731 6.1229 11.7873 13.6287 5.97177 5.92684
threshold=0.032537008397715068 -0.21303314465940129 -0.0063276570421782743 0.1348258151802362 0.006739653667278721 4.6450000000000005 0.0064472638248524944 0.12392014332171657 0.57200998327598584 1.1400521615083361 0.00057034682651111671 inf 0.017336563878410861 -0.3054053756787849 -0.11242228504308484 0.016567003833463247 0.06453500732168764 -0.3817532261391508 0.01444915974407057 -0.1866557051060875 -0.38141825879287877 0.016048326775066794 -0.18127726062574342 1.6042389362720988 -0.61598137955463195 0.0085485240051037196 -0.079182325300779247 -0.1693314780225281 0.51062361995768468 0.42102879829653866 0.018534012667883848 0.006094987733246301 -0.097912459947911132 -0.45715815234016516 -0.076693805370669263 1.8425385435522026 -0.0012685409197054668 -0.18025295258098997 0.09473498495709988 -0.19404281083015987 -0.15294315984434945 -0.13723086850058455 -0.0094209212840887981 -0.32845354373355828 -0.21254021897595179 -0.13078370640494089 0.1264312902982794 0.65516103381208701 -0.00030440446426705138 0.073047980347928226 -0.097400613882431111 0.006739653667278721 0.072538037451679985 -0.23393261079942279 -0.22839208653761781 -0.23728649808827884 -0.44409116132325854 -0.14985087007953116 -0.73434100434206306 0.35606347468051691 0.011743242637067088 -0.90231248393396013
decision_type=2 2 8 2 2 10 10 10 2 2 10 8 8 8 8 2 10 10 2 8 2 2 2 2 8 10 8 8 10 10 10 8 10 2 10 10 10 2 2 2 8 2 10 10 2 8 10 8 8 10 8 2 10 8 8 8 10 8 10 2 2 2
left_child=2 37 16 4 11 9 8 18 34 15 -9 13 36 14 -4 -5 21 -18 19 -8 -6 24 -16 31 -1 26 41 -28 39 -26 -20 32 -23 -33 42 -7 -13 -2 -10 49 -27 57 -3 -44 -45 -46 47 -21 -35 50 -29 -40 -17 -42 -15 56 -41 58 61 -60 -59 -22
right_child=1 6 3 5 20 35 7 10 38 -11 -12 12 -14 54 22 52 17 -19 30 46 25 23 -24 -25 29 40 27 28 -30 -31 -32 33 -34 48 -36 -37 -38 -39 51 55 53 -43 43 44 45 -47 -48 -49 -50 -51 -52 -53 -54 -55 -56 -57 -58 60 59 -61 -62 -63
leaf_value=-0.0033987069043715391 0.0025827499243587819 -0.0015718592409395744 0.0025129361928973217 0.0022877972071407796 0.0054338888992395626 -0.00043595435626345603 0.0052638254771738054 0.0096936482456604755 -0.0081668571275249971 0.0038136717710907189 -0.0010979283407634808 -0.001821824407351793 -0.0034388313033178984 -0.0032154435033490535 -0.0051643275394041652 0.00089177155118197937 7.3813554610566287e-05 0.0080737350220022076 -0.0042440277901556406 0.0044823505053567785 0.0017214298378831095 -0.0018880260267386411 -0.00113422484057052 0.00045335201566296541 0.00062041843076316133 0.0029730921182046714 0.0039054565032672333 0.0067210474227051998 -0.0049177917769261106 -0.0040682825038668739 0.002120552480091535 -0.0054681330261912176 -0.0091119770790403631 -1.7505707468690984e-05 -0.0031600562330685008 0.0038933391794192989 1.8108738909009686e-05 0.00034913240821773608 0.0015365303983255005 -0.002511962726405637 -0.0050721047435651079 0.00065017378547109483 -0.0049214502190940528 0.0069932988371085711 0.0042858189549353108 -0.0026312053550425936 -0.0055832159721947222 -0.00046229457347364973 -0.00090396941853124733 -0.0037101448450312263 0.0015823212236713423 -0.0046094163876017396 -0.0029109804300049297 -0.00057410379930475462 0.00043537974254413773 0.00047949489527028652 0.0045319949408326151 0.0004397462692463331 0.0040809344348752127 -0.0034320620579449939 -0.0015937763664699758 -0.0039904320555984567
leaf_weight=1348 6002 29960 1448 14776 907 23300 851 733 1142 5455 504 8907 6958 1208 2395 43885 834 677 2562 755 510 2918 2877 16375 32580 1261 2429 756 645 897 570 921 528 30866 6682 995 12460 8535 508 523 805 16963 504 746 581 968 578 10581 62930 541 14366 2397 1116 18264 34069 106748 1920 12836 1432 1042 5022 4110
leaf_count=1348 6002 29960 1448 14776 907 23300 851 733 1142 5455 504 8907 6958 1208 2395 43885 834 677 2562 755 510 2918 2877 16375 32580 1261 2429 756 645 897 570 921 528 30866 6682 995 12460 8535 508 523 805 16963 504 746 581 968 578 10581 62930 541 14366 2397 1116 18264 34069 106748 1920 12836 1432 1042 5022 4110
internal_value=9.67573e-06 -0.000931459 0.000150639 0.000351799 0.000150106 0.000940694 -0.00145973 -0.000195925 -0.00195764 0.00138732 0.00529942 -0.000582809 -0.0014098 -2.50218e-05 -0.00178497 0.00116584 -0.000317254 0.00366113 -0.000623843 -1.96809e-05 0.000419838 -0.000357524 -0.00296568 -0.000570783 0.000343872 0.000395896 0.000507001 0.000708978 0.00064708 0.000494669 -0.00308542 -0.000741627 -0.00299721 -0.000659533 -0.00166142 -0.000258495 -0.000748931 0.00127146 -0.00484338 0.000675868 -0.000532295 -0.000109449 -0.00135565 0.000958347 0.00225118 -3.56718e-05 -0.000397484 -0.000132605 -0.000612259 0.00164774 0.00183965 -0.00353451 0.000797403 -0.000764243 0.000310276 0.000536443 0.00302361 -0.000625864 -0.00186845 0.0009165 -0.000132175 -0.00335967
internal_weight=576962 75159 501803 350929 261402 89527 60622 17134 43488 65232 1237 70322 28325 41997 6720 59777 150874 1511 15897 12765 191080 149363 5272 114538 34825 190173 169843 127928 125499 33477 3132 98163 3446 94717 39441 24295 21367 14537 4047 124854 20330 41915 32759 2799 2295 1549 11914 11336 93796 15663 15122 2905 45001 19069 35277 109191 2443 24952 7094 2474 17858 4620
internal_count=576962 75159 501803 350929 261402 89527 60622 17134 43488 65232 1237 70322 28325 41997 6720 59777 150874 1511 15897 12765 191080 149363 5272 114538 34825 190173 169843 127928 125499 33477 3132 98163 3446 94717 39441 24295 21367 14537 4047 124854 20330 41915 32759 2799 2295 1549 11914 11336 93796 15663 15122 2905 45001 19069 35277 109191 2443 24952 7094 2474 17858 4620
is_linear=0
shrinkage=0.05


Tree=3
num_leaves=63
num_cat=0
split_feature=36 27 7 11 33 33 17 37 7 2 19 9 11 20 7 15 29 17 3 35 17 20 10 21 27 19 19 11 37 10 37 21 5 20 34 9 19 19 15 15 37 27 29 26 27 5 10 37 20 21 22 7 36 26 27 21 8 37 37 15 19 35
split_gain=30.0335 27.5061 29.2446 14.4263 14.8896 14.1715 13.4225 13.3084 11.2635 10.4082 10.18 9.64289 9.11261 8.73687 8.66007 8.59336 7.65025 7.6374 7.46639 7.329 8.19304 7.29603 7.15874 7.15572 6.89602 6.73725 6.72385 8.69657 6.57012 6.5584 6.26859 7.54082 6.19668 6.17362 6.54729 9.77615 6.23876 9.59938 7.6907 6.43329 6.02953 6.01146 5.9505 6.06638 5.89822 5.77019 5.68871 5.6539 8.15453 5.47082 5.4623 5.4385 7.86581 6.72578 6.47931 7.29456 13.9376 8.75292 5.87202 5.41867 5.30917 5.31091
threshold=0.048022210886348345 -0.30311166247034049 0.033727387146030872 -0.1338339471076086 -0.025546143222911284 -0.0090147435871624354 0.078714352848914565 -0.006496476640025989 0.043405841412874589 -0.6005454386721214 1.3731325842851405 0.065143480811312104 -0.62524041545175313 -0.076450311767911408 0.066870915307129936 0.40453992163201452 0.00044521739880655595 0.49193201923195401 0.00044205468324834738 0.022930263341901753 -0.27350983535004653 0.38457383005836454 -0.27877643178283051 0.0063128492159787416 -0.041530843973330005 -0.40068718047598034 -0.37293873601305122 -0.15842843667740417 -0.045499915323367439 0.016067898392617751 0.0087043553030263388 0.0076633887216666138 -0.24138927709483274 -0.17725568854072335 0.0020534260842630819 -0.19296268027066363 0.099319460142697241 -0.22893765207617892 -0.24954907328299653 0.0082200464728351113 -0.0002204650580735993 -0.21303314465940129 0.0028844532338629454 0.086499939617014313 0.062658244075662242 0.51192242176958003 -0.20222934455123096 -0.019514427350860186 0.1532937855870016 0.0073030518530800064 0.00039621239349118842 0.020533287219877398 0.011450374877171323 -0.060672939973462174 -0.024290138301658323 0.0069199471711817407 inf 0.003946415526989158 0.017336563878410861 0.63638700830758521 0.10606799752886968 0.0087442987622438975
decision_type=8 2 2 8 10 8 10 10 2 2 10 8 10 8 2 10 10 10 2 10 8 10 10 2 2 8 8 10 10 8 10 2 2 10 10 8 8 10 10 10 10 2 8 2 2 2 10 10 10 2 2 2 10 2 2 2 8 10 10 10 8 10
left_child=1 9 3 6 -5 21 12 23 49 -1 17 -12 13 -3 19 22 -17 18 51 20 -7 29 25 28 -16 -8 27 40 -6 -4 31 32 -22 34 -28 46 37 -35 -39 -40 -14 -32 43 45 -21 -33 -36 -24 -49 -2 -45 52 54 60 55 56 -9 -57 -58 -55 -53 -62
right_child=8 2 5 4 7 14 15 10 -10 -11 11 -13 26 -15 24 16 -18 -19 -20 44 30 -23 47 -25 -26 -27 33 -29 -30 -31 41 42 -34 36 35 -37 -38 38 39 -41 -42 -43 -44 50 -46 -47 -48 48 -50 -51 -52 53 -54 59 -56 57 58 -59 -60 -61 61 -63
leaf_value=0.0032184574707554456 -0.00071573858035938929 -0.0011229495725149255 -0.0024462031924448917 -0.0025087321980961103 0.0036825091654849327 0.0039585466109273151 -0.0056113830691159883 0.00057598832865198317 -0.0090512141368668999 0.00021288724318567845 -0.00038540477373490779 0.0065558709705962268 -0.00067789821791650658 0.0046755704082497409 -0.00029681486033832788 0.00068108995231022174 -0.0073505000566160524 0.0040106339555165847 -0.00021655773064630903 -0.0029619582033367873 -0.0049971695221269017 0.0064756943885498578 -0.0025841742564664417 -0.00038372604082275753 -0.0060806824595223564 0.00047231104031396842 -0.0026408045565180518 -0.0059008202705306215 0.00033131066818905554 0.0010437117721929083 0.0017085617437693056 0.0005322498759048564 0.00031068144437675305 -0.0036837969490643575 -0.0018444498006636436 0.00039994890560586006 -0.0022872974610876448 0.0041074471210886419 -0.0033243857769549127 0.0021925440456167919 0.0027292338061598274 -0.0011300172545386075 -0.0036654730268529906 -0.0017151130622008954 0.0021939192508807037 -0.0019227913557823984 -0.0063154818059004041 0.0022751992717137096 0.0088397838719599161 -0.0033124306677717315 -0.0046372945750034018 -0.00015679879337261989 0.0019767465065417497 -2.3313999076677019e-05 0.0009818768637030002 -0.0001295986890584628 -0.0010263319552279852 0.0010766441459699389 -0.0035881532426072088 -0.0028754681428809041 0.0015538634710897598 -0.00085592180624409226
leaf_weight=9178 3244 1308 1670 5027 1547 686 501 16482 673 4198 816 1292 2830 1289 738 603 582 1444 46436 715 618 517 507 103855 1708 4868 14698 518 26505 6925 2302 3483 4923 1002 3603 5629 2698 1888 954 1182 2398 9811 6177 3416 2462 7647 886 4641 526 5415 3009 9891 10496 66576 56339 24859 8912 38070 2986 1707 18163 2615
leaf_count=9178 3244 1308 1670 5027 1547 686 501 16482 673 4198 816 1292 2830 1289 738 603 582 1444 46436 715 618 517 507 103855 1708 4868 14698 518 26505 6925 2302 3483 4923 1002 3603 5629 2698 1888 954 1182 2398 9811 6177 3416 2462 7647 886 4641 526 5415 3009 9891 10496 66576 56339 24859 8912 38070 2986 1707 18163 2615
internal_value=-1.14132e-05 3.48694e-05 -1.92337e-05 0.000103576 0.000196731 -0.00109395 -0.000675207 0.000227717 -0.00282473 0.00227526 0.000408148 0.00387002 -0.00110991 0.00175579 -0.00143912 0.000778157 -0.00326641 0.000384207 0.000366942 -0.00128241 -0.00145728 0.000712779 0.00121243 -0.000192331 -0.00433643 -9.63188e-05 -0.00130434 0.000272451 0.000516246 0.000365419 -0.00154714 -0.00194298 -0.00028211 -0.00158277 -0.00196699 -0.000987995 -0.00034826 0.000692881 0.00178334 -0.000271881 0.000885122 -0.000590467 -0.00233073 -0.0018609 0.001033 -0.00115454 -0.00272811 0.00245062 0.00294505 -0.0023398 -0.00308416 0.000472332 0.000654238 0.000181609 0.000560211 0.000300028 -0.000365438 0.000600145 -0.00166951 -9.46558e-05 0.000796682 0.00125056
internal_weight=576644 567312 553936 497129 444018 56807 53111 438991 9332 13376 307084 2108 40883 2597 47695 12228 1185 304976 303532 45249 42072 9112 11043 131907 2446 5369 38286 5746 28052 8595 41386 29273 5541 32540 24816 10118 7724 5026 4024 2136 5228 12113 23732 17555 3177 11130 4489 5674 5167 8659 6425 257096 158144 98952 147648 91309 28380 62929 11898 68283 30669 20778
internal_count=576644 567312 553936 497129 444018 56807 53111 438991 9332 13376 307084 2108 40883 2597 47695 12228 1185 304976 303532 45249 42072 9112 11043 131907 2446 5369 38286 5746 28052 8595 41386 29273 5541 32540 24816 10118 7724 5026 4024 2136 5228 12113 23732 17555 3177 11130 4489 5674 5167 8659 6425 257096 158144 98952 147648 91309 28380 62929 11898 68283 30669 20778
is_linear=0
shrinkage=0.05


Tree=4
num_leaves=63
num_cat=0
split_feature=36 27 30 27 9 2 28 28 21 8 21 12 28 18 2 28 10 27 5 25 11 8 5 2 21 34 37 37 37 15 16 11 9 28 21 28 15 10 37 10 20 34 17 12 27 15 37 20 36 18 22 22 5 8 20 28 21 28 20 37 17 37
split_gain=25.9858 22.6182 13.5896 13.5605 13.0331 12.7623 10.0521 10.0252 14.2031 10.0757 12.1716 9.92786 8.90974 8.83345 8.56446 12.1921 11.3414 8.85231 8.38718 8.25302 7.33006 7.25149 12.3234 9.00101 9.93468 13.4449 8.94726 7.35969 7.2383 6.84113 9.25094 7.73079 6.59486 6.69219 6.5916 7.48643 6.52542 7.18544 12.4141 7.15269 6.3717 6.2759 6.19603 6.18275 6.02694 5.96135 5.84883 7.66822 7.30318 8.0471 5.71134 6.97719 5.51452 5.50614 6.23403 5.50222 7.94388 5.46367 5.40066 7.69138 6.09063 5.3965
threshold=0.048022210886348345 -0.27150718065538892 0.00071641410839194143 0.75964779206331157 0.41228715909688735 -0.6005454386721214 1.4660821702531133 0.22637089278880332 0.013999346271333238 1.0000000180025095e-35 0.0062316527016339609 -0.16600272068494837 0.87249847158051574 -0.8623584631872121 1.1831561460069169 -0.041954676247079818 0.095107981267779806 0.38974829409469031 -0.47876283459163688 0.077835840351897626 -0.015366323179294214 inf 0.52934981419321236 1.2947630776464563 0.0061397194141771657 0.0041664443720959062 -0.0068352878541953774 0.0033842353672901494 -0.00267348338041594 -0.49322655185262865 0.092775511231153532 -0.19308594254305733 3.9881110483360831 -0.29509754320272852 0.01444915974407057 -0.26160525919228445 -0.54578578904419406 0.2391995006247187 0.031842467798915003 0.21021648173753996 -0.78465854820246206 0.020681438814550378 0.43291440211294413 -0.16600272068494837 0.12106727884630021 -0.57300271697638805 -0.0037639825946482971 0.79040465245304281 -0.010168440605557601 -0.31372609089819303 -0.028801326050919632 0.012267986082926579 -1.9174481034782427 1.6050000000000002 -0.78465854820246206 -0.17827713595842595 0.0073030518530800064 0.96443514401139319 0.0093551936373282314 -0.0057004976739719023 -0.15395939289764973 -0.025785626736122617
decision_type=8 2 8 2 8 2 2 2 2 10 2 8 2 8 2 2 10 2 2 2 8 8 2 2 2 8 10 10 10 10 8 10 8 2 2 2 8 8 10 10 10 10 10 8 2 10 10 10 10 10 2 2 2 8 8 2 2 2 8 10 10 10
left_child=1 5 3 4 6 -1 11 21 9 10 44 20 58 -13 16 17 -4 -16 -7 36 29 22 32 24 25 -23 34 -24 -5 -3 -31 -32 33 -6 35 -26 45 39 42 46 -18 -12 52 -35 -9 -15 47 -38 -48 -50 -20 -52 -39 54 -22 -2 -57 -46 59 -11 -60 -34
right_child=55 2 14 28 7 18 -8 8 -10 12 41 13 -14 19 15 -17 40 -19 50 -21 53 23 27 -25 26 -27 -28 -29 -30 30 31 -33 61 43 -36 -37 37 38 -40 -41 -42 -43 -44 -45 57 -47 48 -49 49 -51 51 -53 -54 -55 -56 56 -58 -59 60 -61 -62 -63
leaf_value=0.0025623331718728406 -0.0052607804543622957 -0.0024078114952592608 -0.00070116473281209844 -0.00076904818262326974 -0.0011313402437191317 -0.0029450887099115039 -0.0033774537872811997 0.0023596125773997579 -0.0013042028441837097 -0.006108000847440182 0.0014305764494880551 0.0052292055830191102 -0.0019334731065362093 0.0007799643819281592 -0.00034174070021945592 0.0011927508182326793 0.002414143908560343 -0.0048195354960748789 -0.0035370669299238239 -0.0024643100014869485 -0.0023236750974513901 -0.00038665809500233316 -0.0013153212832142094 0.0014152077632807398 -0.0048422983402658737 -0.0034179368498234567 0.00033038585780372534 0.00065929406713745038 -0.0063646100373271151 0.0040189030744516331 0.0032129836193614705 -0.0039317362494059238 -0.0026491020753559909 -0.0022080897891182598 0.0014428508654678032 -0.0010490796056283501 -0.0014405386778903561 0.0038947508824702902 0.0033220471142108004 -0.0049439124001125559 7.4137079327546239e-05 -0.0029035440333849325 0.0049624884427531581 0.0027736009789187215 0.0041847537793827097 0.0060212945303362445 -0.0016708651082783625 -0.0075373008920750764 -0.00038823593928829212 0.0020744974046394394 0.0029086660920180016 -0.0014829372340395964 -0.00033047427114637194 0.00065167511585336759 0.0030617173295839073 -4.2970641180742672e-05 -0.0033226398154666509 0.0093019009947068829 0.00098532215960781835 0.00047196068260792732 0.0060509290411520714 0.000721942560714793
leaf_weight=13606 1616 3137 126779 1119 1512 1864 2477 4129 6091 634 22193 696 3422 4663 16100 18725 4314 1184 611 4703 599 11909 12101 9048 1466 5279 53519 7734 1195 1343 569 1127 1213 667 2268 11490 11521 785 2662 1056 8929 867 575 9262 2469 613 8408 539 18326 4049 3083 1279 44096 13283 5167 3010 4775 662 14373 1477 618 53848
leaf_count=13606 1616 3137 126779 1119 1512 1864 2477 4129 6091 634 22193 696 3422 4663 16100 18725 4314 1184 611 4703 599 11909 12101 9048 1466 5279 53519 7734 1195 1343 569 1127 1213 667 2268 11490 11521 785 2662 1056 8929 867 575 9262 2469 613 8408 539 18326 4049 3083 1279 44096 13283 5167 3010 4775 662 14373 1477 618 53848
internal_value=7.49515e-07 4.39476e-05 -1.70811e-05 0.000154597 0.000178553 0.0016768 -0.000223309 0.000398491 0.000977285 0.00125062 0.00182971 -0.000162206 0.000395091 -0.00038052 -0.000378867 0.000308857 -0.000555727 -0.000648743 -8.55672e-05 -0.00041885 0.00072654 0.000216739 0.000548387 -8.47351e-05 -0.000242684 -0.00131781 2.61471e-05 -0.000545391 -0.00366022 -0.000770261 0.000920332 -0.00153424 0.000874622 0.00196689 -0.00104334 -0.00147863 -0.000319951 -0.000418007 4.01827e-06 -0.000880582 0.000836535 0.00126751 -0.000190361 0.00243876 0.00361503 0.00138996 -0.000780315 -0.00171362 -0.000414624 5.74953e-05 0.000986627 0.00162094 -0.000256487 0.00121184 0.00250195 -0.00260636 -0.00205475 0.00526932 0.000861108 -0.00150617 0.00119454 0.000647631
internal_weight=576834 567433 546990 370959 368645 20443 130394 238251 56935 50844 30320 127917 20524 102692 176031 36009 140022 17284 6837 101996 25225 181316 86337 94979 85931 17188 68743 19835 2314 6176 3039 1696 66502 11441 15224 12956 97293 92017 48118 43899 13243 23060 45456 9929 7260 5276 42843 12060 30783 22375 4973 4362 44881 19049 5766 9401 7785 3131 17102 2111 14991 55061
internal_count=576834 567433 546990 370959 368645 20443 130394 238251 56935 50844 30320 127917 20524 102692 176031 36009 140022 17284 6837 101996 25225 181316 86337 94979 85931 17188 68743 19835 2314 6176 3039 1696 66502 11441 15224 12956 97293 92017 48118 43899 13243 23060 45456 9929 7260 5276 42843 12060 30783 22375 4973 4362 44881 19049 5766 9401 7785 3131 17102 2111 14991 55061
is_linear=0
shrinkage=0.05


Tree=5
num_leaves=63
num_cat=0
split_feature=36 7 26 37 28 21 36 7 7 33 7 7 9 12 19 37 2 37 12 13 12 12 21 28 21 33 10 2 10 17 9 12 28 15 11 12 19 13 20 29 29 33 28 11 19 19 28 17 20 2 11 19 20 7 36 26 10 15 11 28 9 10
split_gain=27.2153 20.042 19.2427 14.2712 15.1648 13.534 11.8657 10.5719 10.4169 9.87479 10.196 9.67692 10.5702 8.9737 8.93922 8.80051 8.74783 8.67325 8.44639 8.31608 8.10534 7.87933 7.25559 7.0238 7.0212 8.302 6.89262 6.65417 8.10816 6.56713 6.30359 7.96811 7.33612 6.5316 7.69485 6.73167 6.16255 5.90165 7.58418 5.86782 5.74165 5.60519 8.53234 5.5743 5.57305 6.2941 5.54139 5.52624 7.87514 6.17093 5.51827 6.19763 10.2585 7.1465 8.00277 5.90099 5.88784 5.58144 5.49367 5.84176 5.43774 6.80778
threshold=0.048022210886348345 0.032537008397715068 -0.18832495416345182 -0.0063276570421782743 0.17333586009279126 0.006739653667278721 0.013461174612776872 0.066870915307129936 0.043405841412874589 -0.00079239765637807464 0.047142641671414687 0.01871570996258283 1.3770299688962646 -0.15382211251497788 -0.087297743808867387 0.03829838230086987 1.3670217101463542 0.0024416229853066376 -0.089433476477680851 0.20190068029972716 -0.065180843750328288 -0.089433476477680851 0.011788504161624722 -0.39380474563727186 0.0062316527016339609 0.01873325297447519 -0.20637110076794626 1.1400521615083361 0.044131611203836636 -0.20305135737217161 -0.064866880563027043 -0.084204427873921503 -0.12081278993515164 0.08299150324391287 1.0000000180025095e-35 -0.091056702013284974 -0.14132154874809796 0.19734265707823359 0.12825950182195395 0.019970619965595512 0.0030981561927470968 -0.0012685409197054668 -0.24081472302032261 -0.26853030483196477 0.24125017086014897 0.13019297216970108 1.4660821702531133 0.11957627787422408 0.023643871240681836 1.5356801124142114 -0.11411173436540185 0.051872753513275603 0.4167287829364581 0.013189851018117657 0.014425454205197329 -0.015678848725384716 -0.4691981492925103 -0.14387706069433132 -0.2857478925560869 0.24367323129397525 0.16310070545101543 -0.19169195269193454
decision_type=8 2 2 10 2 2 10 2 2 10 2 2 8 10 10 10 2 10 8 10 10 8 2 2 2 8 10 2 8 10 8 8 2 10 10 10 10 10 10 10 8 10 2 8 8 10 2 8 10 2 8 8 8 2 10 2 8 8 8 2 10 10
left_child=1 3 22 16 5 6 27 9 -2 19 -11 37 14 -12 18 -9 23 -7 -13 -4 47 -8 26 -1 25 39 -3 29 -29 41 32 33 -19 35 -35 -32 -31 38 40 58 -6 43 -43 -5 45 -18 -16 -14 49 -49 -26 56 57 -54 60 -56 -52 -53 -25 -60 -55 -62
right_child=8 2 7 4 11 17 21 15 -10 10 13 12 20 -15 46 -17 44 30 -20 -21 -22 -23 -24 24 50 -27 -28 28 -30 36 31 -33 -34 34 -36 -37 -38 -39 -40 -41 -42 42 -44 -45 -46 -47 -48 48 -50 -51 51 52 53 54 55 -57 -58 -59 59 -61 61 -63
leaf_value=-0.0033346221893932786 -0.0021952973155847616 0.00068632551766647197 -0.00025052299129554672 -0.0044921675762797106 0.0019878955684493448 -4.3855231775924421e-05 0.0077438489471950119 -0.0024445253609807344 -0.0085190221843235627 -0.0010130308730574324 -0.0017221900342897002 0.0025290798828931337 -0.0032938316254651785 -0.0055965381281794183 -0.00093934633690907873 -0.0087561626255063148 0.00010568590065142742 -0.00054004697814579621 -0.0010496252396508178 0.0048560592654316569 0.0062591866800788031 0.0013196704903459975 0.0027071246724102321 -0.0044373136265410101 -0.001804222235398871 0.0059982281417807447 -0.0054185451638587264 -0.0030916224888706319 0.0016240675603616133 -0.0022132550570366236 0.0023481247246043618 0.0006753763064799845 0.0010769417947449392 0.0017637578205099245 -0.0051140568374797753 0.007932564113780842 0.002186863545595497 -0.0026289357657355728 0.0054514408590745286 0.0044661417269131936 0.00012530888512467914 -0.002031766718136757 0.0001241199662188204 -0.0011962624026824124 0.0011654481667774746 -0.0038065043959795101 -0.0045775288762761037 0.00070634002028254308 0.0053873539578414165 0.0035685799078019409 0.0053971030297438917 -0.00053568165390655974 0.0010959090299897801 -0.0013909747163052258 0.0012635464585491068 -0.00058970684210344346 0.0001211925665462989 -0.0045076221354995753 -0.00035510692365952842 0.0014112303463246288 -0.00078795275430928167 0.0042543608041368886
leaf_weight=2064 8718 3112 22166 1339 20753 77980 550 2583 703 31443 3881 3826 750 2431 9936 702 9490 20277 2896 826 733 3574 5028 655 8479 638 542 1079 5844 1047 7989 78693 10723 1192 616 578 3306 770 1356 785 5168 5888 20796 30177 15621 1152 1169 27811 1010 2019 541 1329 5895 31095 6853 11505 21735 2645 14699 6867 2116 978
leaf_count=2064 8718 3112 22166 1339 20753 77980 550 2583 703 31443 3881 3826 750 2431 9936 702 9490 20277 2896 826 733 3574 5028 655 8479 638 542 1079 5844 1047 7989 78693 10723 1192 616 578 3306 770 1356 785 5168 5888 20796 30177 15621 1152 1169 27811 1010 2019 541 1329 5895 31095 6853 11505 21735 2645 14699 6867 2116 978
internal_value=-2.82466e-06 4.14091e-05 -0.000733704 0.000155275 0.000328202 0.000151579 -0.000427347 -0.00103321 -0.00266803 -0.000883773 -0.00138124 0.000941759 0.000525782 -0.003215 -0.000451647 -0.00379557 -0.00026154 0.000366725 0.00098736 -6.68631e-05 0.00106486 0.0021781 0.00147511 -0.00044399 -0.000392887 0.000376597 -0.000220448 -0.000582033 0.000888753 -0.000744822 0.000633381 0.000847111 1.92914e-05 0.0021495 -0.0005811 0.00272578 0.00112827 0.00168551 0.00180739 0.000220445 0.00161656 -0.000884934 -0.000351649 -0.00133643 0.000564301 -0.000318128 -0.00132271 0.000944136 0.0010473 0.00090018 -0.000588161 -0.000466394 -0.000721915 -0.000554731 -0.000739926 0.00010214 0.000249561 -0.00317978 7.02628e-05 0.000207366 -0.00119207 0.00080676
internal_weight=577122 567701 72714 494987 349845 271648 73600 64032 9421 60747 37755 78197 50150 6312 17827 3285 145142 198048 6722 22992 32323 4124 8682 118879 116815 23644 3654 69476 6923 62553 120068 89068 31000 10375 1808 8567 4353 28047 27277 23006 25921 58200 26684 31516 26263 10642 11105 31590 30840 29830 93171 84692 62416 58442 52547 18358 22276 3974 22221 21566 34189 3094
internal_count=577122 567701 72714 494987 349845 271648 73600 64032 9421 60747 37755 78197 50150 6312 17827 3285 145142 198048 6722 22992 32323 4124 8682 118879 116815 23644 3654 69476 6923 62553 120068 89068 31000 10375 1808 8567 4353 28047 27277 23006 25921 58200 26684 31516 26263 10642 11105 31590 30840 29830 93171 84692 62416 58442 52547 18358 22276 3974 22221 21566 34189 3094
is_linear=0
shrinkage=0.05


Tree=6
num_leaves=63
num_cat=0
split_feature=7 27 35 27 28 8 21 2 35 22 36 12 7 8 36 12 12 30 6 22 34 12 7 34 28 2 21 36 25 10 34 22 34 27 28 27 29 14 21 28 10 36 10 12 12 10 7 5 8 2 21 36 35 10 28 12 36 21 27 22 20 2
split_gain=24.668 27.7186 14.69 15.8135 13.1356 24.0554 12.4596 12.305 11.9606 10.9728 10.4245 10.1285 9.33496 9.26766 12.5161 8.8919 8.51276 8.13714 7.63461 7.57039 7.4041 7.40673 7.24723 7.02416 6.90659 6.55136 9.1984 6.53275 6.45608 6.09458 6.03726 6.01466 6.95308 5.84636 5.83367 5.79937 5.61441 5.45536 5.39346 11.075 6.3336 5.78039 9.64305 9.02293 10.2963 7.42347 5.90053 5.38097 5.23067 5.19871 5.19511 5.13581 5.13556 5.03023 5.00865 8.42015 5.04927 4.92548 5.84589 4.89955 4.89447 4.8815
threshold=0.031738330155466184 -0.20504293822792277 0.0062940209756579659 0.57200998327598584 0.16318116590000645 3.4250000000000003 0.014709988562652114 0.98708946111404694 -0.016143400255263136 -0.002401049599450005 0.003735503465902624 0.34773245991260282 0.019684136758165615 11.415000000000001 -0.00050040576732298346 -0.084204427873921503 -0.011959247990153113 0.0014250713823934912 0.53326753265924176 -0.0055566646476958642 -0.010610569741846014 -0.19744108096803961 0.016864253869819278 -0.0034941918764074317 1.0000000180025095e-35 1.1004040656991558 0.0073030518530800064 0.041754177918710979 0.058120412594488087 0.49914540007032743 0.0044779180543437673 -0.0011555965346239968 -0.008723171184772319 0.15178083605117434 -0.1869259365798587 -0.10833314182408725 -0.0052200350280734858 0.89858876456050341 0.0078656273939453642 -0.48480654205607471 -0.14412304743998447 -0.0033502123776801736 -0.24470805291301792 -0.23324423407786762 -0.15382211251497788 -0.088864243057973316 0.045741498778446861 1.6141286867347766 26.705000000000002 0.42717905273154416 0.011424584516673197 0.0047040315510308477 -0.07614078942905507 -0.20064533008944199 0.58405748472941166 0.25938346335341428 0.033824129345636729 0.01221932212118153 0.12360587089016963 0.0028556087492895561 0.2353628255676371 -1.5772498416539331
decision_type=2 2 10 2 2 10 2 2 10 2 8 8 2 8 10 10 8 8 2 2 10 8 2 8 2 2 2 8 2 10 8 2 10 2 2 2 8 10 2 2 8 10 10 10 10 10 2 2 8 2 2 10 8 10 2 8 8 2 2 2 10 2
left_child=4 20 3 15 8 6 7 9 52 12 -11 -8 -6 14 37 27 23 25 36 24 -2 -22 -20 -4 -5 26 30 38 -23 60 34 -17 -33 -13 51 -18 -7 61 39 -3 -41 42 -40 57 -45 -44 53 -9 -27 -42 -38 -15 -1 -46 56 -56 -12 59 -59 -43 -16 -10
right_child=1 2 16 19 5 18 11 47 13 10 54 33 -14 17 29 31 35 -19 22 -21 21 28 -24 -25 -26 48 -28 -29 -30 -31 -32 32 -34 -35 -36 -37 50 -39 41 40 49 43 45 44 46 -47 -48 -49 -50 -51 -52 -53 -54 -55 55 -57 -58 58 -60 -61 -62 -63
leaf_value=-0.0029441712711012493 -0.0048374634602602554 -0.006485122928954987 -1.6882241189578843e-05 -0.0067871692944893591 0.0012032638831856203 0.001724135230986976 0.0015848257116356926 0.0029844431012510698 -0.0011224785872343446 0.0021915292042965925 0.00029161133116330636 -0.0015870939872306795 -0.00050070339838410546 -0.0023297157720701457 -0.00031784240996846134 -0.0013027487838245325 -0.0036920768524999546 -0.0010995327008104505 0.00063727436644587653 -0.0064849367544714672 0.0053062354535684877 0.001478431586280604 -0.0017936702225777599 0.0034802469699461353 0.00011402471104855197 -0.00087833801300356425 8.9151139683837553e-06 -0.0037071961256355205 -0.0011661687373380131 0.001970117004388225 -0.0018946389174102915 -0.0092916632607651494 -0.003417395533753169 -0.0061148334323190973 -0.00017170332303646758 -0.00040878743415081439 -0.00058589343224549632 -0.0042027783353510654 0.0010024147364504242 -0.0041603808413915146 -0.00024814586882135678 -0.0021303457212160418 -0.0070183803311020341 0.0031668529879916502 -0.0017486396536206439 -0.00044661555843534168 -0.0058028626203941213 0.0001416841517527753 0.0012599536009454044 0.0025417824124580168 0.0014885949156157551 0.00074478305066599099 0.00083554782751215934 0.0034838785397781277 -0.001916268914104435 0.0031450094872390896 -0.0034047425157946298 -0.00057090832020067074 -0.0039697738218616675 -0.0048493609293785624 -0.0020155684961994436 0.0006829640724125692
leaf_weight=917 515 572 3298 533 14296 4549 2202 11447 3928 22304 10502 3082 18358 6656 63606 3056 1519 32295 3988 2423 1049 11732 13253 2542 1129 3764 70958 2271 2872 2748 11511 579 3860 927 24337 11681 16943 595 5238 605 3266 3539 755 1729 1958 996 666 1948 11899 3415 3671 1706 42809 599 1080 3428 1012 4785 1719 3119 4548 79523
leaf_count=917 515 572 3298 533 14296 4549 2202 11447 3928 22304 10502 3082 18358 6656 63606 3056 1519 32295 3988 2423 1049 11732 13253 2542 1129 3764 70958 2271 2872 2748 11511 579 3860 927 24337 11681 16943 595 5238 605 3266 3539 755 1729 1958 996 666 1948 11899 3415 3671 1706 42809 599 1080 3428 1012 4785 1719 3119 4548 79523
internal_value=3.9243e-06 -0.000799172 -0.00125462 -0.00173088 0.000137053 0.000561974 0.00102206 0.00118116 -1.91401e-05 0.000918827 0.00149264 -0.00113912 0.000245312 -0.000125731 0.000151192 -0.00144665 -8.36531e-05 -0.000388771 -0.000420886 -0.00470264 0.00105581 0.00125001 -0.00123137 0.00150566 -0.00210192 -0.000213315 -0.000343799 -0.00111391 0.000958304 -0.000338067 -0.0009099 -0.00301044 -0.00418552 -0.00263531 -0.000563195 -0.000786866 0.00013446 0.000563934 -0.000935124 0.000208025 0.0007343 -0.00129296 -7.14622e-05 -0.00176422 5.50956e-05 -0.00328263 -0.00161469 0.00257107 0.000746074 0.0011781 -0.000216408 -0.00170245 0.000756216 -0.000521993 0.000519662 0.0019323 -3.35398e-05 -0.00244867 -0.0014697 -0.00340463 -0.000431162 0.00059797
internal_weight=576810 82020 65852 46812 494790 132990 90586 84375 361800 70980 38326 6211 32654 318074 154948 42727 19040 163126 42404 4085 16168 15653 17241 5840 1662 130831 115168 35232 14604 70902 44210 7495 4439 4009 32699 13200 25163 84046 32961 7858 7286 25103 6989 18114 4952 1751 3223 13395 15663 6681 20614 8362 43726 2557 16022 4508 11514 13162 6504 6658 68154 83451
internal_count=576810 82020 65852 46812 494790 132990 90586 84375 361800 70980 38326 6211 32654 318074 154948 42727 19040 163126 42404 4085 16168 15653 17241 5840 1662 130831 115168 35232 14604 70902 44210 7495 4439 4009 32699 13200 25163 84046 32961 7858 7286 25103 6989 18114 4952 1751 3223 13395 15663 6681 20614 8362 43726 2557 16022 4508 11514 13162 6504 6658 68154 83451
is_linear=0
shrinkage=0.05


Tree=7
num_leaves=63
num_cat=0
split_feature=27 7 35 7 37 21 2 27 10 9 34 2 22 9 36 21 33 37 5 35 21 13 5 10 31 13 7 21 31 33 9 9 22 33 5 33 36 7 15 27 5 7 36 15 34 20 21 10 9 35 34 36 27 9 10 18 37 10 7 15 21 21
split_gain=21.2304 29.7827 15.5088 15.2803 13.3742 10.9432 9.69234 9.23351 11.1234 8.76649 8.37212 8.30896 9.70265 8.48151 8.11758 7.39546 7.56219 7.1497 6.9611 6.82081 6.64855 8.96016 7.18861 11.3151 6.0574 6.00436 5.9594 5.95674 5.91078 5.79832 6.4319 6.34529 5.7974 5.65791 7.63695 5.60374 5.49293 10.1137 5.48961 5.38125 9.85686 5.53684 5.25084 6.72062 5.21916 5.69223 5.19542 5.15902 5.1179 5.10355 4.84728 5.22042 7.60744 5.08285 4.83233 11.1611 5.63151 4.81242 5.14372 5.4005 4.79373 4.71346
threshold=-0.30311166247034049 0.037264820072804024 0.022930263341901753 0.014800681796609578 -0.0042927118425125305 0.0076313404012624117 -0.5890319172449977 -0.031340739764141583 0.040646853066252826 0.37734111248806862 0.00059972820185144832 0.03940629329820633 -0.0068563369534660268 -0.3817532261391508 -0.035587738473874246 0.012671704124162795 0.0025459831365839346 0.0013541451805588621 0.091925002035049774 0.00034945797296730808 0.006739653667278721 -0.018261649957828779 -0.52604055908001313 0.095107981267779806 0.00089994932363446443 -0.118779347798652 0.066870915307129936 0.014350732533254727 -0.0030320870022956599 -0.00031798645802083028 0.078239868489666062 -0.057782938277180999 0.045456531133491344 0.0065251451664895942 1.3997068871488354 -0.025546143222911284 0.018371834833918185 0.043405841412874589 -0.36935657605807376 -0.21303314465940129 -0.28551882602388717 0.026897494181858977 0.00030501311674283369 -0.66573135002568884 -0.0128837767575641 -0.35681730033336861 0.011856265112970265 -0.12081545005199737 -1.14720168409656 -0.029235334420797485 0.0034863016676723352 -0.0012540328539891558 0.17549691959387806 -0.055015189598108201 -0.17275294059158228 -0.33222354369561946 0.030842018028448649 0.17228709847504545 0.0085865727168205029 0.38440280689101486 0.021226607522329133 0.0099263537069433656
decision_type=2 2 10 2 8 2 2 2 8 10 10 2 2 10 8 2 10 8 2 10 2 8 2 10 8 10 2 2 10 8 10 10 2 10 2 10 8 2 10 2 2 2 8 8 10 8 2 10 8 10 10 10 2 10 10 8 10 8 2 10 2 2
left_child=6 3 11 7 20 14 -1 17 19 10 54 36 18 26 47 49 -17 -2 -13 -9 21 -5 23 50 -23 32 -14 -4 -10 -15 31 -31 48 44 -35 -12 -3 -38 -19 40 -37 60 43 -16 -27 -46 57 -6 -24 -11 51 52 -22 -53 -7 -56 -57 -30 -59 -60 -41 -8
right_child=1 2 27 4 5 9 61 8 28 15 35 12 13 29 42 16 -18 38 -20 -21 22 24 25 -25 -26 33 -28 -29 46 30 -32 -33 -34 34 -36 39 37 -39 -40 41 -42 -43 -44 -45 45 -47 -48 -49 -50 -51 -52 53 -54 -55 55 56 -58 58 59 -61 -62 -63
leaf_value=0.0028709721119014845 -0.00087142783980111182 -0.0003375846776474877 0.0029528876189865391 -0.0023647637811886079 -0.0026355761158919177 6.1405738315202459e-05 -0.0019785869983318543 0.00087717899337867689 -0.001184850302442845 -0.002360926523709235 -0.0018827523220657115 -0.0039100070567631593 -0.00147539797260972 -0.0022475901551784372 0.003847225600269909 0.00086860911040444091 -0.004917471414658146 0.00020222118201762104 -9.4437938794859821e-05 -0.0014077763896195483 -0.00095167501856707401 -0.00017629753202288092 0.003283992588347349 0.0015462756392380331 0.0011276856903123138 0.003590801740151247 -0.0066286499658642362 -0.0021511181096333059 0.004001410285568132 -0.005024286284419365 -0.0022200304195572227 -0.0097442936847910583 -0.0040132132483883141 -0.001629936690327909 -0.0069895096027092832 -0.00037402622714209069 2.9622760274901915e-05 -0.0068384869998420186 0.0019343846055540617 0.00068964480690789434 0.0027374986307346122 -0.00028047793007002908 0.00034773490939809382 -0.00054348982627207883 -0.0051568274463290346 -0.00069786233489870799 -0.00055739577473977442 0.0023810531134860645 -0.00021627056219558827 0.0027106660213587221 -0.0035947040237550784 -0.0020167803281746842 0.0035936678356556298 0.00014630699068125434 0.0042141800401884989 -0.0012202090868993051 -0.0065927112157349302 0.0033924813698019969 0.0013981336650525141 -0.0035806593455250408 0.0043313796042069256 0.0014230148512939737
leaf_weight=9235 14246 12436 2677 3374 5096 48817 1783 6333 2199 526 2213 1485 6878 2218 885 2853 703 33679 6112 6742 4303 23189 1059 3249 14458 635 610 726 2005 2281 1193 1038 991 2238 945 3858 1189 975 5292 54226 7478 17055 30546 53377 786 7911 2955 569 70574 8511 2665 18842 1170 3173 937 11226 509 3270 36428 552 918 2372
leaf_count=9235 14246 12436 2677 3374 5096 48817 1783 6333 2199 526 2213 1485 6878 2218 885 2853 703 33679 6112 6742 4303 23189 1059 3249 14458 635 610 726 2005 2281 1193 1038 991 2238 945 3858 1189 975 5292 54226 7478 17055 30546 53377 786 7911 2955 569 70574 8511 2665 18842 1170 3173 937 11226 509 3270 36428 552 918 2372
internal_value=1.11084e-06 -4.56572e-05 -0.00136388 5.45983e-05 -8.76716e-05 0.000140371 0.00196873 0.000567444 0.000990084 0.000389106 0.000280804 -0.00166554 -0.00228341 -0.00305417 -0.000299045 0.00165524 -0.000276325 8.7081e-05 -0.000840691 -0.000301054 -0.000445398 0.000103257 -0.000635258 -0.00125688 0.000324502 -0.000391368 -0.00189603 0.00186368 0.00134617 -0.00434228 -0.00537125 -0.00650293 -0.000217052 -0.00140282 -0.00322283 0.000600078 -0.000742254 -0.00306656 0.000437481 0.000665874 0.00167861 0.000506843 -0.000176626 -0.000471809 -0.000781759 -0.00110139 0.0014693 -0.00213137 -0.000164479 0.00241524 -0.00155897 -0.00136148 2.04925e-05 -0.00170502 -0.000164433 -0.00103438 -0.00145378 0.00161104 0.00149187 0.00132372 0.000750347 -3.68106e-05
internal_weight=576774 563384 39818 523566 409865 250303 13390 113701 60484 159830 147237 36415 21815 14218 90473 12593 3556 53217 7597 13075 159562 41021 118541 33402 37647 85139 7488 3403 47409 6730 4512 3319 72624 12515 3183 85748 14600 2164 38971 83535 11336 72199 84808 54262 9332 8697 45210 5665 71633 9037 30153 27488 5473 22015 61489 12672 11735 42255 40250 36980 55144 4155
internal_count=576774 563384 39818 523566 409865 250303 13390 113701 60484 159830 147237 36415 21815 14218 90473 12593 3556 53217 7597 13075 159562 41021 118541 33402 37647 85139 7488 3403 47409 6730 4512 3319 72624 12515 3183 85748 14600 2164 38971 83535 11336 72199 84808 54262 9332 8697 45210 5665 71633 9037 30153 27488 5473 22015 61489 12672 11735 42255 40250 36980 55144 4155
is_linear=0
shrinkage=0.05


Tree=8
num_leaves=63
num_cat=0
split_feature=36 27 11 16 14 17 33 27 28 9 19 35 27 18 37 2 28 35 9 15 36 9 15 14 28 20 9 37 2 28 19 11 20 10 35 28 9 9 26 28 36 36 26 19 18 26 15 13 14 2 11 19 35 10 13 9 2 10 20 19 17 20
split_gain=20.181 19.5115 12.64 12.3597 15.2649 11.4415 11.2227 12.3062 11.1538 17.5441 12.8574 10.0826 9.97435 9.60126 9.15729 9.12683 9.09909 8.53001 9.1605 8.18536 8.0364 7.80048 13.4955 8.62818 8.55794 7.44386 7.40614 7.40429 7.18839 7.14116 6.8723 6.85851 6.82081 7.24522 6.67287 6.66014 7.23163 6.59273 6.58257 6.69455 6.57101 6.537 9.31052 7.56316 7.92143 6.45954 6.40393 7.09959 6.89998 6.311 6.23505 6.13635 6.12437 7.25804 8.36251 6.59211 6.05728 6.08189 6.03818 6.40498 8.45413 7.82151
threshold=0.048022210886348345 -0.2914117851769209 -0.1338339471076086 -0.36833955714247252 0.16752257567698195 0.07019906589014982 -0.025546143222911284 0.64115681353019971 0.22637089278880332 1.3770299688962646 0.84668319561304628 -0.0031416201598677813 0.014290077668208336 1.0364277080596433 -0.0012050545388858668 -0.6005454386721214 -0.44545968699006078 0.031078464979086017 -0.23573100586448606 0.40453992163201452 -0.037277960124283249 -0.048235767417435342 -0.32532719281069461 -0.14614319323947439 0.37170476457286944 -0.66217202247329221 -0.1145668005611937 0.027359485951049353 1.0231614597790262 -0.17291945933869526 -0.050761580655488699 -0.11938358050000937 0.28136890914432033 0.11181840295915862 -0.016541885807620737 1.4660821702531133 -0.075798067566269361 0.10609529238292506 0.13343489136613676 -0.6297196193446174 0.003735503465902624 0.0067932756307654231 0.15044332015632725 -0.21060232055637676 -0.16359029614596007 0.0059622552475945287 0.65985690105244199 -0.0055652725197414777 -0.19832401214110582 2.2182571559354343 4.0577077497899614 0.10606799752886968 0.010172404960119789 -0.036869046128844389 -0.077556045245623664 -0.3137303415347022 1.1613414362927654 -0.56062680326415171 -0.42733696435957474 0.049261642653342756 0.10506734064414525 0.11173820795979274
decision_type=8 2 8 8 10 10 10 2 2 8 10 10 2 10 10 2 2 10 10 10 10 10 8 8 2 10 10 10 2 2 10 10 8 10 10 2 10 10 2 2 10 10 2 10 10 2 10 8 8 2 8 8 10 10 8 8 2 8 8 8 8 10
left_child=1 15 5 4 25 17 12 8 13 21 28 -9 26 14 16 -1 -8 20 -19 -7 -3 23 51 -10 -24 -4 -5 31 41 -2 -14 35 33 -26 45 36 -25 38 39 -16 -38 42 43 -11 50 -18 48 -48 -36 52 -45 -23 53 -22 -55 -54 57 -50 -59 61 -61 -60
right_child=29 2 3 6 -6 19 7 11 9 10 -12 -13 30 -15 37 -17 34 18 -20 -21 49 22 24 27 32 -27 -28 -29 -30 -31 -32 -33 -34 -35 46 -37 40 -39 -40 -41 -42 -43 -44 44 -46 -47 47 -49 56 -51 -52 -53 55 54 -56 -57 -58 58 59 60 -62 -63
leaf_value=0.0026131414986493946 -0.0052544868468867431 -0.0057874540237803649 -0.0033169207278463974 -0.0040571561180788905 0.010781324377262072 0.00094594909118083693 -0.0030136312119409172 -0.0055646108561726061 0.0054689898234704199 0.00088116626776000022 0.0058663285541710637 -0.0008001398547660926 0.0021444147136002434 0.0051535282807727185 0.0056180716844188962 3.3755892987738338e-05 0.0034285325415759869 0.0045703860556968613 -0.0033262814026701645 -0.0032668083073594638 -0.0010958349470409612 -0.0083887656096196788 0.00094899466487800312 0.00017979461563121606 -0.0021936748691371833 0.002907383730788987 0.0019834080588881234 0.0032012684305912742 0.0020254180076887799 -0.0016501496442417705 -0.0040738639857234573 -0.003182471056737109 -0.00091113714314588817 -0.0090510494349131353 0.0039132038698547235 -0.0029989448307313725 0.0083669699027173489 0.00095426529294080392 -0.0011023128351660707 0.00013716533075712467 0.00044560881531715657 -3.3413191657253456e-05 -0.0041108673179879526 0.0086125491218903769 -0.0026350013053235716 0.00010322262023963153 -0.0035650218835724824 0.0011202966147433535 0.0031579935289367668 -0.0045846319926637217 0.0028988165776632638 -0.0017354790945684154 5.8389576707011152e-05 -0.0039122599118780136 0.0016801743063318026 -0.003714996416933845 0.00027529637875799948 -0.0029645709485236508 0.00066735892523769359 -0.0069537443656687058 -0.0006307785995746624 -0.0019385655212622987
leaf_weight=10633 1669 950 604 4025 538 12425 3083 1662 794 36037 1319 3343 1857 891 558 5062 2308 1268 516 1270 28977 858 5579 13000 1317 2332 580 1802 11744 7771 583 1698 10207 544 972 1503 535 24354 11091 166594 512 21385 859 535 584 3974 2972 1110 1130 1286 4403 582 1657 778 4711 3838 33728 2483 19214 531 84204 3386
leaf_count=10633 1669 950 604 4025 538 12425 3083 1662 794 36037 1319 3343 1857 891 558 5062 2308 1268 516 1270 28977 858 5579 13000 1317 2332 580 1802 11744 7771 583 1698 10207 544 972 1503 535 24354 11091 166594 512 21385 859 535 584 3974 2972 1110 1130 1286 4403 582 1657 778 4711 3838 33728 2483 19214 531 84204 3386
internal_value=4.81611e-06 4.29729e-05 -6.49327e-06 7.53003e-05 0.00304671 -0.000706915 5.42459e-05 8.31228e-05 0.00010893 0.000536146 0.000974136 -0.00238306 -0.00192685 -2.75098e-05 -4.02871e-05 0.00178129 -0.000324191 -0.00109988 0.00228579 0.000555071 -0.00124307 -0.00032863 -0.00105026 0.000365488 -0.000670307 0.00162621 -0.00329608 0.000152499 0.000888645 -0.00228789 0.000657594 -0.000166191 -0.00141892 -0.00420198 -0.000271025 0.000163359 0.000501908 0.000182656 7.7224e-05 0.000155496 0.00449742 0.000679374 0.00103872 0.00114525 0.00286823 0.00132529 -0.000338007 -0.002291 -0.000283256 -0.00113827 0.00351948 -0.0057028 -0.00102725 -0.000780044 0.000886946 -0.00257734 -0.000311477 -0.000489856 -0.00052742 -0.000471014 -0.000670484 0.000276863
internal_weight=576715 567275 551580 493904 3474 57676 490430 483385 478380 115797 76866 5005 7045 362583 361692 15695 159095 43981 1784 13695 42197 38931 19087 19844 17647 2936 4605 19050 75547 9440 2440 17248 12068 1861 156012 15550 14047 202597 178243 167152 1047 63803 42418 41559 5522 6282 149730 4082 145648 41247 4938 1440 39961 34466 5489 5495 144676 110948 109818 107335 84735 22600
internal_count=576715 567275 551580 493904 3474 57676 490430 483385 478380 115797 76866 5005 7045 362583 361692 15695 159095 43981 1784 13695 42197 38931 19087 19844 17647 2936 4605 19050 75547 9440 2440 17248 12068 1861 156012 15550 14047 202597 178243 167152 1047 63803 42418 41559 5522 6282 149730 4082 145648 41247 4938 1440 39961 34466 5489 5495 144676 110948 109818 107335 84735 22600
is_linear=0
shrinkage=0.05


Tree=9
num_leaves=63
num_cat=0
split_feature=7 2 27 7 27 28 12 5 33 12 15 13 13 19 21 21 28 12 20 18 13 21 5 15 21 19 27 11 21 21 21 19 20 37 27 37 19 19 29 18 27 2 14 21 24 15 28 33 21 37 32 6 34 22 37 13 2 29 21 20 19 11
split_gain=20.8407 18.1407 14.0085 14.5617 13.3299 12.836 12.7106 11.5392 10.5888 9.81862 9.40526 9.70302 9.28249 8.20758 7.78248 7.69863 7.40366 10.9471 10.4393 10.1169 11.19 8.89276 9.52809 8.45502 8.10741 9.96764 9.52747 10.4071 8.5508 8.11274 7.63443 7.38585 7.34739 7.25739 9.43413 7.02847 11.0798 6.86634 7.56927 6.81853 7.96033 6.75005 6.69198 6.62247 6.60934 6.27104 6.27014 6.23637 6.2059 6.81422 7.15576 6.01631 5.98923 5.97903 5.64537 5.63313 5.63203 5.66437 6.39694 5.60365 5.45784 5.80959
threshold=0.041653605100907341 -0.96818047401094731 -0.30311166247034049 0.020458222321185722 -0.18747305569925846 0.1579743172446583 -0.14196682688960649 -0.28551882602388717 -0.004644592264984748 -0.16337850930145517 -0.45260170239039249 -0.043268738489426188 -0.027635131639638214 -2.2519630088585374 0.016837713809002088 0.01490336027733997 0.25547834420532672 -0.089894577945235074 0.42558421336906832 -0.064183419625082949 0.019655333202944578 0.013827111695214778 0.038793006618586791 0.50396781732972773 0.013827111695214778 -0.061075304322049946 0.0096865332037104918 -0.41839331361450277 0.0069199471711817407 0.0060110716067985443 0.0086319367896083299 -0.14132154874809796 1.2772440585573783 0.0024416229853066376 -0.034272959687290265 -0.0057004976739719023 -0.48364296494294573 0.2232085021356045 0.0081606465421970326 -0.5600144286079537 0.080006375518010833 -0.5890319172449977 0.89858876456050341 0.0078823292451305812 0.0063227813441407302 -0.18547260405625393 1.6244079912190226 -0.00013017306327673374 0.0097884833954897058 -0.028433989998672648 0.00094327510520542882 0.76327735058632007 0.000146078785678435 -0.01046149123373582 0.013612969220994975 -0.21964715312977437 1.2713690658325125 0.0030981561927470968 0.0098498297936706319 -0.61598137955463195 0.17835994582354772 -0.23393261079942279
decision_type=2 2 2 2 2 2 8 2 10 8 8 10 10 8 2 2 2 10 8 10 10 2 2 10 2 10 2 10 2 2 2 10 8 8 2 10 8 8 10 8 2 2 10 2 2 10 2 8 2 10 10 2 10 2 10 10 2 8 2 8 8 8
left_child=2 6 41 5 7 8 -2 -5 12 -3 -11 37 15 -6 -9 60 21 19 -19 20 23 39 54 24 25 26 31 28 -28 -27 44 53 -22 34 52 36 -7 38 51 40 -15 55 -41 -43 -30 48 -31 -8 -20 -50 -51 -12 -10 -18 -23 -1 57 -37 -59 -38 61 -4
right_child=1 9 3 4 13 35 47 14 33 10 11 -13 -14 16 -16 -17 17 18 45 -21 32 22 -24 -25 -26 29 27 -29 30 46 -32 -33 -34 -35 -36 56 59 -39 -40 42 -42 43 -44 -45 -46 -47 -48 -49 49 50 -52 -53 -54 -55 -56 -57 -58 58 -60 -61 -62 -63
leaf_value=0.0037573463976925334 0.0067427725846043625 0.001209987830432249 -0.0027487274985459834 -0.0008380324800366239 -0.0053720739437616224 -0.006184766127670346 0.001101150660547334 0.0018622095373183635 -0.0014083817497102323 -0.007334872312383652 -0.0031996294432041551 0.0015498701372874265 0.001716989538193689 -0.0005795664463265443 -0.0011139974287600516 0.0029674769032788512 -0.0026466524690738446 -0.0037569899193970698 -0.0021790315023553211 -0.0034293085692205594 0.0056837603739689395 0.0010312947981286505 -0.00034798498506705247 0.0054212121197136608 -0.0013573434645825027 -0.0043187581231308118 0.0028119878545911714 -0.0028531370534860081 -0.0012842452120266227 0.00016723806159350222 0.001723487470623764 0.004136065903095244 -0.0008733632690526565 0.0007045587985626073 0.00030973052184125302 0.0015436048465051477 -0.0039683795633775713 -0.001593494927833102 0.00052260742111121948 -0.00072452258807388257 0.0055032088694194712 -0.0034350509965400651 -0.0062668928337433266 0.0016538104606749803 0.0025630470720662182 0.0033187369711942284 -0.0055039070564318684 -0.0022294949099537567 -0.0045041123080922585 0.0029461851451147384 -0.0013607938488030887 -0.0064709177656413555 6.6476631707503559e-05 -9.2054870251978339e-06 0.0042007730185232373 -0.00042133887392917609 0.0042920114497308603 0.00069089358743808411 -0.0031049048363890725 0.00057351432373598746 -0.0013200026961840703 0.00027240467803006044
leaf_weight=4803 809 2128 1822 7523 812 648 4738 16720 15517 907 4560 1640 4085 1236 2528 1328 2924 3105 4480 1699 1634 6295 16823 807 6715 1590 8927 1410 5101 5695 10791 846 578 65696 82413 28670 699 9707 969 126811 951 905 546 2171 1428 998 532 1997 605 2359 1630 2034 12371 8098 1808 969 1562 5997 1361 22760 26823 12518
leaf_count=4803 809 2128 1822 7523 812 648 4738 16720 15517 907 4560 1640 4085 1236 2528 1328 2924 3105 4480 1699 1634 6295 16823 807 6715 1590 8927 1410 5101 5695 10791 846 578 65696 82413 28670 699 9707 969 126811 951 905 546 2171 1428 998 532 1997 605 2359 1630 2034 12371 8098 1808 969 1562 5997 1361 22760 26823 12518
internal_value=4.83872e-06 -0.00128992 7.46262e-05 4.21871e-05 -0.00023293 0.000288013 0.000825112 0.000822327 0.000111117 -0.00201701 -0.00236357 -0.00212475 -0.000559269 -0.000357255 0.00147128 -0.000778139 -0.000339247 7.96754e-05 -0.00122279 0.000371697 0.000484901 -0.00053438 0.000330474 0.000344289 0.000268398 0.000499018 0.000821665 0.00133017 0.001555 -0.00113228 0.000907006 -0.000363364 0.00397075 0.00028853 4.07365e-05 0.000926159 0.000259747 -0.00247377 -0.00360324 -0.000700791 0.00206679 0.00204786 -0.000748333 0.00015597 -0.000442515 -0.000441256 -0.000318079 0.000113394 -0.000855117 0.000436137 0.00118635 -0.00420953 -0.000754162 -0.000709064 0.00173892 0.00305588 0.00135352 0.00122601 -1.1537e-05 0.000438018 -0.000899049 -0.000111617
internal_weight=576612 29489 547123 538275 254005 284270 7544 26771 222573 21945 19817 18910 46576 227234 19248 42491 226422 71952 13177 58775 57076 154470 24926 54864 54057 47342 39525 27657 26247 7817 17320 11868 2212 175997 110301 61697 24107 17270 7563 129544 2187 8848 127357 3076 6529 10072 6227 6735 9074 4594 3989 6594 27888 11022 8103 5772 37590 36028 7358 23459 41163 14340
internal_count=576612 29489 547123 538275 254005 284270 7544 26771 222573 21945 19817 18910 46576 227234 19248 42491 226422 71952 13177 58775 57076 154470 24926 54864 54057 47342 39525 27657 26247 7817 17320 11868 2212 175997 110301 61697 24107 17270 7563 129544 2187 8848 127357 3076 6529 10072 6227 6735 9074 4594 3989 6594 27888 11022 8103 5772 37590 36028 7358 23459 41163 14340
is_linear=0
shrinkage=0.05


Tree=10
num_leaves=63
num_cat=0
split_feature=36 30 25 37 21 2 31 8 33 2 36 21 19 32 26 14 11 13 37 9 8 17 36 37 19 13 19 19 26 19 12 22 35 15 13 35 9 37 34 19 11 12 14 12 12 15 12 9 34 26 33 11 12 26 13 11 13 19 12 20 8 21
split_gain=17.4591 12.0463 9.98246 8.5011 7.93906 7.48896 7.9639 7.94196 6.84226 7.33419 6.44317 6.38767 5.51978 5.42475 5.35476 5.33902 5.96545 5.91121 5.71892 4.97169 5.61133 7.382 5.42079 5.27718 5.23953 4.96601 4.90907 4.86358 4.80442 4.74765 7.16856 5.63556 5.48824 4.66815 4.73065 4.64958 4.62519 4.48506 5.27537 4.48171 4.48167 4.42802 4.44409 4.42795 4.37105 4.17579 4.45943 8.35682 4.14976 5.62813 4.5419 4.13498 4.11245 4.10369 4.61285 3.83308 4.9016 5.5777 4.2365 4.09111 3.80811 3.77743
threshold=0.05824423888848327 0.00071641410839194143 0.097561822595176886 -0.0042927118425125305 0.0070155844373997979 1.1831561460069169 -0.0027936197242140926 7.995000000000001 -0.032655867840558149 -0.67330267287259327 0.0027458572959060583 0.0063672364928450522 -0.24617559714409795 0.0045312721863229556 0.50120820842119618 -0.20851642976948331 -0.087700707288532589 0.03516116238734654 -0.065447073571678963 0.022508085368871607 0.41500000000000004 -0.10053359808075264 -0.026529302431683516 0.014266662431413838 1.3731325842851405 -0.042962567492872868 -0.07539082391469111 0.074275460480607527 0.17793363058889414 -0.061075304322049946 -0.78742544475543863 0.030244702686233693 0.0047119866758905818 0.32961270378478708 0.10482714496665554 0.00044093594037293864 0.10609529238292506 -0.03815193319179027 -0.0089633331551794235 -0.094733802356230287 -0.091782750764710583 -0.14196682688960649 -0.18926756985371726 -0.088872263333667892 -0.096245217140116565 -0.62124557960931692 3.8779027497263585 -0.21586684026717559 -0.00079247588459030124 -0.17385232448601037 -0.023246204786663966 -0.15431248164235334 0.0069248435548655883 -0.10422548768402111 -0.018261649957828779 0.25084187981243694 -0.001873726034522998 0.28836982337718636 -0.11830153591024646 -0.13315013602571912 1.0000000180025095e-35 0.0094844779630652559
decision_type=8 8 2 8 2 2 8 8 10 2 10 2 8 10 2 8 8 8 10 8 8 10 10 10 10 10 10 10 2 10 10 2 10 10 10 10 10 10 8 8 10 8 8 10 10 8 8 10 10 2 10 8 10 2 8 8 8 8 10 10 10 2
left_child=1 2 3 11 -4 7 25 10 -5 41 27 37 -13 19 60 17 39 -14 -18 20 51 29 35 26 -24 -7 -23 -3 -2 40 32 43 -31 34 -29 -21 48 38 -1 -17 45 42 -10 44 -32 -22 -47 -48 -9 -50 -51 -11 -45 -39 -55 56 58 -58 -43 -60 -6 -8
right_child=28 5 4 8 14 6 61 36 9 13 -12 12 15 -15 -16 16 18 -19 -20 22 21 23 24 -25 -26 -27 -28 33 -30 30 31 -33 -34 -35 -36 -37 -38 53 -40 -41 -42 55 -44 52 -46 46 47 -49 49 50 -52 -53 -54 54 -56 -57 57 -59 59 -61 -62 -63
leaf_value=0.00069015685305425824 -0.002358268391427915 0.00055330758705128275 0.0012331040968616488 -0.0024505455784932673 -0.00044485406181206096 0.0016290358234850217 0.00045356732845394459 -0.001271537050875053 -0.0016736350017174753 -0.0012731369129712832 -0.00080608239873564385 -0.0018183698750568627 0.0007616064103955645 -0.00064057804850488299 -0.0064647526301714817 0.00114462061278376 -0.0047570431039658948 0.0069509210179824676 -0.00013082144159613608 0.00054527026231948334 -0.0035399339621395541 -0.0017971737792392738 0.0005410421158467102 0.0048105670338008284 0.0045947433386336091 0.0068419238556017212 0.0017429602131954728 -0.00078427324886576723 -0.0068766864478415944 0.0016456959216778985 -0.0013998628508487081 -0.0059475021961868093 -0.0034990774773840183 -0.0052795895392914495 0.0032418796993577922 -0.0021542984382512051 0.0004788796530934247 -0.0024578005564684052 0.0069398449394014669 -0.0025256497251979113 -0.0035045780891236342 -0.00030792787466248084 0.0023717561805822814 -0.0048799500636548809 0.0021213957867422029 0.00056582163848974761 -0.0032442010040002163 0.0034597621215808993 0.0016803365937699208 -0.0029382208966524585 -0.00055391663051040485 0.0015482815373425267 -0.0014988688518046025 -0.0019133993103379627 0.0008454269025943875 0.00082594416553702843 -0.0015584212400736467 0.0033583497663712139 0.0010490604341692152 0.0059393340827475849 -0.0024832903089454681 -0.00067526386770561542
leaf_weight=783 4116 34855 2622 2116 4163 4722 19599 38571 755 1589 19905 5801 1585 16421 593 1015 673 509 75545 2932 771 1424 109414 907 802 505 3130 8627 686 2783 5937 807 636 526 796 3496 6522 1153 593 4593 929 2193 6678 1644 1034 14337 1996 605 2671 2129 32094 7089 1987 1655 17822 63626 5764 640 1091 703 5096 11916
leaf_count=783 4116 34855 2622 2116 4163 4722 19599 38571 755 1589 19905 5801 1585 16421 593 1015 673 509 75545 2932 771 1424 109414 907 802 505 3130 8627 686 2783 5937 807 636 526 796 3496 6522 1153 593 4593 929 2193 6678 1644 1034 14337 1996 605 2671 2129 32094 7089 1987 1655 17822 63626 5764 640 1091 703 5096 11916
internal_value=-3.0705e-06 2.21422e-05 0.000179842 0.000226013 -0.00121165 -0.000311792 0.000326559 -0.000471677 0.000380616 0.00040348 -5.75655e-05 -0.000139625 -0.00032686 0.000225896 -0.00186235 -0.000223738 -0.000287548 0.00226868 -0.000171733 0.000312526 -0.000118074 -0.000374385 0.000488263 0.00132996 0.000570581 0.00213388 0.000635837 0.000274987 -0.00300505 -0.000652532 -0.00132018 -0.00192196 0.000687925 -0.000700028 -0.000443859 -0.000923052 -0.000798513 0.000623734 0.0033866 -0.00186128 -0.000121326 0.000797384 0.00196068 -0.00161502 -0.000877329 5.63449e-05 0.000220243 -0.00168411 -0.000908916 -0.000529787 -0.000702325 0.00103157 -0.00303064 0.000439298 0.000610918 0.000680537 -0.000209808 -0.0010666 0.00116632 0.00296761 -0.00156692 2.6742e-05
internal_weight=576677 571875 388437 375963 12474 183438 36742 146696 264236 262120 64709 111727 89721 180670 9852 83920 81826 2094 76218 164249 47605 38927 116644 5461 110216 5227 4554 44804 4802 33466 14828 11409 3419 9949 9423 6428 81987 22006 1376 5608 18638 81450 7433 10602 6971 17709 16938 2601 75465 36894 34223 8678 3631 20630 19477 74017 10391 6404 3987 1794 9259 31515
internal_count=576677 571875 388437 375963 12474 183438 36742 146696 264236 262120 64709 111727 89721 180670 9852 83920 81826 2094 76218 164249 47605 38927 116644 5461 110216 5227 4554 44804 4802 33466 14828 11409 3419 9949 9423 6428 81987 22006 1376 5608 18638 81450 7433 10602 6971 17709 16938 2601 75465 36894 34223 8678 3631 20630 19477 74017 10391 6404 3987 1794 9259 31515
is_linear=0
shrinkage=0.05


Tree=11
num_leaves=63
num_cat=0
split_feature=36 27 30 27 9 28 19 2 28 27 2 6 33 28 14 27 27 19 28 9 35 35 5 13 29 32 5 9 22 35 19 9 34 32 34 36 11 11 35 17 20 35 5 19 30 13 17 20 11 11 9 2 26 36 9 19 34 17 15 1 36 19
split_gain=16.85 14.1268 10.1192 9.62992 8.24849 9.83962 8.30715 6.96387 10.964 7.66978 6.84993 6.81493 6.6952 6.46443 6.67705 5.80362 6.54946 5.85533 5.90568 5.52593 5.92816 5.43478 5.36694 5.27035 5.03476 6.43381 5.28665 6.21746 4.82535 5.30305 4.82484 4.62807 4.58063 4.75348 4.46822 4.50781 4.46255 10.6398 7.597 6.11289 5.40565 4.32663 4.30063 4.29419 4.38712 4.12205 4.70994 4.61941 4.37949 6.03215 4.7182 4.08895 6.08037 6.08163 5.38269 4.51929 4.47618 4.04284 4.5362 4.00871 4.00699 3.99012
threshold=0.048022210886348345 -0.30311166247034049 0.00069791312451820563 0.75964779206331157 0.41228715909688735 1.4660821702531133 1.1935394255302596 1.1831561460069169 -0.061252077571365852 0.37265346962112472 -0.5890319172449977 0.82440877210695607 -0.032655867840558149 0.22637089278880332 0.19291012715436101 0.52396645557805266 -0.021384344674994334 -0.042645635343477428 -0.25455700551381649 0.37734111248806862 0.032668116629962211 -0.0027953064205563836 -0.48771665758859289 0.0068648667028402407 -0.0098837232731361861 0.0016745744262126464 1.145377844534097 3.9881110483360831 -0.0068563369534660268 -0.0090532876278029036 0.018534012667883848 1.1116484876408517 0.033179208185928129 0.00059955948568420471 0.00054614690052230675 0.025255642200729348 0.64190532529926825 0.11554595095539739 -0.046594849948457355 -0.22345558354238496 0.73285990651759136 -0.008631875253741747 -0.56587706690557371 -0.06595697380972583 -0.0016213100233866188 -0.13885371033021426 0.16257367348971932 -0.35681730033336861 -0.79294649015187502 -0.39965515935761592 -1.874271391031775 1.3670217101463542 0.14672969617860124 0.0075010729958320827 0.86632965505960302 0.1216293616968873 0.0020534260842630819 0.024157934756096826 1.4960884627954212 -1.6963038818021012 0.006442946891386153 -0.094733802356230287
decision_type=8 2 8 2 8 2 10 2 2 2 2 2 10 2 10 2 2 8 2 10 10 10 2 8 10 10 2 8 2 10 8 8 8 10 10 10 8 10 10 10 10 10 2 10 10 10 8 8 10 10 10 2 2 10 10 8 10 10 8 2 10 10
left_child=1 10 3 4 5 11 12 19 9 -9 32 34 -6 14 24 16 -2 -18 -19 -4 30 -5 -12 31 -14 26 27 41 29 -10 -21 -15 33 -1 45 36 37 39 -38 -36 -40 -26 -43 44 -28 46 -3 -47 50 -50 -48 52 53 59 55 -55 -53 -49 -59 -25 -33 -39
right_child=15 2 7 21 6 -7 -8 8 28 -11 22 -13 13 23 -16 -17 17 18 -20 20 -22 -23 -24 51 25 -27 43 -29 -30 -31 -32 60 -34 -35 35 -37 38 61 40 -41 -42 42 -44 -45 -46 47 48 57 49 -51 -52 56 -54 54 -56 -57 -58 58 -60 -61 -62 -63
leaf_value=0.0012551552524497881 -0.0050252818310358152 0.0017355109669676457 -0.00056517702635096561 -0.0056961396832243411 -0.0033028966578176459 -0.0032392909386693156 0.0038721191103034216 -0.00034766423036582041 0.0066769765471538225 -0.0043904613900809615 -0.0032885784292250838 -0.0010424863917455284 0.0010396398235653027 -0.0049438374429955981 -0.0036923322939029233 -0.0064193707594630755 -0.0045214658395717235 -0.0049752512378707274 -3.4496194513958729e-05 0.0015425899875412899 0.0051673221182110193 -0.00084818479783553265 0.00094719421205193628 0.002890229565585507 -0.00040221022345384024 -0.00046587902633271958 0.0014996138025370066 0.00029553965124676983 0.00046072036927276435 0.0016841383163173332 -0.00064078037980264688 0.00081554631884670934 -0.00042673279178927486 0.0037795149541883597 -0.00070650182814503736 0.0030714362658582108 0.0058885902899588199 -0.0079225230750029439 0.00038833048690592936 0.0011217507867047137 0.0046371583128462426 0.0034165095445123461 0.0010359084888810143 -0.0027124053979030679 -0.00070528687609271558 -0.0035797999370927678 0.0040258307909457856 -0.0012585990559445372 -0.0065290418098900641 -0.0009095200480816201 -4.1525701551942e-05 0.0029835470346897684 -0.0024433406369935569 0.0046158131271924665 -0.004632130117156099 9.3397631403523663e-05 -0.00095701708091582407 0.0026327127707628322 -0.0025800192613845844 0.0010986297281029443 -0.0027289087781182993 -0.0023169150498180942
leaf_weight=2981 1297 3312 132269 1065 1276 2544 1645 15102 573 1271 978 16686 16467 597 1104 721 1106 678 5536 4469 667 1264 3166 3546 2075 36196 2842 102149 12225 7269 5830 2737 1244 4986 12769 1449 656 556 39699 7121 762 3633 3972 2031 10926 1666 733 7813 510 7305 24926 4140 1405 574 581 14069 872 1529 573 26107 1124 741
leaf_count=2981 1297 3312 132269 1065 1276 2544 1645 15102 573 1271 978 16686 16467 597 1104 721 1106 678 5536 4469 667 1264 3166 3546 2075 36196 2842 102149 12225 7269 5830 2737 1244 4986 12769 1449 656 556 39699 7121 762 3633 3972 2031 10926 1666 733 7813 510 7305 24926 4140 1405 574 581 14069 872 1529 573 26107 1124 741
internal_value=-6.32075e-06 2.83896e-05 -1.03893e-05 0.000137852 0.000157954 -0.000160596 0.000332244 -0.000318749 0.000298389 -0.000661747 0.00163524 -9.9765e-05 0.000307804 0.000327246 0.000182518 -0.00211287 -0.00175183 -0.00117121 -0.000574288 -0.000475755 0.000602786 -0.00306654 -5.30167e-05 0.000798119 0.000206266 0.000122493 0.00028936 0.000410316 0.00108177 0.00204976 0.000306698 -0.000850745 0.00239471 0.00283526 4.05414e-05 0.000315468 0.000251324 -0.000338159 0.000555077 -5.1929e-05 0.000468461 0.00162135 0.00217345 -0.000566764 -0.000250074 -0.000321841 -6.28401e-05 -0.00114446 -0.00024082 -0.00127703 7.48187e-05 0.000941437 0.000794495 0.000895917 8.35663e-05 0.000270978 0.0022979 -0.000734931 0.00121118 0.00131297 -0.000216742 -0.00472419
internal_weight=576115 566777 553422 373747 371418 131350 240068 179675 36440 16373 13355 128806 238423 237147 181395 9338 8617 7320 6214 143235 10966 2329 4144 55752 180291 163824 127628 111829 20067 7842 10299 4458 9211 7967 112120 63753 62304 21187 41117 19890 40461 9680 7605 15799 13768 48367 36786 11581 33474 7815 25659 51294 46282 44877 15224 14643 5012 9915 2102 29653 3861 1297
internal_count=576115 566777 553422 373747 371418 131350 240068 179675 36440 16373 13355 128806 238423 237147 181395 9338 8617 7320 6214 143235 10966 2329 4144 55752 180291 163824 127628 111829 20067 7842 10299 4458 9211 7967 112120 63753 62304 21187 41117 19890 40461 9680 7605 15799 13768 48367 36786 11581 33474 7815 25659 51294 46282 44877 15224 14643 5012 9915 2102 29653 3861 1297
is_linear=0
shrinkage=0.05


Tree=12
num_leaves=63
num_cat=0
split_feature=7 27 37 28 8 21 35 8 36 7 13 22 2 28 12 36 28 21 36 14 21 28 34 12 7 2 7 10 21 28 17 17 10 12 10 36 13 22 33 29 27 27 35 15 14 18 14 15 15 12 33 13 15 15 34 15 8 12 10 21 28 8
split_gain=19.6038 18.6425 11.1124 12.2708 14.6111 13.4568 10.4937 9.23061 11.4856 8.99911 8.99091 8.58673 9.83742 8.19643 8.19542 10.311 8.28758 8.14979 7.79968 7.67051 7.60438 11.6632 7.48769 8.75034 7.46045 7.27378 7.05626 11.4091 7.94695 6.74478 7.1978 8.09104 10.5621 6.36823 6.3334 6.27132 6.22971 6.02034 6.76496 5.97792 5.89069 5.82469 8.26942 5.70833 6.45246 6.27007 8.65195 8.13627 7.33742 7.14185 6.04488 6.04115 7.45777 5.79028 6.23629 5.58266 5.53202 5.42938 5.38899 5.21353 5.43711 10.2803
threshold=0.032537008397715068 -0.20504293822792277 -0.0063276570421782743 0.1348258151802362 5.3350000000000009 0.006739653667278721 0.018784169748907693 inf -0.0032244731726793264 0.066870915307129936 0.12013342419235541 -0.0031057326057918398 1.1400521615083361 -0.27267534948060762 -0.15382211251497788 -0.010168440605557601 0.58405748472941166 0.01195334810521749 0.013461174612776872 -0.69556120819755429 0.0078823292451305812 -0.48480654205607471 0.0010417164471004641 -0.78742544475543863 0.016789144196974311 1.6042389362720988 0.04091058623436724 -0.15572137074082845 0.011856265112970265 -0.39380474563727186 0.006094987733246301 -0.091563768068629772 -0.075833694500780979 -0.18284858002889878 -0.054270584698373495 0.021091159626343756 -0.34950061594157916 -0.0055566646476958642 -0.0017155035062225898 0.0037893033607093981 -0.35077860497696506 0.12106727884630021 0.036667160815108291 -0.42148850905441787 0.19291012715436101 0.34721968728060554 -0.08486174477260873 -0.010071111032474976 0.096046947681770259 -0.30074079557314426 -0.020065326539730002 -0.41250306449585095 0.29899789534144644 -0.62124557960931692 0.0055752144227415651 -0.54578578904419406 1.6050000000000002 0.11145375060834238 -0.28174064829081819 0.0061852234106924186 0.54968223210320843 inf
decision_type=2 2 8 2 10 2 10 8 10 2 10 2 2 2 8 8 2 2 8 8 2 2 10 10 2 2 2 8 2 2 8 10 10 8 8 10 10 2 8 8 2 2 10 8 10 8 8 8 8 8 10 8 8 10 10 10 8 8 10 2 2 8
left_child=2 22 19 5 11 7 9 18 -9 14 33 12 24 -10 16 34 -3 -13 -4 -1 21 -17 23 -2 -5 29 -22 36 37 -21 31 32 -31 -8 -16 39 -28 -29 -39 -6 -7 42 -35 53 45 46 51 49 -49 -47 -50 -45 -53 54 -42 -55 -43 -19 -27 60 -32 -62
right_child=1 6 3 4 35 40 10 8 13 -11 -12 17 -14 -15 15 20 -18 57 -20 25 26 -23 -24 -25 -26 58 27 28 -30 30 59 -33 -34 41 -36 -37 -38 38 -40 -41 43 56 -44 44 -46 47 -48 48 50 -51 -52 52 -54 55 -56 -57 -58 -59 -60 -61 61 -63
leaf_value=0.0055913288454000586 -0.0028498545517826454 -0.00021922325629467277 -0.00018156995942654171 0.0016120407365078919 0.00017606533516125161 0.003268567060236378 0.0053996897194027796 -0.0021150034525884644 -0.0033733079624631429 -0.0043133733737736905 0.0058391393455393568 0.0020105829165248446 0.0032753868472636533 0.00038878460587434531 -0.0031571669985992015 -0.0078260172603137057 0.0053404664892552902 0.0021676155041789424 0.0029360774169479996 -0.0030353736490220128 -0.0016398965349765961 -0.00012164589851320566 0.0014604942275733871 0.0019882050370316497 -0.0002785722488546167 0.0011108391148483741 -0.0023844834965077036 -0.0028691851824706096 -0.0024610540554020816 -0.0031545608695197139 9.5777579205879617e-05 -0.0070806676704992582 0.0025088750923401787 -0.00062124176936867665 0.00083715614587231112 -0.0056211276053245744 0.0052369679670852924 -0.001944232142397276 -0.0081258511859226938 -0.002021287212782242 -0.0014525023275385137 -0.002222296101443312 -0.0076492175538749778 -0.0024138552033517715 -0.0025662520839136215 0.0036049534509288769 -0.00033344543692253632 0.0033865404383130494 -0.0019269383337942713 -0.0015911799174552284 0.00027508733190421118 0.00545792172537524 0.001804168663654197 0.0051507919529028209 0.0031365652616066292 0.0015118846289564943 0.0018593222563010653 -0.0007944175019478334 -0.00080058681267119688 -0.00044318780250247295 0.00010022583680856118 0.0062114069922728412
leaf_weight=560 2518 4487 40026 7058 17659 1671 509 15399 1660 2522 739 30022 2906 11278 1175 520 787 2254 2111 2384 18116 8597 11327 1485 20006 14703 517 1446 4573 2617 22079 741 1200 1525 6356 548 555 557 2168 3752 2334 1162 576 608 2040 712 4789 1862 3181 9127 151690 1901 5263 1561 1083 3245 2900 4927 4921 98886 1841 1098
leaf_count=560 2518 4487 40026 7058 17659 1671 509 15399 1660 2522 739 30022 2906 11278 1175 520 787 2254 2111 2384 18116 8597 11327 1485 20006 14703 517 1446 4573 2617 22079 741 1200 1525 6356 548 555 557 2168 3752 2334 1162 576 608 2040 712 4789 1862 3181 9127 151690 1901 5263 1561 1083 3245 2900 4927 4921 98886 1841 1098
internal_value=1.40015e-06 -0.000751905 0.000114189 0.000268619 0.000775266 9.59538e-05 -0.00115076 -0.000494583 -0.00119236 -0.00139993 0.000610167 0.00114128 0.000511413 -9.41312e-05 -0.00125247 -0.00147296 0.000611263 0.00164866 -2.53146e-05 -0.000244377 -0.00181579 -0.000561885 0.000803611 -0.00105502 0.000214521 -0.000266132 -0.00222503 -0.00330466 -0.00390148 -0.000400762 -0.000351845 -0.00230299 -0.00137388 3.02101e-05 0.000213618 -0.00034438 0.00156253 -0.00547976 -0.00686348 -0.000209069 0.000313771 -0.000414057 -0.00255072 0.000287685 0.0002292 0.000261049 0.00133823 0.000179813 0.000267369 -0.00121483 0.000229846 0.00236821 0.00277434 0.00157606 2.47039e-06 0.00269464 0.000691451 0.000135489 0.000631505 -0.000280052 0.000364752 0.00238468
internal_weight=576820 75117 501703 350673 89132 261541 59787 70474 28337 52376 7411 67173 29970 12938 49854 44580 5274 37203 42137 151030 37049 9117 15330 4003 27064 150470 27932 9816 8744 130846 128462 4558 3817 6672 7531 21959 1072 4171 2725 21411 191067 6163 2101 189396 181173 179133 12561 166572 156733 9839 154871 7772 7164 8223 3417 4806 4062 7181 19624 123904 25018 2939
internal_count=576820 75117 501703 350673 89132 261541 59787 70474 28337 52376 7411 67173 29970 12938 49854 44580 5274 37203 42137 151030 37049 9117 15330 4003 27064 150470 27932 9816 8744 130846 128462 4558 3817 6672 7531 21959 1072 4171 2725 21411 191067 6163 2101 189396 181173 179133 12561 166572 156733 9839 154871 7772 7164 8223 3417 4806 4062 7181 19624 123904 25018 2939
is_linear=0
shrinkage=0.05


Tree=13
num_leaves=63
num_cat=0
split_feature=27 11 26 14 18 30 12 19 20 20 19 19 12 28 12 10 35 28 14 21 19 14 14 11 10 19 12 11 21 9 29 9 34 19 11 18 9 8 31 19 29 26 9 35 20 10 15 19 26 35 12 28 27 13 14 13 13 10 10 9 21 28
split_gain=12.1847 11.7647 9.79983 9.51094 9.42426 9.00829 9.80636 9.79484 8.64229 8.55007 8.59744 9.30689 9.17038 7.76494 7.40615 7.35036 7.17838 7.06155 11.3256 9.54605 10.9271 6.87758 6.87703 6.48914 6.48175 6.2406 6.93887 9.7756 6.46671 6.03492 6.00481 5.93759 5.89009 5.77467 5.74726 5.82245 5.65771 5.59431 5.52496 5.52408 7.73245 6.09002 5.43925 6.82055 6.32873 9.31402 6.82505 5.41617 5.33239 5.89948 7.12122 5.32801 5.23389 5.18943 5.18441 5.07968 5.56916 4.97796 4.88127 4.8793 4.82976 4.8051
threshold=-0.21303314465940129 -0.14452439744597453 -0.060672939973462174 -0.19832401214110582 -0.36500007636960363 0.00071641410839194143 -0.088872263333667892 -0.12022383041456536 0.12369754543991333 -1.0443632603468951 0.17388733076631732 -0.1455972693610606 0.028495867348428867 -0.096361689702160733 -0.092840646914361544 0.11767236024888215 0.007436500993182475 0.16318116590000645 -0.14614319323947439 0.0073338374242396505 -0.098074389988525232 0.24052504166370275 -0.15649649467871965 -0.26853030483196477 0.091942135874423167 0.24125017086014897 -0.078216241553771826 -0.26087117205232463 0.0070558600435742906 0.13673606209064729 -0.010507093964617341 -0.022289599299962961 0.00098491297947212353 -0.23781951028893625 0.1708161229828202 -0.045713567541510361 -1.14720168409656 0.38500000000000006 -0.0052042716994843601 -0.35160772562417358 -0.0043328336221777159 0.045678378338417931 0.81701777619861349 0.031078464979086017 0.4167287829364581 0.1990873210871518 -0.48961169101747931 0.2123585875485714 0.14321297847260997 -0.037274639878666076 0.022646907245621569 0.45503209700427966 0.43113996796200132 -0.092923065652282769 0.18443792945897416 -0.14006216130331309 -0.024608401418593388 -0.22526781858747061 -0.14761218319543382 -0.3054053756787849 0.0099263537069433656 -0.29509754320272852
decision_type=2 8 2 8 10 8 10 8 8 10 8 10 10 2 10 10 10 2 8 2 10 10 8 8 10 10 10 10 2 10 10 10 8 10 10 10 8 10 10 10 10 2 10 10 10 10 10 8 2 8 10 2 2 10 10 8 8 10 10 8 2 2
left_child=2 9 23 4 8 6 14 33 32 15 11 39 -12 -6 17 21 24 22 -19 20 -20 25 -5 -1 -4 26 61 -28 -29 59 -13 38 -3 -7 35 36 -21 -32 -24 -11 -41 -42 44 -44 -9 47 -47 -46 49 50 -8 -22 53 -38 -40 -51 -57 -35 -25 -27 -55 -2
right_child=1 3 16 5 13 7 48 42 -10 10 12 30 -14 -15 -16 -17 -18 18 19 34 51 -23 31 58 -26 29 27 28 -30 -31 37 -33 -34 57 -36 -37 52 -39 54 40 41 -43 43 -45 45 46 -48 -49 -50 55 -52 -53 -54 60 -56 56 -58 -59 -60 -61 -62 -63
leaf_value=-0.0019930164140701321 -0.00058349824847693467 0.005005580824358629 -8.4173283439745912e-05 -0.0044591716563147825 0.0075828419708287159 0.00023054089521547174 -0.00024359162740609391 -0.00055390608615831242 -0.0053172672936231367 -0.00011804847240338905 -0.0013890727457751381 0.0046658348551192929 -0.0084655880546498068 0.0021811493841747821 0.0028434360096261466 0.0043020765526080975 -0.0029536079189716236 0.0061277639939229418 0.0017214084736167476 0.0050820499483245525 0.00046471290552918337 0.0038393991541512229 -0.001743642564111914 0.0018016688265806156 0.0046109812487382818 0.00032840936336326953 0.004691790959081673 0.0028955628285279684 -0.0039538339235007632 -0.0028228940753180637 -0.0012030180955615371 0.00099648609514749143 -0.0021740981201179318 0.0038699773028289725 0.0034667074069399022 -0.0049182546404648794 6.925276827365244e-05 0.0011275411886130103 7.924518446962701e-05 0.0017516723816139107 -0.0054563880810130569 -0.00016938596367043024 0.00051649039163103542 0.0064968695600132039 0.0021048846045718709 -0.0033001000882659408 0.0026004052949375129 0.0076466366777839584 -0.002254014850815762 0.00172294143353944 0.0072130959185923273 -0.0030383737477459208 -0.002001046043812545 -0.00023349470488610681 -0.0034911140176194025 -0.0021824425376562478 -0.00036681179489766308 0.00054155261471421285 -5.7383767948628248e-05 0.0070565056731799929 0.0042869795823536781 -0.0026069153726454054
leaf_weight=1380 3595 664 11558 830 981 8518 744 132971 637 5040 3076 978 537 2067 2769 545 2090 929 24221 568 2663 574 4368 23284 784 578 910 502 1094 588 3280 16800 500 2600 1274 578 41364 11966 166497 756 1935 758 5737 519 1473 1240 809 629 3990 2537 561 1831 2873 999 1022 4795 35389 1978 4162 504 1445 15975
leaf_count=1380 3595 664 11558 830 981 8518 744 132971 637 5040 3076 978 537 2067 2769 545 2090 929 24221 568 2663 574 4368 23284 784 578 910 502 1094 588 3280 16800 500 2600 1274 578 41364 11966 166497 756 1935 758 5737 519 1473 1240 809 629 3990 2537 561 1831 2873 999 1022 4795 35389 1978 4162 504 1445 15975
internal_value=1.19802e-05 -5.34537e-05 0.00081905 2.46735e-05 0.00222764 2.20477e-06 0.00015461 -0.000308545 -0.000639805 -0.000759011 -0.000165066 0.000168036 -0.00244291 0.0039216 0.000271286 -0.0014356 -0.000244532 0.000244726 0.000642695 0.000577134 0.00130128 -0.00156435 7.93654e-05 0.00135153 0.000214426 -0.00169512 -0.00191806 0.000558932 -0.00179899 0.00125135 0.000869894 9.93531e-05 0.00192231 0.00100035 0.000153623 6.52992e-05 0.000126366 0.000626102 1.16633e-05 -0.00117329 -0.00271482 -0.00396887 -0.000428104 0.00101358 -0.000493886 0.00142844 -0.000970291 0.00376604 -0.00050397 -0.000345319 0.002965 -0.000962916 6.59593e-05 0.000201559 5.74424e-05 -0.000446506 -0.000583513 0.00243231 0.00151976 0.00346601 0.00243987 -0.00223526
internal_weight=576819 533561 43258 480370 4849 475521 319047 156474 1801 53191 28326 24713 3613 3048 271031 24865 14432 268262 78745 77816 28715 24320 189517 28826 12342 23746 22076 2506 1596 1670 16224 188687 1164 13096 49101 47827 47249 15246 171887 8489 3449 2693 143378 6256 137122 4151 2049 2102 48016 44026 1305 4494 46681 43808 167519 42721 40184 4578 27446 1082 2444 19570
internal_count=576819 533561 43258 480370 4849 475521 319047 156474 1801 53191 28326 24713 3613 3048 271031 24865 14432 268262 78745 77816 28715 24320 189517 28826 12342 23746 22076 2506 1596 1670 16224 188687 1164 13096 49101 47827 47249 15246 171887 8489 3449 2693 143378 6256 137122 4151 2049 2102 48016 44026 1305 4494 46681 43808 167519 42721 40184 4578 27446 1082 2444 19570
is_linear=0
shrinkage=0.05


Tree=14
num_leaves=63
num_cat=0
split_feature=36 27 5 11 5 33 9 17 33 12 27 28 27 17 9 22 9 19 10 30 9 28 8 18 13 8 13 12 28 28 18 10 8 28 27 36 29 12 33 19 9 17 14 12 11 9 11 5 28 10 5 14 19 9 19 26 5 28 8 12 36 9
split_gain=15.3989 12.9617 18.3184 9.68272 9.72843 13.6801 13.9175 11.7836 11.0669 11.1376 9.99213 9.1335 8.66276 8.42765 7.74059 7.67968 7.33054 6.73358 7.44108 6.73014 7.10466 7.13036 8.76192 6.21992 6.8851 6.50423 5.93227 5.88278 9.44676 6.12961 6.71509 7.13753 6.80356 15.3918 8.17325 6.17496 5.79598 5.74754 5.63737 7.57204 7.54368 5.80173 7.91395 7.68717 7.05099 5.78928 5.70531 6.20367 5.40264 5.34355 5.31492 5.34058 10.4879 7.29976 5.53434 5.30886 5.27238 5.2651 5.19226 5.9189 5.107 9.21738
threshold=0.048022210886348345 -0.19404281083015987 -0.75119195416246709 -0.14452439744597453 1.3066439021284832 -0.025546143222911284 -0.11700732908691533 0.49193201923195401 -0.007377175374346419 -0.085577496384991611 0.57200998327598584 -0.45715815234016516 0.11875346836847946 -0.20029254576368774 -0.012638021361809986 -0.018386066634645769 0.030772155122721207 -0.11045595761592063 -0.25900985446537539 0.00071641410839194143 0.038646706241853776 0.51842041935087979 2.5050000000000003 -0.21955895442883375 0.27875259058461982 7.9150000000000009 0.03516116238734654 -0.088872263333667892 0.39130477315782447 0.17333586009279126 -0.045713567541510361 0.051946953377050707 inf 0.83335058637491988 0.0082323383406766055 0.032484168758311817 0.017025105852714034 -0.096756943169932677 0.011350171828611014 -0.44549981571536951 -0.37067922147347815 -0.52446381972202705 0.14607312341464293 -0.13360274393345112 -0.62524041545175313 -0.064866880563027043 -0.23736606800425877 -0.82332184187278101 0.5335901027940313 0.13994456943825606 -1.704889356511776 0.26026750228404677 0.032327314585889264 -0.10837259390829308 0.092250393223498289 -0.013297763329983723 0.72499313744828664 -0.17827713595842595 10.215000000000002 -0.092840646914361544 0.0051550563032550416 -0.39972639457525799
decision_type=8 2 2 8 2 8 10 10 8 10 2 2 2 10 10 2 10 8 10 8 10 2 10 8 10 8 8 10 2 2 10 10 8 2 2 10 8 10 10 8 10 10 10 8 10 8 10 2 2 10 2 8 10 10 8 2 2 2 8 10 10 10
left_child=1 2 16 13 5 6 -5 11 -6 10 26 12 15 38 37 -7 -1 18 60 27 21 23 -23 -21 25 -25 -10 29 -29 58 31 32 33 -31 55 -36 -4 -9 39 -3 -40 42 43 46 -45 -42 47 -41 -37 -33 -19 52 53 56 -53 -34 -52 -2 59 -13 61 -15
right_child=57 3 36 4 8 7 -8 14 9 -11 -12 19 -14 17 -16 -17 -18 50 -20 20 -22 22 -24 24 -26 -27 -28 28 -30 30 -32 49 34 -35 35 48 -38 -39 40 41 45 -43 -44 44 -46 -47 -48 -49 -50 -51 51 54 -54 -55 -56 -57 -58 -59 -60 -61 -62 -63
leaf_value=-0.0018848614829876983 -0.004618599868825804 0.00066656740287084027 0.0012382241665284772 -0.0041102480496609684 0.0010853140199507747 0.0028562891482001979 0.0034445737296322169 0.0046535829004037401 -0.0021756349755924108 -0.0027034148980214327 -0.0041845785188647641 0.00052435858631392021 -0.0051529876409022205 -0.0052662465853709865 0.0089093907784951378 -0.0015583639549065099 0.0025822709077572602 0.0056462907552152402 0.00088206181342769603 0.0038832999233612757 0.00070228583078951528 0.0016308293578337755 -0.0013582272424531154 0.00010542799214942545 -0.0047705447950334183 -0.00076223615488325781 -0.00018773799070093559 0.00010305298251421589 -0.0019249878067204797 0.00074071121625261002 -0.0032061092808199662 0.0067007805202566398 0.0010574106814433568 -0.0024513559112525557 0.0022323430288426712 -0.0043993501231507142 -0.0032530836859950801 -0.0019255924039462639 0.0046721401875084055 0.0027408617640163222 -0.0040836440717130487 -0.0036820673870638985 0.0029505294373858219 0.0031690354028140301 -0.0013261375358584011 0.0028525241353977069 -0.0052500010995847534 -0.0030665945062565065 0.0024081451868992227 0.0020621219718325806 0.0034498227181503599 -0.004138801402721862 4.0831348513726629e-05 0.0079525192016208328 0.0021064595238692338 -0.0012072314410122009 -0.0024044617984064227 -0.0014706496265469117 1.4834121822244386e-05 0.0039473464459152674 -0.0078459727833608533 0.0016168275322960485
leaf_weight=7584 1605 4066 45181 3378 8552 1190 743 819 4185 7045 1815 64895 1366 1090 572 5699 1044 522 1793 821 21231 9099 3355 34217 927 58569 36280 33174 6943 21114 1005 755 7183 4598 16065 683 729 557 937 587 739 3102 1008 919 16869 506 2163 2111 507 3484 1635 1121 8956 701 518 4044 502 7694 95577 1287 502 877
leaf_count=7584 1605 4066 45181 3378 8552 1190 743 819 4185 7045 1815 64895 1366 1090 572 5699 1044 522 1793 821 21231 9099 3355 34217 927 58569 36280 33174 6943 21114 1005 755 7183 4598 16065 683 729 557 937 587 739 3102 1008 919 16869 506 2163 2111 507 3484 1635 1121 8956 701 518 4044 502 7694 95577 1287 502 877
internal_value=3.68018e-06 3.67523e-05 0.000769587 -4.11644e-05 3.11912e-05 0.000118075 -0.00274764 0.000147625 -0.00057506 -0.000862952 -0.000556224 0.000128622 -0.00151707 -0.000693367 0.00402593 -0.000795477 -0.0013441 0.000169908 -0.00156932 0.000163502 -0.000133196 -0.000298996 0.000825559 -0.000447153 -0.000485132 -0.000442267 -0.00039338 0.000309083 -0.000247977 0.000410113 0.000844319 0.000914037 0.000759452 0.00016981 0.00129172 0.00197491 0.00116684 0.00199089 -0.00116981 -0.00134367 0.00128575 -0.00164913 -0.00138242 -0.00157538 -0.00109373 -0.00126458 -0.00333731 -0.00180253 -0.00149943 0.00288969 0.00070116 0.000508588 0.000880276 0.0035284 -0.00216493 0.000241645 0.00207412 -0.00201442 0.000250561 0.000590982 -0.00334916 -0.00219812
internal_weight=576795 567496 54538 512958 461734 403857 4121 399736 57877 49325 42280 397788 8255 51224 1948 6889 8628 18217 4262 389533 128219 106988 12454 94534 93713 92786 40465 261314 40117 221197 59438 58433 54194 25712 28482 17255 45910 1376 33007 30825 2182 26759 23657 22649 17788 1245 4861 2698 1190 4239 13955 13433 11794 2838 1639 11227 2137 9299 161759 66182 2469 1967
internal_count=576795 567496 54538 512958 461734 403857 4121 399736 57877 49325 42280 397788 8255 51224 1948 6889 8628 18217 4262 389533 128219 106988 12454 94534 93713 92786 40465 261314 40117 221197 59438 58433 54194 25712 28482 17255 45910 1376 33007 30825 2182 26759 23657 22649 17788 1245 4861 2698 1190 4239 13955 13433 11794 2838 1639 11227 2137 9299 161759 66182 2469 1967
is_linear=0
shrinkage=0.05


Tree=15
num_leaves=63
num_cat=0
split_feature=7 27 5 7 33 12 11 18 15 17 37 30 2 22 28 13 18 18 18 13 19 19 16 7 2 29 36 37 27 9 8 18 19 7 10 26 8 28 2 19 19 28 28 12 37 12 12 9 10 13 13 27 33 12 19 27 7 23 5 2 36 12
split_gain=14.7255 24.2239 13.6077 12.456 11.0088 11.3362 9.5976 10.4526 9.27514 9.21415 8.67981 8.30389 8.71287 7.48811 6.87396 6.71002 6.93876 6.67068 6.60685 6.59239 6.4604 6.31027 6.09933 5.72828 6.94723 5.6237 5.59428 9.00533 5.76856 5.37603 6.7334 5.35751 5.27365 7.73139 6.19654 5.10733 10.998 9.18384 10.2368 8.96784 7.70945 7.29009 5.58832 5.49387 5.90852 5.38099 5.34036 9.61185 6.0108 6.38781 5.81081 7.42501 4.99605 7.63987 6.77883 4.99113 5.46846 6.08438 5.74888 7.40142 5.35678 5.10937
threshold=0.020458222321185722 -0.19404281083015987 -0.7307065521165329 0.043405841412874589 -0.0029722202878086968 -0.074352240449533494 -0.25022996654812163 0.011553565472256671 -0.45260170239039249 -0.73434100434206306 0.02902718295236421 -0.00050075354063580148 0.76545007388540387 -0.023703810492389923 2.1581692545210944 -0.035153243873769488 0.13534268486864595 -0.63599125317026128 -0.21955895442883375 -0.079623442179398887 0.18344143632848639 -2.2519630088585374 -0.31578831719917905 0.010979417102317516 -0.35392722676450783 0.018306664427277002 0.048022210886348345 -0.020561378642165295 -0.019906470878732426 -0.38486942765355819 0.15500000000000003 -0.25257168109488132 -0.017988445503048907 0.012566210279533549 -0.028833788360099883 -0.015678848725384716 0.38500000000000006 0.30914715536710707 0.31781617949205326 0.23173416795202637 -0.059701575800111192 1.8135605243743262 1.8135605243743262 -0.089894577945235074 -0.018066466484129334 -0.33113009198136828 -0.78742544475543863 -0.087910000883678105 -0.28174064829081819 -0.57969145323810511 -0.2332189139418992 0.16487518052403552 -0.0017155035062225898 -0.10461975295851657 -0.07539082391469111 -0.38141825879287877 0.042452014885642174 1.0000000180025095e-35 0.38382219595154632 -0.38561851235514649 -0.047154200609168306 -0.16458788428587809
decision_type=2 2 2 2 8 8 8 10 8 8 8 8 2 2 2 10 10 8 8 10 10 8 8 2 2 8 8 10 2 10 8 10 10 2 8 2 10 2 2 10 8 2 2 8 8 8 10 8 8 10 10 2 10 10 8 2 2 2 2 2 10 8
left_child=6 2 -2 18 5 -5 7 17 -6 -8 -7 -11 22 -10 20 16 -9 -1 31 52 26 -20 -13 24 -24 55 27 -15 -29 -30 -31 -3 33 -14 -34 39 37 43 42 -23 46 45 -39 44 -37 -42 47 -38 49 -48 51 -50 -19 54 -54 -4 57 58 59 -57 -60 -58
right_child=1 3 25 4 8 10 9 15 13 11 -12 12 32 14 -16 -17 -18 19 21 -21 -22 35 23 -25 -26 -27 -28 28 29 30 -32 -33 34 -35 -36 36 40 38 -40 -41 41 -43 -44 -45 -46 -47 48 -49 50 -51 -52 -53 53 -55 -56 56 61 -59 60 -61 -62 -63
