tree
version=v4
num_class=1
num_tree_per_iteration=1
label_index=0
max_feature_idx=37
objective=regression
feature_names=log_return rsi_z63 macd_z252 foreign_net_pct volume_norm_30 atr_pct_z252 bb_pct volatility_20 short_ratio_pct revenue_z operating_inc_z net_income_z revenue_yoy_growth_z operating_inc_yoy_growth_z net_income_yoy_growth_z opm_ttm_z npm_ttm_z roe_ttm_z roa_ttm_z debt_ratio_z earning_surprise_z kospi_volatility_20 macro_usdkrw_chg_20d is_market_stress macro_usdkrw_chg_5d mom_5 mom_20 mom_60 mom_12_1 foreign_flow_20d foreign_flow_5d inst_flow_5d indiv_flow_5d inst_flow_20d indiv_flow_20d foreign_flow_60d inst_flow_60d indiv_flow_60d
feature_infos=[-0.35667494393873245:1.5114787244581986] [-5.701242245970449:5.7735494621663417] [-5.920466155203199:12.532655059394228] [-0.12574811529654462:0.060544071990119908] [0.00012755369354637113:30] [-3.5530595974301744:11.712931060319523] [-0.56213230560897554:1.5621322893125176] [0.003060733191857064:0.3424368300746467] [0:66.810000000000002] [-8.2051964690737051:11.936150915565305] [-8.7936017155596957:11.83903789216642] [-5.7134976590656184:10.304783896387692] [-10.894726517144589:13.423434503578939] [-9.2213165127813834:9.8947141829325584] [-5.4157986141656185:7.3849249254189067] [-7.7050476473925338:5.6787328429057427] [-5.9155956295951277:5.7599184098426033] [-5.7176809642102402:6.182477699589036] [-6.2725101825087535:5.7254970795856135] [-13.160134230851362:13.075006673499264] [-8.0040083791047536:7.1458878191404853] [0.0028834494504:0.04485129879142237] [-0.084350615934188827:0.10451770060582898] [0:1] [-0.041632806695596859:0.062951363766911114] [-0.59754601226993864:3.5334295334295334] [-0.63067484662576689:3.5334295334295334] [-0.80307132741485687:6] [-0.89063152643751686:26.122302158273381] [-0.21782189044432523:0.10523262447847286] [-0.16632351801822975:0.093554425370700162] [-0.1132302741441488:0.38389009211021624] [-0.26394928037000848:0.14649144596603619] [-0.2547416980942433:0.38614358887184613] [-0.26709493499731707:0.24363966954123745] [-0.26359097854566022:0.13851089873607303] [-0.30127448972626419:0.39420072114448046] [-0.30139570031671498:0.30314279980997444]
tree_sizes=5885 6245 6250 6261 6232 6288 6223 6276 6298 6280 6257 6253 6248 6271 6219 6285 6296 6256 6265 6243 6249 6250 6277 6253 6261 6202 6219 6235 6252 6229 6230 6277 6254 6283 6226 6203 6279 6218 6217 6245 6278 6226 6276 6213 6273 6233 6249 6211 6238 6297 6237 6249 6154 6290 6235 6259 6220 6230 6294 6230 6226 6211 6146 6226 6210 6199 6299 6154 6231 6218 6184 6149 6244 6178 6250 6191 6214 6163 6281 6154 6264 6157 6134 6148 6167 6248 6184 6191 6168 6124 6219 6102 6234 6122 6186 6110 6237 6193 6156 6195 6243 6201 6170 6139 6155 6112 6239 6199 6282 6170 6167 6241 6157 6149 6158 6186 6167 6147 6187 6146 6128 6249 6156 6211 6182 6265 6086 6209 6151 6252 6219 6233 6126 6125 6238 6091 6152 6188 6259 6172 6084 6149 6127 6089 6149 6144 6085 6218 6184 6082 6162 6110 6179 6132 6080 6170 6263 6205 6137 6132 6190 6203 6103 6183 6169 6239 6109 6130 6139 6158 6153 6185 6180 6172 6072 6226 6248 6208 6122 6265 6142 6205 6136 6114 6166 6127 6095 6103 6198 6136 6161 6179 6184 6079 6101 6163 6211 6160 6201 6206 6125 6184 6100 6162 6105 6114 6166 6169 6196 6199 6148 6157 6161 6205 6112 6110 6199 6193 6199 6129 6106 6157 6090 6234 6169 6143 6227 6076 6122 6121 6099 6179 6111 6108 6106 6099 6116 6107 6189 6237 6142 6167 6107 6172 6139 6088 6208 6145 6103 6064 6163 6214 6149 6206 6077 6147 6086 6120 6110 6128 6163 6133 6180 6119 6155 6164 6135 6182 6087 6113 6149 6145 6145 6111 6198 6105 6215 6194 6130 6203 6102 6113 6158 6238 6194 6145 6127 6236 6129 6238 6142 6151 6183 6115 6146 6153 6117 6145 6130 6192

Tree=0
num_leaves=63
num_cat=0
split_feature=7 27 37 28 21 8 35 7 2 36 8 22 2 7 27 33 37 22 21 9 28 34 37 12 7 9 15 9 7 5 9 28 21 35 35 29 18 9 28 34 9 27 12 12 12 29 27 36 36 27 27 9 8 18 33 9 32 19 29 9 34 11
split_gain=36.8975 42.3758 26.7775 19.3971 21.8894 18.5469 16.7296 17.6605 16.2518 15.3283 14.5625 12.7194 11.8596 11.7237 11.3705 11.1052 10.5562 10.2641 10.1592 9.66779 11.8774 9.57319 9.29269 9.21672 9.20768 9.12026 8.47761 8.03763 7.98841 9.02623 11.8076 8.18132 9.35831 7.83881 7.43714 7.33334 7.33005 7.32407 7.34021 7.30768 7.28763 7.05814 7.01295 6.97069 6.93749 6.93028 6.8833 6.67206 6.56293 6.50057 6.43656 8.04171 6.50925 6.40219 6.39536 6.29755 6.2506 6.23367 7.49092 6.20844 6.16179 6.11302
threshold=0.032598920887567613 -0.20460962296976057 -0.0064378513821637369 0.13471862406447901 0.0067507909592232325 3.8250000000000006 0.018812633518588064 0.043537116630767862 1.13607803477241 0.0018087846911032338 inf -0.0030246454145785788 1.3630628061814611 0.018951342815810367 -0.34887371564064279 8.3775354184360961e-05 0.005758848870384338 -0.021886817531347861 0.01195972971698693 -0.30457435419125473 -0.18258393672968834 0.0022220830512057824 0.0023511232857026452 1.474208227663192 0.06677547294620953 -0.38252916624859368 -0.11356896258737438 -0.24043041823461042 0.014804982265951398 -0.31742651130001814 -0.14247141511644926 -0.25328094304109056 0.0074954729672088239 0.064375348152163933 -0.027935119263755911 -0.0035018559268752453 -0.049708638973383137 -0.065187645812315231 -0.1308390629503067 0.0024485159340701655 1.8800089232263906 0.52462498531354018 -0.14636604462227501 -0.17205390561863601 -0.18959515249135422 0.0037989524004503204 -0.057475418737082944 0.021890200955117758 0.0038515935436683165 -0.021210829938257621 -0.044233089348859049 0.47009090500388223 1.635 -0.047631792715782932 -0.018666786623797317 -0.098970577922806391 0.0014007260084658024 -0.052601534116986183 -0.0082543725581010318 -0.32392590241641678 1.0000000180025095e-35 -0.23649379509078991
decision_type=2 2 8 2 2 10 10 2 2 8 8 2 2 2 2 8 10 2 2 8 2 10 8 8 2 10 10 8 2 2 10 2 2 10 10 10 10 8 2 10 10 2 8 8 8 8 2 10 8 2 2 8 8 8 10 10 10 10 10 10 10 8
left_child=2 21 12 4 9 8 7 -3 11 10 19 13 28 -5 -6 24 -12 -17 48 20 -4 23 46 -2 42 34 44 -20 56 30 31 -30 39 35 -19 36 -31 38 -24 59 45 -26 -9 -39 -8 47 60 -7 -13 -27 -46 52 -52 -32 -45 -40 -1 58 -36 -33 -16 -21
right_child=1 6 3 5 14 40 26 15 -10 -11 16 18 -14 -15 22 17 -18 25 27 61 -22 -23 37 -25 41 49 -28 -29 29 33 53 32 -34 -35 57 -37 -38 43 55 -41 -42 -43 -44 54 50 -47 -48 -49 -50 -51 51 -53 -54 -55 -56 -57 -58 -59 -60 -61 -62 -63
leaf_value=0.50308483458328102 0.50477540375339791 0.50118732734394345 0.49757825684691853 0.50431356777757952 0.50704399132402289 0.50284429130400765 0.50816133014014953 0.50695929202498713 0.50666813005217803 0.50321787578994881 0.50178181166745828 0.50542102809907818 0.50308006076191325 0.50212865657397621 0.50091418270941568 0.50300970893122621 0.49951528090482705 0.49372823169678876 0.50805275523792714 0.49997118877640861 0.50244314346532792 0.50473238086634276 0.50200339071936295 0.50032549463813081 0.50008367668927756 0.49970537892855227 0.50922757631557614 0.50213429101388973 0.49865664698968859 0.50376059544056118 0.49756219069032231 0.50295406998448411 0.50025834763205412 0.50767126955075348 0.50364196419395757 0.50184754079119831 0.49757008543813769 0.50670037951154956 0.50398227452116928 0.49882706345719546 0.50644676219368223 0.49318895979514249 0.50102311671246913 0.50120329054283763 0.49842645019435183 0.50054839656837835 0.5028601194762049 0.49753544377107317 0.50358613378277672 0.49439450634520543 0.49732492643659748 0.50451709097374253 0.50290719213764845 0.50300475475511419 0.50350635256433152 0.49925105433936556 0.50022623192688875 0.50501744626815626 0.49757956879863419 0.49893130175417783 0.50254838031637228 0.50281392297375482
leaf_weight=19518 1898 36740 2317 10065 1727 20996 530 555 5421 18472 9202 18399 27695 15739 10398 891 11631 573 635 2047 2735 10310 19534 3004 904 727 532 5851 4136 8418 572 9565 16434 636 663 47719 506 1651 9763 1503 1115 630 4733 3130 952 4553 50082 608 6631 2803 908 3106 1227 9477 81013 757 2119 503 2196 1065 12953 24690
leaf_count=19518 1898 36740 2317 10065 1727 20996 530 555 5421 18472 9202 18399 27695 15739 10398 891 11631 573 635 2047 2735 10310 19534 3004 904 727 532 5851 4136 8418 572 9565 16434 636 663 47719 506 1651 9763 1503 1115 630 4733 3130 952 4553 50082 608 6631 2803 908 3106 1227 9477 81013 757 2119 503 2196 1065 12953 24690
internal_value=0.502553 0.501514 0.502707 0.502945 0.502728 0.503578 0.500909 0.500595 0.504052 0.501979 0.501544 0.503804 0.502146 0.502981 0.503006 0.49916 0.500516 0.497938 0.504478 0.502217 0.500211 0.503868 0.50297 0.502049 0.500657 0.497332 0.503158 0.502714 0.501934 0.501745 0.501195 0.500735 0.501036 0.502156 0.498989 0.502094 0.503409 0.503249 0.502577 0.502089 0.50249 0.497248 0.501647 0.503484 0.502677 0.502321 0.50253 0.502695 0.504935 0.495487 0.502206 0.502894 0.500532 0.502694 0.503421 0.503642 0.502805 0.499888 0.498985 0.502551 0.501821 0.502596
internal_weight=575863 74385 501478 352115 262102 90013 59173 51918 62741 71094 52622 57320 149363 25804 191008 15178 20833 8356 31516 31789 5052 15212 189281 4902 6822 7465 7255 6486 121668 100031 42752 32703 28567 57279 3935 56643 8924 115848 30054 12133 27272 1534 5288 85794 6723 26157 73433 21604 25030 3530 6193 5241 2135 10049 84143 10520 21637 3362 2859 10630 23351 26737
internal_count=575863 74385 501478 352115 262102 90013 59173 51918 62741 71094 52622 57320 149363 25804 191008 15178 20833 8356 31516 31789 5052 15212 189281 4902 6822 7465 7255 6486 121668 100031 42752 32703 28567 57279 3935 56643 8924 115848 30054 12133 27272 1534 5288 85794 6723 26157 73433 21604 25030 3530 6193 5241 2135 10049 84143 10520 21637 3362 2859 10630 23351 26737
is_linear=0
shrinkage=1


Tree=1
num_leaves=63
num_cat=0
split_feature=7 27 37 28 21 8 27 35 27 13 8 37 27 35 7 8 7 10 9 13 9 37 28 12 26 11 28 18 28 21 13 9 21 20 18 21 21 28 37 10 14 10 22 28 8 26 28 22 12 21 12 21 5 13 22 13 13 29 9 12 37 28
split_gain=31.2342 34.0656 22.8601 17.7182 15.46 14.5047 15.7707 14.2911 18.588 13.6721 11.9715 16.2772 11.7649 10.8702 10.7025 9.97907 9.61776 11.5235 9.32724 14.4419 9.1854 8.8016 8.7154 8.36709 7.89611 7.82384 8.25277 7.77301 7.61051 7.60182 8.29349 7.31559 7.30265 9.0657 8.91748 7.19639 7.19471 14.279 7.7017 9.241 8.5499 7.14029 7.02994 7.01508 6.9765 7.80254 6.93774 8.92854 6.8682 7.70412 6.82583 6.58128 6.53332 7.12956 6.66745 6.53382 7.51454 6.44121 6.13673 6.08014 9.62537 6.07109
threshold=0.032598920887567613 -0.21303192631593507 -0.0064378513821637369 0.17699860701876061 0.0068562375372746868 1.0000000180025095e-35 0.094789573232245697 0.0062451498859099636 0.57305393096642165 0.12346609575028096 inf 0.005758848870384338 -0.34887371564064279 0.064375348152163933 0.019708018599815375 1.0350000000000004 0.015430170923518298 0.092188257683621641 -0.30457435419125473 -0.11359815966307849 -0.38252916624859368 0.0023511232857026452 -0.22727190198199751 -0.075779697107651131 -0.18049486768998965 -0.10803234938934224 -0.39999913298305845 -0.71590621599653226 -0.17697196830608927 0.0068562375372746868 -0.14548491044137182 2.1965025974306722 0.014951493713562967 0.12575607916813838 2.4078095628479796 0.01344434150380878 0.0078729866050538059 -0.48436380592562095 0.0088160213900441049 -0.22289478949177569 -0.094027881472990418 -0.14412304743998447 0.0046933012820540429 -0.19396110971418987 17.015000000000004 0.09298513050919989 0.076402094699071679 -0.012242827221961882 0.12336857926509683 0.0083360070210254569 0.037200030988296669 0.0049212631771700698 -0.49817232881792789 0.3201687919221809 0.045864385175928279 -0.043268738489426188 0.02572628447324633 0.0011104886086610499 -0.32099812435590719 -0.059253948099364483 -0.033329142721945038 0.93423394501876733
decision_type=2 2 8 2 2 10 2 10 2 10 8 8 2 10 2 10 2 8 8 8 10 8 2 10 2 8 2 8 2 2 8 10 2 10 8 2 2 2 10 10 10 8 2 2 8 2 2 2 8 2 10 2 2 8 2 10 10 8 8 8 10 2
left_child=2 24 13 4 10 6 -5 8 23 32 18 22 -6 16 -7 -11 17 -1 19 -4 -15 -14 -12 36 -2 27 48 -18 -21 30 -28 61 33 34 -9 -8 37 -3 40 58 -38 -39 50 -32 -19 -46 -10 -48 -27 -50 -25 -13 53 -31 55 -54 -57 -53 -40 -36 -61 -16
right_child=1 7 3 5 12 14 35 9 46 15 11 51 21 20 31 -17 25 44 -20 28 -22 -23 -24 42 -26 26 29 -29 -30 52 43 -33 -34 -35 59 -37 38 41 39 -41 -42 -43 -44 -45 45 -47 47 -49 49 -51 -52 57 54 -55 -56 56 -58 -59 -60 60 -62 -63
leaf_value=-0.001533222753857325 0.0026345328350281115 -0.0076733757430405992 0.0026626506738795562 0.0011066064677153484 0.004583746255278953 0.0012874917280213975 0.0038839945985689088 0.0062252237587429558 -0.0086370203894142426 0.0097644167451274924 -0.003064232236775231 -0.0047462508321455344 -4.0530434592629116e-05 0.00027235799603490785 -5.6309728009556724e-05 0.00056677125958669002 0.0032414145596075094 0.0018554043010215356 0.00039513950905998912 -0.0046185506076484913 0.0080989791732239257 0.0006491529826455506 0.00030883674141924441 -0.0046609888133704105 0.00025516571478720297 0.0013524715023062422 -0.0046512840308879462 -0.002171303337584109 -0.0010435186343523556 0.0010599662359064251 -0.0018148963200197397 0.0045401868879660278 -0.0029372838531569138 -0.0061995234931763992 0.0018826348553697841 -0.00083645821164867221 -0.0025746471060640384 -0.0045970519971313224 -0.0032994731002244423 -0.0035970875989599182 0.0031927773963187391 0.0010948787395203355 -0.0050990392148137116 0.00070265172899200651 -0.0003185236114295155 0.0035807094443267191 0.0019854552199440201 -0.0052529365123620379 -0.0089894181156685675 -0.0020132306729334073 -0.00019433332083883874 -0.0011014127609766415 -0.00012821105921562471 -0.0017131126375880463 -0.0053056284823818252 -0.0059618858597794561 -0.0010898224793333374 -0.0035741657290686286 0.0010953118506975277 0.0022656351043172933 -0.0016250820333657376 -0.0021672513391220046
leaf_weight=6156 5922 558 1630 23798 1676 20174 9169 573 1084 560 2198 2494 76276 821 19521 622 705 10490 39626 2691 689 117551 14829 1339 8478 532 829 10993 3332 2620 3115 765 2847 590 2813 885 15808 600 931 1820 669 6621 2895 24710 11441 1444 520 2345 729 866 2365 7947 47183 20055 677 967 4343 3939 5377 2036 7238 4125
leaf_count=6156 5922 558 1630 23798 1676 20174 9169 573 1084 560 2198 2494 76276 821 19521 622 705 10490 39626 2691 689 117551 14829 1339 8478 532 829 10993 3332 2620 3115 765 2847 590 2813 885 15808 600 931 1820 669 6621 2895 24710 11441 1444 520 2345 729 866 2365 7947 47183 20055 677 967 4343 3939 5377 2036 7238 4125
internal_value=3.73273e-06 -0.000950799 0.000145607 0.000365204 0.000175638 0.00102785 0.00180815 -0.00147328 -0.00196196 -0.000259041 -0.000416162 -0.00117283 0.000413826 -0.000372826 0.000435374 0.00492894 -0.000415944 0.000391256 8.65015e-05 -0.00151142 0.00384657 0.000377746 -0.000126744 -0.00163073 0.0012338 -0.000617404 -0.000482725 -0.00184485 -0.0026413 -0.000419948 0.00027386 -0.000268867 -0.000640276 -0.000146538 0.000136019 0.00346844 -0.00129999 2.54552e-05 -0.00171902 -0.000459444 -0.0023403 0.00062136 -0.00325338 0.000420758 0.000898127 0.000118701 -0.00523041 -0.00393893 -0.00356526 -0.00520535 -0.00180986 -0.00241139 -0.000682067 -0.00139266 -0.000379004 -0.000315366 -0.00197803 -0.00192111 0.000446264 -0.000153138 -0.000770768 -0.000424636
internal_weight=576602 74611 501991 352626 274189 78437 33852 60211 42932 17279 78686 31407 195503 149365 44585 1182 147855 29531 47279 7653 1510 193827 17027 38983 14400 118324 106626 11698 6023 104499 28654 24411 16097 13250 12660 10054 32384 7779 24605 8128 16477 7221 6599 27825 23375 12885 3949 2865 2127 1595 3704 14380 75845 22675 53170 52493 5310 11886 6308 12087 9274 23646
internal_count=576602 74611 501991 352626 274189 78437 33852 60211 42932 17279 78686 31407 195503 149365 44585 1182 147855 29531 47279 7653 1510 193827 17027 38983 14400 118324 106626 11698 6023 104499 28654 24411 16097 13250 12660 10054 32384 7779 24605 8128 16477 7221 6599 27825 23375 12885 3949 2865 2127 1595 3704 14380 75845 22675 53170 52493 5310 11886 6308 12087 9274 23646
is_linear=0
shrinkage=0.05


Tree=2
num_leaves=63
num_cat=0
split_feature=36 27 7 11 33 28 8 9 7 21 35 5 21 12 19 7 7 35 13 35 21 21 27 9 9 18 36 14 13 36 28 21 21 8 28 19 35 33 26 12 26 19 12 18 19 27 9 9 20 12 9 10 5 36 9 12 21 35 35 14 15 19
split_gain=31.9516 28.6477 38.9878 16.03 14.9875 14.6828 24.1456 14.2506 14.3443 13.1171 12.925 12.4544 12.246 12.2372 11.8932 11.5906 10.4063 10.1859 9.71181 9.08139 8.91076 9.19628 8.78603 9.66016 8.71962 8.69363 9.75016 8.88232 9.89284 8.55373 8.43279 11.5252 8.41636 9.90123 11.6898 9.44445 8.20706 8.18433 8.01561 7.78427 7.69821 7.57504 7.38594 8.32106 7.49639 7.03782 7.02462 6.90876 6.82534 11.3895 8.38266 6.58774 6.62334 6.34437 7.5541 6.19625 7.65823 6.50373 6.07239 6.05602 6.05124 6.0188
threshold=0.048947926863747444 -0.30083682491386188 0.033788594115016286 -0.13367777126777511 -0.0082561168663927952 0.22971046512153784 5.6550000000000011 0.013875723465227091 0.014561755369770195 0.015075339519024242 -0.0056902669874211364 -0.09848008814880703 0.015075339519024242 -0.13093711687636445 -0.020545514658820267 0.047268626152521455 0.043537116630767862 0.022352758412696197 0.12346609575028096 0.016964090092068475 0.0193998218255188 0.0078482722024003325 -0.025583311754853396 -0.15787834014435589 -0.43039100808955083 -2.5887093714861575 0.0027366173958605845 -0.54603127513347105 -0.24040754885963753 0.0074568364543426352 -0.50168965394527454 0.0081502631256260248 0.0061956512232189927 5.6550000000000011 1.0381151113341611 0.37108207425222722 -0.012364196993745082 -0.028211680804766368 -0.13518666049307057 0.42046370052389109 0.043696877031614963 0.10961897300735253 -0.12013851510178429 -0.2157383178508335 1.4212474382329598 0.23599660441426143 -0.18223864190535796 0.078239868489666062 0.76128138368571174 0.34773245991260282 -0.43039100808955083 0.25967532864680026 0.53786182980728159 0.0002956161343485953 -0.28499950836860416 -0.077519120360204988 0.010057859240390149 -7.7933838093135677e-05 0.0052063706467190708 -0.13541360893953844 0.23230503617577897 -0.086616828042272859
decision_type=8 2 2 8 10 2 10 10 2 2 10 2 2 10 8 2 2 10 10 10 2 2 2 8 8 10 10 8 10 10 2 2 2 8 2 10 10 8 2 10 2 8 8 10 8 2 8 10 8 8 10 8 2 10 10 8 2 10 10 8 10 8
left_child=1 38 3 25 18 7 12 8 22 10 -10 19 13 32 -15 42 -2 20 48 39 21 -17 36 -24 -12 -3 -27 -28 -29 60 31 -26 33 -7 -35 37 -5 -34 -1 -9 59 51 44 61 47 -36 -14 -6 -4 -50 -51 -16 -53 -23 -55 56 57 -31 -30 -8 -13 -44
right_child=16 2 4 5 15 6 40 11 9 -11 24 29 46 14 41 17 -18 -19 -20 -21 -22 53 23 -25 30 26 27 28 58 55 -32 -33 35 34 45 -37 -38 -39 -40 -41 -42 -43 43 -45 -46 -47 -48 -49 49 50 -52 52 -54 54 -56 -57 -58 -59 -60 -61 -62 -63
leaf_value=0.0033467424155788784 -0.0025097150394484485 -0.0013120928593749904 -0.0029708389718172325 0.0018336850866008177 0.00013909862616879923 0.00080011823545578481 0.0046737720094254826 0.00092120495317868161 0.00022996972482252915 0.0011579286069181053 0.0010716633800340282 0.00083955344928957488 0.0030659937551504174 0.0015650309103999443 -0.0059284552817894451 -0.0011052109461701558 -0.0092393244587866043 0.0021348786856946128 0.0071384758596097879 0.0040198610246095275 -0.0009752026793288538 -0.0035278468253786555 -0.0010950782525728552 0.0014457075448333781 -0.0091022071670649358 0.00069163817854352291 0.0046784242037405345 -0.004121134530188213 0.00030493351502182295 0.0058826852482060914 -0.00067409611931038373 -0.001139303121310606 -0.0050417573250132811 0.0029990968701469386 0.0042705215731641188 0.0057164496172001705 -0.00030324713048608676 0.0012696627073247755 0.00091829116190993935 0.0038891965891386365 -0.0023601926054308132 0.00018992028728334411 -0.0033879436391718873 -0.0057215483703806583 -0.0048034534690798783 0.012421642814762001 -0.0021390232287702574 0.0047166689902357825 0.0035993469264987477 0.00021870300942816343 -0.0056608196107069469 -0.0027600503141301824 0.0029959825340708374 -0.0044299866071368715 -0.0093598456334401062 -0.0033320322758795006 -0.0031284118571813452 -0.0014568818676548377 -0.0037112519765371433 -0.00036911560543802165 -0.0022526383797488356 -0.0010889086230592008
leaf_weight=7870 8192 27037 1475 5270 4584 4657 618 28785 62961 15184 7129 12766 773 7662 1152 1669 617 872 524 3021 2599 2669 4269 30209 702 16653 574 2894 4515 708 131516 1286 519 8840 507 1185 30444 42318 5981 2392 5374 4925 3208 1130 626 557 3990 1004 2408 4793 693 2185 647 1586 1529 3096 999 525 1188 15579 1805 25249
leaf_count=7870 8192 27037 1475 5270 4584 4657 618 28785 62961 15184 7129 12766 773 7662 1152 1669 617 872 524 3021 2599 2669 4269 30209 702 16653 574 2894 4515 708 131516 1286 519 8840 507 1185 30444 42318 5981 2392 5374 4925 3208 1130 626 557 3990 1004 2408 4793 693 2185 647 1586 1529 3096 999 525 1188 15579 1805 25249
internal_value=5.9702e-06 5.23256e-05 -3.82728e-06 0.000137682 -0.00124704 0.00023556 0.000763874 7.92695e-05 -6.01615e-05 -0.000259699 -0.000365431 0.000824056 0.00116455 0.00132037 0.000120734 -0.00162136 -0.00298207 -0.00304694 0.000520863 0.00140275 -0.00349662 -0.00437564 0.000561763 0.00113109 -0.00063199 -0.000685445 -2.93377e-05 -0.00133844 -0.00174067 -0.000170497 -0.000722971 -0.00395432 0.00165969 0.00270174 0.00359573 0.00131497 1.21236e-05 0.00119308 0.00229825 0.00114904 -0.000720554 -0.00112144 -0.00118629 -0.00151541 0.000380733 0.00854526 -0.00129382 0.000962251 0.000150024 0.000733462 -0.000524904 -0.00274218 -0.00144443 -0.00531898 -0.00685204 -0.00188463 0.000123642 0.00275892 -0.000532188 -0.000176426 0.000456376 -0.00134819
internal_weight=576694 567885 554034 497416 56618 444555 101488 343067 288970 218778 203594 54097 79917 75154 16571 46725 8809 10924 9893 34198 10052 7453 70192 34478 140633 52861 25824 9171 8597 19899 133504 1988 58583 14561 9904 44022 35714 42837 13851 31177 21571 8909 35801 29587 6214 1064 4763 5588 9369 7894 5486 3984 2832 5784 3115 5328 2232 1233 5703 16197 14571 28457
internal_count=576694 567885 554034 497416 56618 444555 101488 343067 288970 218778 203594 54097 79917 75154 16571 46725 8809 10924 9893 34198 10052 7453 70192 34478 140633 52861 25824 9171 8597 19899 133504 1988 58583 14561 9904 44022 35714 42837 13851 31177 21571 8909 35801 29587 6214 1064 4763 5588 9369 7894 5486 3984 2832 5784 3115 5328 2232 1233 5703 16197 14571 28457
is_linear=0
shrinkage=0.05


Tree=3
num_leaves=63
num_cat=0
split_feature=7 27 37 28 21 36 35 27 13 7 35 18 14 13 21 28 13 34 15 6 11 14 19 15 17 36 11 17 27 17 19 20 5 9 7 35 28 19 20 21 29 14 29 28 7 18 9 7 27 19 9 19 33 9 17 35 35 11 28 27 27 21
split_gain=27.8406 31.399 21.1777 14.7908 20.5593 14.2186 14.0404 12.3995 10.4157 9.98192 9.77255 9.35076 9.11929 8.88417 9.30266 12.068 8.97026 8.51352 9.25425 7.86238 7.8445 9.64574 8.98829 11.585 8.02774 7.7543 11.1782 9.00433 7.75367 7.6401 7.52708 8.42827 7.28861 7.59977 8.45895 7.27271 7.39953 7.09598 6.8431 6.77286 6.88421 6.64425 6.55275 6.53449 6.40253 6.24866 6.24588 8.3025 6.1388 6.04872 5.81163 8.71324 5.65794 5.97156 7.83666 7.24693 7.20792 7.00745 6.1341 5.49019 5.47151 5.47013
threshold=0.033788594115016286 -0.23682495136625728 -0.0064378513821637369 0.13055628903043873 0.0068562375372746868 0.0022679583091071514 0.023051247935921195 0.52462498531354018 0.11964265951887108 0.019708018599815375 0.0041353124119087245 0.072538037451679985 -0.69556120819755429 0.03516116238734654 0.0067225460494375966 -0.2602374929886348 0.065440072670046159 0.00014634703654882331 -0.46047052962809804 0.64934536929374753 -0.2239784258725506 -0.055355621247781955 0.051872753513275603 -0.33436740938527648 -0.14339505318524179 -0.010777048844574659 -0.12906317787947266 -0.047208696431678139 -0.37871833833440477 0.13812388860578109 -0.085243960086319806 0.32998109512467871 -0.5272419046594562 0.013875723465227091 0.012804429601415977 0.016085529121078749 0.34334558894860406 0.305211573111698 0.42296060306908739 0.0072822929146809752 0.0029578975104431354 -0.15356043814704581 0.012389281422420127 -0.13619349095079195 0.015119431396960674 -0.27318061782701936 -0.30457435419125473 0.022588683899390279 -0.42380774997701165 0.19507858052602708 -0.23497842062564292 -0.061527109353947798 -0.019845487884288051 -0.22421673694025687 0.019444827780527894 -0.0095906069161999525 0.0073817993600212599 0.0031353754655761013 -0.14176258198584321 -0.034080578551429923 0.071925193595172368 0.012324573143063044
decision_type=2 2 8 2 2 8 10 2 10 2 10 10 8 8 2 2 8 10 8 2 8 10 8 8 10 8 8 8 2 10 10 8 2 10 2 10 2 8 8 2 8 10 8 2 2 8 8 2 2 8 10 10 10 8 10 10 8 8 2 2 2 2
left_child=2 19 12 4 5 43 7 25 60 -5 -9 -11 -1 20 15 -15 -16 44 -19 42 45 22 30 37 -23 26 -3 -27 -20 -13 31 35 33 34 -18 36 -22 -24 -34 -29 61 -25 48 46 -6 -14 47 -4 -2 -48 51 -32 -30 54 58 -56 -55 -58 -54 -17 -8 -41
right_child=1 6 3 9 17 -7 8 10 -10 11 -12 29 13 14 16 59 32 18 28 -21 21 24 23 41 -26 27 -28 39 52 -31 50 -33 38 -35 -36 -37 -38 -39 -40 40 -42 -43 -44 -45 -46 -47 49 -49 -50 -51 -52 -53 53 56 55 -57 57 -59 -60 -61 -62 -63
leaf_value=0.0060162504670007756 0.005276296426953926 -0.0055554314565740117 -0.0046761297763810638 0.0014791965726935164 0.00083008410559937931 0.0006600002699448269 -0.0026616612593999781 -0.005200461915861254 0.0077791595542937731 0.00054453394181833213 -0.000784758460544217 -0.0069860306239742827 -0.0077007964243470083 -0.0027475668263556969 0.005423221797637658 -0.0015799327019831472 0.00081948870237040028 0.0028534017132448401 0.0053910151976683945 -0.0014788993609434933 -0.0012027816686605375 -0.00064229632642054521 -0.0018491375637746483 -0.0053541986583169176 0.0061177399664198414 0.0035423514333874904 0.00062383966428822724 -0.00033162995419383327 -0.0013665702840983324 0.00045010548919345307 0.0080840699381442907 -0.0077347147570180005 -0.0023710821179295598 0.00071186224011854067 -0.0017916118846126529 0.0027502217257774041 -0.0076192314471167037 0.0054442183572331604 -8.2227738131362223e-05 -0.0025193616325192968 -0.0036681874679940977 -0.00050018713463519744 -0.0033493593544937279 -0.00041174702584033412 -0.00025863046162394792 -0.0024230841525295652 -4.625801429178585e-05 0.0023258933550472211 0.0017500139185649662 -0.0017430779030859246 -0.00069648734333498325 0.0010277721064284625 -0.0013734569403139815 0.00095159227047854138 -0.0018012221406188307 0.0051650963384294634 -0.0049057494244928862 -7.7642033028399839e-05 0.00065112451659794953 0.00084584277603785428 0.0013547644897633508 -0.00094719307802920965
leaf_weight=558 1478 815 2683 40249 17853 18327 1152 4141 519 51924 1797 759 724 2777 634 2509 3556 4758 838 1944 3157 920 861 3205 839 786 7098 5938 3661 633 571 533 3464 4721 24254 969 523 543 56734 11740 6156 904 537 28532 55425 2485 7598 502 7472 17010 2653 1862 9436 80559 544 1186 818 9123 6198 33003 3204 10467
leaf_count=558 1478 815 2683 40249 17853 18327 1152 4141 519 51924 1797 759 724 2777 634 2509 3556 4758 838 1944 3157 920 861 3205 839 786 7098 5938 3661 633 571 533 3464 4721 24254 969 523 543 56734 11740 6156 904 537 28532 55425 2485 7598 502 7472 17010 2653 1862 9436 80559 544 1186 818 9123 6198 33003 3204 10467
internal_value=1.02106e-05 -0.00096247 0.000134263 0.000344364 0.000153578 -0.000549686 -0.00146801 -0.00172291 0.00109071 0.000884815 -0.00386451 0.000436088 -0.000358321 -0.0003817 -0.00023014 0.000426164 -0.000499298 0.000429316 0.000693776 0.00141734 -0.00134329 -0.000927331 -0.00131882 -0.00294714 0.00258372 -0.00142709 -1.32164e-05 -0.00174595 0.000602302 -0.00360662 -0.00044436 -0.00178535 -0.000539849 -0.00114285 -0.00145772 -0.00110175 -0.00211651 0.000973451 -0.000213973 -0.00186723 -0.00218869 -0.00428667 0.00201091 -0.000943298 6.62495e-06 -0.00361585 -0.00148895 -0.00357213 0.00233287 -0.00121919 0.000922027 0.00268645 0.000566271 0.000631886 -0.000217431 0.00297476 0.000794843 -0.000475379 -0.000570834 0.000674417 0.000292202 -0.00177842
internal_weight=576819 65244 511575 358616 265051 74652 53813 48938 4875 93565 5938 53316 152959 152401 131652 38289 93363 190399 117121 11431 20749 17540 15781 5513 1759 43000 7913 35087 112363 1392 10268 5182 92729 32531 27810 4649 3680 1404 60198 34301 28363 4109 9487 56325 73278 3209 27793 3185 8950 24608 5086 2433 111525 107864 17364 1730 90500 9941 15634 35512 4356 22207
internal_count=576819 65244 511575 358616 265051 74652 53813 48938 4875 93565 5938 53316 152959 152401 131652 38289 93363 190399 117121 11431 20749 17540 15781 5513 1759 43000 7913 35087 112363 1392 10268 5182 92729 32531 27810 4649 3680 1404 60198 34301 28363 4109 9487 56325 73278 3209 27793 3185 8950 24608 5086 2433 111525 107864 17364 1730 90500 9941 15634 35512 4356 22207
is_linear=0
shrinkage=0.05


Tree=4
num_leaves=63
num_cat=0
split_feature=36 27 7 35 30 12 2 2 37 28 10 28 7 12 27 9 10 21 36 35 7 7 9 17 28 16 33 28 13 33 21 12 10 22 2 7 21 22 8 28 9 17 12 12 19 12 19 8 27 13 12 35 21 8 2 9 13 37 28 2 14 10
split_gain=28.3852 23.1419 30.2706 17.2819 15.549 14.1577 12.7258 11.481 11.4733 11.0531 10.8119 9.99642 9.82296 9.09161 8.93957 8.60578 7.94152 7.86206 8.06324 7.42132 7.35288 7.10242 6.96208 6.85986 6.80473 6.75867 6.52683 6.22418 6.20505 6.20131 6.11555 6.59259 5.84643 5.7868 7.14513 5.83816 5.77436 5.63978 5.60525 5.56579 5.53835 6.5654 6.88238 6.36235 5.81599 5.53004 5.44072 5.40274 5.35582 5.32138 5.89661 5.33901 5.22904 5.211 8.11243 6.70073 10.0342 6.36539 5.49259 5.20539 5.20365 5.58273
threshold=0.048947926863747444 -0.30083682491386188 0.040254431775586651 0.022352758412696197 0.00070331949233327321 -0.16291886023908286 -0.5894336585182286 1.1763109701395427 -0.0056645864061855749 -0.062678257329191953 0.095107981267779806 0.2240461719511502 0.042583395086146267 -0.09094061886268924 0.52462498531354018 -0.39240111082337897 0.095107981267779806 0.0062923837861266632 0.0088131831711886262 0.0011811788835765457 0.020563063856327068 0.016710799948824667 3.5545611128100849 -0.15273225386497383 0.033595400516108771 0.11735777802787872 -0.0013469444284050162 -0.048779531744641662 -0.11907734025512161 -0.0063420321669625237 0.014325481247312219 0.16102971315680809 0.12943828021609946 -0.0067959912103915101 0.30862361079115991 0.047268626152521455 0.011573060871328646 -0.0073965466516183404 7.9650000000000007 -0.1715297166681273 0.013875723465227091 0.031286601468245093 -0.1659347940444145 -0.22414159212665022 1.4212474382329598 -0.059581712590275691 0.059234543556771234 1.0350000000000004 0.32133719343021677 -0.14006216130331309 0.39380037761276082 -0.0089136195581502268 0.0072822929146809752 inf 1.469482204976478 -0.30457435419125473 -0.26570780586002246 0.018117078163881035 -0.17697196830608927 -0.03020674888297099 -0.1940588051804448 -0.19400839206841772
decision_type=8 2 2 10 8 8 2 2 10 2 10 2 2 10 2 10 8 2 10 10 2 2 10 8 2 8 8 2 10 8 2 8 10 2 2 2 2 2 8 2 8 10 8 8 10 8 10 10 2 10 8 10 2 8 2 8 8 10 2 2 10 10
left_child=1 6 4 5 8 29 -1 10 16 48 38 17 39 20 15 -7 36 18 27 24 -13 -18 25 -22 -16 -15 -17 53 -25 -4 31 -5 -12 35 -35 -28 -3 -31 46 -2 41 42 60 -42 -45 -36 -6 -11 -9 50 -27 -51 -41 55 57 58 -57 -55 -10 -29 -19 -62
right_child=12 2 3 30 7 14 -8 9 11 47 32 13 -14 22 19 26 21 40 -20 -21 23 -23 -24 28 -26 49 33 59 -30 37 -32 -33 -34 34 45 -37 -38 -39 -40 52 43 -43 -44 44 -46 -47 -48 -49 -50 51 -52 -53 -54 54 -56 56 -58 -59 -60 -61 61 -63
leaf_value=0.0030864642584886325 -0.0052594831858696154 -0.0015879554295099635 0.0066101539387510948 0.0068136327427360801 3.1667993284985099e-05 -0.0011012070140713 -0.00019463904490294305 -0.0001828952997169488 -0.0047468668599902151 0.0021046149793623476 0.0042269114783789431 0.0021680046995638832 -0.0083962263184630039 0.0040697759969919233 -0.011333009144965838 -0.0013864905107142209 0.00083114864921347918 0.0011822126513596281 0.0016140779690671549 -0.0017877577290996956 -0.0048786221114185428 -0.00027479746627684289 0.0051652342652191742 0.00073808709126892342 -0.0048936878262698328 -0.00095761820608385368 0.0012234674511676573 -0.00045719876763158435 0.0040915164104158028 0.0039772331667106637 -0.002096839156300307 0.0010469643321269837 0.00052038829703920453 -0.0026715343434201397 -0.004320702365501675 -0.0050766139294419694 0.00057608383319061862 -0.0018484946347420992 -0.00094517405031262615 -2.9294828682246549e-05 0.0058115750297073445 0.0016059532491715404 -0.00057686592576182329 0.00057016294340737938 0.0059003966160848789 -0.0097212441926152523 -0.0011530052622559317 0.0003622759115304013 -0.0034538112730628182 -0.0066325957786182574 0.0036252075593293711 -0.0015444031176946374 -0.0028676106787565029 -0.0014820079278480341 0.004052044789340745 -0.006435355827291581 0.00030361619778227129 -0.0045287063268729831 2.8362026638623094e-05 0.0015492743465029294 0.00108524315187689 -0.0052328454658316162
leaf_weight=9496 1340 14741 506 880 38832 11503 4290 13732 1529 10276 1168 17177 723 677 534 2852 19756 10818 4706 1416 516 54735 533 22650 1777 4547 761 9445 1468 664 623 1134 11838 1265 810 710 3897 1106 72538 2704 586 5636 33176 118379 513 1151 12914 7847 1376 732 829 1741 4057 5053 500 580 11212 2595 993 4913 702 695
leaf_count=9496 1340 14741 506 880 38832 11503 4290 13732 1529 10276 1168 17177 723 677 534 2852 19756 10818 4706 1416 516 54735 533 22650 1777 4547 761 9445 1468 664 623 1134 11838 1265 810 710 3897 1106 72538 2704 586 5636 33176 118379 513 1151 12914 7847 1376 732 829 1741 4057 5053 500 580 11212 2595 993 4913 702 695
internal_value=-1.70449e-06 4.20129e-05 -8.32189e-06 -0.00161958 7.64192e-05 -0.00202481 0.00206549 -0.000316185 0.000264458 0.000517714 -0.000518032 0.000433392 -0.00281562 0.00106284 -0.00240051 -0.00196222 -0.000212438 0.000282371 -0.000334568 -0.00463986 0.00137397 1.85213e-05 -0.000373159 0.00082024 -0.00638587 -0.000719955 -0.0032739 -0.000583664 0.000942363 0.00173471 0.00222998 0.00356879 0.000853551 -0.00441939 -0.00560432 -0.00181874 -0.00113547 0.000337988 -0.00066157 -0.00231659 0.000432626 -3.42358e-06 -0.000203284 0.000618854 0.000593211 -0.00749386 -0.000264002 0.00135027 -0.000481011 -0.00113355 -0.000250386 -0.00305256 -0.00173262 -0.00110339 -0.00211272 -0.000528747 -2.83637e-05 -0.00251622 -0.00286743 0.000229433 0.000811331 -0.00205947
internal_weight=576853 568029 554243 27692 526551 25055 13786 170521 356030 33231 137290 262901 8824 50870 22779 19052 93129 212031 41526 3727 41811 74491 9059 24634 2311 8526 7549 36820 24118 2276 2637 2014 13006 4697 3226 1471 18638 1770 124284 8101 170505 51027 45391 119478 118892 1961 51746 18123 15108 7849 5376 2473 6761 22462 8148 14314 11792 7648 2522 14358 12215 1397
internal_count=576853 568029 554243 27692 526551 25055 13786 170521 356030 33231 137290 262901 8824 50870 22779 19052 93129 212031 41526 3727 41811 74491 9059 24634 2311 8526 7549 36820 24118 2276 2637 2014 13006 4697 3226 1471 18638 1770 124284 8101 170505 51027 45391 119478 118892 1961 51746 18123 15108 7849 5376 2473 6761 22462 8148 14314 11792 7648 2522 14358 12215 1397
is_linear=0
shrinkage=0.05


Tree=5
num_leaves=63
num_cat=0
split_feature=36 27 7 28 8 2 35 7 33 13 7 15 2 8 36 33 21 18 37 7 35 8 11 24 27 21 17 20 14 10 5 19 21 7 35 35 13 19 8 14 36 27 36 21 35 2 36 37 17 10 35 13 37 10 15 37 15 14 7 20 2 28
split_gain=25.0844 23.2915 29.8324 14.6852 21.5332 13.1013 12.9822 11.7192 11.5033 12.2609 10.7465 9.54486 9.40286 9.04376 12.551 9.14223 10.9118 8.16871 8.14198 7.99931 7.97611 7.54047 7.42857 6.73708 6.65657 7.04883 6.60772 7.00316 8.8066 6.45396 6.44272 6.02696 6.24634 5.81308 6.3479 5.81277 7.30638 7.25488 7.00651 5.57604 5.52168 7.64416 6.28135 6.31889 5.88542 5.43244 5.43195 5.17988 5.17803 5.1312 5.11235 5.0943 5.0586 5.05676 5.09105 5.51048 5.25094 7.36426 4.91193 4.83134 4.82547 5.34434
threshold=0.048947926863747444 -0.30083682491386188 0.031820989060717932 0.16246313476360821 5.3850000000000007 1.0769325563466239 -0.014220232995314769 0.017429491042007861 -0.008055004983271984 0.19093818135987353 0.043537116630767862 -0.44061317967817076 -0.47288244286217263 10.075000000000001 -0.00049826766659720142 -0.0046267917507151089 0.0073254441290017324 0.10974255216256036 0.039968704603860393 0.043537116630767862 0.023051247935921195 0.03500000000000001 -0.12045863211030637 -0.00074318269215916906 0.15227451120308269 0.0068087563726082654 -0.17362277920266114 -0.08046733582943276 0.1432664518149217 -0.44552268992759053 -0.46161406223445983 0.092062568736658731 0.014809936810944958 0.020248465181943804 0.0075471397339849661 -0.012950464417713867 -0.019079908784322832 0.0076730888041518482 1.0350000000000004 -0.04669193934892308 0.031463774199173879 0.048238686253214043 -0.0082237905370751464 0.0076496060366994219 -0.023418576379339178 0.75033111974688838 0.003328340817439769 -0.01306485733001495 -0.27197839022646991 -0.44552268992759053 0.0027155683927475209 -0.13877195535837436 0.06922517446220712 0.49607597865459657 0.65985690105244199 -0.0088614385265590977 -0.065865965839624216 -0.23251542324766525 0.012804429601415977 -0.29635233674431061 -0.98775638748418071 -0.084377805206463194
decision_type=8 2 2 2 10 2 8 2 10 10 2 8 2 8 10 10 2 10 10 2 10 10 8 2 2 2 10 10 8 10 2 10 2 2 10 10 8 8 8 8 10 2 10 2 10 2 10 10 8 8 10 10 10 10 10 10 8 8 2 8 2 2
left_child=1 12 3 6 5 7 40 59 9 18 48 -12 52 14 22 16 45 23 -4 -2 24 -7 26 -9 29 -26 27 28 -8 47 -14 49 -33 -17 -35 38 -37 -38 -27 -28 41 42 43 -3 -43 -15 -19 -13 -10 -24 -20 58 -1 54 56 -56 -16 -58 -45 -5 -51 -62
right_child=19 2 8 4 -6 21 13 17 10 -11 11 20 30 15 53 33 -18 46 50 -21 -22 -23 31 -25 25 35 39 -29 -30 -31 -32 32 -34 34 -36 36 37 -39 -40 -41 -42 44 -44 51 -46 -47 -48 -49 -50 60 -52 -53 -54 -55 55 -57 57 -59 -60 -61 61 -63
leaf_value=0.0032620413784740683 -0.0022314309710949162 -0.0016496637012450037 0.00078602362602962046 -0.00096459299216879093 -0.0005611164914673299 0.00323101945608087 -0.0046374360540084964 -0.0001392250758526749 0.0031919339718297123 0.0080345101340414862 -0.0079580014110485747 -0.0062550509457830585 -0.0038068258400326196 -0.0023498783883612808 -0.0016295169547038064 3.9807737032140905e-05 -0.00031215522362244347 -0.00099397311846241088 -0.003526404027576026 -0.0080493232628511165 0.0020013070853700469 0.00076124284308420605 0.0037818147690233542 0.00092150875320646728 0.00062054142812227858 -0.0028886668257351198 0.0021692024581928793 0.0014725341573623096 -0.00083661575263874145 0.0014873054466534087 0.0010779305410791302 -0.00054042690346829247 0.0049607440226886708 -0.00033042776694188007 -0.0016921752406789594 0.0019586556450520479 -0.0074023800399784807 -0.002536287884178502 -0.010068765469136785 -0.0015201344077422681 0.0024588740193045152 -0.0028700057537433743 0.0012567125854026236 -0.003156240415041377 0.00014377967042276615 0.00055827092232763758 -0.0076065763107438641 -0.0016464601026609544 -0.00093225356540956007 -0.00032909474918994418 0.0020853104867629849 -0.0023812185326550581 -9.3531485254627194e-05 0.0018032697462268051 -0.0054742520636954766 -0.0010304822740628773 0.0034400894410184925 -0.00028840380291408587 0.0020020645761283508 0.0018494265282878648 0.00067093516226850169 0.0018063248542107221
leaf_weight=8913 8190 4345 9186 1638 31468 8944 2158 27841 774 506 733 688 893 15138 7219 81504 19775 800 2038 636 1089 4723 1635 32376 833 582 3315 1870 5184 1503 2755 10380 542 35351 11291 558 1168 2227 819 1481 4176 2557 26283 512 4417 1796 507 5314 42494 6546 506 1021 1285 2531 1005 2278 1360 49181 4605 22057 25758 17344
leaf_count=8913 8190 4345 9186 1638 31468 8944 2158 27841 774 506 733 688 893 15138 7219 81504 19775 800 2038 636 1089 4723 1635 32376 833 582 3315 1870 5184 1503 2755 10380 542 35351 11291 558 1168 2227 819 1481 4176 2557 26283 512 4417 1796 507 5314 42494 6546 506 1021 1285 2531 1005 2278 1360 49181 4605 22057 25758 17344
internal_value=-6.59196e-06 3.45279e-05 -1.61047e-05 0.00012461 0.000578057 0.000940572 -4.30479e-05 0.000710077 -0.000972931 0.000421804 -0.00126326 -0.00239225 0.00206002 -0.000163378 0.000132468 -0.000414238 -0.00110991 0.000346186 9.27554e-05 -0.00265153 -0.00211572 0.00237764 0.000565179 0.00043109 -0.0024433 -0.00365745 -0.000475032 -0.00125854 -0.00195425 -0.00144201 -0.000118533 0.000799429 -0.000267004 -0.000214947 -0.000660106 -0.00432303 -0.00334075 -0.00421208 -0.00709021 0.00102986 0.000721982 0.000556103 0.000843984 -0.000190832 -0.00096147 -0.00204143 -0.00356293 -0.00217569 -0.000858406 0.00102655 -0.00240986 0.000841954 0.00283925 -0.00038627 -0.000477082 -0.00239207 -0.000368197 -0.000188008 0.00148542 0.00165487 0.000935744 0.00112784
internal_weight=576602 567776 553930 482912 130354 98886 352558 85219 71018 12236 58782 15514 13846 304642 139787 164855 36709 61524 11730 8826 14781 13667 76213 60217 13692 6187 14008 9212 7342 7505 3648 62205 10922 128146 46642 5354 3953 3395 1401 4796 47916 43740 36766 10483 6974 16934 1307 6002 43268 51283 2544 6138 10198 63574 61043 3283 57760 50541 5117 23695 49648 43102
internal_count=576602 567776 553930 482912 130354 98886 352558 85219 71018 12236 58782 15514 13846 304642 139787 164855 36709 61524 11730 8826 14781 13667 76213 60217 13692 6187 14008 9212 7342 7505 3648 62205 10922 128146 46642 5354 3953 3395 1401 4796 47916 43740 36766 10483 6974 16934 1307 6002 43268 51283 2544 6138 10198 63574 61043 3283 57760 50541 5117 23695 49648 43102
is_linear=0
shrinkage=0.05


Tree=6
num_leaves=63
num_cat=0
split_feature=27 7 5 7 11 33 28 8 21 9 21 5 2 22 17 11 33 28 2 21 30 7 9 12 13 9 27 28 12 19 29 28 9 34 14 8 14 21 36 27 21 36 21 11 16 9 34 12 19 16 11 21 2 5 37 28 19 9 16 7 36 22
split_gain=20.7275 35.3737 19.6813 14.8943 13.4678 11.9336 11.8446 22.6912 17.7557 13.383 12.546 11.0581 10.9254 13.4847 10.8632 12.6106 10.109 10.097 11.7878 9.49121 9.30264 9.05673 8.89392 8.79896 8.59064 8.5204 8.32718 9.23505 7.86444 7.65853 7.20776 7.16993 7.15824 7.06652 6.76811 7.61809 6.71425 6.66562 6.43333 7.56215 9.37642 9.09143 8.80471 8.47997 6.37254 6.11073 6.01583 6.00526 9.20247 8.16908 7.05982 6.79431 5.91961 5.53731 5.5144 6.07748 5.4371 8.33662 5.47066 5.43086 5.37581 5.36986
threshold=-0.21303192631593507 0.034122368773373768 -0.39846284415261191 0.013763740317742768 -0.13367777126777511 -0.0091679529671960195 0.2240461719511502 0.015000000000000001 0.0062414859504290546 0.013875723465227091 0.013906784892848377 -0.55721133885670293 1.1763109701395427 -0.0030246454145785788 0.01174839848065889 -0.67201436914868629 -0.019845487884288051 0.13055628903043873 -0.17239703967499651 0.008541077753418962 0.00040031418724467222 0.048941587402172505 -0.24274512818165786 -0.13809832994713658 0.11122809083956224 -0.14858803310104893 0.18785961636506901 0.93423394501876733 0.46305730906659598 -0.25212167599468971 0.012951001185894482 -0.37881399872189736 0.048433568362901823 -0.012025873001886164 -0.15088407760607961 5.7950000000000008 0.14607312341464293 0.02791294276669062 -0.057010718562138359 -0.37871833833440477 0.016761861093694357 -0.016505445525833766 0.010002413036717242 -0.35879840444788502 -0.20512444030692153 0.11562009267975309 0.0061217632932421143 -0.12013851510178429 1.4212474382329598 -0.32168776672136851 -0.18138826450666209 0.0069013128939990178 1.1763109701395427 1.3856134947040624 0.00054930628694660835 -0.111465359107123 0.032885433869646548 -0.11491634163956828 -0.05626514316454876 0.018282903103291778 0.028209973797109412 0.016994170415695734
decision_type=2 2 2 2 8 8 2 10 2 10 2 2 2 2 10 10 10 2 2 2 10 2 8 8 10 8 2 2 10 8 10 2 10 10 8 10 10 2 10 2 2 10 2 8 10 10 8 8 8 10 8 2 2 2 8 2 10 8 10 2 10 2
left_child=2 3 31 17 14 24 9 8 26 16 12 -11 13 -10 15 23 -6 18 -2 -14 36 47 -22 -5 -3 54 -8 -28 -17 44 37 -1 56 -4 45 59 -18 -23 -35 41 43 -40 -43 -41 -16 -9 -37 48 50 51 -7 -49 -24 -21 -20 -56 57 58 -31 -36 -12 -45
right_child=1 5 33 4 6 21 7 34 10 11 60 -13 19 -15 29 28 20 -19 25 53 22 30 52 -25 -26 -27 27 -29 -30 32 -32 -33 -34 38 35 46 -38 -39 39 40 -42 42 -44 61 -46 -47 -48 49 -50 -51 -52 -53 -54 -55 55 -57 -58 -59 -60 -61 -62 -63
leaf_value=-0.0030387920121364501 -0.00038290409713412734 7.1822330815792584e-05 -0.004102133781244288 -0.0017234011325077154 -0.0026531938305180921 -0.0035271891177846835 0.0021633339341189015 0.0054562048074740565 -0.0005399505773069288 0.0017165138489105042 -0.0010710713068913318 3.5540763413131859e-05 0.0012717363374264599 0.0017043413603963096 1.6302571474353771e-05 -0.0018310944027864165 3.7577714221201058e-05 0.0018422456954876277 -0.0020703808451851889 0.0071750800143396262 0.0006962081101955426 -0.0039653454208656578 -0.001088152085760273 0.0059136457986059821 0.0067625163334042449 0.0012644016526437768 0.0036795101584898657 0.0097808811620213373 0.0042361872766269459 0.0030495147524463588 0.0021543178215189516 -5.5022909989276209e-05 -0.0045857901620357574 -0.00080546154706183305 0.0013937738563256305 -0.0015524257020458117 -0.0036258709778850596 0.00097508108743901223 0.0073133154746703472 -0.0037930929321363018 -0.00013360867968480842 -0.0026460175775765878 0.0043842584301637408 0.0028366261409679973 -0.0062048004736278469 -0.0012879483340870821 0.00076894360725085422 0.00029176947089274747 -0.0058494172918619946 -0.007565466536116186 0.0015466493522151819 -0.001818254875777654 -6.2677438090996951e-06 0.0012617279986415588 -0.0005977739246841564 0.0036823172089965779 0.00044731793289366317 0.0068559681791950924 -0.0028600077802763131 -0.00021901397104905648 -0.0061543491477406877 0.00097479728435461571
leaf_weight=2650 28669 6499 520 624 4524 805 6474 956 11826 15576 3406 26306 2570 15418 923 26894 128541 14612 3437 1654 10481 7279 59449 951 517 34435 2372 840 544 1168 605 8371 556 2254 6792 15461 1262 753 1379 578 5611 668 1332 14691 742 517 3405 4551 577 561 4589 23586 16059 521 2819 1174 6291 964 588 22538 613 5261
leaf_count=2650 28669 6499 520 624 4524 805 6474 956 11826 15576 3406 26306 2570 15418 923 26894 128541 14612 3437 1654 10481 7279 59449 951 517 34435 2372 840 544 1168 605 8371 556 2254 6792 15461 1262 753 1379 578 5611 668 1332 14691 742 517 3405 4551 577 561 4589 23586 16059 521 2819 1174 6291 964 588 22538 613 5261
internal_value=-1.66019e-07 -8.56054e-05 0.0010517 4.58462e-05 -8.26162e-05 -0.00134715 1.4988e-05 0.000492162 0.00129627 -0.000158564 0.000785036 0.000660724 0.00111586 0.000730161 -0.000949769 -0.00146088 -0.000314313 0.000646022 0.000398187 0.00332975 -0.000265267 -0.00165707 -0.000668609 0.00288875 0.000565744 0.000933071 0.00319653 0.00527768 -0.00171065 0.000370469 -0.00310569 -0.000772681 0.000915195 0.00167431 -0.000247606 -0.00034967 1.93245e-06 -0.00350212 0.00176897 0.00196557 0.00167772 0.00419124 0.002036 0.00217276 -0.00275817 0.00308984 -0.00113344 -0.00129609 0.000146558 -0.00159625 0.000788917 -0.00147697 -0.000858061 0.00575983 -0.000602472 0.000661242 0.00125509 0.00312251 0.0010702 0.000154497 -0.00184774 0.00234577
internal_weight=576589 533274 43315 482952 397806 50322 357561 95363 45694 262198 36008 41882 31989 27244 40245 29013 220316 85146 70534 4745 215792 43306 85989 1575 7016 41865 9686 3212 27438 11232 8637 11021 9567 32294 49669 48196 129803 8032 31774 29520 26141 3379 2000 20530 1665 1473 18866 34669 5971 28698 5394 28137 75508 2175 7430 3993 9011 2720 1756 29330 4019 19952
internal_count=576589 533274 43315 482952 397806 50322 357561 95363 45694 262198 36008 41882 31989 27244 40245 29013 220316 85146 70534 4745 215792 43306 85989 1575 7016 41865 9686 3212 27438 11232 8637 11021 9567 32294 49669 48196 129803 8032 31774 29520 26141 3379 2000 20530 1665 1473 18866 34669 5971 28698 5394 28137 75508 2175 7430 3993 9011 2720 1756 29330 4019 19952
is_linear=0
shrinkage=0.05


Tree=7
num_leaves=63
num_cat=0
split_feature=36 27 7 30 33 7 12 9 22 19 7 28 9 28 21 20 20 35 26 19 13 10 9 7 12 35 12 28 17 14 12 19 12 12 17 10 15 12 34 9 35 21 36 32 33 28 28 18 19 13 7 9 7 20 14 10 7 10 12 10 21 8
split_gain=21.491 19.8814 21.3122 14.0917 11.7028 8.42016 8.57609 9.04552 9.5957 8.29075 8.00492 7.65936 7.62306 9.73973 8.31469 7.9946 6.97724 6.90446 6.88012 6.87776 6.85672 6.99223 6.7894 6.47451 6.24057 7.53316 6.23819 6.2231 6.17105 11.8683 7.70727 8.17985 7.8316 9.28393 6.84693 8.33652 6.08371 6.85433 6.05399 5.88856 7.10538 5.84442 7.20057 5.81598 5.74308 5.64896 5.64835 5.6481 5.62154 8.69964 5.59913 5.57454 5.49937 5.37149 7.66157 6.07961 5.60484 5.27119 5.21857 5.16687 5.59025 5.66588
threshold=0.048947926863747444 -0.30083682491386188 0.033486234688195247 0.00070331949233327321 -0.0089271899812003088 0.06677547294620953 -0.15382211251497788 0.054566895565045188 -0.0048233110952776359 1.4212474382329598 0.043537116630767862 0.57720013965564465 0.40727123496949974 0.2240461719511502 0.0061956512232189927 0.26460242928844757 -0.20236928437844651 0.064375348152163933 -0.057722507637617985 0.17696366823886203 0.11964265951887108 -0.053838310906469601 -0.38986195050454969 0.0095742021664037124 0.34773245991260282 0.0013659501566471261 -0.11634066687479243 0.69785703352211859 0.075017317334889436 -0.25387042808983451 -0.089290603980225883 0.032885433869646548 -0.60420234539456463 -0.37939421113862826 -0.20536270530402204 0.23083527690082595 0.37144220233678987 -0.14890364089459071 -0.0016636412137373529 0.67172322423019415 0.0086562279663843656 0.0076894584314393779 -0.0063161540132663412 0.00059643057295033551 -0.022982058988585952 0.55939908287352913 -0.15249831309041831 -0.19180575441952996 0.089413973589136372 -0.10728748715356437 0.013111835006028144 0.28170930479382278 0.027081081815951157 -0.59054104460829115 -1.4121517986206464 -0.25867667406472289 0.021202268394995508 -0.19400839206841772 -0.086984277285757666 1.2297182531854589 0.0062414859504290546 18.705000000000002
decision_type=8 2 2 8 8 2 8 8 2 10 2 2 8 2 2 8 10 10 2 10 10 8 10 2 8 10 8 2 10 10 8 10 10 10 10 8 8 10 8 8 10 2 10 10 10 2 2 10 10 10 2 8 2 8 10 8 2 10 8 10 2 8
left_child=1 18 3 9 20 6 11 8 -8 12 -2 -6 28 23 15 -15 -10 44 43 26 21 57 -19 -14 25 -23 -9 -7 29 30 31 46 -33 -34 35 45 37 -30 -35 -25 59 -28 -43 -1 -5 -32 53 -16 49 -44 -31 -11 -17 54 -3 56 -55 -4 -37 60 61 -41
right_child=10 2 4 17 5 27 7 19 16 51 -12 -13 13 14 47 52 -18 22 -20 -21 -22 24 -24 39 -26 -27 41 -29 36 50 34 32 33 38 -36 58 -38 -39 -40 40 -42 42 48 -45 -46 -47 -48 -49 -50 -51 -52 -53 -54 55 -56 -57 -58 -59 -60 -61 -62 -63
leaf_value=0.00085070695890301267 -0.0020342743137749058 -0.00026735978556393324 0.00028513071090579802 -0.0022879460246354086 9.9730092849866666e-06 -0.0027413752433634413 -0.00052518459530750397 0.0034446644935101655 -0.0027633838451375636 0.00051535362641550581 -0.0078437411141161362 0.0052990210140437559 0.0016631809603699452 -0.0032855242879763118 0.00078264583409080608 0.002111970515274638 -0.0065842847578297548 0.00013449176010052564 -0.00014117278604292065 0.0030598096430430447 0.0062254096252540615 0.00047606841935258771 0.0070585764965939574 0.0019979895026277848 7.4682299943715441e-05 0.0064171978034052489 0.00017757667185608323 -0.0088085643389703063 0.0052727839815693038 0.00067076675049930403 -0.0010462910344371489 0.004997138895034889 -0.0063381375162452061 -0.0023913795285800832 0.0040657318499716499 -0.0037460312813605966 9.193543336530357e-05 0.001107911573384494 0.00026369962611205407 0.00049435226959669977 -0.00073131308989100256 0.00020235970195227622 -0.0021371481596553091 0.0033279616845827281 -0.00028768832830526939 -0.0045017806046157988 0.0014771522279168072 -0.0031189073864065944 -0.006634227369993158 0.0029328116265693602 -0.0020764922958005482 0.0053925795975091236 0.0054952802642422756 0.00059757799280694447 -0.0074502244948275523 3.2661845923888119e-05 0.0068339225315352872 -0.0054583360965788407 0.00021462100168626475 0.0026183873999357813 0.00038197611920304882 -0.00096699619509702222
leaf_weight=3552 8263 1203 789 3673 4331 1915 4324 772 6858 1059 638 812 7652 621 36259 9388 1447 815 3195 1091 529 1124 625 4311 5045 1015 6658 542 1449 2234 19806 582 744 3101 830 859 7081 3102 6973 10712 20994 4662 14422 7120 154253 1257 18303 951 636 898 10909 1311 1377 768 536 9003 678 808 25259 2276 106616 17415
leaf_count=3552 8263 1203 789 3673 4331 1915 4324 772 6858 1059 638 812 7652 621 36259 9388 1447 815 3195 1091 529 1124 625 4311 5045 1015 6658 542 1449 2234 19806 582 744 3101 830 859 7081 3102 6973 10712 20994 4662 14422 7120 154253 1257 18303 951 636 898 10909 1311 1377 768 536 9003 678 808 25259 2276 106616 17415
internal_value=-1.38464e-05 2.43896e-05 -2.24467e-05 8.43619e-05 -0.000923429 -0.00123007 -0.00108057 -0.00131779 -0.00243543 0.000268198 -0.00245152 0.0008459 0.000247235 0.000420452 0.00104467 0.00222694 -0.00342982 -0.000302789 0.00189427 -0.000833335 0.000702526 0.000369136 0.00314255 0.000241984 0.00103442 0.00329694 -0.000984872 -0.0040828 -8.29128e-05 -0.000206148 -9.71954e-07 0.000494638 -0.000647978 -0.000952115 -0.000433408 -0.00051264 0.00100872 0.00243484 -0.000553749 0.000174979 0.00012523 -0.00111036 -0.00152626 0.00250361 -0.000334224 -0.00125271 0.000921848 0.00068285 -0.0020313 -0.00183979 -0.00160951 0.0032144 0.00254522 8.78814e-05 -0.00248429 0.000516159 0.00352438 -0.00262237 8.42199e-05 0.000256474 0.000216558 -0.000410453
internal_weight=576431 567530 553663 494985 58678 49368 46911 41768 12629 335619 8901 5143 333249 218572 48596 11386 8305 159366 13867 29139 9310 8781 1440 169976 7184 2139 28048 2457 114677 103045 89902 41891 11400 10818 48011 47181 11632 4551 10074 162324 158013 27276 20618 10672 157926 21063 30491 37210 15956 15320 13143 2370 10765 12188 1739 10449 1446 1597 26118 137019 134743 28127
internal_count=576431 567530 553663 494985 58678 49368 46911 41768 12629 335619 8901 5143 333249 218572 48596 11386 8305 159366 13867 29139 9310 8781 1440 169976 7184 2139 28048 2457 114677 103045 89902 41891 11400 10818 48011 47181 11632 4551 10074 162324 158013 27276 20618 10672 157926 21063 30491 37210 15956 15320 13143 2370 10765 12188 1739 10449 1446 1597 26118 137019 134743 28127
is_linear=0
shrinkage=0.05


Tree=8
num_leaves=63
num_cat=0
split_feature=36 27 5 5 9 33 9 11 17 37 21 27 33 17 28 12 8 21 2 22 21 35 21 28 9 18 9 33 9 9 35 35 27 21 5 12 37 5 11 26 2 8 9 37 21 37 9 21 28 35 26 36 14 35 13 35 13 13 14 8 34 14
split_gain=19.4953 16.1749 17.4048 10.3008 12.8012 12.2365 16.6434 10.9464 11.5949 9.84788 9.82833 11.6733 11.5349 9.59374 9.44155 17.2003 11.5637 13.7143 11.4205 11.1446 10.6075 10.4355 10.0328 9.60453 9.07937 8.59168 7.8126 7.75987 7.67764 7.32742 7.32566 7.19282 6.92814 8.60917 10.32 8.37936 6.91917 6.77103 6.69284 6.57209 6.53196 9.18401 8.58478 7.85555 10.4945 8.8321 6.73926 6.53118 6.52262 7.34619 6.53207 6.51065 7.01479 6.48927 7.03034 6.43989 6.27241 6.37314 6.26618 6.13785 5.97078 5.85719
threshold=0.048947926863747444 -0.1938606424186938 -0.75422528399683075 1.3549010011729015 0.40727123496949974 -0.025226938789768793 -0.11491634163956828 -0.13480760434511221 0.4766310199297939 -0.04048217314415526 0.0078729866050538059 0.52462498531354018 -0.0096823273946820276 0.07019906589014982 0.16246313476360821 -0.089290603980225883 3.1950000000000007 0.015075339519024242 1.0195818829477494 0.0051276638634901251 0.014809936810944958 -0.0091334924921609977 0.014951493713562967 -0.45623559907834099 -0.24764756771243693 0.064080930192434424 0.027294411666377714 -0.0050525382883922975 -0.43039100808955083 -0.058732958315757984 0.014563237057330798 0.0079044497388710659 -0.42380774997701165 0.016761861093694357 0.21375730289574027 -0.011629985082466704 0.00054930628694660835 -0.013341177636356309 0.1207341273536917 0.033010027632193635 0.76545007388540387 inf 0.10632129207815948 -0.0080475005950397995 0.0063237225819633303 0.018117078163881035 0.061507754039952893 0.0084722578701242317 0.78148349400256745 -0.0043848685051464118 -0.035087413453615927 -0.00071595400602403629 -0.077582163620865285 -0.0081111082784619277 -0.17382861382596682 0.046310325180531985 -0.007841457142348204 0.040561014491453946 -0.16327932937932846 1.0000000180025095e-35 0.022968775129102541 0.055249624166776097
decision_type=8 2 2 2 10 8 10 8 10 10 2 2 8 10 2 10 10 2 2 2 2 10 2 2 8 8 10 8 8 10 10 10 2 2 2 8 10 2 10 2 2 8 8 10 2 10 10 2 2 10 2 8 10 10 8 10 8 8 10 10 8 10
left_child=1 2 26 4 5 6 -3 13 14 -6 29 27 -13 55 21 16 17 18 19 -16 48 25 23 36 -19 -9 -1 -12 30 -5 -25 32 -4 34 35 -34 -23 53 -27 -33 41 51 46 -43 45 -45 -42 -38 49 -18 -50 -30 -53 54 -11 -7 -15 -58 -10 -20 -36 -29
right_child=-2 3 31 10 9 7 -8 8 58 37 11 12 -14 56 15 -17 20 24 59 -21 -22 22 -24 28 -26 38 -28 61 40 -31 -32 39 33 -35 60 -37 47 -39 -40 -41 42 43 -44 44 -46 -47 -48 -49 50 -51 -52 52 -54 -55 -56 -57 57 -59 -60 -61 -62 -63
leaf_value=-0.001777105579279132 -0.0023381348523961393 -0.0038465823942776863 0.0045137231075155953 0.00061057399185364208 0.0074974963461746161 -0.0012429170828035074 0.0046901925413016772 0.0051405699574062222 0.0087096260827055332 0.0047257861750541206 0.00063932718188773087 0.0019018655324690083 -0.0060429058097992731 0.001399663106093265 0.00039722340933543554 -0.0011445892733646904 0.0014671312080518388 0.0044952393164860421 0.0034800928278960726 0.0019364953510789017 0.004708145466334291 -0.0047021591948004258 0.001158168428362189 0.0006592058087337931 -0.0024764135045074178 0.00050973558305523266 0.0028608083666539011 -0.0013429098823449371 0.00021292159564294507 -0.0022201697810671352 0.005395327245053521 0.00022869097818116403 -0.0012683108241890461 -0.00023568730095650057 0.002947700283017701 0.0014844544664232874 -0.0040139447603622551 -0.00014911411322801412 -0.0029609957460724795 -0.0053399812083722029 -0.00076851957014251572 -0.0020861852301419979 0.00051154293718643862 -0.0014533167902845046 -0.00024310085034413435 -0.0055229358746013511 -0.0061052910556628802 0.0013249205956345923 8.8993152539873033e-05 -0.00068361081952705339 -0.0042818113656332051 -0.00059085981838940464 -0.0048776468455451229 0.0018386143595056741 -0.00097310765066283044 0.0040259619675856876 -0.0060797895724678773 -0.00027222286718925413 0.0020705483867554221 0.00069899386199567663 0.00018596346127120248 0.0029900879461156062
leaf_weight=7508 8776 3933 1827 17393 568 34173 667 980 541 620 6789 584 2091 7277 33130 14437 5493 530 7693 18229 1045 2129 11651 7656 3878 53582 1032 29758 43763 2631 913 6481 3850 6879 14202 9798 946 10979 1425 576 10763 13318 36292 10198 32802 1533 625 1449 1484 14315 2015 31661 983 16832 4209 589 545 3505 1035 2674 2270 800
leaf_count=7508 8776 3933 1827 17393 568 34173 667 980 541 620 6789 584 2091 7277 33130 14437 5493 530 7693 18229 1045 2129 11651 7656 3878 53582 1032 29758 43763 2631 913 6481 3850 6879 14202 9798 946 10979 1425 576 10763 13318 36292 10198 32802 1533 625 1449 1484 14315 2015 31661 983 16832 4209 589 545 3505 1035 2674 2270 800
internal_value=3.24176e-07 3.64887e-05 0.000856095 -5.04441e-05 3.11134e-05 -4.36331e-05 -0.002608 -1.52202e-05 7.54859e-05 0.000976125 -0.00066581 -0.00111828 -0.00430836 -0.000741752 5.71321e-05 0.000458068 0.000713781 0.00105677 0.00124918 0.000943589 -0.00021769 -0.000103023 -0.00026705 -0.000352197 -0.00163734 0.000502495 -0.00121638 -0.000889674 -0.000298119 0.000238544 0.0011644 0.00124185 0.00150874 0.00136024 0.00172472 0.000707884 -0.00262888 0.000862414 0.000419771 -0.000226522 -0.000367007 -0.000545543 0.000135718 -0.00102079 -0.000702138 -0.00198556 -0.00106192 -0.000784671 -0.000438739 -8.71399e-05 -0.00242856 -0.000185702 -0.000720092 0.0013751 -0.000240594 -0.00115353 0.000521961 -0.00105504 0.00435365 0.00276289 0.00256714 -0.00122938
internal_weight=576310 567534 54423 513111 453065 419857 4600 415257 369168 33208 60046 40022 2675 46089 367592 104923 90486 66134 61726 51359 24352 262669 206682 195031 4408 55987 8540 37347 190507 20024 8569 45883 38826 36999 30120 13648 4524 32640 55007 7057 181938 134258 47680 57851 44533 11731 11388 2395 23307 19808 3499 76407 32644 21661 4829 34762 11327 4050 1576 10367 16472 30558
internal_count=576310 567534 54423 513111 453065 419857 4600 415257 369168 33208 60046 40022 2675 46089 367592 104923 90486 66134 61726 51359 24352 262669 206682 195031 4408 55987 8540 37347 190507 20024 8569 45883 38826 36999 30120 13648 4524 32640 55007 7057 181938 134258 47680 57851 44533 11731 11388 2395 23307 19808 3499 76407 32644 21661 4829 34762 11327 4050 1576 10367 16472 30558
is_linear=0
shrinkage=0.05


Tree=9
num_leaves=63
num_cat=0
split_feature=36 27 7 5 7 28 8 33 9 12 12 35 28 9 8 21 28 17 26 35 26 34 16 21 5 17 7 21 22 5 33 21 5 34 19 22 20 20 12 19 14 28 28 11 14 9 8 5 7 19 19 36 37 11 27 36 34 19 22 28 12 21
split_gain=18.8862 17.3445 25.2513 15.6829 11.6486 9.78509 11.4405 10.0354 14.195 9.50732 11.6379 9.31043 9.08304 12.1671 8.67893 18.4675 9.05581 11.5693 9.09621 10.88 8.363 8.31178 8.20034 7.9087 7.91401 7.65754 7.47351 7.45589 7.17775 8.34905 7.51994 7.17737 7.96157 7.03744 6.94688 6.78748 6.64185 6.47365 7.10587 6.11401 8.20683 6.01525 5.97677 5.88302 9.70463 5.9345 5.87107 5.85519 5.52186 5.52133 5.42814 5.42475 6.92751 7.87274 5.40106 5.577 5.38497 5.35148 5.35038 5.33444 5.28054 5.25558
threshold=0.048947926863747444 -0.21303192631593507 0.020483533217053918 -0.39846284415261191 0.06677547294620953 0.16246313476360821 5.3850000000000007 -0.0047331345285489294 -0.15559472412315772 -0.089290603980225883 -0.09094061886268924 -0.010536831850124266 0.27162266471644997 0.10171997875908974 inf 0.0068562375372746868 0.88974031003203591 0.11305866944468178 -0.076304002100485477 0.018812633518588064 -0.024707592339261283 -0.00079273503907301688 0.063256056492967713 0.013180327734347666 0.012977137843722569 -0.20536270530402204 0.042583395086146267 0.0073254441290017324 0.0046933012820540429 0.12884489891484111 0.00083644858305727168 0.012930029285030379 -0.47970433764007075 -0.012025873001886164 -0.24540782801294755 -0.011456843967606484 0.34468590715213282 -0.87388529518942704 0.19117446544130703 -0.39446959537376408 -0.27203437037290668 0.8491700135539576 -0.37240694572604288 -0.13480760434511221 -0.19832401214110582 0.47009090500388223 23.115000000000006 0.83663130132795394 0.031820989060717932 1.4212474382329598 0.17835994582354772 -0.051212586053292722 0.0073231066896929991 0.22956917594431517 -0.37871833833440477 -0.015747646256661679 0.00029126616545853716 0.051010459346428484 0.01531743587449075 -0.1715297166681273 0.029804067056949605 0.012324573143063044
decision_type=8 2 2 2 2 2 10 10 10 10 10 10 2 10 8 2 2 8 2 10 2 10 8 2 2 8 2 2 2 2 8 2 2 10 10 2 8 10 10 8 8 2 2 8 8 10 8 2 2 10 10 10 10 8 2 10 10 8 2 2 10 2
left_child=1 3 5 42 9 7 49 8 27 10 12 -9 13 21 16 -16 -14 -18 57 34 -10 25 -11 35 -25 -4 59 -3 37 60 -31 36 -33 -5 -20 -17 -23 38 50 -27 -41 -6 -1 45 -45 56 -39 -46 -37 -7 -24 -35 53 -53 55 -54 -13 -19 -8 -2 -30 -61
right_child=26 2 4 33 41 6 58 11 20 22 -12 43 14 -15 15 23 17 18 19 -21 -22 31 28 24 -26 39 -28 -29 29 30 -32 32 -34 51 -36 48 -38 46 -40 40 -42 -43 -44 44 47 -47 -48 -49 -50 -51 -52 52 54 -55 -56 -57 -58 -59 -60 61 -62 -63
leaf_value=-0.0026513409525701897 -0.0046761851802400124 -0.0018293834110247539 0.0030632287705405982 -0.0041359168628315552 -0.0024572167779870991 0.0011969822547696785 -0.00081258871844121271 0.00112580955179852 -5.223346038060357e-06 0.0013522161797932806 0.0051166697350583067 -0.0016714147957271428 0.00017857388835996132 0.0011527713359394897 0.0028084583984805877 -0.0012581303048073364 -0.0089055131997842832 -0.0016146655656732402 -0.0057110114489024311 0.0014398066916843054 0.0029431102183256029 0.00097175312575838158 -0.0013181006074022567 -0.0063972265879667358 -0.00083490335329733172 -0.0034889726113839017 -0.0070939424448028645 -0.00031436889398116886 -0.0020718588299013041 -0.0017298870426826229 -0.0046173075121276634 0.0036056000949712891 0.00028779120458309593 -0.00043828193639151988 -0.0016677071887739774 0.0017019570048901523 -0.00072094147334723696 -0.0025738521068973228 0.0013682624197152945 0.0036755529253614098 -0.0010437279854537175 -0.0082525768421492698 3.8615308925631911e-05 0.0049117817113922338 0.00031106836593040437 0.0043226819335956991 0.0022853970982901119 -0.00093775093459940589 -0.00042735318730755494 0.0062983580460222151 0.0019323607071339002 -0.0031999771931395826 0.0067736262379434241 0.0012544604930515586 0.0020527291565807736 0.0019703375930012223 0.00016472593293180544 0.0035078758370862533 0.0014777920962543245 -0.00063125861653743698 0.00062720990170564732 -0.0043101121090998911
leaf_weight=2758 1388 16287 1139 534 2275 43609 12052 28295 6785 3250 1010 9646 21824 10561 8568 4102 529 836 2020 1441 3725 6693 9430 781 3511 2512 742 16197 3835 4856 4212 2106 12750 2838 2242 9922 43167 5628 5213 934 62705 557 8209 1106 115662 559 698 10214 4392 536 1486 1146 1313 7337 17898 1121 6813 1304 3233 5567 3434 1175
leaf_count=2758 1388 16287 1139 534 2275 43609 12052 28295 6785 3250 1010 9646 21824 10561 8568 4102 529 836 2020 1441 3725 6693 9430 781 3511 2512 742 16197 3835 4856 4212 2106 12750 2838 2242 9922 43167 5628 5213 934 62705 557 8209 1106 115662 559 698 10214 4392 536 1486 1146 1313 7337 17898 1121 6813 1304 3233 5567 3434 1175
internal_value=-4.45722e-06 3.13126e-05 -4.79444e-05 0.000994854 -0.000411625 0.000282911 0.000850863 0.000126126 -0.000557241 -0.000375073 -0.000234632 0.000296654 -0.000261146 -0.000480203 0.000246893 0.00083064 -0.00035774 -0.00175565 -0.00127232 -0.00231529 0.00103992 -0.000610855 -0.00106001 8.42942e-05 -0.00184831 -0.000999942 -0.00229343 -0.00107401 -0.00126214 -0.00205949 -0.00307143 -0.000206284 0.000758338 0.00155123 -0.00358495 0.00053478 -0.000493706 -0.000681964 -0.000150246 -0.00106995 -0.000974409 -0.00359956 -0.00063804 0.000133724 0.000250721 -0.000739232 -0.00203741 0.000209728 0.00104863 0.00125906 -0.000875477 0.0016473 0.00185272 0.000652388 0.00235347 0.00456315 -0.000911403 0.00150691 -0.000328075 -0.00185448 -0.000796862 -0.00127296
internal_weight=576668 567796 524642 43154 249923 274719 59430 215289 42994 247091 205049 172295 204039 142567 61472 31276 30196 8372 7843 5703 10510 132006 42042 22708 4292 67290 8872 32484 38792 16337 9068 64716 14856 32187 4262 18416 49860 22455 16129 66151 63639 2832 10967 144000 126982 17018 6326 125876 14314 44145 10916 31653 28815 8483 20332 2434 16459 2140 15285 8130 7269 6742
internal_count=576668 567796 524642 43154 249923 274719 59430 215289 42994 247091 205049 172295 204039 142567 61472 31276 30196 8372 7843 5703 10510 132006 42042 22708 4292 67290 8872 32484 38792 16337 9068 64716 14856 32187 4262 18416 49860 22455 16129 66151 63639 2832 10967 144000 126982 17018 6326 125876 14314 44145 10916 31653 28815 8483 20332 2434 16459 2140 15285 8130 7269 6742
is_linear=0
shrinkage=0.05


Tree=10
num_leaves=63
num_cat=0
split_feature=7 27 37 35 13 27 28 8 27 10 12 8 30 22 9 9 28 26 22 37 14 27 5 7 10 35 28 10 19 34 12 35 12 19 9 9 35 19 12 37 12 29 19 22 34 17 11 9 11 34 25 12 9 19 28 12 34 22 26 8 19 19
split_gain=16.7135 19.9904 14.7141 11.6618 13.3232 10.8196 10.3912 11.4381 11.3385 9.49216 8.49501 8.18783 8.90118 7.77306 7.76609 9.26783 7.5304 7.99215 7.40102 7.24418 7.22951 6.92427 9.72651 6.89645 9.22115 8.22162 6.90323 6.77181 6.59974 6.20807 6.41493 5.86868 5.84733 5.82168 5.91272 7.99684 6.25332 5.76467 8.79926 7.17073 5.7349 6.08708 5.69001 5.65471 6.21678 5.64228 10.8504 5.63888 7.25364 5.82352 5.62781 5.6246 5.60738 5.53416 5.4463 5.43656 5.61101 5.43115 5.41199 5.27788 5.14742 5.11241
threshold=0.031820989060717932 -0.20460962296976057 -0.0062795625386588066 0.0067003541486068 0.12346609575028096 0.57305393096642165 0.22971046512153784 1.0000000180025095e-35 0.029947472381007371 0.13818770885801901 -0.079493392835016094 10.605000000000002 0.0014247651058458208 -0.011999448383735125 0.3877686888253446 0.64613728439295859 0.93423394501876733 -0.0041476572875594466 -0.00522575863099218 0.0001108588749560406 0.19687733656205572 -0.1938606424186938 0.40680426072808357 0.016638466437872878 0.092188257683621641 0.05217418486905348 -0.29424323536909569 0.058799399435985521 -0.37293873601305122 -0.010633314070981004 -0.19992329193147798 -0.0064933778519636713 -0.18492194317903646 -0.39832694124835472 -0.0094209212840887981 0.26888943597784676 -0.0081111082784619277 -0.25212167599468971 -0.10148522465461034 -0.016878160681253519 -0.6857170889966876 -0.0054409500576106081 -0.079871160463296231 -0.0011391802291413277 -0.0085507829263679804 -0.15273225386497383 0.42970339751694031 0.42783683049574001 0.38242118888193333 -0.0035987018346664303 0.063198789926809842 0.13738431729010778 -0.34303143336025016 -0.090127345022918179 0.20776299754993147 -0.032679699761298517 -0.0030122769723687844 -0.0094975247050768288 -0.19685514854121491 7.4850000000000012 0.046964141900611087 -0.092954512231305922
decision_type=2 2 8 10 10 2 2 10 2 10 10 8 8 2 8 8 2 2 2 8 10 2 2 2 8 10 2 10 10 10 8 10 8 8 10 10 10 8 8 10 8 10 8 2 10 10 8 8 8 10 2 8 8 8 2 8 10 2 2 10 10 10
left_child=2 29 23 5 32 10 11 8 57 -6 33 14 58 27 19 -16 59 -18 54 51 21 -17 -23 24 52 40 -26 42 -21 -2 -31 -19 -5 -3 -35 36 -36 38 -34 47 -25 -42 -9 -12 -45 46 -30 48 -39 -49 -32 -4 -1 -53 -7 56 -41 -8 -13 -15 -27 -47
right_child=1 3 6 4 9 18 7 13 -10 -11 43 12 -14 16 15 20 17 31 -20 28 -22 22 -24 25 26 60 -28 -29 45 30 50 -33 37 34 35 -37 -38 39 -40 55 41 -43 -44 44 -46 61 -48 49 -50 -51 -52 53 -54 -55 -56 -57 -58 -59 -60 -61 -62 -63
leaf_value=0.001344091236801567 -0.0045075202553741507 -0.0041283140641155828 -0.00019682311939745787 0.0033493104977325421 0.0083881599513730108 -0.0046803867615309693 -0.00083363708104087402 0.0016719764509786112 0.0027376569261680309 -0.00039027317476770054 -0.0010754490046778118 0.0028487863161543187 -0.0010235954158639756 0.001489356606061659 0.0035015920950129745 0.0024983558206328853 0.0002990775117660664 -0.0081529942290629008 -0.0056597796225738885 0.0016643876583257629 -0.0040313088098586827 0.00091847301326568971 -0.00081311359818893769 -0.0036652701081973031 -0.003050058778923349 0.0034133592182186891 0.00080291936245516487 0.0030954926805216603 -0.0014917801761271325 0.0048303686226859209 0.0013047087229830006 -0.0017178990041927557 0.00044610137811032903 -0.00096709262872709178 0.0077964869344965791 -0.0011136795422266941 0.0010513464590637361 0.0044252387744981338 -0.0089147835655464421 -0.0022932035981475026 0.00066503792427753845 -0.00063722816256004235 -0.0024343379875738473 -0.0086127904092388931 -0.0031512523341857149 -0.0015102839452037606 0.00043737767338378712 0.0010044058221877644 -0.002184563104328702 0.00546403052460723 -0.0012434467244946826 0.0012802840625648867 -0.0018890806288637905 -0.0028702317955370035 0.0010564461038698732 -0.0019940771602343903 0.0037050149900083257 0.0013039902967679534 4.3053882897531671e-05 -5.4732451039674167e-05 -0.0021882954037010906 0.0022466042824346335
leaf_weight=1689 506 1337 13332 1013 783 713 4121 1008 12872 507 2946 1742 21298 17039 3141 5349 2783 582 2434 8610 790 46412 9826 1463 1207 2064 30895 811 9988 1080 11807 905 502 31138 633 1518 751 513 501 658 9910 94854 5153 605 3742 1107 26962 3160 2156 952 2653 982 6497 4396 983 6350 954 10646 123365 8196 511 4960
leaf_count=1689 506 1337 13332 1013 783 713 4121 1008 12872 507 2946 1742 21298 17039 3141 5349 2783 582 2434 8610 790 46412 9826 1463 1207 2064 30895 811 9988 1080 11807 905 502 31138 633 1518 751 513 501 658 9910 94854 5153 605 3742 1107 26962 3160 2156 952 2653 982 6497 4396 983 6350 954 10646 123365 8196 511 4960
internal_value=2.36591e-05 -0.000642687 0.000132455 -0.00103366 4.60238e-05 -0.00145005 0.000311219 0.000885821 0.00165301 0.0049404 -0.00121347 0.000180694 -7.87177e-05 0.000304485 0.000460249 0.000851937 0.00065929 -0.00128236 -0.00389344 9.539e-05 0.000718459 0.000779451 0.000615918 -0.000282861 0.000275976 -0.000489792 0.000657961 -0.0011969 0.000400861 0.000937384 0.00111496 -0.00424033 -0.000330986 -0.0008931 -0.000765911 0.00139232 0.00413977 -0.000567951 -0.0042339 -0.000318278 -0.000557471 -0.000514037 -0.00176234 -0.00276718 -0.00391318 0.00014793 -8.41216e-05 0.000876529 -0.000912933 0.00203796 0.000837141 -0.000747482 -0.0012219 -0.00211227 -0.00135666 -0.00133584 0.00125671 0.00070743 8.21436e-05 0.000987874 0.00230131 0.00156098
internal_weight=576361 80895 495466 64849 18049 46800 346376 64116 27639 1290 42670 282260 146405 36477 135855 65518 29505 4270 4130 70337 62377 61587 56238 149090 40288 108802 32102 6972 51627 16046 15540 1487 16759 35377 34040 2902 1384 15746 1003 14743 106227 104764 6161 7293 4347 43017 36950 6781 2669 4112 14460 18710 8186 5378 1696 7962 1612 14767 125107 25235 2575 6067
internal_count=576361 80895 495466 64849 18049 46800 346376 64116 27639 1290 42670 282260 146405 36477 135855 65518 29505 4270 4130 70337 62377 61587 56238 149090 40288 108802 32102 6972 51627 16046 15540 1487 16759 35377 34040 2902 1384 15746 1003 14743 106227 104764 6161 7293 4347 43017 36950 6781 2669 4112 14460 18710 8186 5378 1696 7962 1612 14767 125107 25235 2575 6067
is_linear=0
shrinkage=0.05


Tree=11
num_leaves=63
num_cat=0
split_feature=7 33 37 15 27 33 12 11 21 28 18 13 13 28 13 37 12 19 27 27 7 28 36 8 21 8 37 1 1 15 36 37 27 9 36 12 36 10 19 28 19 19 20 2 15 9 9 36 36 7 13 15 36 37 12 12 10 10 9 28 37 28
split_gain=15.7647 15.9555 14.7795 10.9401 10.7053 10.0994 9.85706 8.94295 8.54714 11.016 8.52506 8.44611 7.77573 7.51634 8.78407 7.37075 7.68841 7.32326 6.83612 6.4709 10.8262 10.3076 7.87309 6.9284 6.75622 10.3851 10.4353 6.4811 6.39154 6.0932 6.08299 9.45673 6.02823 6.00732 8.61674 6.64599 5.99499 8.58008 7.8482 7.77412 5.95411 8.33273 11.6043 10.7403 9.84102 7.77666 7.55686 7.46995 7.63404 9.01279 6.62047 6.5543 6.11274 5.9527 5.85564 6.13181 6.04311 10.2711 5.70031 5.64738 5.63567 5.63306
threshold=0.040254431775586651 -0.010845506590618875 -0.0064378513821637369 -0.45288090964785283 -0.34887371564064279 -0.025226938789768793 -0.14208322821124567 -0.24299755813134052 0.0067225460494375966 -0.32941803587106483 -2.5887093714861575 -0.021079981004203868 0.020145361831653105 0.88974031003203591 -0.10265999457484669 0.038258489867638003 0.36943384585356248 0.055837024335558622 -0.054484363030057263 -0.1903742801424608 0.021122634841484994 0.13471862406447901 -0.037341764850232904 5.3250000000000011 0.0062414859504290546 inf 0.015950317545443578 -0.63230577314004377 0.4688753799525861 0.33884843635773215 0.048947926863747444 -0.025975596052419312 -0.039891162853236566 -0.24043041823461042 0.018511551078199209 -0.090525635912910143 -0.010543243128034317 -0.35741295841937043 0.22746150779121618 -0.03225638090107074 -0.29745652551259172 0.051872753513275603 0.42296060306908739 1.5980916297530199 0.77671921492514795 -1.2023051645104095 -0.15787834014435589 0.042516665791240284 0.014846330934897045 0.01557938042253673 -0.19552386460166246 -0.42906392402223298 0.0072865653735882897 -0.0010882291332179608 -0.089290603980225883 0.18037438010127207 0.25034870647685831 0.48096394981685059 0.50621134215748353 0.8491700135539576 0.035324681121424777 0.21860237830569865
decision_type=2 8 8 8 2 10 8 8 2 2 10 8 8 2 10 10 8 10 2 2 2 2 10 10 2 8 10 2 2 10 8 10 2 10 10 10 10 8 8 2 8 8 8 2 10 8 8 10 10 2 10 10 10 10 10 10 10 10 10 2 10 2
left_child=2 15 8 -3 28 -6 17 10 9 -1 29 61 -13 14 30 16 -2 -5 -14 22 21 24 -9 -23 25 -21 -27 -26 -4 36 31 -8 -33 34 -15 -35 39 -38 -39 -7 52 45 44 47 46 -42 50 48 49 -44 -43 -51 -10 -29 -22 56 -56 -58 -57 -49 -28 -11
right_child=1 3 4 6 5 7 13 19 40 11 -12 12 18 33 -16 -17 -18 -19 -20 20 54 23 -24 -25 27 26 60 53 -30 -31 -32 32 -34 35 -36 -37 37 38 -40 -41 41 42 43 -45 -46 -47 -48 59 -50 51 -52 -53 -54 -55 55 58 57 -59 -60 -61 -62 -63
leaf_value=-0.0036323620842935913 0.0055818211849658272 -0.0060013602265721784 0.0039955164717419929 -0.00026934195347587023 -0.0018087310610319773 -0.0018394571655581929 0.0026575290873074161 -0.0011410306520623964 -0.00051598234632624297 -0.00052323686190978709 0.00027095342109641982 0.0064892316949144886 -0.0022938232145880092 -0.00046329628820423335 0.0023147468548304485 -0.0010221253256897202 0.00092196622952289025 0.004997182088200605 0.00070074997675040633 0.00035582003397245101 -7.6439538772230262e-07 0.0015017071561705595 0.0011648907086326118 5.1143091466246267e-05 -0.00013190825139299485 -0.00074858015703430135 -0.0056305709106094426 -5.7734374618415803e-05 -0.0015702147009627274 -0.0069652968780991482 -0.0063570372902221955 -0.0007912739721083013 -0.0027722643176720137 -0.010869548257776125 -0.0067544880769454434 -0.0037718030693483819 0.0027830866446910932 -0.0024673769120078909 0.0035846547437134407 -0.0076266633993315007 0.0047168280440047922 0.0049710606936874385 0.00040968645807182465 0.0010305326123288435 -0.0075083660893796242 9.4455329421758443e-05 -0.0029467373374851384 -0.003638912803185432 0.0001676811104930459 -0.0014849576637247265 -0.0012771995356816136 0.0042669765826890511 -0.0035925866655071251 0.00093257861420519396 -0.0018785061868229255 -0.00038294346187532229 0.0062929696151650871 -0.003272063927349151 0.0035149464237902162 0.001979760585944782 -0.00037521178406347368 -0.0047574424917255454
leaf_weight=1748 1375 1323 2854 2286 6119 2138 1310 4156 3276 2391 9095 557 2010 1944 1558 2239 2483 927 36446 21173 99155 32218 33806 11057 34589 11699 1926 20216 629 551 647 7801 7565 501 755 967 1394 4112 615 796 938 622 8728 9514 889 29383 5044 3369 20082 32461 1326 502 3183 60843 12139 4829 616 514 1163 515 694 1169
leaf_count=1748 1375 1323 2854 2286 6119 2138 1310 4156 3276 2391 9095 557 2010 1944 1558 2239 2483 927 36446 21173 99155 32218 33806 11057 34589 11699 1926 20216 629 551 647 7801 7565 501 755 967 1394 4112 615 796 938 622 8728 9514 889 29383 5044 3369 20082 32461 1326 502 3183 60843 12139 4829 616 514 1163 515 694 1169
internal_value=-5.30107e-06 -0.00105497 5.97793e-05 -0.0015666 0.000231392 0.000205802 -0.00134296 0.000239168 -0.000336543 0.000256702 -0.000826172 0.000416464 0.000629219 -0.00170464 -0.00128033 0.00125962 0.00258377 0.00125121 0.000544175 0.000295964 0.000221155 0.000450713 0.00091242 0.00113109 0.000255898 -0.000347537 -0.00138752 0.000441092 0.00299023 -0.00186485 -0.00160378 -0.00141899 -0.00176667 -0.00362647 -0.002225 -0.00619988 -0.00155376 -0.000662817 -0.00167939 -0.0034116 -0.000555961 -0.000471826 -0.000730827 -0.00053944 -0.00255603 0.000237602 -0.00192538 -0.000766948 -0.000633191 -0.00101895 0.000719408 -0.00139723 -0.00203246 0.000685598 -0.000155733 -0.000953465 -0.00155293 0.0019431 0.000374067 -0.00289359 -0.00423918 -0.00191457
internal_weight=576930 33681 543249 27584 379096 375613 26261 369494 164153 44321 18701 42573 39013 23048 18881 6097 3858 3213 38456 350793 312831 194415 37962 43275 151140 35492 14319 115648 3483 9606 17323 16676 15366 4167 2699 1468 9055 6121 4727 2934 119832 113373 83052 75171 7881 30321 6992 65657 61773 41691 1948 32963 6459 81059 118416 19261 13269 1130 5992 3884 2620 3560
internal_count=576930 33681 543249 27584 379096 375613 26261 369494 164153 44321 18701 42573 39013 23048 18881 6097 3858 3213 38456 350793 312831 194415 37962 43275 151140 35492 14319 115648 3483 9606 17323 16676 15366 4167 2699 1468 9055 6121 4727 2934 119832 113373 83052 75171 7881 30321 6992 65657 61773 41691 1948 32963 6459 81059 118416 19261 13269 1130 5992 3884 2620 3560
is_linear=0
shrinkage=0.05


Tree=12
num_leaves=63
num_cat=0
split_feature=36 27 7 30 35 2 2 28 10 7 36 11 35 28 7 8 21 27 20 21 27 27 27 19 28 27 21 28 36 18 7 33 21 29 19 28 34 27 19 27 28 2 22 10 7 29 35 26 34 32 28 21 19 27 16 26 28 21 20 19 28 31
split_gain=15.5869 13.3322 15.8335 11.4518 11.1141 8.84322 7.28526 8.54842 8.00608 6.55181 6.66245 6.88652 6.49979 8.16698 9.89429 9.85532 6.47791 7.87522 6.44621 6.343 6.27252 6.2122 5.66677 5.52639 5.46012 5.30327 5.00757 8.19361 5.99831 5.78388 5.43554 8.24827 8.53813 5.56258 5.19622 7.8088 6.19757 4.96224 9.36194 4.82374 4.79808 5.78276 4.77548 4.76855 5.13533 4.83339 4.75127 4.65367 4.65175 5.07387 4.64989 4.65375 4.52716 5.30707 4.42144 4.34387 4.33972 6.88366 4.32384 4.31014 5.34925 4.27897
threshold=0.048947926863747444 -0.30083682491386188 0.033788594115016286 0.00051808244147106511 0.024603961634785114 -0.60191239826062182 1.1763109701395427 -0.057129905452661549 0.095107981267779806 0.06677547294620953 -0.0096413459634887965 -0.14818088838122098 -0.016459042617938086 0.16246313476360821 0.017797990214592472 inf 0.0063873913101588293 0.1553188557329909 0.91671020547816573 0.0079937240362215525 0.52462498531354018 0.062469936953922341 -0.0098032684658602692 -0.042569183939819039 0.8491700135539576 0.37325883676715949 0.0076496060366994219 -0.45623559907834099 0.0028528345639165409 -0.0023078349026702753 0.044619619849026272 -0.0012940686680337394 0.012930029285030379 0.0030232717872544896 -0.10368689000229277 -0.17979883872741018 0.0024485159340701655 0.10642386057993437 0.37108207425222722 -0.041255746399787345 0.88974031003203591 -0.60191239826062182 0.0067019368322283543 -0.037683063268505804 0.012804429601415977 0.0026184850669741309 0.036865150061426148 0.33618587261882299 0.032895862765291564 0.00059643057295033551 -0.17697196830608927 0.012557008414345412 -0.11215278789145992 0.020378644768721314 -0.37742508442103445 -0.033330303201282267 -0.41599324676818145 0.0076496060366994219 -0.52232017597931846 -0.073518271331827256 0.2846995063950018 -0.00084251839021387998
decision_type=10 2 2 8 10 2 2 2 10 2 8 8 10 2 2 8 2 2 8 2 2 2 2 8 2 2 2 2 10 10 2 8 2 10 10 2 10 2 10 2 2 2 2 10 2 8 10 2 8 10 2 2 10 2 8 2 2 2 8 10 2 10
left_child=1 5 3 12 9 48 8 25 43 10 11 -4 40 -14 58 37 17 -17 54 -7 22 46 -2 -24 39 -8 27 -12 -29 30 33 -32 -33 34 35 36 -28 38 42 -11 41 -3 -16 44 -5 -46 -6 -30 49 -1 -25 -52 53 -42 -10 -39 57 -47 -15 -36 -61 -43
right_child=20 2 4 6 21 19 7 -9 18 24 26 -13 13 14 15 16 -18 -19 -20 -21 -22 -23 23 50 -26 -27 29 28 47 -31 31 32 -34 -35 59 -37 -38 55 -40 -41 52 61 -44 -45 45 56 -48 -49 -50 -51 51 -53 -54 -55 -56 -57 -58 -59 -60 60 -62 -63
leaf_value=0.0012738753287000176 -0.004681981770292074 0.0019304191868191685 -0.0039224078651852916 0.00049316314237140006 0.0012466913547214116 -0.0034242103503770282 -0.0001825412662345179 0.0012204860375652914 0.0037722768393818433 0.00079391139983434565 -0.0055730231416208165 0.00062402105653767395 2.3626421096054626e-05 -0.0015155651105176397 -0.00075975785989264365 0.0011106370874038834 0.00060617570062834747 0.0053032713674415269 0.0021340281584773142 0.00087486030801650367 -0.0066912447848174938 0.0027506664453293339 -0.0045030395558240807 -0.0037678594428361919 -0.0079612891893058382 -0.0044018143090225953 -0.00094953476353224419 -0.0013943098774074354 0.0010531915079341348 0.0025305910824482379 0.00017960001367809794 -0.0054013075943306482 -0.0016669679564818636 -0.0026259733337764524 0.0036707386828317757 -0.0022953253086484995 0.0038034074205992325 0.00065145874301497664 0.0054311796700679 -0.0037993444761021283 -0.0033829773551535256 -0.00049604859005837382 0.00091190438708267586 -0.0016389022496226158 -0.00016504382572644414 -0.0077038360210541839 -0.0051202204502324633 0.0061736455739856682 -0.0003430682708103471 0.0038481704614623034 0.00083580342426279252 -0.0031992243812713518 -0.0051629602724002997 0.0032711648049828339 -0.00039697739783742735 -0.0017753940402693827 -0.00075473098798746821 -0.0010124424983601864 0.0016916997505065723 -0.0011443962556619549 0.0021413883479518619 0.00093092020623442018
leaf_weight=3071 1324 11241 908 13896 688 1175 14877 17217 689 851 603 9950 201206 1106 10733 2986 17454 1792 5324 3172 679 3244 1017 918 507 783 1939 2582 3717 890 1933 3115 3011 4941 861 7363 1060 2392 800 1738 568 6863 7096 8470 50594 585 509 503 1298 5086 3978 870 611 632 8109 8039 59147 1118 20805 3971 1799 22393
leaf_count=3071 1324 11241 908 13896 688 1175 14877 17217 689 851 603 9950 201206 1106 10733 2986 17454 1792 5324 3172 679 3244 1017 918 507 783 1939 2582 3717 890 1933 3115 3011 4941 861 7363 1060 2392 800 1738 568 6863 7096 8470 50594 585 509 503 1298 5086 3978 870 611 632 8109 8039 59147 1118 20805 3971 1799 22393
internal_value=1.15446e-05 4.38726e-05 5.64369e-06 9.58511e-05 -0.000786125 0.00157882 -0.000221634 0.000451592 -0.000371257 -0.000990263 -0.000849682 0.0002435 0.000277099 0.000188158 0.000640382 0.00026044 0.00105281 0.00268387 0.000760963 -0.000287705 -0.00207822 0.00161494 -0.00169108 -0.00110667 -0.00322085 -0.000393773 -0.00115969 8.05766e-06 0.000503569 -0.00143968 -0.00155758 -0.00266799 -0.00356641 -0.00114948 -0.000720038 -0.00141942 0.000731106 -0.000345766 0.000143152 -0.00228983 0.000853954 0.000966564 -9.4417e-05 -0.000490754 -0.000413154 -0.000526166 -0.00146272 0.00166484 0.0024369 0.00287926 -0.00050694 0.000111185 -0.00166335 0.000121343 -7.00779e-05 -0.00121887 -0.000826415 -0.00331418 0.00152975 0.000372909 -0.000119744 0.00059617
internal_weight=576797 568011 554209 497526 56683 13802 180809 32877 147932 52242 49146 10858 316717 274409 73203 51292 22232 4778 14122 4347 8786 4441 8107 6783 3096 15660 38288 7405 6802 30883 29993 8059 6126 21934 16993 10362 2999 29060 18629 2589 42308 40497 17829 133810 125340 111444 1197 4220 9455 8157 5766 4848 1811 1200 8798 10431 60850 1703 21911 6631 5770 29256
internal_count=576797 568011 554209 497526 56683 13802 180809 32877 147932 52242 49146 10858 316717 274409 73203 51292 22232 4778 14122 4347 8786 4441 8107 6783 3096 15660 38288 7405 6802 30883 29993 8059 6126 21934 16993 10362 2999 29060 18629 2589 42308 40497 17829 133810 125340 111444 1197 4220 9455 8157 5766 4848 1811 1200 8798 10431 60850 1703 21911 6631 5770 29256
is_linear=0
shrinkage=0.05


Tree=13
num_leaves=63
num_cat=0
split_feature=36 27 7 5 30 35 33 7 28 26 17 27 35 12 7 27 19 35 33 26 12 19 12 34 19 1 28 19 36 29 22 11 13 9 12 14 12 9 12 12 36 35 29 12 35 15 14 6 12 22 19 15 19 20 9 7 27 12 16 9 9 19
split_gain=14.3141 11.7081 18.5638 11.9893 10.7098 9.96575 8.19623 7.84665 9.36127 8.06637 7.38204 6.87673 8.42222 7.61291 6.60011 6.56935 6.54716 6.52188 6.99757 5.78244 5.7071 5.63232 5.93432 5.59523 5.50872 5.48742 6.14489 5.44449 5.41656 5.37563 5.31671 5.22579 5.08296 5.07649 5.19082 5.26753 5.01422 7.86845 8.39793 6.10523 5.80516 5.44708 4.89701 4.78156 6.93754 6.15981 4.965 4.66701 5.74608 5.26858 4.56337 4.56322 4.55706 5.04319 5.15657 4.54737 5.67216 4.51464 4.3789 4.22302 4.13712 5.05048
threshold=0.059533457626993802 -0.23682495136625728 0.033788594115016286 -0.41671944272620676 0.00070331949233327321 0.023051247935921195 -0.032535591346492941 0.019708018599815375 0.16246313476360821 -0.059870017933538126 -0.27197839022646991 0.75186370746666764 -0.0037497720690871004 -0.059581712590275691 0.042583395086146267 0.062469936953922341 0.17372453483232866 -0.013901689927369542 0.0034752632597612877 0.09298513050919989 -0.084832192658608072 0.08500531221403794 0.13738431729010778 0.0080453934040360282 0.10895415033975474 0.34483309901572462 -0.087041067973929173 0.14716906641742883 0.008409887671915096 0.012389281422420127 0.0038629572686870654 -0.26853030483196477 0.19534060125437713 0.44829371963915693 -0.25214163192977157 -0.29275307044092785 -0.19992329193147798 -0.32892027488823794 -0.22350985107735108 -0.16821041275760215 -0.0053660664366639394 0.011930804890267667 0.0099827259875048795 -0.33229216296694836 0.0072191431719988127 -0.54546784607337617 -0.35693115874838305 0.64934536929374753 -0.099820638122535069 0.016152070097699114 0.54200946664309513 -0.055558777964662888 -0.081091586389436379 0.30567514830135939 -0.022289599299962961 0.015270436788841697 0.28379506384514736 -0.064936034072806001 -0.43998454260675013 -0.35233831857031944 -0.24274512818165786 -0.033270585738699697
decision_type=8 2 2 2 8 10 8 2 2 2 8 2 10 10 2 2 10 10 10 2 8 8 10 8 10 2 2 10 10 8 2 8 10 10 8 10 10 8 8 10 10 10 8 8 10 8 10 2 10 2 8 8 8 8 8 2 2 10 10 8 10 10
left_child=1 3 4 -1 6 10 -3 8 17 27 -4 13 -13 16 21 -7 24 18 -8 33 -20 22 -15 -16 36 -6 -27 57 -14 31 -23 -5 -10 34 35 -19 37 38 -12 -38 41 -39 -41 44 -11 46 60 48 49 -33 -50 -47 53 -28 -55 -54 -57 58 -9 -53 -45 -62
right_child=-2 2 5 29 25 15 7 9 32 43 11 12 28 14 23 -17 -18 19 20 -21 -22 30 -24 -25 -26 26 52 -29 -30 -31 -32 47 -34 -35 -36 -37 39 40 -40 42 -42 -43 -44 45 -46 51 -48 -49 50 -51 -52 59 55 54 -56 56 -58 -59 -60 -61 61 -63
leaf_value=-0.00089302945949941762 -0.002832920268110294 -0.0043978320956138224 0.003585700151986736 -0.0016373815177473236 -0.00056760409563179652 -0.0019997349992554765 0.00040078042509645559 0.00071946360067087084 0.0012867303538286259 -0.0033005535979509166 -0.00048112835136989145 -0.0068154423725511728 -0.0033717762698475071 -0.0016495942699841005 -0.0058988158113251997 0.0022849875657469355 0.0022629392132257203 0.0024403836004564129 0.0053853146003917992 0.0015993195717831669 0.0017113930897443034 -0.0012637790703090095 0.0031892147887489643 -0.001010703923637124 -0.0049506864293145762 -0.0004801694423868205 -0.00024363714433235707 0.0025707656828339778 0.0028450460557186449 -0.0022454855243252509 -0.0065237351922100995 0.0030883932415220056 -0.0023204083585345986 0.001291836944995866 -8.6152041574623069e-05 -0.0030432005963467634 0.0039145475811784266 0.00093061261472518952 -0.0084677360667338476 -0.00063793776940864843 -0.0014192248823476604 -0.002829593518004219 0.0043472417486207617 0.0062996707616548523 0.0026710001984611154 -0.0016951350683063204 -0.00150927158152977 -0.0002060684528363417 0.00096268868326262894 0.0012428805237231467 -0.004023832365489974 -0.0014907950561058527 0.0012072138262321354 0.0012422487286825028 0.0049749333908585764 -0.0003654925503660009 0.0016756718516946453 -0.0010308458792706544 -0.0021543672737028142 -9.9750793884690624e-05 -0.0017200665785533536 0.004979123572139952
leaf_weight=6904 4425 955 811 1181 79707 1183 12180 32453 34735 2571 595 1190 1011 1772 1967 3660 1689 3485 1284 6506 5971 1178 985 834 828 34199 2138 3114 535 941 811 10644 1004 7908 106123 500 1007 5650 736 6356 18376 1160 533 783 599 5265 663 2638 3019 6077 540 5805 8809 2233 1580 25159 3935 4837 1381 90535 573 551
leaf_count=6904 4425 955 811 1181 79707 1183 12180 32453 34735 2571 595 1190 1011 1772 1967 3660 1689 3485 1284 6506 5971 1178 985 834 828 34199 2138 3114 535 941 811 10644 1004 7908 106123 500 1007 5650 736 6356 18376 1160 533 783 599 5265 663 2638 3019 6077 540 5805 8809 2233 1580 25159 3935 4837 1381 90535 573 551
internal_value=-3.98424e-07 2.15054e-05 -3.34766e-05 0.000951629 6.30245e-05 -0.000923397 0.000225109 0.000238548 0.000461054 -2.95634e-05 -0.0011414 -0.00122268 -0.00365527 -0.00107296 -0.0025199 0.00123816 -0.000777197 0.000281236 0.00113308 0.000148275 0.00236226 -0.00138349 7.97082e-05 -0.00444426 -0.000922962 -0.000275795 2.22003e-05 0.000559825 -0.00121997 0.00146025 -0.00341069 0.00160504 0.00118533 6.82687e-05 -1.96193e-05 0.00175176 -0.000825911 -0.00115525 -0.00490051 0.000280096 -0.000957135 0.000289786 -0.000251661 -0.000258991 -0.00217169 -0.000200768 0.00221624 0.00177219 0.00202952 0.00241778 0.000205176 -0.000261925 0.000413969 0.00170017 0.00278987 0.000211988 -8.93744e-05 0.000397831 0.000602102 -0.000183583 0.00351158 0.00156547
internal_weight=576777 572352 540408 31944 487541 52867 329781 328826 179696 149130 48024 47213 2736 44477 7547 4843 36930 143957 19435 124522 7255 4746 2757 2801 35241 157760 78053 41785 1546 25040 1989 24099 35739 118016 110108 3985 34413 26517 1331 7896 25186 6810 6889 107345 3170 104175 2570 22918 20280 16721 3559 101605 43854 5951 3813 37903 29094 38671 33834 96340 1907 1124
internal_count=576777 572352 540408 31944 487541 52867 329781 328826 179696 149130 48024 47213 2736 44477 7547 4843 36930 143957 19435 124522 7255 4746 2757 2801 35241 157760 78053 41785 1546 25040 1989 24099 35739 118016 110108 3985 34413 26517 1331 7896 25186 6810 6889 107345 3170 104175 2570 22918 20280 16721 3559 101605 43854 5951 3813 37903 29094 38671 33834 96340 1907 1124
is_linear=0
shrinkage=0.05


Tree=14
num_leaves=63
num_cat=0
split_feature=36 11 16 14 30 10 19 20 7 2 20 14 20 19 9 36 10 5 19 19 35 28 29 37 14 19 19 20 19 19 7 17 17 14 20 10 8 22 7 14 20 14 19 33 13 19 9 28 16 7 2 28 19 9 28 35 34 37 18 9 33 13
split_gain=13.6979 11.3382 10.4506 14.6282 10.7968 9.86701 8.32311 8.16344 7.80509 7.73934 7.52028 7.59478 7.24145 7.18438 10.0283 8.27015 7.8123 7.06391 6.55977 6.33662 8.51014 8.7232 7.77774 6.29116 8.26257 6.27554 6.24694 7.47868 8.19686 6.32452 6.19283 5.96296 7.60008 5.59569 5.58446 5.50041 5.4608 5.43141 5.06928 5.0041 5.06334 5.1094 4.96043 4.91589 4.85552 4.84468 4.81077 5.18813 5.12298 4.78309 4.74518 8.07753 5.77987 4.89878 4.73414 4.6345 8.68975 6.60777 5.32219 4.59501 5.76716 4.48826
threshold=0.048947926863747444 -0.13480760434511221 -0.37349595575440914 0.16544861635277949 0.00070331949233327321 0.10823963119114478 -0.11936863322588347 -0.27637206201982817 0.040957450343025538 0.019750915005085395 -1.0443632603468951 0.23530532785133712 -0.47218485353662726 0.23173416795202637 0.061507754039952893 -0.043860491831640792 -0.21609388885951822 0.40680426072808357 -0.23747205854041456 0.17696366823886203 0.031312461131559048 0.36803424034852433 -0.0051939471534055469 -0.0062795625386588066 0.19687733656205572 1.4212474382329598 -0.076670473300625638 -0.066149025787735224 -0.35029177131607864 -0.23747205854041456 0.043537116630767862 0.43291440211294413 0.12901380203667551 -0.25691441520688801 -0.19574293226318681 -0.11312174859190986 0.10500000000000002 0.0012538080611430972 0.022770570343586132 -0.34569823208885347 0.3596630776487712 -0.13932221223501695 -0.12155420157028825 -0.032535591346492941 -0.013888423278304037 0.32991110206498325 0.17739763774990872 -1.0000000180025095e-35 -0.71973512987274391 0.026938021389574632 1.1763109701395427 -0.10877264725605233 0.023587756678550006 -0.41575354780847112 -0.17416748206131769 0.0070396209271791311 -0.0012691552416193815 -0.0038644480567079039 0.20710405274827889 -0.32099812435590719 0.0034752632597612877 0.040561014491453946
decision_type=8 8 8 10 8 10 8 10 2 2 10 10 10 8 8 10 8 2 10 8 10 2 10 10 10 10 10 10 10 10 2 10 10 8 10 8 10 2 2 8 10 10 10 10 10 8 10 2 10 2 2 2 8 10 2 10 10 10 10 8 10 8
left_child=1 5 3 7 8 10 18 -3 23 -10 11 13 37 15 16 -1 -15 61 -6 20 21 22 -12 35 25 43 27 28 -24 -29 54 32 50 -19 -23 59 -36 -11 -26 -21 41 45 -31 -25 -14 -41 48 -48 49 -17 -8 53 -53 -52 -2 57 -57 -50 -59 60 -4 -7
right_child=30 2 4 -5 6 17 31 -9 9 12 19 -13 44 14 -16 46 -18 33 -20 39 -22 34 26 24 38 -27 -28 29 -30 42 -32 -33 -34 -35 36 -37 -38 -39 -40 40 -42 -43 -44 -45 -46 -47 47 -49 55 -51 51 52 -54 -55 -56 56 -58 58 -60 -61 -62 -63
leaf_value=-0.0076765950541115117 -0.0042965567848388128 -0.0026936706465161644 0.0026128008986047702 0.010132834852207045 0.00011796700782169149 0.0011371882143808405 -0.00049742904231767201 0.0030715212832613751 0.00029000417814569265 -1.3052968306738485e-05 0.0024088775593284627 0.0038964955067157248 -0.0078752812676820046 -0.0006359241077718901 -0.0028792619565749505 -0.0018568784082311713 0.0058243813714039944 0.001735638331629457 0.0023870254633821994 -0.0060331878871657833 0.0061046733673238473 0.00049272101498541558 0.00041925408469788085 -0.0025489652763602522 -0.0012014915721555342 0.0034585671166274252 0.0008205347535786443 -0.0010503286801748664 -0.0043612012674225089 0.005638522786267048 -0.0067761772161690093 0.0042954520353404996 -0.0053513432826631643 -0.0049935836264347715 -0.0086915844587087208 2.7269224532628993e-05 -0.0025789246558979195 -0.0025838115520031087 -0.006932357296560606 0.0055519915381335039 -0.0047597454223476908 -0.0030441791761822139 -0.00034918698994232546 0.00044392629035167253 -0.0015361076686417397 -0.00040423809121308192 0.0032416067205916889 -0.0029930436258567479 -0.0053003023569135298 -0.003960731793425736 -0.00016291323278136609 -0.0013172242120005687 0.0012322556026547766 -0.0024530114003100379 -0.0010646511564389447 0.006967456750949644 -0.0015805677541818827 0.0012408682888153443 -0.0028940613946839742 -0.0025680300175909589 -0.002878398604390096 0.0048069169536632973
leaf_weight=586 1356 865 1181 570 9102 1870 119918 2110 9023 4389 3575 661 742 832 1174 13331 1068 614 4899 665 573 874 1373 1379 1295 1718 8055 2797 2583 801 620 683 765 620 520 73297 1228 3862 549 520 787 940 608 237888 510 990 968 508 825 3389 7856 2595 15480 3322 6875 535 667 2083 1241 3870 802 1503
leaf_count=586 1356 865 1181 570 9102 1870 119918 2110 9023 4389 3575 661 742 832 1174 13331 1068 614 4899 665 573 874 1373 1379 1295 1718 8055 2797 2583 801 620 683 765 620 520 73297 1228 3862 549 520 787 940 608 237888 510 990 968 508 825 3389 7856 2595 15480 3322 6875 535 667 2083 1241 3870 802 1503
internal_value=-9.29626e-06 2.11186e-05 9.7432e-05 0.00280234 7.84433e-05 -0.000632776 -0.000254016 0.00139491 0.000239174 -0.000758777 -0.00081976 -0.00139532 -0.00175451 -0.00152402 0.000752327 -0.001814 0.0029966 0.00158934 0.000912032 -0.000223215 9.30531e-05 -6.08957e-05 0.000298171 0.000296596 0.000422777 0.000448295 -0.000167249 -0.00114206 -0.00270237 0.000325795 -0.00196102 -0.000362412 -0.000383659 -0.00164664 -0.00277037 -9.05243e-05 -0.00440127 -0.0012165 -0.00291053 -0.00208593 -0.0012734 -0.000152013 0.00305634 0.000426666 -0.00529632 0.00164923 -0.00166778 0.00109523 -0.0018526 -0.00228352 -0.000358147 0.000212814 0.000866178 -0.000843668 -0.00159754 -0.000505936 0.00222671 -0.00129795 -0.000303295 -0.0015654 0.000391621 0.00277335
internal_weight=576885 568034 508670 3545 505125 59364 164620 2975 340505 18526 54757 27868 9503 27207 3074 24133 1900 4607 14001 26889 22987 22414 19792 321979 242829 240985 16217 8162 3956 4206 8851 150619 149936 1234 2622 79150 1748 8251 1844 3902 3237 2450 1409 239267 1252 1510 23547 1476 22071 16720 149171 29253 18075 11178 8231 5351 1202 4149 3324 5853 1983 3373
internal_count=576885 568034 508670 3545 505125 59364 164620 2975 340505 18526 54757 27868 9503 27207 3074 24133 1900 4607 14001 26889 22987 22414 19792 321979 242829 240985 16217 8162 3956 4206 8851 150619 149936 1234 2622 79150 1748 8251 1844 3902 3237 2450 1409 239267 1252 1510 23547 1476 22071 16720 149171 29253 18075 11178 8231 5351 1202 4149 3324 5853 1983 3373
is_linear=0
shrinkage=0.05


Tree=15
num_leaves=63
num_cat=0
split_feature=37 26 7 21 28 33 13 11 17 30 35 14 36 16 21 5 13 18 35 7 21 36 28 8 28 28 19 19 22 26 5 28 11 10 28 26 14 19 14 10 22 5 1 13 33 35 7 20 19 15 11 11 21 7 19 19 5 19 31 35 28 10
split_gain=12.3622 10.4612 10.3635 9.80513 10.0734 8.5708 7.99526 7.49082 7.74316 7.69139 7.48866 6.82127 6.90274 6.76692 6.70539 6.54594 6.1987 6.08934 7.03073 5.91918 6.07388 6.95528 6.41117 5.74664 7.56292 5.72309 5.66341 8.15291 5.28138 5.19646 5.16072 5.1243 5.12229 8.50807 5.05583 4.85375 4.76385 7.56728 5.60037 7.38416 4.64899 4.56522 4.47126 4.44897 5.14806 4.44191 7.10821 4.42643 8.10969 6.86479 9.26753 6.69227 6.39894 5.85953 8.04521 7.23108 6.95213 5.96093 5.36587 5.22019 5.09871 5.08261
threshold=-0.0062795625386588066 0.14953368355516997 0.036005067634259327 0.0067225460494375966 -0.33411966348158384 -0.032535591346492941 -0.021079981004203868 -0.24299755813134052 -0.74547006071223165 -0.00049824068117012915 0.010253626755087781 -0.69556120819755429 0.048947926863747444 -1.1216100737274242 0.01179617644722398 -1.1266500010645253 0.020145361831653105 -0.05747133983959718 -0.015273945287274548 0.010974331636712553 0.0086163307451318939 0.0017006672646879618 0.11799124743956237 0.24500000000000002 0.30586807932845833 3.1478842764829551 -0.37293873601305122 -0.18118365513615808 0.010261525738160797 -0.0090358487574339601 1.943684480674728 0.065989901500962858 -0.25059978973705671 0.11211341248206953 0.39586011139674376 0.10477841897093888 -0.17040801337681966 -0.084057348625033404 -0.15649649467871965 -0.73909439600951321 -0.016276551126052027 0.18509980046869026 -1.2338250652304963 0.02572628447324633 -0.0010280542193688857 0.064375348152163933 0.026938021389574632 0.42296060306908739 0.051872753513275603 -0.13177379073129594 -0.16670566497166742 -0.11411173436540185 0.010332925003271607 0.019478015107852052 -0.18118365513615808 -0.3272693264045819 -0.43531846639861255 0.32991110206498325 -3.8725038729637105e-05 0.016085529121078749 -0.059995032669748975 -0.13034506896738859
decision_type=10 2 2 2 2 10 8 8 8 8 10 8 10 10 2 2 8 8 10 2 2 8 2 10 2 2 10 10 2 2 2 2 8 8 2 2 8 10 8 8 2 2 2 10 10 8 2 8 8 10 10 8 2 2 8 10 2 10 10 10 2 8
left_child=3 5 15 4 -1 -2 -6 10 14 17 13 -5 25 34 -9 -3 -8 18 -10 29 22 -22 43 24 -17 32 41 -28 -25 -11 -29 -31 33 -13 -7 -18 37 -34 -38 -40 -14 -4 -23 -21 -45 47 -47 48 52 51 -51 59 -41 54 55 -53 58 -58 -55 60 -49 -56
right_child=1 2 26 11 6 7 16 8 9 19 -12 12 40 -15 -16 23 35 -19 -20 20 21 42 -24 28 -26 -27 27 30 -30 31 -32 -33 36 -35 -36 -37 38 -39 39 45 -42 -43 -44 44 -46 46 -48 49 -50 50 -52 53 -54 56 61 -57 57 -59 -60 -61 -62 -63
