tree
version=v4
num_class=1
num_tree_per_iteration=1
label_index=0
max_feature_idx=25
objective=regression
feature_names=revenue_z operating_inc_z net_income_z revenue_yoy_growth_z operating_inc_yoy_growth_z net_income_yoy_growth_z opm_ttm_z npm_ttm_z roe_ttm_z roa_ttm_z debt_ratio_z earning_surprise_z kospi_volatility_20 macro_usdkrw_chg_20d is_market_stress macro_usdkrw_chg_5d mom_60 mom_12_1 foreign_flow_20d volatility_20 atr_pct_z252 foreign_flow_60d inst_flow_60d indiv_flow_60d inst_flow_20d indiv_flow_20d
feature_infos=[-8.2051964690737051:9.9613339082733319] [-8.7936017155596957:11.506181639629906] [-5.7134976590656184:10.304783896387692] [-10.894726517144589:13.423434503578939] [-9.2213165127813834:9.8947141829325584] [-5.4157986141656185:7.3849249254189067] [-7.7050476473925338:5.6787328429057427] [-5.9155956295951277:5.7599184098426033] [-5.7176809642102402:6.182477699589036] [-6.2725101825087535:5.7254970795856135] [-13.160134230851362:13.075006673499264] [-8.0040083791047536:7.1458878191404853] [0.0028834494504:0.04485129879142237] [-0.084350615934188827:0.10451770060582898] [0:1] [-0.041632806695596859:0.062951363766911114] [-0.81292097732775703:6] [-0.89223511544990775:27.097345132743364] [-0.22773004883966116:0.098646282903536206] [0.0031133095101305119:0.3421547039430653] [-3.6532505665248429:10.833693164851415] [-0.26116186531735158:0.14135569296575476] [-0.30135848806136317:0.39449193370127167] [-0.30291184817924416:0.30314279980997444] [-0.26501154972769203:0.38677837124595182] [-0.26630835495594868:0.25409319358699911]
tree_sizes=5853 6203 6219 6205 6263 6227 6207 6255 6260 6235 6237 6237 6229 6212 6274 6250 6229 6186 6224 6196 6201 6218 6170 6242 6211 6223 6226 6247 6231 6173 6199 6169 6222 6234 6168 6188 6222 6215 6245 6260 6218 6252 6227 6161 6194 6202 6136 6232 6174 6099 6141 6202 6147 6198 6167 6213 6126 6163 6147 6244 6174 6164 6231 6219 6171 6195 6121 6174 6249 6217 6224 6126 6161 6073 6188 6204 6123 6217 6184 6093 6090 6206 6106 6149 6152 6136 6218 6193 6083 6175 6157 6150 6127 6248 6151 6198 6184 6166 6214 6117 6188 6131 6195 6185 6146 6104 6229 6129 6150 6093 6140 6149 6096 6174 6160 6141 6126 6091 6157 6196 6066 6172 6181 6112 6188 6206 6204 6179 6192 6151 6064 6117 6209 6153 6163 6145 6134 6152 6105 6165 6206 6110 6119 6158 6118 6137 6194 6079 6104 6203 6168 6107 6159 6125 6217 6151 6167 6096 6054 6083 6071 6171 6152 6228 6106 6123 6145 6203 6149 6121 6155 6202 6107 6174 6164 6168 6098 6107 6121 6106 6150 6087 6149 6146 6182 6165 6095 6086 6145 6103 6084 6170 6155 6124 6156 6137 6128 6101 6094 6149 6124 6151 6113 6173 6124 6086 6139 6137 6151 6181 6155 6176 6097 6109 6102 6136 6089 6239 6129 6133 6204 6108 6088 6110 6075 6097 6102 6072 6114 6134 6210 6118 6127 6138 6145 6160 6083 6110 6175 6175 6140 6116 6131 6152 6175 6133 6090 6109 6196 6096 6110 6124 6134 6213 6152 6136 6110 6189 6112 6103 6139 6103 6172 6135 6104 6143 6118 6104 6122 6190 6124 6174 6135 6100 6181 6119 6091 6117 6193 6099 6175 6138 6115 6155 6080 6266 6148 6085 6088 6069 6136 6177 6164 6077 6089 6083 6174 6129 6240 6082

Tree=0
num_leaves=63
num_cat=0
split_feature=2 23 8 19 22 17 17 16 5 10 8 1 11 16 20 10 10 11 19 17 11 11 10 5 23 10 7 10 7 5 11 22 6 19 18 10 10 1 10 21 8 17 6 2 17 21 2 1 10 19 11 1 6 6 6 10 11 5 12 10 17 4
split_gain=67.8667 58.6637 47.8241 41.4283 31.4998 24.8879 21.0714 20.1495 25.6718 18.9043 18.8169 18.3633 20.6167 16.0422 17.5298 15.8511 17.9237 21.1198 15.4991 15.3408 21.059 16.4197 15.663 17.7725 28.0775 23.9869 16.7427 31.2831 15.0212 16.9882 14.9195 14.1596 14.3065 13.3814 14.4741 15.7068 15.6971 14.6224 15.2808 13.244 12.9803 12.9064 12.7581 12.3812 11.9465 14.8151 11.8116 12.5742 11.7532 11.7473 11.5641 11.3841 11.2707 11.0841 10.9571 11.8196 10.8269 10.8168 10.7577 10.5888 10.2442 10.2226
threshold=-0.1338339471076086 -0.0066431283102330587 2.8731549204390783 0.024629054288352176 0.053127951513005207 0.22832114174638088 -0.40883817143122825 0.52034634693398985 0.21195401547180953 -0.15065328870920122 1.2187875619922257 -0.034362184306630454 -0.55101133956891346 -0.29205391538687436 -0.52327942401204997 -0.35029177131607864 -0.11626675550789943 0.48322442753797196 0.045468923943261554 0.3432850141646549 0.90648196984233265 -0.22419833824659743 -0.14797019956780069 -0.25691441520688801 -0.0075225988854346745 0.03481502509235658 -0.095505129334344199 -0.29641153475034993 -0.17277548364065173 0.18228701310242765 -0.26231644116910197 -0.0076911740611818004 0.038099268104610354 0.016539155840701657 0.021989397221950997 0.32991110206498325 0.096427845166801016 -0.56906646627605961 0.0031451573906793673 -0.00033527775598257432 0.10506734064414525 0.13825106241067267 -0.28362140466972635 0.091796967352919853 -0.42597034188395388 -0.076364599171448694 -0.41839331361450277 -0.82316916469531953 0.56887374865763152 0.035791120821223654 0.21554408604634931 0.42387449300985064 -0.087928624835287489 -0.41948591622998893 0.021133156300122431 0.10585319521519264 0.13136869014614619 -0.16997920702067373 0.014244007848245014 -0.84386146093715042 -0.32978055524735483 -0.13719804113212417
decision_type=8 10 8 2 10 2 2 2 10 8 10 10 10 2 2 8 8 10 2 2 10 10 8 8 10 10 8 10 8 10 8 10 8 2 8 10 10 8 10 10 10 2 8 10 2 10 10 10 10 2 10 8 8 10 10 8 8 10 2 10 2 8
left_child=2 4 10 5 6 9 -2 8 13 60 19 12 46 14 -5 31 41 53 40 20 22 -21 26 25 56 52 27 42 50 48 -27 -14 -33 -8 35 37 -36 38 -35 -13 44 -17 -1 -42 58 -46 47 -4 61 -9 -11 59 -24 -18 57 -56 -25 -55 -15 -7 -3 -30
right_child=1 3 11 7 -6 51 33 49 -10 28 -12 39 15 18 -16 16 17 -19 -20 21 -22 -23 23 24 -26 30 -28 -29 29 -31 -32 32 -34 34 36 -37 -38 -39 -40 -41 43 -43 -44 -45 45 -47 -48 -49 -50 -51 -52 -53 -54 54 55 -57 -58 -59 -60 -61 -62 -63
leaf_value=0.5034044156879367 0.49786032549149273 0.50122854532063621 0.49664166841020446 0.49592285011381221 0.49788267674200004 0.49802504830653449 0.50300106992094373 0.50347783495326126 0.49333820286375957 0.50469789435696211 0.51038288168396362 0.50599111211154912 0.51212776576872499 0.4994815329919427 0.50486705135121424 0.49828759123541777 0.50722779988169431 0.49485169691724301 0.5001955652956076 0.50189415138791615 0.51264067482285314 0.49548651751880224 0.50700303983546946 0.50048341041589739 0.5035786075196429 0.50563407406125338 0.4982833877942498 0.49510968080241158 0.50457381393833267 0.4972807227889402 0.496291524595037 0.49708775857700432 0.50712875964446225 0.51283102655127077 0.50613076609083585 0.50492154215009089 0.49730148767814591 0.50158003814214036 0.5011615966072146 0.50020252515674668 0.51134047995834242 0.48911250730282091 0.51295270088663281 0.50191324973622631 0.49572521317756391 0.5026425742358801 0.49747402846106997 0.50353590083243094 0.50650224796689824 0.49720273046491786 0.51296816542387913 0.50496400258032126 0.51602447308571342 0.50257906350223591 0.50966578170250187 0.49997679682745355 0.49462320436965984 0.49264660442077335 0.50413461328910514 0.50354864879341776 0.5054247548976587 0.50294611375118514
leaf_weight=709 2949 1638 1045 580 4690 988 33773 995 774 1232 713 1723 515 5840 9603 1588 1234 906 8232 2533 514 1651 703 2296 11653 1509 3927 689 10204 1270 595 662 762 592 3398 3782 590 103194 532 2314 795 505 690 619 781 76027 14436 1798 2476 2974 643 33525 684 561 596 665 1200 535 1577 7070 12943 176157
leaf_count=709 2949 1638 1045 580 4690 988 33773 995 774 1232 713 1723 515 5840 9603 1588 1234 906 8232 2533 514 1651 703 2296 11653 1509 3927 689 10204 1270 595 662 762 592 3398 3782 590 103194 532 2314 795 505 690 619 781 76027 14436 1798 2476 2974 643 33525 684 561 596 665 1200 535 1577 7070 12943 176157
internal_value=0.502547 0.502734 0.500955 0.503086 0.501917 0.503442 0.502044 0.502272 0.502405 0.503218 0.502363 0.499538 0.499047 0.502472 0.504357 0.501059 0.49989 0.501669 0.502268 0.502168 0.502634 0.499365 0.502425 0.503141 0.5024 0.506356 0.500207 0.503824 0.503086 0.503042 0.50299 0.505032 0.50246 0.502129 0.501866 0.501757 0.504824 0.501642 0.507311 0.502673 0.502467 0.496068 0.508118 0.507216 0.502387 0.502572 0.498054 0.501001 0.503081 0.498776 0.507538 0.504558 0.511458 0.503391 0.501381 0.504558 0.49847 0.497726 0.500471 0.502871 0.504953 0.503035
internal_weight=570354 510443 59911 356943 153500 248146 148810 108797 104828 206563 30066 29845 25808 104054 10183 8529 6590 4497 93871 29353 25169 4184 24655 18640 15149 3491 6015 2088 191982 190107 2104 1939 1424 145861 112088 108100 3988 104318 1124 4037 85639 2093 1399 1414 84225 76808 17279 2843 188837 3969 1875 41583 1387 3591 2357 1261 3496 1096 7417 8058 14581 186361
internal_count=570354 510443 59911 356943 153500 248146 148810 108797 104828 206563 30066 29845 25808 104054 10183 8529 6590 4497 93871 29353 25169 4184 24655 18640 15149 3491 6015 2088 191982 190107 2104 1939 1424 145861 112088 108100 3988 104318 1124 4037 85639 2093 1399 1414 84225 76808 17279 2843 188837 3969 1875 41583 1387 3591 2357 1261 3496 1096 7417 8058 14581 186361
is_linear=0
shrinkage=1


Tree=1
num_leaves=63
num_cat=0
split_feature=23 19 0 16 7 5 0 11 6 22 8 3 17 23 1 1 1 4 3 19 11 5 1 17 3 3 11 3 3 18 6 1 0 23 7 4 21 3 0 8 11 19 16 20 8 6 1 19 11 6 4 22 23 4 1 0 20 3 1 3 6 19
split_gain=60.6035 44.3799 36.4519 23.7708 23.1948 33.6866 29.5613 22.4022 19.7282 19.7178 18.9713 18.5421 17.2303 16.5943 17.1556 15.8672 27.8083 20.2772 19.4036 16.1513 18.1949 15.7219 23.8476 14.9356 23.2316 26.0828 26.3332 17.9027 14.9177 13.9363 13.8261 13.6389 14.1813 23.1141 17.452 17.0827 15.6433 22.5013 15.6139 13.4949 18.305 13.4696 19.6891 19.9139 13.1618 17.8155 13.1235 12.601 12.4343 16.7811 16.2426 16.4262 13.7441 17.6022 13.1511 12.7072 13.1934 12.6741 27.8508 20.1097 17.497 12.4512
threshold=-0.0061551163638866773 0.04679071002129883 0.078588129675041668 -0.033996099143082208 -0.12911265858822971 0.18099339295326863 0.013875723465227091 0.90648196984233265 -0.0018810885969139616 0.053127951513005207 0.2259135459858255 -0.14254619817648456 1.816915271154486 0.0022324754360230517 0.24216142920756642 0.09515224744981958 0.13928383396713839 -0.20078241864896934 -0.1328882390653616 0.012881487366377646 0.68887220073795274 0.081664874440746382 -0.72351536042502829 0.22271479165540989 -0.083948509351287587 -0.13139585346705043 -0.23581200403110023 0.28341852470424311 -0.10440570468039166 0.021989397221950997 0.48018503638525595 -0.173178132244699 -0.32323742128628019 0.016802850211900509 0.15362635577155623 -0.37091658693332147 -0.0098291492976740197 -0.12400455279274437 -0.42054979529540543 0.078714352848914565 0.2221340594515929 0.014922306348083423 -0.21320864032882217 -0.50422336738318163 0.07019906589014982 1.1194254133010111 -0.072330711143063373 0.07500295373855613 0.21554408604634931 0.0033158364257633928 -0.15554821736736252 0.045130669358599287 -0.026830256373573124 -0.24993374538583488 -0.048397273687947245 -0.67821345629101926 -0.11239992121368945 -0.11342359970915254 -0.22841381046927198 -0.088599800393662761 -0.068621402560232719 0.02025982488801439
decision_type=8 2 8 2 8 10 8 10 10 10 10 8 2 8 10 10 10 10 10 2 10 8 8 2 8 10 10 10 8 8 10 10 10 8 10 10 10 8 10 8 10 2 2 2 10 10 8 2 10 10 10 10 10 10 10 10 2 8 10 8 8 2
left_child=2 4 21 -3 7 6 12 8 39 15 -7 -5 13 -6 31 19 18 -18 -17 -4 28 44 -23 24 25 26 -8 41 -21 -30 -25 32 36 34 35 -34 -15 38 -38 -2 -41 -26 43 -43 46 -46 -1 -13 50 54 51 52 53 55 -50 -24 61 58 -52 -59 -61 -57
right_child=1 3 9 11 5 10 23 -9 -10 -11 -12 47 -14 14 -16 16 17 -19 -20 20 -22 22 48 30 27 -27 -28 -29 29 -31 -32 -33 33 -35 -36 -37 37 -39 -40 40 -42 42 -44 -45 45 -47 -48 -49 49 -51 57 -53 -54 -55 -56 56 -58 59 -60 60 -62 -63
leaf_value=-0.003441654797495375 -9.6883975295930307e-05 -0.00059530007761695973 0.0015629371528665772 0.0017717629105036801 -0.001165152544880893 -0.00608470484758716 0.0019509099413766726 0.012489907122082798 0.0068093049412440328 -0.0039353090787044532 0.001729610828652584 -0.0048741364369540895 -0.0067665992804660062 -0.0022628175135026777 0.0064194316458637997 0.01386646911979709 0.0036683262716061416 -0.00093048359009405756 0.0012180041745177698 0.002680293208804307 0.0088135362861641239 0.0068718823479247682 0.0083660548868543759 0.0014843430150148166 0.00095773397260907965 0.004332787500939946 -0.0054492348909100444 0.003554785879083853 -0.00083866178158715869 0.0028533222826024759 -0.006424799178373135 -0.0013060671252182832 -0.00094602903468512893 0.003367541962070405 0.0069699297937776449 0.0039216754365210505 0.0052712663748785606 -0.0013676908194065181 -0.00023135850981741211 0.0019519162134349372 0.011446340465759064 -0.0016149182535380208 -0.00019176243895660826 0.0023926927302347647 0.00064990662269407827 -0.0094075228383140724 -0.0084349977722064026 -0.011683846520064699 -0.011430856401783216 0.0012997268035091368 -0.010607420132623087 -0.0065726690804174641 -0.0021496919746391927 -0.0086858744078528796 -0.0033976318600918674 0.0024487250254725344 0.0024119720941051764 0.0094734352622154253 0.0024983788814152519 -0.0072235620498965871 0.0041904163387600146 -0.0043958040913672702
leaf_weight=3610 6378 7737 9639 918 33043 3080 4619 548 1890 3652 1038 4353 1032 7464 1101 727 3714 6755 520 3297 512 831 533 57043 55091 8040 1624 4300 94677 2626 557 12919 12466 8932 889 2106 3192 6244 2162 2429 641 3924 123576 14745 2445 536 2072 805 983 793 591 1719 23460 507 1059 998 3528 957 1285 518 950 1984
leaf_count=3610 6378 7737 9639 918 33043 3080 4619 548 1890 3652 1038 4353 1032 7464 1101 727 3714 6755 520 3297 512 831 533 57043 55091 8040 1624 4300 94677 2626 557 12919 12466 8932 889 2106 3192 6244 2162 2429 641 3924 123576 14745 2445 536 2072 805 983 793 591 1719 23460 507 1059 998 3528 957 1285 518 950 1984
internal_value=6.87095e-06 0.000350443 -0.000766283 -0.00243357 0.000451363 0.000381366 0.000432097 0.00262531 0.00214746 -0.000315448 -0.00411505 -0.00477389 -0.000345594 -0.000272314 0.000241 -0.000207472 0.00154228 0.000701192 0.00859725 -0.000392584 -0.000579017 -0.0019182 -0.00150641 0.0006924 0.000501563 0.00245016 2.53359e-05 0.000363521 -0.000626908 -0.000738995 0.00140775 0.000120222 0.000544272 0.00134272 0.000172815 -0.000242309 -0.000477492 0.000671566 0.00304962 0.00121427 0.00393738 0.000293965 3.68845e-05 0.0015503 -0.00385223 -0.00116102 -0.00526369 -0.00593897 -0.00168123 -0.00487217 -0.00143681 -0.00181642 -0.00155256 0.000302941 -0.00726845 0.000951154 0.000342874 0.00145163 -0.00163382 0.00383826 0.000160692 -0.00210506
internal_weight=570364 394886 175478 13813 381073 369187 365069 11886 11338 126119 4118 6076 91550 90518 57475 122467 11716 10469 1247 110751 101112 49359 40696 273519 215919 14283 6243 201636 100600 97303 57600 56374 43455 24393 15461 14572 19062 11598 5354 9448 3070 197336 142245 18669 8663 2981 5682 5158 39865 2835 37030 32729 31010 7550 2042 7043 6510 4301 1876 2425 1468 2982
internal_count=570364 394886 175478 13813 381073 369187 365069 11886 11338 126119 4118 6076 91550 90518 57475 122467 11716 10469 1247 110751 101112 49359 40696 273519 215919 14283 6243 201636 100600 97303 57600 56374 43455 24393 15461 14572 19062 11598 5354 9448 3070 197336 142245 18669 8663 2981 5682 5158 39865 2835 37030 32729 31010 7550 2042 7043 6510 4301 1876 2425 1468 2982
is_linear=0
shrinkage=0.05


Tree=2
num_leaves=63
num_cat=0
split_feature=19 0 3 0 17 16 19 22 11 0 21 17 21 1 22 0 4 3 11 20 12 0 4 0 3 11 7 9 11 4 17 12 8 17 22 12 17 0 3 20 3 21 4 1 0 11 24 9 25 3 20 5 1 8 1 3 0 11 21 0 12 3
split_gain=56.1153 27.9656 46.7917 24.4725 24.3724 19.6796 24.4382 19.4383 19.4981 21.1441 17.8679 17.5148 17.0458 16.6869 16.4759 17.0787 15.9906 15.6766 15.5321 15.2967 15.1284 14.5925 16.1769 15.1581 14.8176 16.1565 13.903 14.118 13.384 17.0639 13.2142 32.1663 17.1075 17.0262 13.0128 12.7517 18.474 13.5385 16.573 12.4344 12.3839 13.3331 11.6854 11.5287 11.4289 11.4443 11.4094 11.3664 11.2881 11.2455 10.8661 10.4496 13.5716 21.5831 11.8741 13.5316 10.7389 11.9377 12.7177 10.2754 10.6264 10.2456
threshold=0.023042619471387794 0.078588129675041668 0.092091778429856733 0.37155099619290993 0.22832114174638088 -0.21320864032882217 0.04679071002129883 -0.0066459446976622457 0.48322442753797196 -0.067767935678026844 0.010299271491342915 1.2441252740931359 -0.0051458272032937477 -0.063765262259121866 -0.00050171390311187184 -0.3314833204860651 -0.2575879084553146 0.39694882515070157 0.20359592095843149 0.038945579762907558 0.0068087563726082654 -0.32859474592736754 -0.16265979452846904 -0.48746801702102421 -0.11939813703570405 0.42663193695104012 -0.52088165730254488 -0.26167227528128811 -0.2154242274745867 -0.08141535854805669 0.25762121815580247 0.013281194725834465 -0.60807143724528356 0.87213226829060209 0.032552239465519064 0.011108077781302916 -0.42597034188395388 0.29261499441754385 2.5907600153424442 0.349437063135634 -0.10709163294179293 -0.012089318995752012 0.17679301232649389 0.016067898392617751 3.5746497580290435 -0.22075527191884672 -0.00566910836085036 0.75889353859305453 -0.013289468542812721 -0.18058668628940766 -0.56365638179789901 -0.63391992307200884 -0.18827822897157956 2.6492180604268811 -0.17768197244936595 -0.6857170889966876 -0.34534342681081814 -0.20044672307170022 -0.013886011960680221 -0.40175483969902742 0.011180669521727386 -0.16179110322747453
decision_type=2 8 8 10 2 2 2 10 10 10 10 2 10 10 10 10 10 8 8 2 2 8 10 10 10 10 10 8 8 8 2 2 8 2 10 2 2 10 8 2 8 10 8 8 10 10 10 10 8 8 2 10 10 8 8 10 10 8 10 10 2 10
left_child=3 2 7 4 12 43 30 16 13 -10 47 28 21 51 26 -16 20 -5 -15 -20 -2 22 23 -1 25 -23 46 -28 -4 -30 32 -32 -7 34 -33 36 -34 39 -39 -38 -8 -42 -31 -3 45 -19 49 48 -6 -14 -45 54 53 -53 55 -9 -57 -58 -59 -56 -61 -24
right_child=1 5 11 17 10 6 40 8 9 -11 -12 -13 14 18 15 -17 -18 44 19 -21 -22 24 61 -25 -26 -27 27 -29 29 42 31 33 35 -35 -36 -37 37 38 -40 -41 41 -43 -44 50 -46 -47 -48 -49 -50 -51 -52 52 -54 -55 59 56 57 58 -60 60 -62 -63
leaf_value=0.00104779220941302 -0.0031590085162300097 -0.0029595201393721559 0.00412397947733771 0.001175518696883429 -0.0026227627367349429 0.0070750919214148172 0.0042554761806678724 -0.0064145806653458899 -0.0027120775291135358 -0.013495406255883685 -0.00023709443293760556 -0.011114306121028823 0.004218212246934183 -0.00074604557077839761 -0.00028808791254890707 -0.0019542119187648819 -0.0015117497284707583 0.0056050677198243755 -0.0011035066717814059 0.007374127638476384 0.0025571666716692064 0.00073978980403295537 0.0079313832877450589 -0.0043643390993010579 0.0025877612241777029 -0.0050682201564191285 0.006762847704112819 0.0012056193207552266 -0.012445841380967354 0.0039484651903564085 0.0010256237240283386 -0.00039394996762607583 -0.0046047331856857322 -0.0069434731631437723 -0.0087781821991807507 9.8092456889441166e-05 -0.0020984100737520286 9.673986609405777e-05 0.0074902535399073173 -0.00033777300421414892 -0.0075919068126249602 -0.0025126200070825586 -0.0036607185462563703 -0.0024291087592525989 -0.0015283805486978963 -0.0014172265775896158 0.00042151006210006602 -0.0051433460099348342 0.0019975222540627897 -0.00094998774739017482 0.0019733107673848478 -0.0020918344414926613 0.0017893181546775221 -0.0090671540150278687 0.00069782055728142016 0.0046200765532641705 0.0056176713761412955 0.0044300800338775547 -0.0048479953796147553 -0.0032073630111369837 -0.00061225889791747352 0.00035286783603681067
leaf_weight=1888 1320 1499 565 21004 1366 706 501 538 1520 648 15485 777 1093 3457 59925 20691 5287 4996 804 1571 9358 57190 584 4107 11415 1222 1479 5020 538 523 35889 4566 3745 1765 514 28673 20744 3765 948 19413 1775 4748 13739 1530 819 656 72203 589 40288 27792 16603 3203 1036 1696 3868 2073 642 509 1339 9835 6587 1877
leaf_count=1888 1320 1499 565 21004 1366 706 501 538 1520 648 15485 777 1093 3457 59925 20691 5287 4996 804 1571 9358 57190 584 4107 11415 1222 1479 5020 538 523 35889 4566 3745 1765 514 28673 20744 3765 948 19413 1775 4748 13739 1530 819 656 72203 589 40288 27792 16603 3203 1036 1696 3868 2073 642 509 1339 9835 6587 1877
internal_value=1.46548e-05 -0.000614009 -0.00142593 0.000405803 0.000284382 -0.000220486 -0.000446979 -0.000734455 -0.00133178 -0.00593987 0.0012158 -0.00379424 8.2609e-05 -0.00106276 -0.000175297 -0.000715736 0.0007369 0.00183855 0.00139276 0.00450497 0.00185031 0.000702645 -0.00125894 -0.00266001 0.000940207 0.000618199 0.000229662 0.00247114 -0.00342336 -0.00371175 -0.00028016 0.000426525 -0.000667363 -0.0027143 -0.00124384 -0.000738179 -0.0012314 -0.000949755 0.00158519 -0.0012473 -0.00331379 -0.00389572 -0.00338143 0.00125333 0.00399013 0.00478992 8.55328e-05 0.00174837 0.00184595 -0.000754285 0.00160174 -0.00151994 -0.00340864 -0.004508 -0.00107835 0.00107796 0.00196258 -0.000250827 -0.00229149 -0.00162049 -0.00216655 0.00215376
internal_weight=570506 218817 71433 351689 324214 147384 127752 55291 39326 2168 57728 16142 266486 37158 188203 80616 15965 27475 5832 2375 10678 78283 8456 5995 69827 58412 107587 6499 15365 14800 120728 42734 77994 6845 5080 77288 48615 44870 4713 40157 7024 6523 14262 19632 6471 5652 101088 42243 41654 28885 18133 31326 5935 4899 25391 5101 4563 2490 1848 20290 16422 2461
internal_count=570506 218817 71433 351689 324214 147384 127752 55291 39326 2168 57728 16142 266486 37158 188203 80616 15965 27475 5832 2375 10678 78283 8456 5995 69827 58412 107587 6499 15365 14800 120728 42734 77994 6845 5080 77288 48615 44870 4713 40157 7024 6523 14262 19632 6471 5652 101088 42243 41654 28885 18133 31326 5935 4899 25391 5101 4563 2490 1848 20290 16422 2461
is_linear=0
shrinkage=0.05


Tree=3
num_leaves=63
num_cat=0
split_feature=2 23 9 22 7 5 16 11 2 17 3 3 6 1 0 4 0 0 3 21 6 4 0 3 17 0 3 12 17 9 1 0 1 11 1 17 11 11 0 22 7 5 5 4 11 5 23 3 1 0 4 3 2 2 0 3 0 9 6 6 11 5
split_gain=53.7135 46.3625 34.5115 26.0089 21.0803 27.1471 22.4286 21.9512 21.3402 20.1707 21.836 23.2146 17.907 22.7017 22.2098 22.6967 18.0162 17.374 16.1997 15.9856 15.5175 15.937 17.6008 14.0813 13.7061 18.0306 14.0142 13.9741 15.1161 13.8804 13.807 13.4968 13.47 26.5932 13.3456 13.2957 17.249 14.8088 13.2815 15.7103 26.6179 19.3073 18.7551 22.4313 17.6931 15.2575 13.1385 13.0821 18.7053 14.3285 13.6592 17.3936 13.0633 12.7098 12.4402 13.4649 15.7436 12.4142 11.8852 15.0111 22.2626 15.6436
threshold=-0.1338339471076086 -0.0066431283102330587 1.0087885620755073 0.048665671129486408 -1.0000000180025095e-35 0.19291012715436101 0.52034634693398985 0.17508279344912761 -0.1218637246562939 -0.16941352852985272 0.51126705411637829 0.28341852470424311 -0.43545465508947473 -0.2214185149394427 0.10772495655517424 -0.37871238080883801 0.12213758090852947 0.23890584497618314 0.34773245991260282 -0.076364599171448694 -0.40781468293876949 0.078061615467640857 0.51842095358482765 0.05777885947322 0.27099539081308005 -0.098970577922806391 0.32560664204680095 0.0070011516730443648 0.83336923964143184 0.56210635800355557 0.012447743067394818 0.17666116373282542 -0.12935674939066463 -1.0443632603468951 -0.028310453288884239 0.35208973321496012 0.90648196984233265 -0.65210100133902227 -0.38591795444346744 -0.00050171390311187184 -0.39854544146040483 -0.028495922283264082 -0.51381881062288992 -0.23935474892186068 -0.012161715022786254 0.11708434600880328 -0.0075225988854346745 -0.089045249933998469 -0.0045222547558408923 3.9968273934306326 0.083687723935393948 0.0086390776146353255 -0.64421505050585604 0.04628048207599763 1.1667364605628232 -0.10032767809246669 0.91995381871133286 -0.16547770854108707 -0.40781468293876949 0.17287513125085593 -0.34816295469232955 -0.14114865679497599
decision_type=8 8 8 10 8 10 2 10 8 2 10 10 10 10 10 8 10 8 10 8 8 10 10 10 2 10 10 2 2 10 8 8 8 10 8 2 10 8 8 10 10 8 8 8 8 10 10 10 8 10 10 10 10 10 10 10 10 8 8 10 8 10
left_child=2 3 35 9 7 6 8 34 -6 23 11 57 14 -14 15 -10 -16 -7 -13 -17 -15 22 -22 -2 29 27 -27 -26 -29 -21 -30 52 33 -33 -3 36 38 -37 -1 40 46 -42 -41 -44 -45 -43 -40 48 -18 53 51 -49 -4 54 55 56 -50 -11 -54 61 -61 -60
right_child=1 4 31 -5 5 17 -8 -9 12 10 -12 18 13 20 16 19 47 -19 -20 24 21 -23 -24 -25 25 26 -28 28 30 -31 -32 32 -34 -35 -36 37 -38 -39 39 42 41 45 43 44 -46 -47 -48 50 49 -51 -52 -53 58 -55 -56 -57 -58 -59 59 60 -62 -63
leaf_value=-0.0024993544127985866 -0.0013676674267735286 0.0051772887509910284 0.0039947863844256174 -0.0037113902135321626 0.0069934164026148483 -8.6193272976149002e-05 -0.0031998399703710408 0.0084156555199983128 0.0057362755208177464 0.0043783361356962997 -0.0047108948363000268 0.01189549177796609 0.001816252379694415 -0.0097509213544967905 0.0099440035217652906 -0.004702210344362477 -0.0031499872324924193 -0.0089063282139617041 0.0021127283601228368 0.00026821770809076632 -0.0012214060752138518 -0.0037472850197199977 0.0028715685758895567 -0.0057330493509087201 0.0027361155335101804 -0.0031976589574545574 0.0051677506115699479 0.0014798899038836414 -0.008916038588492204 0.0075078485120136599 -0.00052043409347557262 -0.0069873756168246925 0.0012182674835875991 0.00099060929317518545 -0.0014595568671945749 0.0020593658135661182 0.0093578654642462004 -0.0048002772966807645 -0.0068675458326978717 0.007059543445151144 0.0080935967844939071 -0.0039934007324174464 -0.0074878645950576736 0.0018209648899726854 -0.002992817344855347 0.006916015673246928 0.00078965692844849855 -0.0017536578213810724 0.0021387282723487277 -0.00097082218602698362 0.006149227480846938 0.0018101343744292278 0.00020206591600712968 0.0075836636584152191 0.0060783634588237418 0.0085667071403888705 -0.0061995465538988263 -0.00021173160586915188 -0.0036136241194280718 -0.007495902146238788 0.0022792691100256383 -0.0075502256368563088
leaf_weight=4148 23375 1295 616 6297 1263 997 4125 1660 2025 1491 2583 640 7175 541 680 1511 1193 1268 1247 228744 15658 4857 3155 2005 15008 3474 584 23922 528 663 6595 1999 4071 2186 1822 1093 510 2803 617 697 2355 771 1312 4108 3564 547 5989 5999 4845 1631 1066 7973 2099 2066 2671 691 640 116040 14459 804 2106 3058
leaf_count=4148 23375 1295 616 6297 1263 997 4125 1660 2025 1491 2583 640 7175 541 680 1511 1193 1268 1247 228744 15658 4857 3155 2005 15008 3474 584 23922 528 663 6595 1999 4071 2186 1822 1093 510 2803 617 697 2355 771 1312 4108 3564 547 5989 5999 4845 1631 1066 7973 2099 2066 2671 691 640 116040 14459 804 2106 3058
internal_value=-5.2343e-06 0.000161137 -0.00142146 -0.000564773 0.000474213 0.000429377 0.000464766 0.003773 0.000508571 -0.000430306 -0.000163508 -6.511e-05 0.000484734 -0.000653749 0.000599076 0.000463098 0.00190573 -0.00502566 0.00543522 0.000425081 -0.00138579 -0.00119419 -0.000534885 -0.00171274 0.000452815 0.00120194 -0.00199279 0.00148348 0.00087786 0.000289173 -0.00114393 -0.00256503 -0.000829297 -0.0028209 0.00129859 -0.00016218 0.000267374 -0.00287581 7.46863e-05 0.000609711 0.00197096 0.00538258 -0.00083568 -0.00144893 -0.000415359 0.000536066 7.35435e-05 0.00171543 0.00283083 0.00339984 0.000696409 0.000279973 -0.00318419 0.00405308 0.00322784 0.00199426 0.00116485 -0.000153465 -0.00338068 -0.00374882 -0.000423147 -0.00430124
internal_weight=569915 510003 59912 153678 356325 351548 349283 4777 345158 147381 122001 119418 343895 31386 312509 283054 29455 2265 1887 281029 24211 23670 18813 25380 279518 50111 4058 46053 31045 229407 7123 31398 8256 4185 3117 28514 24618 3896 24108 19960 10279 3673 9681 8984 7672 1318 6606 28775 13737 12544 15038 13972 23142 10913 8847 6176 5485 117531 22526 20427 2910 17517
internal_count=569915 510003 59912 153678 356325 351548 349283 4777 345158 147381 122001 119418 343895 31386 312509 283054 29455 2265 1887 281029 24211 23670 18813 25380 279518 50111 4058 46053 31045 229407 7123 31398 8256 4185 3117 28514 24618 3896 24108 19960 10279 3673 9681 8984 7672 1318 6606 28775 13737 12544 15038 13972 23142 10913 8847 6176 5485 117531 22526 20427 2910 17517
is_linear=0
shrinkage=0.05


Tree=4
num_leaves=63
num_cat=0
split_feature=19 2 22 3 0 20 3 1 17 0 19 7 17 0 3 10 0 0 10 6 1 0 21 4 23 4 21 0 17 23 0 4 3 6 10 4 23 7 5 10 10 3 0 4 23 3 6 17 6 23 0 17 19 5 17 17 3 3 4 6 1 0
split_gain=52.3623 38.407 27.9885 24.5972 33.2169 29.1445 23.2891 22.8202 20.3538 19.9209 19.9156 19.5123 19.2564 18.4014 16.0378 16.4883 15.5243 14.9136 24.0566 15.7928 18.1193 14.8675 14.1166 14.0473 14.1059 13.9758 13.7602 14.9517 13.5601 18.0388 17.9089 13.5016 13.3804 13.3565 13.2656 13.0238 12.6941 12.5917 13.5875 12.9541 17.9582 27.8516 27.5127 12.2514 11.7393 11.3806 16.9995 10.7797 10.6506 10.5997 10.3941 10.3573 17.1321 10.3349 10.0298 13.1233 9.86102 15.1905 9.94013 14.7147 13.7956 12.3584
threshold=0.019348278321652427 -0.1338339471076086 0.053127951513005207 -0.089507994156073814 0.103228717814435 -0.60513181948821104 -0.092485608902341407 -0.072330711143063373 -0.39392785618736748 0.11603403482978467 0.035791120821223654 -0.020059233915471365 0.1760683383251033 0.027595219780687383 -0.15382211251497788 -0.072755936266391763 -0.098970577922806391 -0.15148219726370424 -0.033345786672731755 -0.68269156505141371 -0.37028317014058726 0.40580056894816735 0.0019859406966153794 -0.039164010216208529 -0.0026565714102020333 0.30373650167066285 -0.0053011392614294864 -0.32859474592736754 0.58262553948618079 0.00022246843898852221 -1.1777924145740262 1.35303184943697 -0.27291011412055016 -0.18061406309600608 -0.071320156986741975 -0.14006216130331309 0.0065504045400497169 -1.0000000180025095e-35 -0.15821993501468293 0.17643070962064467 0.091925071714116541 0.11450379072526021 2.9303414423615179 -2.9207745645673739 0.05673689280143019 0.56983630531162233 -0.36443194271633006 0.13825106241067267 1.8145403659840043 0.0051243704888030055 0.032735529640142133 -0.17999969455389594 0.053042710440074255 -0.083046621969875764 0.83336923964143184 0.33550801563317617 0.23624198996583132 0.37044319842012285 -0.13885371033021426 -0.46699264809535496 0.23009946913767079 0.061507754039952893
decision_type=2 8 10 10 10 2 10 10 2 10 2 8 2 10 8 8 10 10 8 10 10 10 10 10 10 10 10 8 2 8 10 8 10 10 8 10 10 8 8 8 10 10 10 10 10 10 10 2 10 10 10 2 2 10 2 2 10 10 8 8 8 10
left_child=12 7 3 4 5 8 10 11 34 -6 28 -2 21 17 22 -16 -9 19 33 20 -5 25 32 24 -10 26 27 -1 29 -7 -30 -32 -12 -19 -3 53 -18 38 -15 40 41 42 -39 -20 -29 46 -43 -47 56 -42 -31 52 -17 -11 55 -26 58 -58 59 -28 61 -60
right_child=1 2 -4 13 9 6 -8 16 23 35 14 -13 -14 37 15 51 36 18 43 -21 -22 -23 -24 -25 54 -27 48 44 30 50 31 -33 -34 -35 -36 -37 -38 39 -40 -41 49 45 -44 -45 -46 47 -48 -49 -50 -51 -52 -53 -54 -55 -56 -57 57 -59 60 -61 -62 -63
leaf_value=-0.0015649351717724148 0.0001682069192877553 0.0023528589170432111 -0.0039037280322951266 -0.00074887548323005761 0.011725151021191642 -0.00036951792183026791 0.008038781724839808 0.002490298513065297 -0.0022166217277714458 0.0027968349751605341 -0.004337943252198456 -0.003519957096946975 0.0014524919462166777 -0.0017607924188400483 -0.0050873448098776603 0.0016563117817181298 -0.0044627602812683321 -0.0069654549918561183 0.00020784051144980025 -0.0040062929826707059 0.0061140711225102888 0.0018739092784223405 0.0067199526073798282 0.003744137564741493 -0.00047520832273711586 -0.003768053572998586 0.0064017677862080215 0.0013760272445162798 0.002391388618831623 0.00089961296682795433 0.0038928401183689061 -0.0039579942274786395 0.0029654951580518202 -0.00074331075890728723 -0.005499056237356071 -0.0019297961622727327 0.0016637440988681914 -0.0032020398980847839 0.0082191461583250615 0.0013864682500477621 -0.0061186438716057641 0.0058642281288287601 0.0084599836227572701 -0.0053442883695670991 -0.0034668194590477966 0.0038548117370726708 -0.00093723080015854603 -0.0042006330837652071 -0.005776803189963666 -0.0012463180281590284 -0.0056505374486399878 -0.0016977516907224445 -0.0032562704815744421 -0.0034617845055676631 -0.0040477302774364274 0.0032077305814974151 0.0075696863576732738 0.0001491378372261257 -0.0008018513893066322 0.00073482987886686155 9.8974904238028751e-05 -0.0041660198323499693
leaf_weight=5281 4400 622 5106 5747 535 66185 933 3935 16155 12674 1038 19385 47801 566 2705 6779 2163 4692 4027 2883 1154 14600 1147 1557 16999 2173 1292 45266 14627 58569 737 2123 1581 1057 3955 1922 1387 7027 856 6169 2553 2803 544 1318 1286 667 1366 1097 793 1984 611 17764 2403 695 1615 2819 1091 1872 20392 10045 95539 3151
leaf_count=5281 4400 622 5106 5747 535 66185 933 3935 16155 12674 1038 19385 47801 566 2705 6779 2163 4692 4027 2883 1154 14600 1147 1557 16999 2173 1292 45266 14627 58569 737 2123 1581 1057 3955 1922 1387 7027 856 6169 2553 2803 544 1318 1286 667 1366 1097 793 1984 611 17764 2403 695 1615 2819 1091 1872 20392 10045 95539 3151
internal_value=8.58793e-06 -0.000415646 -0.000235159 -0.000169016 3.74992e-05 -0.000121019 0.000164244 -0.00208001 -0.00127715 0.00225022 0.000122518 -0.0028377 0.00054973 -0.00122022 -0.000976312 -0.00136669 0.000327769 -0.00232215 -0.00357704 -0.000899022 0.000399481 0.000336918 0.00209684 -0.000908196 -0.001101 0.000217661 0.000264244 0.000956145 0.00037957 0.000197624 0.00168386 -0.00193424 7.03398e-05 -0.00582179 -0.00443172 0.00191796 -0.00206931 -0.000322609 0.00424838 -0.000591255 -0.00126756 -0.000353086 -0.00236308 -0.00116198 0.00124217 0.0022118 0.003636 -0.00115427 -3.04935e-06 -0.00398875 0.000831892 -0.000993017 0.000370437 0.00247124 -0.000260048 4.88046e-05 3.13206e-05 0.00288307 -3.34903e-05 0.00138116 -0.00016818 -0.00125227
internal_weight=570218 319636 288366 283260 236750 220924 177202 31270 43722 15826 176269 23785 250582 46510 33417 29651 7485 20878 11094 9784 6901 202781 3766 39145 37588 188181 186008 51833 142852 125365 17487 2860 2619 5749 4577 15291 3550 25632 1422 24210 18041 13504 7571 5345 46552 5933 4169 1764 134175 4537 59180 26946 9182 13369 21433 19818 133382 2963 130419 11337 119082 23543
internal_count=570218 319636 288366 283260 236750 220924 177202 31270 43722 15826 176269 23785 250582 46510 33417 29651 7485 20878 11094 9784 6901 202781 3766 39145 37588 188181 186008 51833 142852 125365 17487 2860 2619 5749 4577 15291 3550 25632 1422 24210 18041 13504 7571 5345 46552 5933 4169 1764 134175 4537 59180 26946 9182 13369 21433 19818 133382 2963 130419 11337 119082 23543
is_linear=0
shrinkage=0.05


Tree=5
num_leaves=63
num_cat=0
split_feature=2 19 8 8 23 3 6 24 19 2 1 19 11 3 1 2 4 7 3 5 8 1 22 6 3 3 16 4 3 4 17 10 11 21 10 3 5 5 17 12 24 10 3 6 5 23 12 3 2 10 7 4 3 3 21 21 10 4 6 5 10 21
split_gain=48.8961 41.6395 36.9893 29.0397 28.1306 25.7436 21.0332 15.9506 24.7281 15.8674 20.2247 15.6395 15.5686 18.3401 15.7426 15.4758 15.0093 15.2211 13.8341 13.6527 13.5105 13.4105 13.0725 13.6469 12.2193 12.0995 17.2234 13.3862 15.1311 14.4137 11.8747 19.328 13.9961 12.5935 11.85 11.5382 11.3912 11.3784 14.5187 15.896 16.5641 14.1282 13.6097 12.4671 11.3724 11.2985 11.2573 11.1715 10.7603 10.7437 12.4629 17.0489 16.4762 14.1564 10.7416 10.7382 10.8919 10.6509 10.6059 10.4948 10.4677 12.8523
threshold=-0.1338339471076086 0.024629054288352176 -0.20048932898014946 0.49193201923195401 0.0011272484388311816 0.56983630531162233 0.40453992163201452 -0.002887531248303423 0.04679071002129883 -0.41839331361450277 -0.82316916469531953 0.014681785917381859 -0.5650128234707813 0.23624198996583132 -0.034362184306630454 -0.11411173436540185 -0.7216361315171923 2.7674841490677013 0.26314122600762585 -0.12425810753975532 -0.52135723102346898 -0.29420684727328744 0.0011378885090363652 0.6547023445030814 -0.29183305826061928 -0.088599800393662761 -0.29205391538687436 0.13153775907491963 0.05777885947322 -0.18694317463950408 0.22832114174638088 -0.1803781748194162 0.40065321643807 0.021201742647923624 0.066312630000271613 -0.013401044841273059 -0.33437558658534355 -0.12900199493689066 0.18593804188043975 0.0073150231675921063 -0.0029607545771394433 0.093229671975524411 -0.54294002470163005 0.073047980347928226 0.21195401547180953 -0.065350016725028603 0.029260025011173019 -0.11342359970915254 -0.08973604515865341 -0.018273209035126168 -0.42130891846784857 -0.13167335408285344 -0.11342359970915254 -0.14148743638003405 0.0073856321366807627 0.022484479843067368 0.0074590261976778703 0.21367831479377972 -0.60182362762521879 -0.055851647459910676 -0.25145542332703263 -0.010073182644716542
decision_type=8 2 10 10 8 10 10 8 2 10 10 2 10 10 10 8 8 10 10 8 8 10 10 10 8 8 2 10 8 10 2 8 8 10 10 10 8 10 2 2 8 8 8 10 10 8 2 8 10 10 10 10 10 10 10 10 8 8 8 10 10 10
left_child=2 3 9 4 6 7 11 25 44 10 -1 58 13 14 20 -6 -4 22 37 35 -11 59 34 24 -24 -3 -27 28 29 -28 31 -13 33 -32 36 -14 -18 38 39 40 41 -17 -41 -39 45 -9 55 -34 -8 50 51 -23 53 -53 -29 56 -10 60 -2 -21 -26 -62
right_child=1 5 16 -5 15 -7 48 8 46 12 -12 30 19 -15 -16 18 17 -19 -20 21 -22 49 23 -25 57 26 27 54 -30 -31 32 -33 47 -35 -36 -37 -38 43 -40 42 -42 -43 -44 -45 -46 -47 -48 -49 -50 -51 -52 52 -54 -55 -56 -57 -58 -59 -60 -61 61 -63
leaf_value=-0.0052530922842045835 -0.0060315829038623406 0.001864554405856032 -0.0044021923461296632 0.0073459170517027189 0.0063086533481884815 -0.0044486088097383464 -0.0012285049766052676 -0.0044349439356884844 -0.0074391278126035992 0.002411460228624296 0.0025347257361478413 0.0024074314497153468 0.0010232974150441007 0.0049346612300444842 -0.00053474604044072358 0.0017545141385356792 0.0090953868015578778 -0.0077304679746971507 0.0034496178590439825 -0.0029286261136498119 -0.0046557465565749551 -0.0077275147365184343 -0.0073394328660002506 -0.0085253250652956632 -0.0043211488493287821 0.0026220901866168319 -0.002078237444094726 0.00039586667065835885 -0.00027527129766544118 -0.0099003095657153456 -0.00080399501712577275 -0.00059516496514399806 -0.0023843619349801413 -0.0080257493583965472 0.00018506025003994678 -0.0064480578509915776 0.0026492695335939148 -0.00025008235155870066 0.0020367541764996014 0.0058560988576194994 0.00076101580899018905 -0.0017639492967686584 0.0010270740510663092 -0.0066689078946616676 -0.0071351769317638137 -0.00038889202706292227 0.0010592218207928006 0.0011971209246007528 -0.0055303375052126093 0.00095850617391855754 -0.010665902343830382 0.0011542212745467371 0.0066694978905661763 -0.0089751651453836064 0.010327069002208256 0.0026674346479702688 -0.0031978802850028266 -0.002674977246443716 0.0009762742385225915 -0.012018030600279275 0.007430587335906594 0.0010462244970526975
leaf_weight=1117 545 10378 1558 1527 1333 4021 3932 1755 2071 705 3277 5681 5830 625 3192 3453 781 521 5135 636 16273 982 538 512 626 5211 2760 591 29489 748 2878 94464 2341 763 4977 566 5563 3250 22941 1489 26303 16403 70352 985 641 99137 1364 30980 2306 2189 516 890 677 562 504 588 5632 1922 48496 635 1040 3249
leaf_count=1117 545 10378 1558 1527 1333 4021 3932 1755 2071 705 3277 5681 5830 625 3192 3453 781 521 5135 636 16273 982 538 512 626 5211 2760 591 29489 748 2878 94464 2341 763 4977 566 5563 3250 22941 1489 26303 16403 70352 985 641 99137 1364 30980 2306 2189 516 890 677 562 504 588 5632 1922 48496 635 1040 3249
internal_value=-2.38566e-06 0.000156275 -0.00135309 0.000468224 0.000437676 -0.000497471 3.62662e-05 -0.000398683 -0.000731485 -0.00227445 0.000554237 0.000131977 -0.00263706 -0.00349507 -0.00375651 0.000946929 0.000320778 0.000693955 0.000899338 -0.00131357 -0.00436216 -0.00282491 0.000922851 -0.000639873 -9.13537e-05 0.000346141 -5.48351e-05 -0.000464071 -0.000644618 -0.00374846 -0.00014212 -0.000424812 0.000623798 -0.00231916 0.00201151 0.000361232 0.00344415 0.000809109 0.000885844 0.000662074 -6.19145e-05 -0.00115202 0.00112724 -0.00174423 -0.000501532 -0.000459316 -0.0031494 0.000945436 -0.00281939 -0.00180746 -0.0034766 -0.00228112 0.00023348 -0.00276986 0.00497219 -0.00384183 -0.00433898 0.000479984 0.000898273 -0.00747563 0.00171402 0.00259568
internal_weight=570406 510447 59959 345557 344030 164890 192386 160869 111188 38672 4394 186148 34278 20795 20170 151644 21287 19729 150311 13483 16978 7087 19208 7887 7375 49681 39303 34092 32997 3508 137107 100145 36962 3641 11321 6396 6344 145176 140941 118000 46159 19856 71841 4235 101533 100892 9655 33321 6238 5816 3627 3111 2129 1452 1095 8291 7703 6837 49041 1271 4915 4289
internal_count=570406 510447 59959 345557 344030 164890 192386 160869 111188 38672 4394 186148 34278 20795 20170 151644 21287 19729 150311 13483 16978 7087 19208 7887 7375 49681 39303 34092 32997 3508 137107 100145 36962 3641 11321 6396 6344 145176 140941 118000 46159 19856 71841 4235 101533 100892 9655 33321 6238 5816 3627 3111 2129 1452 1095 8291 7703 6837 49041 1271 4915 4289
is_linear=0
shrinkage=0.05


Tree=6
num_leaves=63
num_cat=0
split_feature=23 19 0 2 9 10 10 16 11 11 5 19 18 10 17 10 10 11 1 17 11 1 5 10 8 6 18 0 4 10 1 8 0 4 0 10 6 4 1 11 10 17 10 10 6 10 16 17 12 20 1 0 10 17 17 1 1 5 5 11 10 17
split_gain=42.5255 34.9917 26.5541 20.0202 29.7061 19.5487 18.7497 18.5332 19.3075 16.2864 17.8021 15.2328 16.5146 15.2021 16.0063 16.063 15.6748 14.6148 24.126 23.2451 14.0974 13.7985 13.5174 12.8824 13.0605 20.724 12.6753 12.8008 16.1258 17.76 14.3982 13.2525 14.3116 12.6188 13.6485 12.5652 15.5436 18.0058 15.7126 20.3203 14.0775 13.8869 16.82 14.555 13.4666 12.8427 12.7148 12.3387 29.9096 11.9787 11.9298 17.9454 11.7636 11.7625 11.4748 11.4023 11.2527 11.2362 14.5693 12.8759 11.1492 11.4923
threshold=-0.0061551163638866773 0.033606275018325693 0.027595219780687383 -0.13700168921209613 0.67768654247626137 0.051010459346428484 0.20414392465218964 0.35434826780453127 -0.20489855284790437 0.40065321643807 -0.12191295253659053 0.013914974781049262 0.021989397221950997 -0.10637563380514477 0.3432850141646549 -0.15690125786757103 -0.20882123276087924 0.40065321643807 -0.14430385567964896 0.22271479165540989 0.16576757833438843 0.28206691669417372 -0.20852010555137199 0.15631782786794468 -0.11969143993432481 -0.50108342998134525 0.0086604030833704066 -0.21879707435082349 -0.34950061594157916 0.20414392465218964 -0.34290856148635968 0.11021062776784279 -0.19296268027066363 0.10231512120441048 -0.033022563255382185 -0.11950992191271 -0.42603450163300444 -0.13719804113212417 -0.44552268992759053 -0.10534036476970436 0.10961897300735253 0.27768942548924397 0.089413973589136372 -0.11232797779045833 -0.47905306318594382 0.093229671975524411 0.23403351640306849 0.22832114174638088 0.014417251175479677 -0.17092315199900301 0.10823963119114478 -0.38252916624859368 0.10217578813838388 0.41846125955968533 0.10952421252861334 -0.10384077074896263 -0.45297815191364493 -0.14450463099048885 -0.33975812013763607 -0.28080940046153324 0.10961897300735253 0.64033301304278234
decision_type=8 2 8 8 8 8 10 2 10 8 10 2 8 8 2 10 10 8 8 2 10 8 8 10 10 10 8 10 10 10 10 10 10 8 10 8 10 8 10 10 8 2 10 8 10 10 2 2 2 2 10 10 8 2 2 8 10 10 8 8 10 2
left_child=2 3 13 4 50 17 9 8 -3 10 22 -11 47 14 15 16 -1 19 -19 20 -4 -20 -7 35 25 -25 27 28 49 30 -30 32 -29 53 52 -5 41 38 -38 -40 45 43 46 -37 -45 -39 -43 -13 -49 -15 51 57 -35 -34 -8 -53 -17 58 -2 -59 61 -44
right_child=1 7 5 23 -6 6 54 -9 -10 11 -12 12 -14 26 -16 56 -18 18 21 -21 -22 -23 -24 24 -26 -27 -28 31 29 -31 -32 -33 33 34 -36 36 37 40 39 -41 -42 42 60 44 -46 -47 -48 48 -50 -51 -52 55 -54 -55 -56 -57 -58 59 -60 -61 -62 -63
leaf_value=-0.0021626842675005493 -0.0057097997854848323 -0.0002709589040722542 0.0023134214902163649 0.0015461289040649942 -0.0017217418513875418 0.0016951101151743723 -0.00017750538925454611 -0.0036755566961940581 -0.0039658616856226873 0.0011060066648140539 0.0046906066297601919 -0.0013314586880999991 0.0030898035755346832 -0.0035262477033135343 -0.0066375472561341596 -0.0022752462618851137 0.0044371334504799678 -0.0046659420922686799 0.0060490087711472934 -0.0043055032295814628 -0.0047076959750484097 0.0019466391709274434 -0.0063381010398609623 0.0021566129930588695 0.0055004528616614161 -0.0027212325551870878 0.00077097571702410385 -0.008829014316388592 0.009685255968113227 -0.0044216692181647905 0.0018776752981494232 0.0023908164770849042 -0.0069112999417309529 -0.0019136461388241472 -0.0044073395807068512 -0.0079088870537843848 0.0070589240567881309 -0.0021279332684983852 -0.0015648223102464717 0.0048050826198201757 0.0010740923224442438 0.0012561469383453507 -0.0012167808684184762 0.00033770232301905665 0.0065363458310325352 -0.0074426782048792155 0.0041063924915743476 0.00043182271519547191 -0.0050771220774852265 0.00016468061797602425 0.0049017909388907018 0.0042083839698807118 0.0029329692900982086 0.00084979585516711483 0.0049639666088481423 0.00042592061158473532 -0.010344006415964023 -0.011723087950874081 0.0016322320958589325 -0.0021378762267851136 0.0020711329520475786 -0.010881193584107489
leaf_weight=6320 889 34677 5082 26097 23871 631 1974 5814 3936 12072 547 57472 2666 4550 2683 813 1048 1117 2819 2654 831 7511 3067 13591 2176 2592 6799 1030 762 855 2615 1164 2506 3526 2962 532 973 9985 4450 1741 3094 33941 615 203385 879 1282 4422 26828 2712 4252 1819 3523 1940 606 2409 4585 923 507 2805 1131 642 615
leaf_count=6320 889 34677 5082 26097 23871 631 1974 5814 3936 12072 547 57472 2666 4550 2683 813 1048 1117 2819 2654 831 7511 3067 13591 2176 2592 6799 1030 762 855 2615 1164 2506 3526 2962 532 973 9985 4450 1741 3094 33941 615 203385 879 1282 4422 26828 2712 4252 1819 3523 1940 606 2409 4585 923 507 2805 1131 642 615
internal_value=-1.03026e-05 0.000277847 -0.000657229 0.000445571 -0.000620317 -0.00029475 -0.000555444 -0.00104401 -0.00064769 -0.000687969 -0.00372198 -0.000561355 -0.000785817 -0.00169932 -0.00324405 -0.00224335 -0.00122347 0.00114294 0.00231174 -0.00041886 0.00132606 0.00306663 -0.00496728 0.000579677 0.00186443 0.00137522 -0.00115681 -0.00164647 -0.000524025 0.00201202 0.00364176 -0.00271159 -0.00318423 -0.00267969 -0.00167463 0.000499074 0.000396558 -0.000891636 0.00115573 0.000226975 -0.00191298 0.000509724 0.00135893 0.000342878 0.000364409 -0.00273327 0.00158479 -0.000904598 -7.40957e-05 -0.00174345 0.00110274 0.00058824 -0.000193257 -0.00540019 0.00264886 0.00206975 -0.00656875 -0.00166456 -0.000135772 -0.00511007 -0.00326781 -0.0060539
internal_weight=570315 394569 175746 350142 39130 130392 110378 44427 38613 105995 4245 101750 89678 45354 11787 9104 7368 20014 11447 8567 5913 10330 3698 311012 18359 16183 33567 26768 13034 4232 3377 13734 12570 11540 8428 292653 266556 21525 7164 6191 14361 245031 40235 204796 204264 11267 38363 87012 29540 8802 15259 13440 5466 3112 4383 8108 1736 5332 3694 1638 1872 1230
internal_count=570315 394569 175746 350142 39130 130392 110378 44427 38613 105995 4245 101750 89678 45354 11787 9104 7368 20014 11447 8567 5913 10330 3698 311012 18359 16183 33567 26768 13034 4232 3377 13734 12570 11540 8428 292653 266556 21525 7164 6191 14361 245031 40235 204796 204264 11267 38363 87012 29540 8802 15259 13440 5466 3112 4383 8108 1736 5332 3694 1638 1872 1230
is_linear=0
shrinkage=0.05


Tree=7
num_leaves=63
num_cat=0
split_feature=19 23 0 10 2 9 8 16 19 6 10 8 2 5 17 21 0 6 0 10 17 10 10 1 17 16 13 21 10 19 10 4 21 6 11 2 17 23 21 4 17 2 10 0 5 1 0 6 0 4 10 25 8 10 23 0 4 23 5 10 11 10
split_gain=42.2346 26.4469 19.6257 18.3102 15.8453 25.0221 15.8549 15.3191 18.2248 13.2544 16.7231 13.823 14.0895 16.3725 13.4283 12.9513 12.6986 14.0308 15.4776 14.027 12.6821 12.5712 18.1453 13.4305 12.6343 15.8481 12.1096 12.3641 12.011 11.6353 11.8718 11.5434 17.6731 15.4532 17.048 14.8056 11.4077 11.2288 14.9268 11.5851 12.6782 10.8515 15.3213 14.5633 15.1759 12.8384 11.9374 10.8295 15.5044 13.6471 10.7175 10.6881 10.6027 11.4872 10.4641 10.2833 10.0156 9.88483 9.87921 9.85672 10.4515 9.83061
threshold=0.024097512725031533 -0.0066431283102330587 0.027595219780687383 -0.043759513678107549 -0.1338339471076086 -3.0238482990691544 0.49193201923195401 -0.21320864032882217 0.041584891123157289 0.40453992163201452 0.051872753513275603 0.37905127671748923 -0.14452439744597453 -0.37393845354138799 -0.1745826260729926 0.0060865041146152526 -0.22897417135892983 0.32109458754621867 -0.19296268027066363 0.76558798476711176 0.22832114174638088 0.058429437440966979 0.10961897300735253 -0.034362184306630454 0.24586176072376778 0.022073042870121243 0.021493800146374819 -0.032997419135550689 -0.1803781748194162 0.0085532880193499774 -0.0550580370809233 -0.029948556410596485 -0.021339633150729464 -0.59151455132597086 -0.20236928437844651 -0.35914147990737155 -0.25366211286746293 0.0095785846353708282 -0.013257306505654319 0.020641350449281285 -1.0000000180025095e-35 2.3176019241185717 0.16172975011669458 -0.27798326888181252 0.18281723781560424 -0.18965454078385549 0.18655190558355542 -0.10669977959708689 -0.28941786445066592 -1.3548238603610951 -0.3272693264045819 0.017770657809187528 -0.22345558354238496 -0.058879639918935939 -0.0044002401141574957 -0.79040519945619969 0.21367831479377972 0.0014848362731398142 -0.19883134113439319 -0.37293873601305122 -0.54039435527063373 0.13506168959595549
decision_type=2 8 8 8 8 10 10 2 2 10 10 10 8 8 2 10 10 10 10 10 2 8 8 10 2 2 2 10 8 2 8 8 10 10 10 10 2 8 8 8 2 8 8 10 8 10 10 8 10 10 10 10 10 10 10 8 8 8 8 8 10 10
left_child=1 9 3 31 5 59 20 15 21 11 -11 12 13 -1 -14 57 19 18 -18 -5 28 -9 -23 24 25 51 27 -26 -6 -16 50 32 -2 34 -34 36 -33 39 -39 40 -20 42 43 -32 -45 55 47 -47 49 -49 -31 -24 -15 -54 -38 -43 -41 -4 -30 60 -3 -10
right_child=2 4 7 16 6 -7 -8 8 61 10 -12 -13 14 52 29 -17 17 -19 37 -21 -22 22 23 -25 26 -27 -28 -29 58 30 41 35 33 -35 -36 -37 54 38 -40 56 -42 45 -44 44 -46 46 -48 48 -50 -51 -52 -53 53 -55 -56 -57 -58 -59 -60 -61 -62 -63
leaf_value=0.0047369939842073728 0.0033358829694087101 -0.0023481761317224355 -0.0018896136262820621 0.00099781104756510564 0.0020121674587215204 0.0010152197534293651 0.0067307656213022003 0.0010034825423440781 -0.0025647380771076514 -0.0012626874547080258 -0.0089725652651860242 0.0059930688389565091 -0.0015655373632891226 -0.0044887748114917844 0.0053418798869217373 -0.0016564145141456214 -0.0063558007609713658 0.0038383327098129752 -0.010802325237720895 -0.0050248611398971688 0.0014944740725826207 -0.0032337625864571635 0.0002074742340183416 0.0026100403406531573 -0.0041418479380073 -0.0019050897507856873 -0.002226068615603836 0.0010384377028640132 0.0045413535555337298 -0.0014276356901455122 -0.0055617225240535209 -0.0032614587808189044 -0.0033945650213360722 -0.0032050922968592244 -0.012785582906795183 -0.0041794181495403201 -0.0019273818944931535 -0.0024477745127821928 0.0036015574571268 0.0053924610067530463 -0.0022464992618440476 0.005261309678099191 0.0067493851958872536 -0.0022290201261509989 0.006104360126928208 0.00041180831667254225 0.0012894918959786509 0.00065373699316273242 -0.012211849123380461 -0.0068939777291998593 0.0024148418095306882 -0.0036504700731105309 0.0041594816922647408 -0.0029449591142501623 0.0010840014594560557 -0.00023952547185928687 -0.0018514884255476831 0.0021247543599554851 0.00038252494557453195 -0.0022388385971586094 0.0049736279763942159 0.0029275654926674225
leaf_weight=738 698 918 1726 13230 12546 14786 1085 16560 12648 2553 970 873 14111 4660 1048 3596 1695 1167 749 1042 39507 5672 23463 3758 1210 22725 3856 23591 1438 2315 792 4155 860 3751 1105 4793 5069 1842 2282 506 1026 862 1299 996 1208 1032 1416 1052 673 1389 8387 1943 876 1619 6692 54712 8118 13697 186524 14930 1037 870
leaf_count=738 698 918 1726 13230 12546 14786 1085 16560 12648 2553 970 873 14111 4660 1048 3596 1695 1167 749 1042 39507 5672 23463 3758 1210 22725 3856 23591 1438 2315 792 4155 860 3751 1105 4793 5069 1842 2282 506 1026 862 1299 996 1208 1032 1416 1052 673 1389 8387 1943 876 1619 6692 54712 8118 13697 186524 14930 1037 870
internal_value=-2.40296e-06 0.00030656 -0.000601484 -0.00136432 0.000564846 -0.000486594 0.000702964 -0.000270106 -0.00048525 -0.00037361 -0.00338742 -0.000267462 -0.000322625 -0.00234919 -0.000147387 0.00104539 -0.000547451 -0.00145475 -0.00183584 0.000557774 0.000675688 -0.00025824 -0.000500589 -0.000308083 -0.000450928 -0.000945803 0.000380246 0.000785543 0.000514352 0.00011191 3.98483e-05 -0.00231768 -0.00417105 -0.00508817 -0.00867934 -0.00174347 -0.00100969 -0.00130791 0.000899662 -0.00218338 -0.00586087 -0.000212671 0.00221639 0.00024938 0.00233916 -0.000383353 -0.00267345 -0.00402692 -0.0054976 -0.0036422 0.0015836 -8.77057e-05 -0.00308065 -0.000449907 -0.000213961 -0.00015411 -0.00142588 0.00167541 0.000414366 -0.0018017 0.00153612 -0.00221107
internal_weight=570447 376352 194095 58780 272771 31671 241100 135315 116296 103581 3523 100058 99185 7893 91292 19019 31657 17385 16218 14272 240015 102778 86218 80546 76788 48131 28657 24801 200508 77181 76133 27123 6414 5716 1965 20709 15916 14523 4124 10399 1775 65431 4295 2996 2204 61136 5562 4146 3114 2441 10702 25406 7155 2495 11761 55574 8624 15423 187962 16885 1955 13518
internal_count=570447 376352 194095 58780 272771 31671 241100 135315 116296 103581 3523 100058 99185 7893 91292 19019 31657 17385 16218 14272 240015 102778 86218 80546 76788 48131 28657 24801 200508 77181 76133 27123 6414 5716 1965 20709 15916 14523 4124 10399 1775 65431 4295 2996 2204 61136 5562 4146 3114 2441 10702 25406 7155 2495 11761 55574 8624 15423 187962 16885 1955 13518
is_linear=0
shrinkage=0.05


Tree=8
num_leaves=63
num_cat=0
split_feature=19 2 8 8 0 3 22 23 6 10 16 19 10 0 0 5 10 20 17 12 17 0 10 17 0 10 3 17 12 0 22 19 20 17 3 6 6 12 0 6 0 19 2 5 5 10 11 3 10 3 17 20 9 10 0 21 23 11 6 10 10 0
split_gain=36.338 19.795 25.8903 19.6735 19.4964 37.6462 18.7287 17.5762 17.5411 16.6564 16.2748 21.255 16.1841 17.9067 14.0069 13.9313 13.6586 16.582 15.1446 14.3088 13.5815 13.4615 13.8056 13.5795 13.1873 13.5115 16.6431 14.7711 13.3778 17.7501 13.9911 14.4247 13.1779 13.2974 12.9417 12.6928 12.564 12.0586 12.9183 11.9458 11.76 11.5652 11.3478 10.8734 17.0092 16.5608 11.5214 10.8856 16.4084 11.1916 12.7182 10.8667 14.1627 13.0902 10.7524 10.6558 10.5111 10.3503 10.2901 10.2464 14.8928 12.4332
threshold=0.022577104053063127 -0.1338339471076086 0.49193201923195401 -0.20048932898014946 0.078588129675041668 -0.051883426851402792 -0.0040411936300862299 0.0013641581384512065 0.4002618032238156 0.21290365859650606 -0.21320864032882217 0.04679071002129883 -0.043759513678107549 0.052841969274908827 0.32446556030369 -3.3037530868555316 0.058429437440966979 -0.39545157706061185 0.18593804188043975 0.014699157497639618 1.2441252740931359 -1.1777924145740262 0.032668025191270843 1.816915271154486 -0.24221215870010915 -0.35029177131607864 -0.10887761826393107 0.32774371756146553 0.0073150231675921063 -0.26635694572061636 -0.016977859570362113 0.012444647030611466 0.36486801631049848 -0.5788487277780886 0.48345017500908255 -0.68269156505141371 -0.66728321142751346 0.011573060871328646 -0.022289599299962961 -0.44381016624410546 0.53409786530012771 0.0081039515907953049 0.26526736986993266 0.18443792945897416 -0.1117105886977893 0.11690456644766693 0.56320407285498275 -0.15210876201752216 -0.064025632645483596 -0.10351564200908919 0.22832114174638088 -0.59502487222040601 1.3686566977179015 -0.0029424084307860311 0.023277700441869862 -0.012089318995752012 -0.019806964187261352 -0.22889781333857537 0.40453992163201452 0.08217473060356463 0.077245309370547591 0.19318365421453745
decision_type=2 8 10 10 8 8 10 8 10 10 2 2 10 10 8 10 8 2 2 2 2 10 8 2 10 8 10 2 2 10 10 2 2 2 8 8 10 2 10 10 8 2 10 10 10 10 8 8 8 8 2 2 8 10 8 10 10 8 10 10 10 8
left_child=1 3 7 -1 5 6 -2 8 41 10 32 16 20 34 -13 -11 51 18 19 -18 35 22 -8 37 25 26 -9 28 30 -30 -27 -32 40 -34 36 -7 -14 -23 -39 -26 -6 -3 43 44 47 46 -46 48 -43 -49 54 52 -12 -53 57 -16 -56 -51 -5 60 -19 -61
right_child=4 2 -4 58 9 12 21 24 -10 15 11 14 13 -15 55 -17 17 59 -20 -21 -22 23 -24 -25 39 27 -28 -29 29 -31 31 -33 33 -35 -36 -37 -38 38 -40 -41 -42 42 -44 -45 45 -47 -48 49 -50 50 -52 53 -54 -55 56 -57 -58 -59 -60 61 -62 -63
leaf_value=-0.0016274565638007604 0.0010178574624519988 0.0034829693829636142 0.0073501997844021699 0.0012290437172972049 0.0061165408084770442 -0.011300687388976209 0.0087482805692610313 0.0055688169801124988 -0.0026662987403825774 0.0040239176883205951 -0.0030535765126983891 0.0036537408007732025 0.0019940518407286188 -0.008209815825062387 -0.0072853771341313796 -0.0027309880411803059 -0.0030517745922837244 -0.00012210876808077057 4.0905531487242762e-05 0.0025055812904180345 -0.010434010256820633 -0.001796212779675112 -0.0019249348380577028 -0.0074671640984023679 0.0022211479930603962 -0.0020729068440158769 -0.0040936305600874174 0.0025328901540088082 0.00094492819830739269 -0.005266215418719339 0.0021319326089297586 -0.00056347496790589075 0.008538847046969068 0.0015783738538650454 -0.0025223362219585327 -0.0032186948822567037 -0.0030379411273835644 -0.00026252804324022823 0.0057104678596142161 0.00020954240036305917 -0.0014211689513351717 0.0010613098806631683 0.0024713861007426888 0.0064407363978577631 -0.003872407752093035 0.0036424128050617914 -0.012634239436117831 0.0021021242828972945 -0.0037303535737868371 0.0045945021567902087 0.00095581937275287837 -0.00035095482471417488 0.0056876553629831616 0.0030397276824875048 -0.0012409196688680552 -0.0026480507129733022 0.0002030497039695347 -0.0020411256502541448 -0.0035717235646247842 0.0028113073973168564 0.0080479803434985332 -0.0032779654431638276
leaf_weight=24185 16668 2589 1348 11876 565 507 690 2469 5644 3887 590 665 4510 934 1742 949 14644 74258 8127 1257 767 19586 539 857 26132 10083 543 7598 45668 1179 6642 19633 725 12531 7013 11220 1710 8580 1011 10285 6033 3000 4954 660 1214 510 543 7141 4415 622 31608 12794 2149 3660 14865 4290 82790 10379 1231 1012 561 4864
leaf_count=24185 16668 2589 1348 11876 565 507 690 2469 5644 3887 590 665 4510 934 1742 949 14644 74258 8127 1257 767 19586 539 857 26132 10083 543 7598 45668 1179 6642 19633 725 12531 7013 11220 1710 8580 1011 10285 6033 3000 4954 660 1214 510 543 7141 4415 622 31608 12794 2149 3660 14865 4290 82790 10379 1231 1012 561 4864
internal_value=-2.35911e-05 0.000304864 0.000438853 -0.000782042 -0.000509077 -0.00117347 -0.000335699 0.000407894 7.44858e-05 -0.000189965 -0.000282804 -0.000485545 -0.00267953 -0.00152249 -0.00322899 0.00269807 -0.000337251 -0.000561981 -0.00171496 -0.00261233 -0.00399128 -0.00105736 0.00406959 -0.00126729 0.000845499 0.000532012 0.0038261 0.000422704 0.000229981 0.000788503 -0.000489673 0.000117946 0.00105092 0.00195967 -0.0010499 -0.00356904 0.000610392 -0.00108493 0.000367623 0.00165305 -0.000774871 0.000168088 0.000115319 4.1312e-05 1.4384e-05 -0.00428427 -0.00658589 7.73557e-05 -0.00179184 0.000171394 7.30842e-05 0.000888912 0.0038043 0.000403402 -0.00018371 -0.00398826 -1.67611e-05 -0.00166556 0.000777921 -0.00021865 -6.07419e-05 -0.00222893
internal_weight=569701 339806 302514 37292 229895 74592 47931 301166 170934 155303 150467 130613 26661 14167 6697 4836 123916 104723 24028 15901 12494 31263 1229 30034 130232 93815 3012 90803 83205 46847 36358 26275 19854 13256 13233 11727 6220 29177 9591 36417 6598 165290 162701 157747 157087 2267 1757 154820 7415 147405 140264 19193 2739 16454 108656 6032 97655 11001 13107 80695 74819 5876
internal_count=569701 339806 302514 37292 229895 74592 47931 301166 170934 155303 150467 130613 26661 14167 6697 4836 123916 104723 24028 15901 12494 31263 1229 30034 130232 93815 3012 90803 83205 46847 36358 26275 19854 13256 13233 11727 6220 29177 9591 36417 6598 165290 162701 157747 157087 2267 1757 154820 7415 147405 140264 19193 2739 16454 108656 6032 97655 11001 13107 80695 74819 5876
is_linear=0
shrinkage=0.05


Tree=9
num_leaves=63
num_cat=0
split_feature=2 22 8 19 8 20 0 16 9 19 21 8 10 2 9 9 1 17 10 7 2 21 16 5 10 19 10 17 0 17 5 2 6 6 2 24 1 19 9 19 2 17 24 16 5 9 6 8 2 2 10 0 0 1 5 21 0 20 19 21 9 1
split_gain=34.9526 29.3245 26.9991 25.5486 23.6437 16.3483 23.5197 14.8555 17.0923 16.3116 17.5769 14.5575 13.9977 18.6755 17.7791 14.3139 13.658 13.4809 13.2149 24.2826 13.5667 13.1446 17.6227 13.0052 17.011 16.6143 12.9594 12.7748 15.3338 12.5837 12.5031 13.717 14.5104 12.2262 11.8917 11.8763 12.7944 13.522 11.2724 11.1957 12.0797 10.3216 13.873 10.3029 11.4769 10.0521 11.3375 9.55779 9.48807 11.1598 19.3297 13.3353 10.7201 12.4459 11.8784 9.46861 9.42038 9.00266 12.4634 10.3189 9.20108 8.99596
threshold=-0.1338339471076086 0.059238191274928735 2.8731549204390783 0.022952948318875063 0.49193201923195401 -0.26269016735919332 0.086303550635146789 -0.21788061297721742 -0.21955895442883375 0.04679071002129883 0.018445458839556141 1.2187875619922257 -0.14797019956780069 -0.15138273490136842 0.060902846580093511 -0.16547770854108707 -0.034362184306630454 -0.39392785618736748 -0.30389911031942884 -0.03343550820547489 -0.19120449177366225 0.042648755188387684 0.45165390924002197 -0.25691441520688801 0.15631782786794468 0.031649894445727265 0.023412588543638896 0.18106851436284668 0.013875723465227091 -0.10116554690014866 0.15017061527171163 -0.11384172214190395 -0.69875634670886944 -0.28362140466972635 -0.062477243243308986 -0.0079034638427726411 0.082158694171649352 0.0085532880193499774 0.11751743572008584 0.014839716512217658 -0.41839331361450277 -0.29044901626045788 -0.00012531665457050621 -0.0083484233316814521 -0.16111941790655826 -0.34734628813981844 4.7343508823018858 0.25194948385727339 -0.35914147990737155 -0.27228088226166869 0.029228700327433348 -0.27451999313691966 -0.17793724797012325 -0.18965454078385549 -0.045052171599436114 0.0018814962971995251 3.5746497580290435 -0.65769812148013573 0.015474475083410775 8.3213838028311477e-05 -0.10128644530714039 -0.82316916469531953
decision_type=8 10 8 2 10 2 10 2 8 2 10 10 8 10 10 10 10 2 10 8 10 10 2 8 10 2 8 2 10 2 10 8 10 8 10 8 10 2 10 2 10 2 8 2 10 10 8 10 10 10 8 8 10 10 10 10 10 2 2 10 10 10
left_child=2 3 11 4 27 6 17 -7 34 30 41 12 18 23 15 -15 21 -5 19 33 -20 22 39 24 25 -14 -18 28 35 -28 31 -10 -33 -1 -9 -2 37 -37 45 -4 61 -11 -43 -25 -45 46 -29 -21 -42 50 51 -50 53 -51 -55 -31 -34 58 -39 -59 -61 -41
right_child=1 -3 16 5 -6 7 -8 8 9 10 -12 -13 13 14 -16 -17 26 -19 20 47 -22 -23 -24 43 -26 -27 29 38 -30 55 -32 32 56 -35 -36 36 -38 57 -40 40 48 42 -44 44 -46 -47 -48 -49 49 52 -52 -53 -54 54 -56 -57 -58 59 -60 60 -62 -63
leaf_value=-0.00073757018420512273 -0.00097638860604597861 -0.0040405193856731915 -0.00072449779460092483 -0.0037736976807045092 0.0068958277799754004 0.0012330367323070818 0.0020385985094988298 0.011294453070597945 0.0069552677802883107 -0.0060055829047028428 0.0032942786597960488 0.0069638581638887106 0.0067434828002702661 -0.0063539494471342994 -0.010143759224341759 0.0050394020819811624 0.0066064435003297915 -0.0011161892360054316 -0.0080583626326916884 -0.0020021218112422317 0.00022735793813027786 0.0048052653544662718 -0.010327734872323052 0.0013974667597451318 -0.0036210648884234665 -0.001384679440118608 0.001816386972934423 -0.00095244782608067775 0.0011818937357344352 0.00075608340874991982 -0.0052370330232723141 9.4959697610315743e-05 -0.0021248474283552367 0.007309985815038382 0.0018414743614318765 0.002857133332325683 -0.0013930214883681184 0.00047024237522133301 -0.0047892696367957087 -0.0045629915406656353 -0.0085993832597677598 0.00035114172823650237 -0.0041215682862763515 -0.0031615450527309099 0.00066860994083237622 0.0043293049181185855 0.0012081326088771685 -0.0087536791447885617 0.00054215446241822295 -0.0041934583646239306 0.0073720844230607575 -0.0083662379694203794 -0.0061498296053092739 -0.0019971608027123072 0.0061010797436162984 -0.0076399665682192657 0.0042518787336864074 0.001107761750528573 -0.00080697722175616905 0.00011004721807305037 -0.0058471459433111703 0.0020123477619132641
leaf_weight=859 23528 4170 6117 5442 1416 20605 5446 512 693 2120 1285 714 2597 518 784 587 712 38734 1514 2292 733 579 755 8240 731 829 1920 6779 37373 547 1174 101226 10826 1046 948 5126 11528 39600 822 741 932 3269 3690 3693 4156 2323 58145 679 1081 6096 614 686 3954 1773 607 868 611 46280 36896 39476 658 1739
leaf_count=859 23528 4170 6117 5442 1416 20605 5446 512 693 2120 1285 714 2597 518 784 587 712 38734 1514 2292 733 579 755 8240 731 829 1920 6779 37373 547 1174 101226 10826 1046 948 5126 11528 39600 822 741 932 3269 3690 3693 4156 2323 58145 679 1081 6096 614 686 3954 1773 607 868 611 46280 36896 39476 658 1739
internal_value=9.34306e-07 0.000134749 -0.00114389 0.00016913 0.000451926 -0.000276757 -0.00106143 -1.17988e-05 -0.000214807 -0.000277701 -0.00217712 -8.49776e-05 -0.000257227 0.000363185 -0.00439015 -0.00030247 -0.00221171 -0.00144364 -0.00218496 -0.0007226 -0.00535656 -0.00263725 -0.00280915 0.000806878 0.00329958 0.00477686 0.000487865 0.00042233 0.000251152 -0.000819999 -0.000105802 -5.26137e-05 -9.57812e-05 0.00368271 0.00516195 7.98715e-05 0.000218276 0.000328826 0.00102703 -0.00257552 -0.00319679 -0.0029518 -0.00202076 0.000162659 -0.00113367 0.0010982 0.000982526 -0.00354757 -0.0037077 -0.00339932 -0.000263292 -0.00291911 -0.00399997 -0.00299646 6.99258e-05 -0.00439604 -0.00178384 0.000249255 -0.000145796 0.000598963 1.22353e-05 4.66527e-05
internal_weight=570394 510701 59693 506531 309950 196581 49622 146959 126354 124894 10364 29972 29258 22135 1889 1105 29721 44176 7123 4876 2247 25674 25095 20246 4157 3426 4047 308534 240465 3335 114530 113356 112663 1905 1460 203092 179564 168036 68069 24340 18223 9079 6959 16089 7849 67247 64924 2971 15743 14811 2381 1767 12430 8476 2380 1415 11437 162910 76496 86414 40134 2480
internal_count=570394 510701 59693 506531 309950 196581 49622 146959 126354 124894 10364 29972 29258 22135 1889 1105 29721 44176 7123 4876 2247 25674 25095 20246 4157 3426 4047 308534 240465 3335 114530 113356 112663 1905 1460 203092 179564 168036 68069 24340 18223 9079 6959 16089 7849 67247 64924 2971 15743 14811 2381 1767 12430 8476 2380 1415 11437 162910 76496 86414 40134 2480
is_linear=0
shrinkage=0.05


Tree=10
num_leaves=63
num_cat=0
split_feature=2 22 9 7 11 25 17 22 11 11 7 2 11 17 4 1 11 10 3 0 21 0 10 0 11 6 6 3 24 7 2 2 1 1 3 17 1 10 4 1 3 16 3 4 10 10 24 6 17 12 10 16 1 10 16 10 10 17 11 11 0 4
split_gain=32.1985 28.3908 21.9634 21.2957 21.5695 20.3653 16.5941 16.8782 15.775 13.9778 20.0112 12.0888 13.3901 15.4988 12.4043 11.9878 11.5337 11.4137 13.7855 22.0901 13.6666 13.1005 17.0384 14.3892 12.6132 12.3277 14.8177 13.6587 11.9199 14.0857 14.7711 14.3192 11.5667 19.6728 15.884 13.2201 13.2998 10.9913 10.9038 10.7224 22.4607 12.5747 12.8577 14.3413 10.7618 15.9549 10.654 10.5739 10.8184 17.6342 11.8455 10.9689 10.5223 10.1837 9.92607 9.81834 9.74888 11.1199 17.0988 14.3265 11.5332 12.3061
threshold=-0.1338339471076086 0.059238191274928735 0.80973156557969939 -1.0000000180025095e-35 3.3691760897973171 -0.001933696781970204 -0.41733886008834475 -0.0048969966653609363 0.049747729245464341 -0.15927880125047425 -0.093777350217869884 -0.41839331361450277 -0.55101133956891346 -0.44610076721556879 -0.32900288265397337 -0.12935674939066463 -0.32072614208556688 0.17308147279315575 -0.089916724096952061 0.086303550635146789 -0.076364599171448694 -1.1777924145740262 -0.035503720889874163 1.3229811112769554 -1.1042860857902335 -0.50108342998134525 0.0082200464728351113 -0.12689082696288936 -0.0065026693001453808 0.20258172946888578 -0.08973604515865341 -0.016269896617765317 0.18213509163525093 0.13928383396713839 0.029720247036066818 1.2441252740931359 -0.034362184306630454 0.029228700327433348 -0.13719804113212417 -0.3186210758997316 -0.075779697107651131 0.28857158302828106 0.053217159625780816 -0.039164010216208529 -0.1803781748194162 -0.058879639918935939 -0.018953617646951477 0.53973747309138032 0.26425648446373845 0.0074675660140886922 0.087728226053437774 -0.38123192914046922 0.92496478185745379 -0.0029424084307860311 0.29750992460254616 -0.052234421641566615 0.32991110206498325 0.3432850141646549 -0.22419833824659743 0.88856704655004359 -0.38591795444346744 -0.018085134608470128
decision_type=8 10 8 8 10 10 2 8 10 8 10 10 10 2 10 10 10 10 8 8 8 10 10 10 8 10 10 8 10 8 8 8 10 10 8 2 10 10 8 8 10 2 8 10 8 8 10 10 2 2 8 2 8 10 2 8 8 2 10 10 8 8
left_child=2 3 56 8 5 6 7 -5 9 16 53 15 13 -13 -14 -4 -2 18 21 32 -21 22 -7 28 -22 27 -27 -19 -23 -30 -31 -32 33 35 -34 36 39 -25 -15 40 -20 42 -41 44 -44 -46 -26 48 51 -50 -51 -48 -52 -11 -53 -36 57 59 -59 60 61 -1
right_child=1 -3 11 4 -6 17 -8 -9 -10 10 -12 12 14 38 -16 -17 -18 25 19 20 24 23 -24 37 46 26 -28 -29 29 30 31 -33 34 -35 55 -37 -38 -39 -40 41 -42 -43 43 -45 45 -47 47 -49 49 50 52 54 -54 -55 -56 -57 -58 58 -60 -61 -62 -63
leaf_value=0.00021794121665213268 -0.00053563986672825034 -0.0039484274495949863 -0.00067722507858821454 0.00089453048605177016 -0.0085271042346802359 0.0021541138285536602 -0.00019501226956534392 -0.0043586458782138727 0.0051689410424244787 -0.0084931165168659253 0.0068590340668119353 0.0022123279374402539 0.0053895872018635618 -0.0067742117438213947 -0.0012938585905514048 0.0061005107747704995 0.0084623239752156711 -0.0010410874410653359 -0.009676115583047382 -0.0060050032431346418 0.0059424311061387659 0.0021837183249481975 0.012364724414559269 0.0052167724624718652 -0.0011924776365412916 -0.0056746567648050883 0.0013480276037152138 0.0030257608201974557 -0.0071677180840648436 0.008841528206871058 -0.0060476298106335938 0.00038255113732629472 -0.0097172865043806522 0.0072635117769644002 0.0025467561682169181 -0.0068931176949232221 -0.0039483753955084355 -0.0014750631717491004 -0.0029729530238102094 -0.0014322042026266371 0.0010233489069876322 -0.0068845175263647146 0.0050164726280875387 0.0092993483911136283 -0.002533358617384815 0.0015617449978877057 0.004344623839277138 -0.0044727128797766623 0.0023576515364190764 0.0027365374060608536 -0.0062809845734452668 0.00024904660219988626 2.9994482570794994e-05 -0.0008584129680525792 -0.0032506832649147723 -0.0064021314048983346 -0.0041684819042122536 0.00043454580276181692 -0.006721061112780518 0.0088793540083182357 0.0010040163825596321 -0.0065945910722753354
leaf_weight=1675 651 4239 4644 2250 719 1471 172999 4769 3642 823 503 1313 751 2129 9040 758 785 2525 920 848 1003 9718 565 3013 10981 1157 2137 11311 636 502 889 31828 897 729 765 935 3061 770 16565 8366 1049 666 1316 510 3524 7312 1615 1104 17530 4186 681 160174 20928 930 2051 510 1303 2172 1355 524 16735 1096
leaf_count=1675 651 4239 4644 2250 719 1471 172999 4769 3642 823 503 1313 751 2129 9040 758 785 2525 920 848 1003 9718 565 3013 10981 1157 2137 11311 636 502 889 31828 897 729 765 935 3061 770 16565 8366 1049 666 1316 510 3524 7312 1615 1104 17530 4186 681 160174 20928 930 2051 510 1303 2172 1355 524 16735 1096
internal_value=-2.84938e-06 0.000125987 -0.00109791 0.000160111 0.000120791 0.000133289 -0.000291715 -0.00267481 0.00283463 0.000531165 -0.00192315 -0.00190143 -0.00229594 -0.00303739 -0.00078072 0.000274769 0.00438563 0.000373743 0.000302306 0.000152412 0.00032657 0.00106603 0.00499229 0.00089712 0.000350975 0.00162912 -0.00111963 0.00228356 0.000640263 0.000197167 0.000338384 0.000207648 -0.00110759 -0.000838435 -0.00462347 -0.00105223 -0.000847623 0.00385467 -0.00340621 -0.000446366 -0.00397827 -0.000125633 8.87518e-05 0.00109371 0.000748593 0.000229856 0.000325369 0.000405403 0.00043142 0.00113405 0.00030245 0.000245613 -0.000169175 -0.00444556 0.00020478 -0.00103501 3.98492e-05 0.00027279 -0.00231562 0.000728665 0.000509264 -0.00247799
internal_weight=570553 510493 60060 506254 498920 498201 180018 7019 7334 3692 2256 35200 29798 20007 9791 5402 1436 318183 301053 251661 221101 49392 2036 47356 220253 17130 3294 13836 43573 33855 33219 32717 30560 28388 2172 27659 26724 3783 18694 23663 1969 21694 21028 12662 12152 10836 219250 208269 207165 43325 25795 163840 21609 1753 162225 1275 24860 23557 3527 20030 19506 2771
internal_count=570553 510493 60060 506254 498920 498201 180018 7019 7334 3692 2256 35200 29798 20007 9791 5402 1436 318183 301053 251661 221101 49392 2036 47356 220253 17130 3294 13836 43573 33855 33219 32717 30560 28388 2172 27659 26724 3783 18694 23663 1969 21694 21028 12662 12152 10836 219250 208269 207165 43325 25795 163840 21609 1753 162225 1275 24860 23557 3527 20030 19506 2771
is_linear=0
shrinkage=0.05


Tree=11
num_leaves=63
num_cat=0
split_feature=19 23 7 2 17 20 2 24 10 10 11 4 11 6 6 4 10 10 11 4 10 10 4 6 10 11 6 8 10 11 10 4 17 10 12 10 21 16 10 19 24 2 6 2 22 17 11 20 17 23 2 21 17 20 17 11 8 2 4 12 9 10
split_gain=33.3565 30.0638 16.2434 23.8732 15.3917 20.718 15.3656 15.2919 14.3262 21.0066 19.5753 12.7234 15.0755 11.8285 18.8323 17.6486 19.8524 13.7713 13.3413 12.5492 12.0333 11.8566 21.0705 13.6667 13.0228 11.713 11.5298 11.1609 18.206 15.2461 11.7821 12.5106 11.1343 13.9672 11.962 11.5239 15.8082 11.0478 10.8769 10.2775 10.2422 9.79125 14.2128 10.1062 9.52574 9.45534 12.8688 11.4688 9.43595 9.76368 9.33233 13.6684 9.08613 16.0165 10.3541 9.06912 9.06194 12.715 9.05953 9.00332 8.94724 8.9105
threshold=0.033606275018325693 -0.0066431283102330587 -0.12911265858822971 -0.13700168921209613 -0.1745826260729926 -0.54310920242918981 -0.14452439744597453 -0.007335419661008505 -0.29641153475034993 -0.1448510250944299 0.19801066508803272 0.1370988075711515 -0.40115784222086748 -0.43545465508947473 -0.36880692562152456 -0.13719804113212417 0.10844855483674028 0.17308147279315575 -0.31761492149058085 -0.14786052159657628 0.018311878452794285 0.17308147279315575 0.1708883491766294 -0.64727102008195969 0.057243563241922896 -0.15050024737503884 -0.46452860569536719 0.10822512100923351 -0.10982545068043414 -0.5650128234707813 -0.37293873601305122 -0.21318639293254726 0.22271479165540989 -0.19631447651029071 0.013919096311718334 -0.71980258861399127 0.0059345971485904201 0.23403351640306849 -0.24617559714409795 0.0085532880193499774 -0.02338130506891992 0.21452275087625039 0.08299150324391287 0.41118661975005028 -0.0048969966653609363 0.83336923964143184 -0.04584657785990106 -0.48451504192466582 -0.29044901626045788 0.0056479187076616888 -0.39848391520621629 0.0026257954958510536 -0.44610076721556879 -0.80334767571726318 -0.54705541422716109 0.11855670688114957 0.014082097583041275 -0.50708646989171136 -0.24383214741176498 0.0063121479370987178 -0.19597365170386385 0.0097195596291553398
decision_type=2 8 8 8 2 2 8 8 10 10 10 10 10 10 10 8 8 8 8 10 10 10 10 10 10 8 8 10 10 8 8 8 2 8 2 10 10 2 8 2 8 10 10 10 10 2 10 2 2 10 10 10 2 2 2 10 10 10 10 2 10 10
left_child=1 4 8 27 5 -1 56 11 -3 -10 25 12 -2 21 17 19 20 18 -15 -16 61 23 -23 32 -25 -11 58 29 -29 -4 31 -31 33 35 40 44 -37 45 -28 -8 -35 -41 43 -43 -5 46 -34 -47 -36 -50 51 -32 53 54 -42 59 57 -6 -9 -7 -27 -17
right_child=7 2 3 13 6 55 39 26 9 10 -12 -13 -14 14 15 16 -18 -19 -20 -21 -22 22 -24 24 -26 60 38 28 -30 30 50 -33 37 34 48 36 -38 -39 -40 41 52 42 -44 -45 -46 47 -48 -49 49 -51 -52 -53 -54 -55 -56 -57 -58 -59 -60 -61 -62 -63
leaf_value=-0.0032143682274927638 0.00064384924449991711 0.0070268383790409771 -0.0050578028349074211 -0.0051698056323667696 0.0041604411170153427 -0.0028413730600621938 0.0047373270049590518 0.00046213543050569193 -0.0060117043885775387 0.0028426104795526369 0.0071169891344968501 0.0071638672119893158 -0.0050330470414317839 -0.0088335105874017949 0.00098663434040792051 -0.0017245506934504278 0.0016356032878593703 -0.012523560706483456 0.0019008566079868382 0.0076185234844586506 -0.0046414341019574363 0.0025998347981198229 -0.0052210317418613936 0.0044904017422798294 -0.0020986773101876323 -0.0040446622148040713 -0.0040487328506931576 -0.0043378893876087066 0.002131265443289457 0.0075245542889656016 0.0036831371390345607 0.00010604669051465381 0.00103229643494396 -0.0027289892109328361 0.0034674909311250383 0.0020899970590643907 0.0086626136188334337 0.0032039154672627644 -0.0010905555911562121 -0.0001886229529797962 -0.010273074916304045 0.0088809787207101611 -0.0033526103821529467 0.0022806791975382959 0.0017840169175002915 -0.0030135288530876918 0.0074275338596630743 0.00098067286548933963 -0.00045288591710641591 0.0023566206893256498 -0.0019173807621375195 -0.0041369399341929956 0.00020899676495579486 -3.2244427115518369e-06 -0.0028981798455479583 -0.0047356864667540714 0.00034481699473494265 -0.0035287900936585171 -0.0069958321812532039 0.00069707049615620363 0.001417761422876802 0.0030247038451123539
leaf_weight=10908 11893 1387 2605 885 581 2173 1109 550 829 4315 1709 666 1296 501 9859 9163 4921 502 683 768 3408 12146 926 3760 936 1451 3331 1357 5461 727 1821 2591 38646 3173 4397 7118 1049 5617 46139 108235 666 756 876 2485 1108 3241 802 4032 7067 5497 16972 805 174132 5079 1666 1057 2880 7078 1566 10385 1549 1106
leaf_count=10908 11893 1387 2605 885 581 2173 1109 550 829 4315 1709 666 1296 501 9859 9163 4921 502 683 768 3408 12146 926 3760 936 1451 3331 1357 5461 727 1821 2591 38646 3173 4397 7118 1049 5617 46139 108235 666 756 876 2485 1108 3241 802 4032 7067 5497 16972 805 174132 5079 1666 1057 2880 7078 1566 10385 1549 1106
internal_value=1.37307e-05 0.000151379 0.000400421 0.00033951 -0.000446283 -0.00159082 -0.000219921 -0.00104838 0.00227088 0.00160074 0.00230066 0.000426413 8.56771e-05 0.000473197 -0.000455305 -0.00015879 -0.00108757 -0.00559193 -0.00264493 0.00146658 -0.00206741 0.000574995 0.00204546 0.000503496 0.00317691 0.0011746 -0.00144448 -0.000953778 0.000843249 -0.00143387 -0.00102172 0.00173328 0.000455961 0.000294611 0.00020348 0.00210338 0.00293517 0.00110901 -0.00128982 -5.02805e-05 8.67903e-05 -9.75796e-05 0.00229539 0.00382254 -0.0013049 0.000857084 0.0011625 -0.000799396 0.00147422 0.000776419 -0.00148821 0.00128523 0.000136019 -0.00157849 -0.00500789 -0.000289933 -0.00204606 -0.00294503 -0.00505802 8.4611e-05 -0.0012247 -0.0012128
internal_weight=570397 504956 356433 345193 148523 24523 124000 65441 11240 9853 9024 13855 13189 312854 30911 29225 18598 1686 1184 10627 13677 281943 13072 268871 4696 7315 51586 32339 6818 25521 22916 3318 264175 211837 201677 10160 8167 52338 49470 113461 184716 112352 4117 3241 1993 46721 39448 7273 16961 12564 19598 2626 181543 7411 2332 13615 10539 7659 2116 12558 3000 10269
internal_count=570397 504956 356433 345193 148523 24523 124000 65441 11240 9853 9024 13855 13189 312854 30911 29225 18598 1686 1184 10627 13677 281943 13072 268871 4696 7315 51586 32339 6818 25521 22916 3318 264175 211837 201677 10160 8167 52338 49470 113461 184716 112352 4117 3241 1993 46721 39448 7273 16961 12564 19598 2626 181543 7411 2332 13615 10539 7659 2116 12558 3000 10269
is_linear=0
shrinkage=0.05


Tree=12
num_leaves=63
num_cat=0
split_feature=19 22 23 19 20 0 16 18 11 19 18 5 0 16 20 24 17 16 0 10 10 10 0 25 0 0 17 23 10 21 22 10 10 6 7 5 10 6 6 6 10 17 0 11 11 6 0 0 10 10 19 10 8 7 6 5 10 5 11 6 11 4
split_gain=32.2618 19.8407 14.6127 17.4835 16.6917 16.5727 16.5647 14.0489 12.8275 12.1185 12.1488 10.9517 24.9861 10.7699 11.0849 10.6091 9.99917 9.97841 9.77614 14.4991 10.8725 16.6698 13.9896 9.55568 10.0421 9.3697 9.02304 9.01949 9.96515 10.7871 8.91149 8.80856 8.28246 8.14083 16.8148 13.8343 14.6115 10.552 10.14 8.41118 8.04839 15.5068 10.2175 8.86735 8.73408 8.15422 14.4004 8.00959 12.3601 12.0619 10.2601 9.59496 13.534 9.85202 9.28126 17.045 12.7225 11.8419 11.7191 9.25795 11.6298 10.7026
threshold=0.020026461604367236 0.053127951513005207 -0.0027681848475478638 0.04679071002129883 -0.61571294108559815 0.17037495585055865 0.32888294711824123 0.021989397221950997 -0.3764769154666695 0.012881487366377646 -0.0032910464388622193 0.21195401547180953 0.23006216447027525 -0.21320864032882217 -0.60513181948821104 -0.0089989013677710533 -0.21786012401621749 -0.089356484331119243 0.38395744419350658 0.17643070962064467 0.08217473060356463 -0.031377067718830969 1.2352620728903689 0.0034113812275575221 -0.41665417793776055 0.64265067021419053 2.1442813107999492 0.078859790111134018 0.096427845166801016 0.0067039380854021563 -0.015851021808766585 0.03481502509235658 0.096427845166801016 -0.50436586446888543 -0.12911265858822971 -0.18970490301532214 0.03896736844506573 -0.12006712893302815 -0.59151455132597086 -0.10669977959708689 1.0000000180025095e-35 0.58262553948618079 0.53409786530012771 -0.78465854820246206 -0.1219256755103046 0.30602400286572301 -0.12106080037477145 -0.40175483969902742 0.21290365859650606 -0.042645635343477428 0.024738093228695933 0.10585319521519264 0.10822512100923351 0.87620786249733684 0.30602400286572301 -0.15821993501468293 -0.47421325385823648 0.081664874440746382 0.49954014730234858 0.08299150324391287 0.13696478949909929 -0.12657572293551231
decision_type=2 10 8 2 2 10 2 8 10 2 8 10 8 2 2 8 2 2 8 10 10 10 10 8 10 8 2 10 8 10 10 10 10 10 8 8 10 10 10 10 10 2 10 8 10 10 10 10 8 10 2 10 10 10 10 10 8 10 10 10 8 8
left_child=9 2 4 11 5 16 8 18 15 17 -11 13 -13 14 -4 -5 -2 -1 47 20 21 30 -23 24 -18 -8 33 28 -16 -30 -20 -28 -9 38 39 -36 40 -38 -15 -35 41 42 43 -37 -45 46 -46 48 49 -6 -51 52 54 -54 55 56 -49 -57 59 60 -58 -62
right_child=1 -3 3 6 7 -7 25 32 -10 10 -12 12 -14 26 27 -17 23 -19 19 -21 -22 22 -24 -25 -26 -27 31 -29 29 -31 -32 -33 -34 34 35 36 37 -39 -40 -41 -42 -43 -44 44 45 -47 -48 51 -50 50 -52 -53 53 -55 -56 57 58 -59 -60 -61 61 -63
leaf_value=-0.00016858073658681703 -0.004515596099252543 -0.0033726591436223476 -0.0014858823665313287 0.002454742008949858 -0.0004654809080313574 0.0022641583895626296 -0.0025641183081042229 0.00395182730033779 -0.0056385708960499468 0.00096154667429369409 1.9281521760182145e-05 0.0011944582811303883 -0.011194608474800668 0.00015863116760604342 0.00028705870196122854 -0.0013160555228650247 -0.00043781695283734196 0.0013281412724692819 0.0027996314936463646 0.0035850092313276234 -0.0037577371636674248 0.0015380032019893406 0.0094756058224062696 -0.0055072484175359947 -0.0033418708594660784 -0.0084224913333394175 -0.0011588275952483151 -0.0024889931339770513 0.0031632231863339896 -0.00072492744000593869 -0.00051921772036167969 -0.0091753048797075711 -0.0026222696066202284 0.00052815516876652559 -0.006815103112027346 -0.0060922350422251094 -0.007661358518384509 -0.0019446389497870026 0.0051715129358829021 0.0071106478924301206 0.0046514345334098192 -0.0079805677498330785 0.0054443511759846748 0.0021490588058523897 -0.0080091912175216263 0.0014151437478772792 0.0012803952070970922 0.0040078577891939091 -0.0044782005506579453 0.00016539227910131494 0.0078677777464484216 0.00015684525216870689 0.005421832067413734 -0.0031242931051421031 0.00081970904644344171 -0.0097114627381974482 0.0018520889491510303 -0.0012695832789657337 -0.0086061968276393754 -0.0071395944569076679 -0.0095162635871279891 -0.0020987591059025176
leaf_weight=14259 4406 5322 3510 2693 2611 2090 1518 2693 1214 43326 162531 998 686 111577 7276 6063 9157 50835 2102 2473 2215 2449 717 1565 4410 1241 1054 1310 11741 2103 52930 507 582 1173 1186 642 1188 2517 1017 827 832 638 807 2700 970 1161 731 805 986 712 1100 6805 1019 503 2195 1327 1850 605 732 881 503 13937
leaf_count=14259 4406 5322 3510 2693 2611 2090 1518 2693 1214 43326 162531 998 686 111577 7276 6063 9157 50835 2102 2473 2215 2449 717 1565 4410 1241 1054 1310 11741 2103 52930 507 582 1173 1186 642 1188 2517 1017 827 832 638 807 2700 970 1161 731 805 986 712 1100 6805 1019 503 2195 1327 1850 605 732 881 503 13937
internal_value=1.02902e-05 -0.000347298 -0.000292566 8.91135e-06 -0.000704391 -0.00196684 -0.00177329 -0.000438593 -0.000824225 0.000405637 0.0002176 0.000153277 -0.00385604 0.00019673 0.00112664 -0.000156159 -0.00241953 0.00100028 -0.000544706 -0.000166669 -0.000320301 -0.00018941 0.00333805 -0.00180895 -0.00138197 -0.00520132 1.04922e-05 0.00153552 0.00178525 0.00257258 -0.000392403 -0.00376672 0.0027831 5.65978e-05 -0.00102268 -0.00166226 -0.00116024 -0.00377927 0.000203955 0.00325221 -1.5784e-05 -0.00052399 0.000155599 -0.000533115 0.000109533 -0.00181463 -0.00401861 -0.00119474 0.000581244 0.00170988 0.00484299 -0.00150302 -0.00196675 0.00259726 -0.00227105 -0.00259977 -0.00213777 -0.00706994 -0.00241432 -0.00214987 -0.0018796 -0.00235778
internal_weight=570513 299562 294240 169880 124360 21628 12729 102732 9970 270951 205857 157151 1684 155467 25940 8756 19538 65094 99457 62886 60413 58198 3166 15132 13567 2759 129527 22430 21120 13844 55032 1561 3275 127966 15372 13372 12186 3705 112594 2000 8481 7649 7011 6204 5562 2862 1701 36571 5409 4423 1812 31162 24357 1522 22835 20640 18708 1932 17903 17171 16290 14440
internal_count=570513 299562 294240 169880 124360 21628 12729 102732 9970 270951 205857 157151 1684 155467 25940 8756 19538 65094 99457 62886 60413 58198 3166 15132 13567 2759 129527 22430 21120 13844 55032 1561 3275 127966 15372 13372 12186 3705 112594 2000 8481 7649 7011 6204 5562 2862 1701 36571 5409 4423 1812 31162 24357 1522 22835 20640 18708 1932 17903 17171 16290 14440
is_linear=0
shrinkage=0.05


Tree=13
num_leaves=63
num_cat=0
split_feature=19 2 25 11 0 3 0 23 3 3 20 17 4 9 6 16 19 8 8 11 17 4 17 12 10 6 22 23 17 22 2 6 0 11 22 10 0 17 3 16 8 3 3 18 10 10 6 10 23 16 17 2 17 2 3 10 4 3 3 8 2 3
split_gain=30.1078 30.0582 22.4528 18.5804 15.6975 14.7839 13.847 12.4086 12.3236 12.1353 12.0672 15.4859 12.0209 15.3005 12.4988 12.0019 18.5109 11.8301 18.1389 11.6801 11.3974 11.1278 10.9472 13.2946 16.3917 12.9152 10.8127 10.6124 10.503 15.4884 10.4501 10.3715 11.2206 10.2001 10.1089 11.014 9.69218 9.60114 10.4045 9.95033 9.47675 9.83351 9.34906 10.6554 11.5733 10.2486 9.1877 8.75266 10.2054 11.3814 12.6757 12.0775 16.6891 9.2758 8.65309 8.53603 8.40122 8.6375 10.146 8.39723 9.68558 8.26992
threshold=0.016317766789541402 -0.1338339471076086 -0.0014678996907339611 -1.0443632603468951 -0.38252916624859368 -0.0060137135389894845 0.103228717814435 0.0059987132779684453 -0.098408006912208038 -0.16953736473439243 -0.78206129439460426 -0.52266555274697302 -0.26255447152829697 0.030116266731537514 -0.18659211512964136 -0.38123192914046922 0.04679071002129883 0.014082097583041275 -0.10282759703694733 -0.41022139104578881 0.18106851436284668 -0.11907734025512161 -0.11764660473154763 0.0074092676366671927 -0.033345786672731755 -0.0018810885969139616 0.053127951513005207 -0.0084745670603480483 -0.42597034188395388 -0.0063171916704468402 -0.25913916017693145 -0.72317940749965792 0.14540951216105968 -0.43623500552124078 0.001935261456158056 0.071135239258002192 -0.32579906839891448 -0.41733886008834475 -0.073479655751663153 -0.036875684566798954 0.075017317334889436 -0.1009669031936775 0.56983630531162233 0.021989397221950997 0.32991110206498325 0.11480296694823901 1.8145403659840043 -0.42967302441904887 0.035313869950579467 -0.17849343156188155 -0.44610076721556879 -0.38608207191449079 0.15641523545797423 -0.20792542116637938 0.0025729849541296112 -0.17180211839658441 -0.13495073406037519 -0.15812533368079321 -0.12883917372637213 0.13596512543813108 0.11078963413708125 -0.11018867666523664
decision_type=2 8 10 10 8 10 10 10 10 10 2 2 10 8 10 2 2 10 10 10 2 10 2 2 8 8 8 10 2 10 10 8 10 10 10 10 10 2 8 2 10 10 10 10 10 10 10 8 10 2 2 10 2 10 8 10 10 8 8 8 8 8
left_child=20 3 26 5 8 47 10 17 -5 19 11 -4 36 -14 21 -12 22 18 -6 34 46 -15 23 -17 25 -25 28 -13 29 -3 -7 -11 -33 37 -8 -36 -9 39 -39 -18 -19 -42 43 44 -30 -45 -1 53 49 61 -51 52 -52 -2 -46 -44 57 -26 -59 -27 -61 -49
right_child=1 2 6 4 7 30 9 12 -10 31 15 27 13 14 -16 16 33 40 -20 -21 -22 -23 -24 24 56 59 -28 -29 42 -31 -32 32 -34 -35 35 -37 -38 38 -40 -41 41 -43 55 45 54 -47 -48 48 -50 50 51 -53 -54 -55 -56 -57 -58 58 -60 60 -62 -63
leaf_value=0.0004384072238316027 -0.0038584133758666687 0.0013008444072819423 -0.0074314108036979132 -0.0018790277647207873 -0.001289130520627796 0.0072217618868896912 0.006022455942372924 0.0017737767158446409 -0.010327560989279587 0.0075899755314463475 0.0034253392548491673 -0.0032781296103222856 0.0038631331868502431 -0.0028256362027954799 -0.0059660382495094685 -0.00044106395154847966 -0.0017885505340858488 0.0066218565287322661 -0.0090471958988517353 -0.0034118211965422003 0.0015782296665444217 0.0050529334235416548 2.4756255904105975e-05 -0.0048416249703781512 0.0052253677710914969 -0.005678134297323327 -0.0030373947106258703 -0.00028837459893347827 -0.0004833017347743194 -0.0039844702614746973 -0.0018368072930587582 0.0050217450231138817 0.0003194838054827846 -0.0072177456655625029 -0.0021870894670398054 0.0068360179815206302 0.010672344606068869 0.0030385685087429559 -0.0017847132840058439 -0.010614286094954619 0.0013406608775063866 -0.0046917777592812241 0.002744580604369285 0.003068367296462701 0.00037913256683809812 -0.0045531280631015162 -0.0048966085452892081 0.0043736958054875789 -0.0069698539435844378 0.0040445375807717154 -0.0022937698166093918 -0.0038861756286935091 0.0072230128085778444 -0.012075074931173263 0.0049047253124007741 -0.004425086578661753 -0.0011131295786778468 -0.0051190595096999598 0.0020665154991254542 0.0065083755924119722 0.00020667769199866144 -0.0015460114857016156
leaf_weight=131289 1079 1971 846 1275 6637 629 3013 609 652 547 2981 3294 2202 956 1066 13240 798 648 849 541 24577 842 91531 1419 2150 538 4215 29924 133722 4667 643 1355 19698 860 963 520 615 1464 4721 532 3368 844 501 3693 2779 500 811 1000 1241 641 1972 10743 600 504 1703 2405 2079 500 25464 671 6583 1436
leaf_count=131289 1079 1971 846 1275 6637 629 3013 609 652 547 2981 3294 2202 956 1066 13240 798 648 849 541 24577 842 91531 1419 2150 538 4215 29924 133722 4667 643 1355 19698 860 963 520 615 1464 4721 532 3368 844 501 3693 2779 500 811 1000 1241 641 1972 10743 600 504 1703 2405 2079 500 25464 671 6583 1436
internal_value=-6.73645e-07 -0.000224352 -8.28007e-05 -0.00150838 -0.000446548 -0.00257403 0.000247133 -2.21436e-06 -0.00474146 0.00131459 9.71556e-05 -0.000755187 0.00180518 0.000730256 -0.00167898 0.000283837 0.000222427 -0.000923111 -0.00217008 0.00352435 0.000589567 0.000864641 0.000355179 0.000929666 0.00139024 -0.00045606 -0.000539664 -0.000584938 -0.000470355 -0.00241516 0.00264478 0.000799144 0.000622352 -0.00206266 0.00435955 0.000979253 0.00624993 -0.00147184 -0.000642728 -0.00532417 0.000997679 0.000131055 -0.000381493 -0.000324186 -0.000399529 0.00215866 0.000405617 -0.00291961 -0.00259959 -0.00226832 -0.00281873 -0.00314942 -7.17362e-05 -0.00648043 0.00209941 -0.0031885 0.00195349 0.00218029 0.00192795 0.000343113 0.000790406 0.000884879
internal_weight=570116 413439 372388 41051 20563 20488 216232 18636 1927 26637 189595 34064 6290 5066 2864 155531 152550 12346 7486 5037 156677 1798 144175 52644 39404 9211 156156 33218 151941 6638 1272 21600 21053 8375 4496 1483 1224 7515 6185 1330 4860 4212 145303 142397 138204 4193 132100 19216 17633 16392 13956 13315 2572 1583 4482 2906 30193 28114 25964 7792 7254 2436
internal_count=570116 413439 372388 41051 20563 20488 216232 18636 1927 26637 189595 34064 6290 5066 2864 155531 152550 12346 7486 5037 156677 1798 144175 52644 39404 9211 156156 33218 151941 6638 1272 21600 21053 8375 4496 1483 1224 7515 6185 1330 4860 4212 145303 142397 138204 4193 132100 19216 17633 16392 13956 13315 2572 1583 4482 2906 30193 28114 25964 7792 7254 2436
is_linear=0
shrinkage=0.05


Tree=14
num_leaves=63
num_cat=0
split_feature=19 2 3 0 10 11 3 10 5 11 16 19 8 1 3 11 4 17 12 3 3 16 5 2 2 8 3 11 4 1 11 12 7 0 1 6 10 1 17 6 6 24 0 0 1 21 0 1 20 17 21 6 16 12 17 17 1 7 11 16 12 10
split_gain=24.2441 20.9542 20.287 34.5564 25.3563 18.0259 16.4918 15.6787 17.5814 15.7584 15.4615 22.1916 14.755 14.4501 14.4403 13.9625 14.9532 13.3946 21.0189 21.9767 20.6389 12.979 12.7531 22.938 18.6919 17.5524 12.6017 12.535 12.4737 12.7174 19.0564 12.5044 12.343 12.2661 14.0721 15.7299 13.7283 14.3861 12.1171 11.3091 11.2592 10.8049 17.2094 10.673 11.4706 10.6492 10.8617 10.7394 10.6358 10.5409 10.5251 10.2712 11.9117 9.86527 13.5786 10.9351 9.81465 9.68996 12.167 9.58123 9.39745 12.2776
threshold=0.019348278321652427 -0.1338339471076086 -0.089507994156073814 0.027595219780687383 0.17643070962064467 -1.0443632603468951 -0.091425601684477928 0.091925071714116541 0.21195401547180953 -1.1042860857902335 -0.21320864032882217 0.040840489667762457 0.29565267335825757 -0.11753058626275616 -0.0060137135389894845 -0.21025671367852874 -0.029948556410596485 0.30506848925952795 0.013281194725834465 0.037887586315750975 0.39694882515070157 -0.0974177980064828 -0.25305158876395289 -0.41839331361450277 -0.35704736836043049 0.0026202772300483097 0.10785002732849916 0.21554408604634931 0.38495544389005115 -0.53637595538539673 -0.51284130748531154 0.0093165842312650619 -0.83415547928836997 -0.15148219726370424 -0.37723639300398054 -0.71144470886458522 -0.033345786672731755 -0.029780976569498175 0.16140793345279983 -0.34650906703525991 -0.38661261052173235 -0.002887531248303423 -0.23689509122924116 -0.036227863032856349 0.025052667216363695 0.034586277540066913 -0.16878615609952455 -0.37723639300398054 -0.50422336738318163 0.76470958497328567 -0.00545158390196841 -0.69875634670886944 0.050169130854272888 0.013177232352793231 -0.25366211286746293 -0.42597034188395388 -0.18125842718519578 -1.2525471360027565 0.58556606606012329 -0.018284910588708011 0.0068562375372746868 0.057243563241922896
decision_type=2 8 8 8 10 10 10 10 10 8 2 2 10 10 10 10 10 2 2 8 10 2 10 8 10 10 8 10 10 8 10 2 10 10 8 10 8 10 2 8 10 10 10 8 10 10 8 10 2 2 10 10 2 2 2 2 10 10 10 2 2 10
left_child=38 5 6 15 7 13 28 8 9 -5 48 12 17 14 21 33 -17 20 19 -19 39 -2 23 -7 -24 49 -6 -25 29 30 -3 -31 51 34 35 -4 -35 -38 41 -12 45 42 -1 44 -43 46 47 -36 -11 -26 57 -9 -53 55 -55 59 -23 58 -45 -41 61 -21
right_child=1 2 3 4 26 22 -8 32 -10 10 11 -13 -14 -15 -16 16 -18 18 -20 60 -22 56 24 27 25 -27 -28 -29 -30 31 -32 -33 -34 36 40 -37 37 -39 -40 53 -42 43 -44 50 -46 -47 -48 -49 -50 -51 -52 52 -54 54 -56 -57 -58 -59 -60 -61 -62 -63
leaf_value=-0.00089932970621580072 -0.0015492357884684788 0.0097196337827661419 -0.010624325669033676 0.0075579474584491048 0.00018836012295212195 0.0095320218104555689 0.0067246394914859302 -0.002291942089150757 -0.0085406360212876963 -0.00164182544270851 0.0045723360050720103 -0.0024472402436236267 0.0081103731930045955 0.00022703376427797312 0.0029804255665218438 -0.0079047891361158622 -0.0020119689749262528 -0.0040865242604111642 -0.0024161082680855105 0.0027493979492679739 0.0052884954635121608 -0.0046223000924315227 -0.0077266621466799915 0.0014486884591808364 -0.0017688430753517892 0.0020149779713508177 0.0046737077236567405 -0.0050142238600034703 0.0069098221331625985 -0.00070073102260205956 -0.00071138648545735351 0.00091619989424546818 0.0027576788070566901 -0.0046067188884052054 -0.00056179319985304144 -0.00028223832832806355 -0.00015094870876602266 -0.0073469810899734105 0.0010558398736059723 -0.0012650931885070456 -0.0064546085514642151 -2.6946806016916712e-05 0.00097382547667521763 0.0014174391252395129 -0.0029583987413447309 -0.0065805901237975285 0.0077076984351818149 0.0030479972819861334 0.0015783833820545775 -0.0091732752686033599 0.00034798791185657702 -0.0028497606519604854 -0.012910162677690774 0.0028267959455995704 -0.00033004848132790792 -0.00068033864059235689 -0.011259500895596056 0.0068346464583708732 -0.0062812516336098233 -0.0056912718955257832 0.00069042713309450099 -0.0049865530965198523
leaf_weight=43287 3726 904 693 666 2569 773 1111 5668 620 2981 1066 11258 538 3258 798 1895 2493 2028 5187 11472 1534 7114 1052 4208 4665 3584 4010 912 765 18509 848 33773 1003 5240 8252 782 5226 800 50640 2995 638 27185 17107 30555 3803 528 523 2745 18304 535 76758 651 537 4552 13525 84703 604 807 521 2066 24002 536
leaf_count=43287 3726 904 693 666 2569 773 1111 5668 620 2981 1066 11258 538 3258 798 1895 2493 2028 5187 11472 1534 7114 1052 4208 4665 3584 4010 912 765 18509 848 33773 1003 5240 8252 782 5226 800 50640 2995 638 27185 17107 30555 3803 528 523 2745 18304 535 76758 651 537 4552 13525 84703 604 807 521 2066 24002 536
internal_value=-3.13377e-06 -0.000291977 -0.000158667 -0.000364478 -0.000130451 -0.00152219 0.000696397 -0.000232999 -0.000141543 -0.000113712 -0.000141112 -0.00030429 -0.000147824 -0.00273224 -0.00351975 -0.00195368 -0.00455806 -0.00017679 0.000569381 0.000976546 -0.000468832 -0.00397323 -0.000329653 0.00150956 -0.00143161 -0.000676904 0.00292254 0.000296728 0.000574059 0.000484233 0.0046733 0.000343768 -0.00242087 -0.00150407 -0.000524484 -0.00514517 -0.00273522 -0.00110734 0.000364945 -0.000549975 1.31259e-05 0.000190026 -0.000368739 0.00043171 -0.000386793 0.000356131 0.000674608 0.000339455 0.00112733 -0.00253226 0.000665176 -0.00317876 -0.0074043 -0.00060065 0.000464994 -0.000815256 -0.00514311 0.00142877 0.00128817 -0.00307271 0.00126179 0.0024037
internal_weight=570088 319425 288196 232286 202471 31229 55910 195892 188033 187413 186747 165462 154204 15500 12242 29815 4388 153666 43225 38038 110441 11444 15729 5893 9836 8784 6579 5120 54799 54034 1752 52282 7859 25427 14161 1475 11266 6026 250663 108907 12686 200023 60394 139629 30988 12048 11520 10997 21285 5200 108641 6856 1188 107841 18077 89764 7718 31883 31076 5061 36010 12008
internal_count=570088 319425 288196 232286 202471 31229 55910 195892 188033 187413 186747 165462 154204 15500 12242 29815 4388 153666 43225 38038 110441 11444 15729 5893 9836 8784 6579 5120 54799 54034 1752 52282 7859 25427 14161 1475 11266 6026 250663 108907 12686 200023 60394 139629 30988 12048 11520 10997 21285 5200 108641 6856 1188 107841 18077 89764 7718 31883 31076 5061 36010 12008
is_linear=0
shrinkage=0.05


Tree=15
num_leaves=63
num_cat=0
split_feature=19 23 5 2 17 2 8 17 5 24 6 2 8 11 2 5 10 10 21 6 24 9 10 8 1 6 10 19 17 11 10 10 11 11 10 6 1 20 11 11 11 11 2 1 2 7 17 11 10 10 17 20 6 10 10 21 2 21 6 11 10 19
split_gain=23.7176 22.7004 20.7841 25.1956 15.2958 14.3201 13.6641 13.5626 12.9638 12.8435 12.4037 12.3102 12.2902 12.7124 12.146 12.0105 12.4375 19.7495 14.3147 13.4735 12.9903 12.3766 12.1595 11.8506 11.6133 10.8172 10.6014 10.4418 10.8744 21.7735 15.3979 17.0926 15.4945 15.3444 14.5331 12.1105 11.5756 10.2518 9.79989 9.72189 12.0685 10.3237 9.71843 11.6806 9.62117 9.52242 10.6948 9.41367 11.311 15.4914 11.039 18.4749 10.0898 12.6891 9.4207 9.32318 9.22953 8.92527 8.72299 9.38256 9.2465 8.62544
threshold=0.033606275018325693 0.0010130494851801114 -0.54603127513347105 -0.14452439744597453 2.1442813107999492 -0.13948879438831693 0.078714352848914565 -0.41733886008834475 -0.19745522000693397 -0.007335419661008505 0.6547023445030814 -0.19060650055693643 0.014082097583041275 -1.1269745536268878 -0.14725996969817598 0.7175237530987767 -0.072755936266391763 -0.043759513678107549 0.0017823004352800712 -0.64727102008195969 -0.012072510501333169 -0.14443257415516494 -0.07539082391469111 0.12741265566766183 0.33317513723072939 -0.46047052962809804 -0.49817116606344064 0.0081039515907953049 0.22832114174638088 0.36973646175699576 -0.1803781748194162 -0.3272693264045819 -1.307065550369338 0.94835550180612049 -0.25145542332703263 -0.049065735241976494 -0.11753058626275616 0.11909702827302988 -0.20236928437844651 0.48322442753797196 0.22800686309333301 -0.17445253475949948 -0.19683911539933155 -0.034362184306630454 -0.1338339471076086 -0.66326609846300311 0.36889566395663959 -0.5650128234707813 -0.04120980264430834 -0.038665396980788573 -0.54705541422716109 -0.46633541056227251 1.436413728491323 0.032668025191270843 0.30725251163096251 0.015030673877437497 -0.098626666303362101 -0.076364599171448694 -0.46452860569536719 -0.23581200403110023 -0.24617559714409795 0.014681785917381859
decision_type=2 8 8 8 2 8 10 2 8 8 10 8 10 10 10 10 8 8 10 8 10 8 10 10 10 8 8 2 2 8 8 10 8 8 8 8 10 2 10 10 10 8 10 10 10 10 2 10 8 8 2 2 8 10 10 10 10 8 8 8 8 2
left_child=1 2 -1 12 6 -5 11 -7 -9 -2 27 26 14 -14 -4 16 18 24 19 -13 -19 -21 25 39 44 -23 -3 -10 30 45 31 36 -32 35 -35 -31 -29 -8 55 40 41 -12 43 -28 -18 46 -30 48 -22 -50 51 -51 53 -52 57 -33 -27 -54 59 -11 -60 -34
right_child=9 4 3 5 -6 7 37 8 10 58 23 15 13 -15 -16 -17 17 20 -20 21 47 22 -24 -25 -26 56 42 28 29 33 32 38 61 34 -36 -37 -38 -39 -40 -41 -42 -43 -44 -45 -46 -47 -48 -49 49 50 52 -53 54 -55 -56 -57 -58 -59 60 -61 -62 -63
