tree
version=v4
num_class=1
num_tree_per_iteration=1
label_index=0
max_feature_idx=25
objective=regression
feature_names=revenue_z operating_inc_z net_income_z revenue_yoy_growth_z operating_inc_yoy_growth_z net_income_yoy_growth_z opm_ttm_z npm_ttm_z roe_ttm_z roa_ttm_z debt_ratio_z earning_surprise_z kospi_volatility_20 macro_usdkrw_chg_20d is_market_stress macro_usdkrw_chg_5d mom_60 mom_12_1 foreign_flow_20d volatility_20 atr_pct_z252 foreign_flow_60d inst_flow_60d indiv_flow_60d inst_flow_20d indiv_flow_20d
feature_infos=[-8.2051964690737051:9.9613339082733319] [-8.7936017155596957:11.506181639629906] [-5.7134976590656184:10.304783896387692] [-10.894726517144589:13.423434503578939] [-9.2213165127813834:9.8947141829325584] [-5.4157986141656185:7.3849249254189067] [-7.7050476473925338:5.6787328429057427] [-5.9155956295951277:5.7599184098426033] [-5.7176809642102402:6.182477699589036] [-6.2725101825087535:5.7254970795856135] [-13.160134230851362:13.075006673499264] [-8.0040083791047536:7.1458878191404853] [0.0028834494504:0.04485129879142237] [-0.084350615934188827:0.10451770060582898] [0:1] [-0.041632806695596859:0.062951363766911114] [-0.8167361447729844:3.9484536082474229] [-0.89223511544990775:27.097345132743364] [-0.22538070030314419:0.10037131751689252] [0.0031133095101305119:0.34172909414285252] [-3.6563078503772175:11.712931060319523] [-0.2620707171408318:0.14135569296575476] [-0.30135660061471786:0.39449193370127167] [-0.30291184817924416:0.30308717010506792] [-0.26501154972769203:0.38614358887184613] [-0.26381889679170889:0.25409319358699911]
tree_sizes=5874 6240 6180 6247 6262 6234 6231 6254 6204 6262 6271 6247 6251 6212 6232 6171 6251 6256 6220 6252 6231 6171 6236 6171 6194 6217 6227 6261 6251 6197 6229 6257 6175 6217 6238 6232 6201 6244 6253 6233 6209 6168 6201 6186 6173 6218 6225 6169 6220 6161 6202 6176 6194 6244 6219 6156 6199 6239 6173 6207 6169 6145 6214 6182 6221 6142 6149 6116 6192 6166 6117 6161 6135 6192 6149 6166 6170 6117 6206 6167 6120 6200 6198 6160 6217 6189 6178 6132 6169 6158 6142 6208 6127 6140 6205 6179 6134 6128 6140 6165 6171 6100 6146 6192 6108 6255 6157 6170 6099 6081 6218 6201 6188 6123 6108 6091 6111 6095 6119 6074 6142 6114 6164 6099 6177 6137 6141 6150 6221 6183 6105 6169 6116 6198 6102 6103 6133 6189 6103 6167 6145 6059 6111 6177 6108 6087 6166 6119 6141 6172 6109 6129 6123 6219 6121 6168 6139 6106 6151 6156 6104 6123 6126 6081 6102 6245 6127 6194 6126 6168 6106 6079 6217 6128 6081 6102 6116 6125 6131 6187 6103 6139 6088 6132 6126 6119 6137 6087 6112 6121 6113 6149 6179 6147 6087 6109 6144 6101 6219 6206 6120 6110 6147 6126 6155 6132 6146 6072 6092 6100 6156 6181 6099 6092 6141 6195 6124 6133 6172 6150 6147 6137 6180 6131 6111 6105 6084 6126 6109 6083 6141 6197 6137 6102 6122 6067 6148 6093 6162 6116 6132 6106 6112 6085 6106 6096 6154 6108 6121 6128 6150 6144 6188 6199 6184 6109 6130 6108 6180 6125 6116 6134 6121 6133 6115 6167 6134 6162 6145 6237 6113 6116 6172 6184 6118 6100 6145 6097 6182 6126 6209 6171 6244 6124 6138 6096 6196 6123 6104 6153 6094 6124 6096 6157 6093 6159 6099 6101 6115 6093

Tree=0
num_leaves=63
num_cat=0
split_feature=23 2 9 19 0 10 3 10 17 0 20 17 3 19 18 2 8 6 3 3 2 10 11 17 2 2 10 0 19 10 2 17 11 19 24 3 17 19 0 0 17 0 10 0 11 4 17 5 10 5 5 11 8 3 17 0 17 4 3 10 20 0
split_gain=65.7016 44.8125 39.4371 36.2914 34.7937 23.8066 22.1399 21.7541 21.6647 18.6399 18.5469 19.1129 18.4583 17.4027 17.0317 16.7835 19.4498 24.5556 16.8113 16.3316 15.74 15.6072 15.5877 23.9318 19.5093 15.7443 15.3498 18.9867 15.1408 14.9784 16.2072 14.882 16.3524 18.1219 14.8568 14.5569 13.8315 13.5273 13.5178 13.307 13.2387 13.0605 13.955 12.1467 11.9183 18.7557 12.0925 13.5351 16.0938 11.8477 16.9126 15.7568 11.7514 11.881 11.6966 11.5776 11.4439 11.0581 11.045 12.8963 11.0003 13.2727
threshold=-0.0065119414963775765 -0.1351319551390377 0.67768654247626137 0.024579088652962374 0.078239868489666062 0.051010459346428484 -0.065813326954446374 0.20414392465218964 0.22445787249396934 -0.035994550885785362 -0.27424474868909171 -0.39464654425605916 -0.0022325736731399516 0.014641254365033805 0.008209357904163073 -1.0027598756957299 -0.404261009876479 1.1230455414977911 0.12336857926509683 0.037887586315750975 -0.4195225999666401 0.1300365318294153 0.40017835311910188 0.22445787249396934 -0.17979259706156178 0.012324291238023944 -0.13422375997081734 -0.10636030124266858 0.046830422843803642 -0.033121131352271849 -0.081507276437437617 0.18643641938506086 0.40017835311910188 0.041498209185305487 -0.012084849771358468 -0.14372547726848087 -0.28037206211128823 0.050418493011552802 0.018459932258552188 -0.83419794198066588 0.10852090600905319 -0.38237526554191031 0.32991110206498325 -0.20657635077815581 -0.55179996184477453 -0.30408750432322301 -0.44597533994580751 -0.19760837594369149 -0.70461215487905282 -0.33975812013763607 -0.14670728474792336 -0.26063036889552577 0.11001358515550065 -0.15372626442088241 0.34469448746971693 0.44216316436161884 -0.44597533994580751 -0.21964715312977437 0.60838403388174545 -0.31299492133276402 0.26040286131164964 0.30181901541010842
decision_type=8 8 8 2 8 8 10 10 2 10 2 2 10 2 8 10 10 10 10 8 10 10 8 2 8 8 8 10 2 8 8 2 8 2 8 8 2 2 10 10 2 10 8 10 10 10 2 8 10 8 10 10 10 10 2 10 2 10 10 10 2 10
left_child=4 2 37 8 14 22 10 13 9 26 11 -5 -8 -7 15 18 -17 52 -1 -10 -4 -21 23 -6 -24 -26 27 36 -12 -28 -31 56 -33 -34 -32 -30 -3 41 -13 -16 -9 49 54 -20 46 -46 -22 -48 -49 -2 -51 -52 -18 -54 -43 -40 -15 -47 59 -14 61 -58
right_child=1 3 20 6 5 7 12 40 19 -11 28 38 58 31 39 16 17 -19 43 21 44 -23 24 -25 25 -27 29 -29 35 30 34 32 33 -35 -36 -37 -38 -39 55 -41 -42 42 -44 -45 45 57 47 48 -50 50 51 -53 53 -55 -56 -57 60 -59 -60 -61 -62 -63
leaf_value=0.50126557861619592 0.49720622221296973 0.5018143460889567 0.50293320702425548 0.49768148237354526 0.50407230927653468 0.50330369073456593 0.49777284935494381 0.50219114055572223 0.50269419028918161 0.50422060023549353 0.50327134736926027 0.50152707051336465 0.49799457710941281 0.4961894671072562 0.50960985004391834 0.49668297044618193 0.49992581806104985 0.4917293311867974 0.50427892567529098 0.50477409791329508 0.50367676292384345 0.51027290655973978 0.49743801444974622 0.49821178999493165 0.51442047059102747 0.50533229361177012 0.50139021102233883 0.49726394719982692 0.50573721336116828 0.50978189977020427 0.50112433517157817 0.4956329855839372 0.50279924766777784 0.49803495666075231 0.50311775601638042 0.50037600682705363 0.50647169784539436 0.49515103128017884 0.51059342707387811 0.50193964639181621 0.50787517394803428 0.50585474784460649 0.49817950023552116 0.49580063521108797 0.50852564207664397 0.49487860024954811 0.49429104338461882 0.50698632628427232 0.49858220977912598 0.50457936630463596 0.49200564316366807 0.501805799799385 0.51113795515316773 0.50250428367098332 0.50040972547793117 0.50121946752637714 0.50016500304138056 0.50115641452098936 0.49865270803226192 0.50325846351989767 0.5019273296520782 0.50442640003828898
leaf_weight=22872 1156 2031 4331 3119 5534 14919 4270 1807 10043 36728 62800 16241 1375 1241 600 6474 2918 668 510 30315 1180 1347 747 2541 504 8500 15709 761 1487 879 10066 896 29649 2139 130680 8494 7406 503 796 9563 2364 8013 770 2450 795 796 1746 599 11334 4057 578 1407 552 1426 1124 561 28433 5859 2445 7536 20985 1952
leaf_count=22872 1156 2031 4331 3119 5534 14919 4270 1807 10043 36728 62800 16241 1375 1241 600 6474 2918 668 510 30315 1180 1347 747 2541 504 8500 15709 761 1487 879 10066 896 29649 2139 130680 8494 7406 503 796 9563 2364 8013 770 2450 795 796 1746 599 11334 4057 578 1407 552 1426 1124 561 28433 5859 2445 7536 20985 1952
internal_value=0.502538 0.502889 0.501388 0.503076 0.501716 0.502164 0.502317 0.501876 0.503413 0.5032 0.502608 0.501288 0.500575 0.501728 0.500576 0.500088 0.498546 0.500714 0.500807 0.504451 0.500175 0.505008 0.503853 0.502228 0.505198 0.505842 0.502977 0.504857 0.502984 0.502855 0.503017 0.501453 0.502291 0.502479 0.502975 0.501175 0.505469 0.503224 0.501928 0.502393 0.505413 0.503462 0.50464 0.497262 0.499639 0.501272 0.498821 0.498402 0.499004 0.501841 0.502729 0.498948 0.501942 0.504917 0.505185 0.50672 0.500932 0.500404 0.501629 0.502446 0.501047 0.500439
internal_weight=569581 399337 44248 355089 170244 122211 109124 104385 245965 204260 93498 20717 15626 100214 48033 37870 12038 5564 25832 41705 26640 31662 17826 8075 9751 9004 167532 10198 72781 157334 141625 85295 32684 31788 140746 9981 9437 17608 17598 10163 4171 17105 9907 2960 22309 7450 14859 13679 11933 7198 6042 1985 4896 1978 9137 1357 52611 6655 11356 8911 51370 30385
internal_count=569581 399337 44248 355089 170244 122211 109124 104385 245965 204260 93498 20717 15626 100214 48033 37870 12038 5564 25832 41705 26640 31662 17826 8075 9751 9004 167532 10198 72781 157334 141625 85295 32684 31788 140746 9981 9437 17608 17598 10163 4171 17105 9907 2960 22309 7450 14859 13679 11933 7198 6042 1985 4896 1978 9137 1357 52611 6655 11356 8911 51370 30385
is_linear=0
shrinkage=1


Tree=1
num_leaves=63
num_cat=0
split_feature=2 23 8 19 22 3 1 3 9 8 8 3 18 10 5 10 10 7 23 19 10 4 5 10 4 3 20 19 22 19 12 24 3 9 2 1 1 21 19 2 20 4 10 1 4 7 2 5 1 3 10 5 4 22 3 2 1 19 1 18 8 23
split_gain=61.8862 50.4711 43.6063 35.067 30.823 20.1137 17.6775 17.0691 16.9417 16.7374 16.7013 15.9218 17.9185 15.6273 23.1773 24.9798 19.094 28.7172 18.0909 19.6804 14.8211 14.4301 14.2254 14.0746 17.9283 24.1827 13.7921 14.5463 14.8158 13.6221 13.6221 13.4947 15.8807 13.4159 13.1378 26.9344 21.273 12.731 12.4594 12.3631 11.9571 15.5499 18.6128 14.0609 11.9187 11.6471 14.1029 11.8115 11.5379 11.3075 11.275 12.3829 11.4709 13.4102 11.1441 10.9059 14.962 11.0808 10.5628 10.5476 10.1591 10.0387
threshold=-0.1338339471076086 -0.0065119414963775765 2.8731549204390783 0.024687545964263719 0.053013264732662123 -0.065813326954446374 -0.034501281540353076 -0.0022325736731399516 -0.16410762147843747 0.49193201923195401 1.2187875619922257 0.51126705411637829 0.022229618018313527 -0.14691450817292304 -0.25501055958115187 0.050933236261912491 -0.31299492133276402 -0.031966293665683237 -0.0073923761125249199 0.03672517659446823 0.04089273390767488 -0.14457479978270749 0.19687733656205572 0.16956278347227657 0.083687723935393948 -0.01270856612733479 -0.34808074965196395 0.046830422843803642 0.0042686414307657123 0.012703580409377194 0.015670338141434922 -0.0022784435645522541 -0.11045412991656606 -0.0058361586139995649 0.21452275087625039 0.043680314423364765 -0.71414306431873731 0.042530902353870706 0.014641254365033805 -0.15126965231841358 -0.62947500299814041 0.24251159886647536 0.16956278347227657 0.15507461041680834 -0.172029246282531 -0.3427938419612851 -0.15904355113309934 -0.16879435234736864 0.040225323986707452 -0.45011125581894867 -0.13422375997081734 -0.1137016718307529 -0.020495560945639039 -0.0032065257974916426 -0.096245217140116565 -0.4195225999666401 -0.79076272497593814 0.019703069690682456 -0.15058435137859619 0.0055603701530891449 0.25194948385727339 -0.019651590854043447
decision_type=8 8 8 2 10 10 10 10 8 10 10 10 8 8 8 10 10 8 10 2 8 8 10 10 10 8 2 2 10 2 2 8 8 8 10 8 8 10 2 10 2 8 10 8 8 8 10 8 8 8 8 10 10 10 8 10 10 2 10 10 10 10
left_child=2 4 10 9 8 22 29 -7 -2 23 13 12 33 16 15 54 17 -1 45 39 -8 -17 26 50 25 -25 30 28 -28 -4 -5 32 -29 -10 36 -36 -35 55 48 -20 58 -42 49 -44 -18 -16 47 -47 -38 -43 51 52 -3 -54 -15 56 -31 -57 -40 -60 -19 -45
right_child=1 3 6 5 -6 7 20 -9 11 -11 -12 -13 -14 14 18 21 44 60 19 -21 -22 -23 -24 24 -26 -27 27 31 -30 37 -32 -33 -34 34 35 -37 38 -39 40 -41 41 42 43 61 -46 46 -48 -49 -50 -51 -52 -53 53 -55 -56 57 -58 -59 59 -61 -62 -63
leaf_value=0.0041667574871492646 0.0044157096418507187 0.0019313852172216394 -0.00051851451655136199 -0.001586418155842706 -0.0045400769210103328 -0.0046282770251134748 0.00652702715140653 -0.00089142960274851126 -0.0060737296626252532 0.0068067620710090945 0.0073208416014773131 -0.0040391405579754463 0.0028324786682315996 0.0031296908744231837 -0.007059939398962066 0.0028553163836942458 -0.010641900910773912 -0.002089399829091725 0.0014090978942491149 -0.007209744130277293 -0.0012452273158489716 -0.0053831242572798168 -0.0068992872947336546 0.00098657828235423082 -0.0031852654436540398 0.0055289100333667874 0.0011383462400171179 0.0062279147064765459 -0.00056538263548182397 -0.0063939952890816583 0.0033646616393544766 -0.0031981973703593632 -0.00092173910977324993 0.0061198923991530761 -0.0077570008304114939 0.0040823732146304283 -0.0028166965364728029 0.0033463558340429719 -0.0020415772795166938 -0.003872973273361949 -0.0023018194227945707 0.0056621840584899904 0.0095372243506180784 0.0047615569416923319 -0.0032344967374813502 -0.0039752747922324081 -0.0087121282365777292 0.0030255165860950625 0.0010043982299580642 -0.00051724005074631565 0.00062033823907866594 -0.0025461029106342418 0.011780769590502125 0.00095856487897672058 0.011183854252415616 -0.0030434373618095228 0.0015409457097808668 -0.0054975729015743343 -0.0012074863054830831 0.0046817396041025318 -0.0090249745647061914 -0.00081451920136286615
leaf_weight=1901 1772 15897 3637 16158 4734 4208 752 11157 1078 1169 725 3112 4101 703 1390 1751 901 2253 11405 795 3307 762 732 6568 1293 5290 46448 965 17593 881 1519 5050 3962 1181 560 3344 2234 602 25424 1226 10760 747 692 1466 1368 1037 557 1435 17020 72018 214595 1439 657 507 1107 8041 1819 10762 2042 1210 689 1794
leaf_count=1901 1772 15897 3637 16158 4734 4208 752 11157 1078 1169 725 3112 4101 703 1390 1751 901 2253 11405 795 3307 762 732 6568 1293 5290 46448 965 17593 881 1519 5050 3962 1181 560 3344 2234 602 25424 1226 10760 747 692 1466 1368 1037 557 1435 17020 72018 214595 1439 657 507 1107 8041 1819 10762 2042 1210 689 1794
internal_value=5.68555e-06 0.000183962 -0.00151603 0.00051268 -0.000567946 -0.000239977 -0.00287073 -0.00191507 -0.000443018 0.000840593 -0.000170493 -0.000500915 -0.0004253 -0.000356229 0.000298067 0.00358238 -0.00239542 -0.000621711 -0.000497723 0.000415661 0.00019597 0.000356082 3.85067e-05 0.000812242 0.00240363 0.00301326 9.39657e-05 0.000393641 0.000670305 -0.00335428 -0.0011608 -0.00138212 0.000479568 -0.00051969 -0.000477031 0.00238255 -0.000558781 -0.00382081 -0.000617077 0.000896139 -0.00081235 -0.000521883 -0.000272209 0.00306917 -0.0061793 -0.00327227 -0.00153236 8.8276e-05 0.000560922 -0.000453726 0.000722447 0.00190679 0.00228249 0.00707184 0.00805909 -0.00402161 -0.0010496 -0.00444829 -0.00169838 0.000984535 -0.00371619 0.0016937
internal_weight=570302 510496 59806 355207 155289 107792 29801 15365 150555 247415 30005 148783 145671 29280 22168 4323 7112 4843 17845 13426 4059 2513 92427 246246 13151 11858 91695 74018 64041 25742 17677 9977 4927 141570 140492 3904 136588 22105 135407 12631 116153 87477 76717 3952 2269 4419 3029 2472 19254 72765 233095 18500 17061 1164 1810 21503 2700 18803 28676 3252 2942 3260
internal_count=570302 510496 59806 355207 155289 107792 29801 15365 150555 247415 30005 148783 145671 29280 22168 4323 7112 4843 17845 13426 4059 2513 92427 246246 13151 11858 91695 74018 64041 25742 17677 9977 4927 141570 140492 3904 136588 22105 135407 12631 116153 87477 76717 3952 2269 4419 3029 2472 19254 72765 233095 18500 17061 1164 1810 21503 2700 18803 28676 3252 2942 3260
is_linear=0
shrinkage=0.05


Tree=2
num_leaves=63
num_cat=0
split_feature=2 19 8 23 3 22 19 20 8 4 7 21 3 16 23 16 6 3 10 22 6 22 5 1 11 4 21 10 5 10 10 2 6 8 1 8 1 5 16 18 20 5 7 11 10 2 12 2 5 10 6 19 18 3 10 3 6 10 10 4 11 11
split_gain=55.334 46.1048 43.9058 28.9595 25.2776 21.496 20.9398 23.6805 18.85 17.1397 17.3569 15.2629 14.7443 15.4952 14.855 15.9249 14.6956 14.5593 14.3671 17.1876 15.5697 14.3364 13.427 12.8026 18.612 22.505 16.4144 13.8845 16.8511 17.3074 12.3704 12.2703 12.2473 12.0433 11.9849 14.1197 11.7505 11.7469 11.7257 14.3242 11.6115 12.8826 12.5377 11.4918 12.7683 11.3598 11.3529 11.1827 11.1486 11.0245 10.8794 10.5572 10.6723 10.3986 10.3411 15.7251 10.3133 10.2175 10.1998 10.1905 9.97378 9.95545
threshold=-0.14452439744597453 0.024060372852874011 -0.20029254576368774 -0.0063549278361796678 0.55720676861542484 -0.0044504346589983928 0.046830422843803642 -0.18146963381593081 -0.51474842495004347 -0.7216361315171923 2.7820200177803613 0.020959459191953331 -0.089081903663129958 -0.29222138682276694 0.031086213496030093 0.31678546753618791 0.70564547375659836 0.23624198996583132 0.14762766534575314 0.00010237422305017973 0.6547023445030814 0.058877397219836175 -0.56409924800558298 -0.034501281540353076 -0.62873777790501506 -0.32184703138614951 0.0018761024658794411 -0.44549981571536951 -0.15507739995020259 -0.12969926865075129 -0.25037925818873258 -0.27956786434870035 -0.13005204418171998 0.36539785517205031 -0.19790806685202889 0.34620789910111466 0.054007717316017466 -0.51663216337023476 0.064386261768041311 0.008209357904163073 0.32002622114797863 -0.13002534493023435 -0.4500340979286116 0.21257224643137859 -0.018273209035126168 -0.25571011567121832 0.029260025011173019 3.7287914873615078 -0.3027054623276208 -0.055819425951388439 -0.1615109319440087 0.0085446192123638208 0.031803284952150478 0.047799313436241504 1.2649663497905885 0.16102971315680809 -0.43837538604587695 -0.04427749525762989 -0.047619076035209443 -0.067203349232068513 -0.068848868556246057 -0.46413494392902632
decision_type=8 2 10 8 10 8 2 2 8 8 10 10 8 2 10 2 10 10 10 10 8 10 10 10 10 10 10 8 8 10 8 10 8 10 8 10 10 10 2 10 2 8 10 10 10 10 2 8 8 8 8 2 8 8 10 8 8 10 10 10 10 10
left_child=2 3 8 16 5 12 7 36 22 -4 18 46 61 -14 53 -16 21 48 19 40 -21 33 -1 24 31 -26 -25 -27 56 45 -22 37 -6 51 -20 -36 -7 -10 -33 -40 41 42 -11 44 -31 -30 49 -18 -5 -8 -38 -2 -53 -15 -50 -56 -29 -42 -32 -47 -43 -3
right_child=1 4 9 17 32 6 11 -9 23 10 -12 -13 13 14 15 -17 47 -19 34 20 30 -23 -24 26 25 27 -28 28 29 43 58 38 -34 -35 35 -37 50 -39 39 -41 57 60 -44 -45 -46 59 -48 -49 54 -51 -52 52 -54 -55 55 -57 -58 -59 -60 -61 -62 -63
leaf_value=0.006649542974277934 0.0045939452474344526 0.002631425511217692 -0.0045930696513403904 0.0061039409769485554 -0.011479107785908649 -0.0021614473789111164 -0.0086082701116983098 -0.00015304718290692803 -0.0011900626916697761 0.0036299997684079927 -0.0083110231083445996 0.0039058604530756423 0.0022084115679812969 -0.0024449523561875046 -0.0015719225115696696 -0.0090308308209381422 -0.0082085211172454996 0.0028811108851330147 0.0039621671880116218 0.0029662618328421871 -0.0077256390711010134 -0.0054990688500387496 -0.00067805329918870557 0.0024707277481717349 0.0061159457914669157 0.0023063787397694878 -0.0039889007044143724 0.0058367765223384001 -0.013769453017087123 -0.0049575345244020535 0.004795891830180329 -0.004064485663515114 -0.0033022016806041384 0.0071887674230444983 -0.0015724304857667158 -0.010668564310109568 -0.0047909423155368894 -0.0067860688212996751 -0.0089758369920542695 -0.0018065093112102895 0.0051794103279186677 -0.0016088635651948372 0.0094362390405770182 -0.0063531985796737543 0.0036537109430375275 -0.0096742671077178488 0.0013441530779860714 -0.001192692394583258 0.00067755029050991557 -0.0035313105503491458 0.0035531523785607465 -0.0002022206960715332 0.0070157760490880371 0.00040095741020177182 -0.00060832341243829209 0.0097490932763843706 -0.0015710128146635657 -0.0021097035259974388 -0.0019439524469351066 -0.0020272290515164579 0.0065336684805999013 -0.0007404350359893826
leaf_weight=756 1181 9826 1584 959 522 25581 1316 75778 4696 2048 505 700 6593 3611 7701 788 980 8118 706 2700 745 1225 3589 2321 876 1403 1705 618 611 705 693 8954 3698 569 2190 529 506 1171 3046 904 718 1157 1705 1015 1102 869 948 1350 228607 5706 1702 91320 514 28822 691 779 1949 1450 2936 874 556 2816
leaf_count=756 1181 9826 1584 959 522 25581 1316 75778 4696 2048 505 700 6593 3611 7701 788 980 8118 706 2700 745 1225 3589 2321 876 1403 1705 618 611 705 693 8954 3698 569 2190 529 506 1171 3046 904 718 1157 1705 1015 1102 869 948 1350 228607 5706 1702 91320 514 28822 691 779 1949 1450 2936 874 556 2816
internal_value=-3.97171e-06 0.00016077 -0.00147638 0.00050431 -0.000493368 -0.000399766 -0.000808519 -0.000610902 -0.00249655 0.000398503 0.000822949 -0.0031688 0.000362858 -4.09205e-05 -0.000403359 -0.00226529 -0.000223718 0.000800018 0.00107777 0.00175692 -1.87269e-05 -0.000127287 0.000598135 -0.00290626 -0.00327553 -0.00153555 -0.000265218 -0.002269 -0.00309823 -0.00474062 -0.00186157 -0.00420439 -0.00431614 -5.69133e-05 -0.00183838 -0.00334542 -0.00185938 -0.00230794 -0.00506639 -0.00733593 0.00340211 0.00463001 0.0062696 -0.00209877 0.000293155 -0.00790545 -0.00379058 -0.00414581 0.000726882 -0.00448388 0.00163966 -0.000101314 -0.000161745 8.40361e-05 0.000704443 0.0048833 0.000213976 0.000305586 -0.000655934 -0.00584314 0.00103628 0.00188035
internal_weight=570293 512907 57386 336293 176614 172394 112237 103567 37164 20222 18638 8670 60157 47515 40922 8489 97139 239154 18133 14708 7074 94809 4345 32819 28793 10022 4026 9146 7743 5176 4374 18771 4220 93584 3425 2719 27789 5867 12904 3950 7634 5466 3753 2822 1807 2354 7970 2330 231036 7022 2208 93015 91834 32433 230077 1470 2567 2168 3629 1743 1713 12642
internal_count=570293 512907 57386 336293 176614 172394 112237 103567 37164 20222 18638 8670 60157 47515 40922 8489 97139 239154 18133 14708 7074 94809 4345 32819 28793 10022 4026 9146 7743 5176 4374 18771 4220 93584 3425 2719 27789 5867 12904 3950 7634 5466 3753 2822 1807 2354 7970 2330 231036 7022 2208 93015 91834 32433 230077 1470 2567 2168 3629 1743 1713 12642
is_linear=0
shrinkage=0.05


Tree=3
num_leaves=63
num_cat=0
split_feature=19 23 0 3 17 0 2 8 10 16 19 0 10 17 0 6 2 8 10 10 3 22 0 1 3 3 0 1 1 10 1 17 21 3 10 21 2 24 10 16 21 10 20 17 10 20 1 0 1 1 10 21 21 0 0 6 1 10 3 9 3 3
split_gain=49.2942 31.1537 26.495 41.108 23.3861 19.67 19.4523 23.1108 20.4939 18.6301 22.3201 17.5425 19.4145 16.57 16.4711 15.3066 16.9467 18.4097 14.4692 14.346 14.2618 14.2367 17.4265 14.1193 14.9863 14.4754 20.3538 13.056 17.6517 13.3687 15.2939 13.0235 12.9697 12.8178 12.5179 12.5321 12.105 12.0375 13.8499 11.9648 11.5767 11.481 17.1715 13.9079 12.1057 14.5922 12.4599 11.4824 11.4338 13.6691 11.7717 19.0806 16.6332 11.1424 14.4791 11.6241 11.1417 16.2952 13.1779 11.554 10.7229 10.8411
threshold=0.023770138784547305 -0.0063549278361796678 0.078239868489666062 0.08136645166464164 0.22445787249396934 0.3800963864309545 -0.4195225999666401 -0.13434570654003344 0.077245309370547591 -0.21010301155940211 0.041498209185305487 0.035415879167279653 0.018311878452794285 1.3383122647517243 -0.34835456428819672 -0.41584608098479831 -0.1338339471076086 -0.2328884235132313 0.21179866207895184 -0.14330091011155599 -0.12093575900966604 -0.0065802845655575579 -0.38918006411761108 0.24458057626220656 -0.09018522488847118 -0.12734515445944769 2.7385398676925283 0.19027534899733539 0.082158694171649352 0.11200422594249747 -0.18604781699732226 0.20751861561709176 0.0064906240156600388 -0.10727532488328569 -0.14941241070856745 0.012197309650878318 -0.28568651938663814 -0.010639348657303623 0.0094436008321330863 -0.16298181748017412 0.016945678174196312 0.05876376387927338 -0.62947500299814041 -0.25129112960930394 -0.0032853444927007851 -0.5888454476187891 -0.11866706152617852 1.2534299928279318 -0.17751142339505308 -0.10929724815454291 0.0029684145232563835 -0.0030597641225317885 0.011668422840708148 -0.42386598873539588 -0.36631763047217808 0.073047980347928226 -0.18934968287262374 -0.66223400165662316 -0.20348485369982391 0.10689037695959205 -0.083992369402619907 -0.15587917622523564
decision_type=2 8 8 8 2 10 10 10 8 2 2 8 8 2 10 8 8 10 10 10 10 10 8 8 10 8 10 10 10 10 10 2 10 8 8 10 10 10 8 2 10 8 2 2 10 2 8 8 10 10 10 10 10 10 10 10 10 10 8 10 10 10
left_child=1 11 3 6 5 15 21 8 14 32 18 -1 -13 -5 -8 -3 17 -17 41 36 -10 -2 -23 -7 25 -25 -27 28 29 39 -31 -14 -4 -12 35 53 -19 -36 -39 -24 -9 44 43 -43 45 46 -11 -48 50 -50 52 -52 -41 -18 -55 -56 58 -58 -6 -59 61 -51
right_child=2 4 9 13 56 23 7 40 20 10 33 12 31 -15 -16 16 34 19 -20 -21 -22 22 27 24 -26 26 -28 -29 -30 30 -32 -33 -34 -35 37 -37 -38 38 -40 48 -42 42 -44 -45 -46 -47 47 -49 49 60 51 -53 -54 54 55 -57 57 59 -60 -61 -62 -63
leaf_value=-0.0015620901792164461 0.0013345611539024231 0.0025134199808748638 0.0018093240162316304 -0.0033531898233346113 -0.0045008326131705835 0.0049916241419292497 -0.0024347373080296406 0.00073604128839983385 0.0041378247608487712 -0.0020105107821003156 0.0034139176316328548 0.0019239887786110322 -0.00076985482884810641 -0.010994189420467475 -0.0077527280166372744 -0.0020803716423110027 0.0038495036305994652 0.002672561400599514 0.0029699304078338691 0.0020103861926474499 -0.0047212810619366354 0.0015989398794656253 -0.0059254711677066392 0.00012718685550113166 -0.00047858134741763302 0.0074079936523866229 -8.7493407361926537e-05 -0.00877252474199057 0.0044964731510978503 -0.0003412223267785225 0.0086174082714449794 0.00078254786140206304 -0.0015946134713589006 -0.0028852490225835196 -0.0011338114039496487 0.0086333998255921363 -0.006047061486733259 -0.00081095455706505957 0.00058367350073942708 -0.00095218667935309054 -0.0069663320339027768 -0.0051406405649157237 -0.00028029459532864082 -0.0012962335100625642 0.0035518072478766989 -0.00051971027610105461 0.0028650215069118547 0.012921913020769924 -0.010142485898329586 -0.0042429919459692263 0.00053034934749388518 -0.0078268978008758476 0.0059074086978862152 -0.0061967067921758854 0.0023485794797717049 -0.0028687614672901992 -0.0051414540248544546 0.0015220557830722202 0.0022744655933245122 -0.0060390742766327004 -0.0070730720725293433 0.0060529814878324175
leaf_weight=24705 10945 7440 15796 14606 733 3348 2474 5231 1085 504 866 10895 49790 745 3542 15291 3545 602 3410 6224 780 5832 2031 2701 5983 2660 1373 598 1239 3439 552 18540 3400 11815 14125 667 1171 20626 129989 6296 537 3203 72598 8857 3387 10450 628 518 811 502 1308 1428 1027 741 4824 1370 1254 7268 32476 542 690 519
leaf_count=24705 10945 7440 15796 14606 733 3348 2474 5231 1085 504 866 10895 49790 745 3542 15291 3545 602 3410 6224 780 5832 2031 2701 5983 2660 1373 598 1239 3439 552 18540 3400 11815 14125 667 1171 20626 129989 6296 537 3203 72598 8857 3387 10450 628 518 811 502 1308 1428 1027 741 4824 1370 1254 7268 32476 542 690 519
internal_value=-8.80618e-06 0.000334816 -0.000637404 -0.00145705 0.000622599 0.000417925 -0.000772626 -0.00238714 -0.00414711 -0.000236646 -0.000474963 -0.00039884 -3.60846e-05 -0.00372471 -0.00556654 0.000286883 0.000203701 -0.00106376 -0.000232493 0.000880102 0.000432131 -0.000180469 -0.000811663 0.00210315 0.00134237 0.00296008 0.00485683 -0.00149951 -0.00127988 -0.00166482 0.000899705 -0.000348636 0.00120637 -0.00245484 0.000371522 0.00199303 -0.00308658 0.000261792 0.000392682 -0.00236529 1.78682e-05 -0.000341566 -0.000570545 -0.00231761 0.000910078 0.00017038 0.00453862 0.00741811 -0.00179013 -0.00479979 -0.00103514 -0.00383281 1.04993e-05 0.00156962 0.000403816 0.00119432 0.00170072 0.000146948 0.00212479 0.000996621 -0.00226295 0.000991512
internal_weight=570532 368883 201649 66217 264953 222680 50866 13649 7881 135432 116236 103930 79225 15351 6016 206615 199175 23288 103555 7997 1865 37217 26272 16065 12717 6734 4033 20440 19842 18603 3991 68330 19196 12681 175887 11147 1773 164740 150615 14612 5768 100145 84658 12060 15487 12100 1650 1146 12581 2522 10059 2736 7323 10480 6935 6194 42273 9064 33209 7810 1711 1021
internal_count=570532 368883 201649 66217 264953 222680 50866 13649 7881 135432 116236 103930 79225 15351 6016 206615 199175 23288 103555 7997 1865 37217 26272 16065 12717 6734 4033 20440 19842 18603 3991 68330 19196 12681 175887 11147 1773 164740 150615 14612 5768 100145 84658 12060 15487 12100 1650 1146 12581 2522 10059 2736 7323 10480 6935 6194 42273 9064 33209 7810 1711 1021
is_linear=0
shrinkage=0.05


Tree=4
num_leaves=63
num_cat=0
split_feature=19 2 25 11 17 0 19 16 5 4 21 21 0 2 2 2 17 3 3 0 10 10 11 4 3 16 20 17 2 4 12 10 9 11 10 17 4 3 3 10 19 20 3 0 10 19 10 2 17 10 2 24 12 24 21 5 4 2 9 16 0 10
split_gain=46.4597 34.8488 28.5759 25.9097 20.8945 18.7386 18.7306 17.1717 16.5735 16.5179 15.852 15.7714 17.6192 15.0161 13.9757 13.5706 13.5334 13.2381 12.0022 22.5646 17.5353 14.0134 15.9401 13.9616 12.4055 11.8651 16.8805 12.3847 16.0495 14.479 12.249 16.5219 11.7756 11.6256 11.6181 11.9631 11.3285 11.2722 11.1944 11.0609 11.2728 10.976 10.8845 10.8772 11.2113 10.45 10.1111 11.1045 13.2331 9.74996 9.68466 9.66634 9.65132 9.5804 9.566 9.05004 9.04726 14.5193 22.5327 8.87145 8.80374 15.4045
threshold=0.019320886899955272 -0.1338339471076086 -0.0019457281621160271 -1.0443632603468951 0.22445787249396934 0.3800963864309545 0.046830422843803642 -0.30272371459601249 -0.25501055958115187 0.30992136186545899 0.0045109659617383439 -0.0054243768308781639 -0.33732178347650427 -0.40994084261397357 -0.35704736836043049 -0.49396620542396957 -0.4094711090400745 -0.0060137135389894845 -0.089594115690487322 0.087469334513110841 0.13320694124140553 0.089627164214346314 -0.95126529389093806 -0.029948556410596485 0.047799313436241504 -0.2145086069244849 -0.55779653853714917 0.29937412317035489 0.28881925218322763 0.2039886912668207 0.006922100982072246 0.0029684145232563835 0.19566992384615095 -0.35681730033336861 -0.05168585999151773 0.73588569335043064 0.19224554120649967 -0.18697955778239839 0.093886403451814343 0.32991110206498325 0.040726376891097517 0.091310937117630206 -0.074436492289870745 0.10709485948438539 0.84531061867208512 0.011002801959953819 -0.43048558164093342 -0.39236871763877473 0.13358317276185253 0.98872646956588983 -0.099070097362813317 -0.0029789704521214302 0.0093046843942682107 -0.018968346197146418 0.00035224448207705827 -0.19760837594369149 -0.14982890247096217 -0.26841566773976627 0.01891479266178785 0.12432063210751744 0.035415879167279653 0.057812706669162092
decision_type=2 8 10 10 2 10 2 2 8 10 10 10 8 10 10 10 2 10 8 8 10 10 8 8 10 2 2 2 8 8 2 10 8 10 10 2 10 10 10 10 2 2 8 8 10 2 8 10 2 8 8 10 2 8 10 8 8 8 10 2 8 8
left_child=4 3 16 17 5 9 18 -8 13 11 33 12 32 -5 15 -10 59 46 52 23 21 22 -21 24 -20 26 -24 28 -27 -29 -31 -32 -1 42 35 -16 -36 54 53 40 60 -23 -9 44 -41 -13 -2 48 -48 -12 -25 -14 -4 -30 -15 -49 -47 58 -58 -3 -18 -62
right_child=1 2 6 8 -6 -7 7 10 14 -11 49 45 51 37 34 -17 39 -19 19 20 -22 41 25 50 -26 27 -28 29 38 30 31 -33 -34 -35 36 -37 -38 -39 -40 43 -42 -43 -44 -45 -46 56 47 55 -50 -51 -52 -53 -54 -55 -56 -57 57 -59 -60 -61 61 -63
leaf_value=0.0029174713986016955 -0.0079678390720430581 -0.0020545931543372287 -3.1424696224725776e-05 0.0090133771080586327 0.0015799633070831031 0.0019734915924570044 0.00157324467909386 0.0002656621602695291 -0.0013585843447897887 -0.0040309078947106548 0.0051912293435148662 0.00099713374637104687 1.9592953737782135e-05 0.0058372444561670895 -0.0017703602491328113 -0.011500604735498091 -0.001506946776798984 0.0023313020423006686 -0.0071755497656155161 0.0085512656234936306 0.0038872880922213534 1.3450619592490551e-05 -0.0024272380888461721 -0.0077280182414191829 0.0016132127512241913 0.0057165349801785968 0.0022966837769310112 -0.0044549633490667609 -0.003246471551433839 0.0029407479918819625 0.00026230061368977048 0.0088487967276754311 -0.0030629268705171988 -0.0095484707510480899 0.0019214032616961972 -0.0098583396943378102 -0.0045838050540814466 -0.0026928025078035754 0.003333870105848815 0.002216290799455511 -0.0025923020965473312 -0.005524742863742136 -0.0044901207225560881 0.0045251742701222569 -0.0060007738532102473 0.0013036847628571351 -0.0024024882097604919 -0.0086068092667794128 0.0063684603193756061 -0.0025387187385670917 -0.00077314594113051601 0.0016719488992152937 0.001830249175432507 -0.00036554993765656275 -0.00075590830208088246 -0.003597968452721056 -0.0053876877382191086 -0.00024281541625792059 0.0045760767282920578 -0.006438590378246194 0.0013910064729651067 -0.00067848491191913247
leaf_weight=1034 1325 5337 10556 661 38367 15706 2852 1650 665 2302 858 20474 11748 1287 4750 654 22917 935 1745 591 3446 1754 2211 515 521 1094 13041 1160 3041 7567 17286 578 4022 818 4043 505 801 1400 1952 1101 8100 1825 4440 1967 665 8962 1741 991 570 776 16737 35893 20445 56198 960 9998 2927 107905 703 1472 10475 63482
leaf_count=1034 1325 5337 10556 661 38367 15706 2852 1650 665 2302 858 20474 11748 1287 4750 654 22917 935 1745 591 3446 1754 2211 515 521 1094 13041 1160 3041 7567 17286 578 4022 818 4043 505 801 1400 1952 1101 8100 1825 4440 1967 665 8962 1741 991 570 776 16737 35893 20445 56198 960 9998 2927 107905 703 1472 10475 63482
internal_value=-4.41101e-06 -0.000402977 -0.00023147 -0.00198814 0.000506397 0.000311803 0.000173914 -0.00178561 -0.000556806 0.000178617 -0.00290712 0.000228673 0.000966651 0.00208544 -0.00155382 -0.00639221 -0.000840886 -0.00343461 0.000311521 0.000102536 0.000376519 0.000264773 0.000369931 -0.00146601 -0.00515501 0.000323415 0.00161177 0.000102305 -0.000283349 0.00100561 0.00125485 0.000540601 -0.00183954 -0.00395458 -0.000921323 -0.00254933 0.000844983 0.000827666 -0.000390709 -0.000705423 -0.000800538 -0.00281133 -0.00320178 0.00196877 -0.000879549 -4.7198e-05 -0.00380337 -0.00338792 -0.000237346 0.00152091 -0.000981196 0.0012645 0.00119636 -0.000513493 0.00302133 -0.00405041 -0.00022465 -0.000347465 -0.00345734 -0.00300315 -0.000650697 -0.000385355
internal_weight=570502 320459 289173 31286 250043 211676 173657 11394 15726 195970 8542 193668 52697 4308 11418 1319 115516 15560 162263 131262 111744 108298 104719 19518 2266 104128 15252 88876 62285 26591 25431 17864 5056 6908 10099 5255 4844 3647 61191 108707 104974 3579 6090 3733 1766 140971 14625 13300 2311 1634 17252 47641 31001 59239 2247 10989 120497 111535 3630 6809 96874 73957
internal_count=570502 320459 289173 31286 250043 211676 173657 11394 15726 195970 8542 193668 52697 4308 11418 1319 115516 15560 162263 131262 111744 108298 104719 19518 2266 104128 15252 88876 62285 26591 25431 17864 5056 6908 10099 5255 4844 3647 61191 108707 104974 3579 6090 3733 1766 140971 14625 13300 2311 1634 17252 47641 31001 59239 2247 10989 120497 111535 3630 6809 96874 73957
is_linear=0
shrinkage=0.05


Tree=5
num_leaves=63
num_cat=0
split_feature=22 2 23 0 9 17 10 7 16 5 0 12 3 19 10 17 11 11 10 19 12 16 19 16 3 19 17 0 1 2 11 0 17 19 24 20 17 10 10 20 11 11 2 0 11 22 7 5 11 5 10 3 3 2 10 11 1 0 17 1 3 0
split_gain=41.7021 41.5609 31.2492 31.8784 30.2525 26.4888 25.9118 24.3318 32.7715 27.1466 30.3717 22.5887 21.151 19.5807 19.39 21.7739 19.157 15.1252 26.9097 14.1268 17.5224 25.7105 16.0511 15.6621 16.6303 17.0797 14.4896 19.9571 13.8375 13.7685 19.1178 19.7015 14.2193 22.3079 13.291 13.0469 12.3458 12.2277 11.9524 11.8222 11.7698 11.5023 11.1538 11.7117 11.5972 12.7818 18.5765 13.4108 11.7442 11.1586 12.3159 11.1311 16.8241 14.172 13.7778 12.7297 15.4796 21.8 19.1327 16.5128 15.0658 14.9505
threshold=0.053013264732662123 -0.14452439744597453 0.0003220159113483839 0.023419821268100459 2.948446651639193 -0.41776718972437993 0.32991110206498325 -0.40146104510709169 0.96612473426544776 0.19687733656205572 0.2804293636242578 0.014131773829452637 0.51126705411637829 0.014641254365033805 0.050933236261912491 1.457789162057455 0.40017835311910188 0.49434734381392592 -0.066294222684736684 0.026322159106757875 0.007661585287379629 0.30629379733941936 0.012488818144943204 -0.23850339251875205 -0.089081903663129958 0.045469177030982681 0.25896749056765916 -0.30821247143730995 -0.13511956086538801 -0.073160585589701066 0.33414382677547677 0.79166577996701415 0.23040882244104569 0.037196306524220978 -0.0014836272608997913 -1.238725047249186 0.27229803538506986 0.090155092242827126 0.17308147279315575 0.49585450754917076 0.29002663569197018 -0.27069646400625008 -0.15202969248850867 -0.38575074198589027 -1.0443632603468951 0.00010237422305017973 -0.51712658820759516 -0.13002534493023435 0.10161729688401629 -0.12249643499606765 -0.14330091011155599 -0.13451678042063672 -0.14083372689113363 -1.0027598756957299 -0.43048558164093342 -0.56576685403523819 -0.11714988031659977 -0.12528017610651912 -0.17576280704451505 -0.17431652286834642 -0.047030153937628716 -0.42664844731029866
decision_type=10 8 8 8 8 2 10 8 2 10 8 2 10 2 8 2 8 10 10 2 2 2 2 2 8 2 2 10 10 8 8 10 2 2 8 2 2 10 10 2 8 10 10 8 8 10 10 8 8 8 10 8 10 10 10 10 10 10 2 10 10 10
left_child=1 4 3 12 42 11 13 37 9 19 -11 -5 17 -7 16 29 -15 -3 -19 20 21 22 -9 39 -25 -26 27 34 -8 -16 31 36 -32 -34 -24 -6 -31 -4 -22 -21 -29 -40 43 -1 -45 46 -46 -48 49 50 -47 52 54 -53 -37 56 59 -58 -59 61 -57 -55
right_child=-2 2 7 5 35 6 28 8 -10 10 -12 -13 -14 14 15 -17 -18 18 -20 23 38 -23 26 24 25 -27 -28 40 -30 30 32 -33 33 -35 -36 51 -38 -39 41 -41 -42 -43 -44 44 45 48 47 -49 -50 -51 -52 53 -54 55 -56 60 57 58 -60 -61 -62 -63
leaf_value=-0.0021086230012544818 -0.00389013441453605 -0.00084100934817068454 0.012636103939572383 -0.0059077802846815523 1.4942988747855428e-05 0.0011101432592718248 0.0007813286927668959 0.0017199763622166863 -0.0094186344253343185 0.00080893351908909177 -0.011432098022259187 0.0046535927591859162 -0.0057499758906820178 -0.00060521211923929969 0.0055040486032369154 0.0035028359332912179 0.002354480591144265 -0.009609634672349654 0.0010839967284506809 -0.00072655866471990236 0.0011903705939721656 0.0098543385579832835 -0.0018618496706433358 0.0012522140553928507 -0.00049558756975947563 -0.0036987425176222425 0.0016770345134006449 -0.0017491544747438295 0.0061685949228422812 -0.0040114537233766475 -0.00076727722729274216 0.0032353962774251117 0.00073102010843255967 -0.0033008452069535378 -2.0542563203863267e-05 0.0022067877399936857 -0.011617856002247932 0.0033694904492771963 0.004815455572293406 0.0024270302552235803 0.0021902143119358307 -0.00023493949950136538 -0.0047542406087679664 -0.0029663787181371834 0.00027394170257896634 -0.0065426302094541214 0.006928056284655113 0.0016847179616844617 -0.0024579194032690157 0.0051005803312016585 0.0010180298911849177 0.0060610582649330081 -0.0093917899346641458 -0.0085982849183379433 -0.0046121786303745336 0.00052963020749289007 0.0040441753682510136 0.0018653724131499261 -0.0081004185622914893 -0.011412961838792849 -0.0079236795681163208 -0.0028139649210276296
leaf_weight=4678 6764 51418 580 3006 4836 38623 2126 14507 817 1040 987 608 2473 8963 956 3536 14016 1338 1049 4226 92581 699 20945 11862 34060 4740 9342 2395 2713 2726 87381 796 37323 3777 18418 934 663 922 4371 10010 9089 1519 1204 2018 5792 635 2588 2307 3851 1344 3517 502 1449 1339 3570 4741 1497 825 1155 775 592 6730
leaf_count=4678 6764 51418 580 3006 4836 38623 2126 14507 817 1040 987 608 2473 8963 956 3536 14016 1338 1049 4226 92581 699 20945 11862 34060 4740 9342 2395 2713 2726 87381 796 37323 3777 18418 934 663 922 4371 10010 9089 1519 1204 2018 5792 635 2588 2307 3851 1344 3517 502 1449 1339 3570 4741 1497 825 1155 775 592 6730
internal_value=1.21916e-05 5.90418e-05 0.000202928 -0.000174275 -0.00122248 0.00011234 0.000187667 0.000611752 0.000572297 0.000606235 -0.00515425 -0.0041302 -0.00122956 9.96454e-05 -0.000144079 -0.000369281 0.00120007 -0.00102169 -0.00491169 0.00065516 0.000890131 0.000316481 0.000227095 2.56538e-05 -0.000386099 -0.000886986 -0.000132747 -0.000465281 0.00380237 -0.000471773 -0.000514876 -0.00384015 -0.000406533 0.000360429 -0.00100032 -0.00235525 -0.0055025 0.00695384 0.00132934 0.00149089 0.00136857 0.00351317 -4.86674e-05 0.000163456 0.000645517 0.00100947 0.0021905 0.00445773 -0.000340962 0.00114255 -0.000139582 -0.00283067 -0.00470689 -0.00221527 -0.00319795 -0.00245094 -0.0033342 -0.000507508 -0.00394916 -0.00444533 -0.000410055 -0.00377478
internal_weight=570244 563480 506601 263491 56879 207213 203599 243110 241608 240791 2027 3614 56278 198760 160137 137158 22979 53805 2387 238764 173866 75395 74696 64898 50662 38800 60189 50847 4839 133622 132666 4185 128481 41100 39363 28945 3389 1502 98471 14236 11484 5890 27934 26730 22052 20034 10687 4895 9347 5496 4152 24109 5953 18156 4504 17654 12321 3477 1980 8844 5333 8069
internal_count=570244 563480 506601 263491 56879 207213 203599 243110 241608 240791 2027 3614 56278 198760 160137 137158 22979 53805 2387 238764 173866 75395 74696 64898 50662 38800 60189 50847 4839 133622 132666 4185 128481 41100 39363 28945 3389 1502 98471 14236 11484 5890 27934 26730 22052 20034 10687 4895 9347 5496 4152 24109 5953 18156 4504 17654 12321 3477 1980 8844 5333 8069
is_linear=0
shrinkage=0.05


Tree=6
num_leaves=63
num_cat=0
split_feature=0 8 2 17 3 11 4 10 0 25 0 0 10 0 10 10 6 1 21 6 21 3 10 10 11 11 6 6 0 0 17 3 2 3 17 20 16 20 24 17 1 17 3 10 3 10 1 10 16 8 2 10 11 10 10 4 3 1 11 6 3 6
split_gain=37.049 34.163 35.9787 24.1859 23.8809 23.2141 21.7471 21.1768 20.8287 20.3223 19.0836 17.7416 21.1911 17.7016 18.2498 17.3629 16.934 16.7786 16.377 15.7777 16.7291 15.2611 20.0232 18.7899 15.0643 19.0796 16.3617 14.9012 17.191 29.7556 15.8712 14.8683 16.9258 14.753 14.499 14.4124 14.3976 17.0859 15.6422 16.8041 14.8944 19.9915 14.2458 21.607 18.5415 21.2518 16.2515 15.6654 14.2677 14.1846 14.1047 13.9297 13.8229 14.449 13.6247 13.6048 16.9356 13.479 13.1604 15.3999 12.9719 21.6013
threshold=0.013875723465227091 0.019444827780527894 -0.67201436914868629 1.8200685595051793 -0.089594115690487322 -0.21062642336103635 0.3964112476922933 0.05876376387927338 -0.026601115738115931 -0.0034976933035953677 0.83400749110109063 -1.1403342524862676 -0.035012103442307603 -0.14257014697170375 -0.035012103442307603 0.13320694124140553 -0.41129557048061643 -0.029493799406170997 -0.078599372255166763 -0.66854666009255992 0.0055999898506776946 -0.33113009198136828 -0.41402897038376169 -0.31299492133276402 0.21836754673574088 0.4167287829364581 -0.94018924881744281 0.11399788105219595 0.21191727837969074 0.17588833659746003 0.91325870702809853 -0.13615991971961464 -0.22626322808955035 -0.1027282769608522 -0.16488481582778844 -0.53685968487341085 -0.29222138682276694 -0.47981075832149672 -0.010639348657303623 -0.47007168565890184 0.37591864960699023 -0.0065049615347979586 0.47318538282860395 -0.068677664495471746 0.0084661909273702728 0.090155092242827126 -0.41593908354384596 -0.022936353893951017 -0.090438140647029638 0.16000015204895246 1.0000000180025095e-35 0.026095999896493419 -0.15875172188279393 -0.70461215487905282 -0.062365492912149496 0.21395002511254671 -0.11302313326886064 -0.48955874386743264 0.40017835311910188 -0.057101007016799883 -0.081225833695516739 -0.0018810885969139616
decision_type=8 10 10 2 8 10 10 8 10 10 10 8 10 8 8 10 8 10 8 10 10 10 10 10 10 10 8 10 8 10 2 8 8 8 2 2 2 2 10 2 8 2 8 10 10 10 10 10 2 10 10 10 10 10 10 10 8 8 8 10 8 10
left_child=1 2 3 4 6 13 11 10 21 58 27 12 54 42 -15 18 19 -16 -11 -4 -21 -3 -23 -24 26 -26 -13 28 29 -2 31 -30 -33 -5 -12 -32 37 -20 -38 -40 41 -41 43 46 -45 -46 -6 48 -44 -25 -29 -49 53 -36 -1 56 -17 -18 -9 -60 61 -59
right_child=7 8 16 33 5 -7 -8 9 -10 15 34 24 -14 14 17 55 57 -19 36 20 -22 22 23 49 25 -27 -28 50 30 -31 35 32 -34 -35 52 -37 38 -39 39 40 -42 -43 47 44 45 -47 -48 51 -50 -51 -52 -53 -54 -55 -56 -57 -58 60 59 -61 -62 -63
leaf_value=0.0027438649468001647 0.001665985832362308 -0.0029464559450643893 -0.0032305687429138269 -0.001119097578658084 0.00220751280120943 -0.0041611628934729306 0.008846284163064903 -0.0031692194884306076 0.0086271648278175381 -0.005698363580515925 0.0060804300684897004 0.0089039435690541398 0.0087512914557644119 -0.0042382497265512692 0.00040711427095186818 -0.0015682061541651131 -0.01006646661796385 -0.0058131065560522166 -0.003969631562302847 0.0057991008688393318 -0.0031353847266786155 -0.0048748296660722197 0.011506003415169134 0.0038093538521056939 -0.010365922006022743 -0.00034867746605371334 5.4881994752832358e-05 -0.00043663092683606419 -0.0038897713649299506 0.0099032801561795523 0.001619297243922821 -0.0023302582104364703 0.0011384994443749124 -0.0099798124914006314 -0.0046231931728517757 -0.0082864479664275844 -0.00098439965678608879 0.0031141090592147996 -0.0027303369582226842 0.00028913181511900954 0.00050788040774330835 -0.0033471457948928184 0.00064229923565878842 -0.0031100216495553697 -0.0018083090387594853 0.0082051341161309167 0.0088238104374007975 0.0075131048619765141 -0.0049578304304241996 0.00031119056520611437 -0.006856339690326967 -0.00023033842708530643 -0.0015247807653204024 0.0035728216044903006 -0.0064868671621236846 -0.0022615026483204345 0.0033391646836474394 -0.0045379319095306707 -0.00046303604303162883 0.0081657947331964711 -0.0012746089640570284 -0.0010083609537462946
leaf_weight=1889 12928 2094 1542 848 3854 5910 739 4548 955 1168 2649 527 1284 5927 6793 2101 603 1289 963 1789 740 1083 520 5053 782 1210 48937 3141 1806 1197 585 3949 32065 1053 582 984 26398 7284 4444 10048 181205 6058 1704 3264 1129 997 1222 684 3418 6793 1175 3817 2253 6947 506 1668 10755 12760 92027 519 12557 6566
leaf_count=1889 12928 2094 1542 848 3854 5910 739 4548 955 1168 2649 527 1284 5927 6793 2101 603 1289 963 1789 740 1083 520 5053 782 1210 48937 3141 1806 1197 585 3949 32065 1053 582 984 26398 7284 4444 10048 181205 6058 1704 3264 1129 997 1222 684 3418 6793 1175 3817 2253 6947 506 1668 10755 12760 92027 519 12557 6566
internal_value=-1.13058e-05 -0.000683344 -0.000947042 -0.000446717 -0.000335961 -0.00126846 0.000331759 0.000230368 0.00146383 7.10025e-05 0.00102238 0.000217477 0.00357132 -0.000766984 -0.00213114 0.000307728 -0.00228527 -0.000585547 0.000205123 0.000754495 0.00318461 0.00102317 0.00164141 0.00221245 -2.23812e-05 -0.00428438 0.00014934 0.000640301 0.000868246 0.00236469 0.00033157 0.000536046 0.00075809 -0.00602988 0.00279962 -0.00459442 0.000234314 0.00228656 0.000160123 0.000309878 0.000378366 -0.00107872 0.000184367 0.00146103 -0.000743626 0.0028892 0.00380175 -0.00120414 -0.003095 0.00180355 -0.00218553 0.000947811 0.00191064 0.00293873 0.000791763 0.0019859 0.00253711 -0.00266621 -0.000543621 -0.000414558 -0.00252594 -0.00333888
internal_weight=570285 150838 134340 97783 95882 40008 55874 419447 16498 349186 70261 55135 3679 34098 14009 252092 36557 8082 237568 4071 2529 15543 13449 12366 51456 1992 49464 57830 53514 14125 39389 37820 36014 1901 12431 1569 236400 8247 228153 201755 197311 16106 20089 10466 5390 2126 5076 9623 5122 11846 4316 4501 9782 7529 2395 14524 12856 32486 97094 92546 31883 19326
internal_count=570285 150838 134340 97783 95882 40008 55874 419447 16498 349186 70261 55135 3679 34098 14009 252092 36557 8082 237568 4071 2529 15543 13449 12366 51456 1992 49464 57830 53514 14125 39389 37820 36014 1901 12431 1569 236400 8247 228153 201755 197311 16106 20089 10466 5390 2126 5076 9623 5122 11846 4316 4501 9782 7529 2395 14524 12856 32486 97094 92546 31883 19326
is_linear=0
shrinkage=0.05


Tree=7
num_leaves=63
num_cat=0
split_feature=23 19 22 3 16 1 5 1 1 3 12 3 17 20 5 6 8 6 6 4 6 4 3 17 3 17 6 23 8 1 4 4 1 4 6 1 9 19 20 8 4 1 17 4 12 1 3 4 19 20 17 3 16 23 16 19 6 6 4 18 17 3
split_gain=38.5138 32.1228 24.487 23.4756 26.704 25.332 20.7169 16.8922 27.8739 16.0884 16.6577 15.9369 15.1088 23.4465 14.7994 19.9026 13.0767 17.3658 21.4242 17.1448 16.1027 23.7727 17.0027 16.7886 15.8017 18.7161 14.7993 14.5852 14.5563 14.5285 13.6083 13.4953 17.5476 19.877 13.6809 12.8711 12.6197 12.2116 12.1715 12.1692 12.0109 11.8071 11.2558 11.254 11.2496 11.4214 20.7542 18.312 12.0364 12.9656 15.9895 13.669 13.7596 11.1966 10.7668 10.7238 10.717 17.4223 16.0573 10.6802 10.4572 10.3276
threshold=-0.0065119414963775765 0.040020929952073875 0.053013264732662123 -0.14254619817648456 0.19262284089558004 -0.35801467355980238 -0.69987838986095929 0.095298061116602245 0.12962290953630004 0.47318538282860395 0.01163395878555562 0.81219775590139365 -0.15675900053982775 -0.55779653853714917 0.18255647505909581 0.28522129559407788 0.080557647093694576 0.38440280689101486 0.98958575415189487 0.1722621057250108 -0.43837538604587695 -0.11092559017285042 0.21436909322224035 0.23040882244104569 -0.1801331234285832 0.68511813166022206 -0.64670258576866313 0.0019740661231826256 -0.0028923754690293457 -0.059202700668253831 -0.12348250408301445 -0.13715279093090388 -0.45297815191364493 -0.15928640670280317 -0.37668531654479598 -0.16974414684121811 -0.16685009987139196 0.066728173534808172 0.80993331881676778 0.4072675602538704 -0.043268738489426188 0.075593844250383221 -0.50346994798690037 0.026085841654304848 0.013823013353770572 0.10869069320619114 -0.09018522488847118 -0.31336578004993859 0.0128119559490367 -0.39841092886061891 -0.47007168565890184 -0.083992369402619907 -0.21010301155940211 0.0055925388104418059 -0.076508289441760399 0.014641254365033805 -0.54659922285867357 -0.47737169803459339 -0.12576136171269003 0.001491633842688787 -0.30882904404933809 -0.085555946689571158
decision_type=8 2 10 8 2 10 8 8 8 10 2 8 2 2 10 8 10 8 8 10 10 8 10 2 8 2 10 10 10 10 10 10 10 10 10 8 10 2 2 10 8 10 2 10 2 10 8 10 2 2 2 10 2 10 2 2 10 10 10 10 2 8
left_child=2 14 6 59 5 38 -1 9 11 10 41 -9 13 -10 16 -16 20 19 -19 -18 22 28 23 26 25 -25 35 -20 30 -24 31 32 -22 34 -34 -2 -26 -6 -5 -17 -23 -8 -15 -7 45 48 -47 -48 54 50 -50 52 -51 -46 -37 -14 58 -58 -28 -3 -42 -12
right_child=1 3 -4 4 37 43 7 8 12 -11 61 -13 55 42 15 39 17 18 27 -21 21 40 29 24 36 -27 56 -29 -30 -31 -32 -33 33 -35 -36 44 -38 -39 -40 -41 60 -43 -44 -45 53 46 47 -49 49 51 -52 -53 -54 -55 -56 -57 57 -59 -60 -61 -62 -63
leaf_value=0.0090451074413444212 -0.0011465051140677205 0.00098251061554102876 -0.0040274820450188166 -0.0024802165869669589 -0.0038780818177003638 -0.0071923269592375693 -0.0017794266615737569 0.0019915257779905379 -0.0033293754543579205 -0.0098036383824124107 0.003232309563581089 0.011884419136696675 0.0010939605645084534 -0.0074857798233091818 0.0020592586822217895 -0.0063337761508354936 0.003076936729615913 -0.0082772809161831152 -0.00086396770409582168 0.01169787292967317 0.0061141588791281502 -0.0042818970199847315 0.001797659662175525 2.8066696524269822e-05 0.0013739560548967065 -0.011080010239651748 0.0095155290501466924 0.0025449183318660296 0.0090620848703564672 0.0076572315724839123 0.006668529479747433 -0.0046032766706382245 -0.0071058298569185779 0.004928909256303818 -0.00025205289270861515 -0.00032576695775218047 -0.0053235066379028056 -0.0096616716049936005 0.00087620845914558902 0.0017556413482674458 -0.0052143889360774208 -0.00771226586651541 5.2814789728167368e-05 -0.00028381178199463687 0.00019776713450691741 0.0075273111588519933 0.0033729854092606781 -0.0019872752702753335 -0.0038430911771765368 0.0021293726743059588 -0.00040793960513353883 -0.0021570945315498198 0.00022814253169715383 0.0025125525455345216 0.0016264919457642257 -0.00032516184441179382 -0.0018451436532238314 0.0058878277442360773 0.0015153601652897588 0.0079706932516081241 -0.00077749406412326182 -0.00085765146179950496
leaf_weight=564 17382 2512 5108 3832 4079 2110 24858 978 10180 581 2691 697 15620 512 1622 2455 4490 622 5153 661 1301 3994 8888 1179 58114 558 1153 8021 504 1200 836 1377 778 1805 11146 10662 711 1176 9145 573 1468 867 14230 818 10313 1405 3340 3045 3549 11101 74027 5162 66637 10586 20916 90064 2114 1110 1375 698 13843 3617
leaf_count=564 17382 2512 5108 3832 4079 2110 24858 978 10180 581 2691 697 15620 512 1622 2455 4490 622 5153 661 1301 3994 8888 1179 58114 558 1153 8021 504 1200 836 1377 778 1805 11146 10662 711 1176 9145 573 1468 867 14230 818 10313 1405 3340 3045 3549 11101 74027 5162 66637 10586 20916 90064 2114 1110 1375 698 13843 3617
internal_value=1.08084e-05 0.000279319 -0.000618165 -0.00147971 -0.00208415 -0.00106301 -0.00051289 -0.000545636 -0.000294348 -0.00156481 -0.00141508 0.00611279 -0.000376564 -0.00148397 0.000393583 -0.00240934 0.000428765 0.00170827 0.000783192 0.00418527 0.000359807 -0.000626076 0.000475948 0.000409024 0.00115411 -0.00354465 0.000223992 0.00121157 0.000694826 0.00249536 0.000449746 0.000132487 0.00056664 4.05342e-05 -0.000699797 0.00016345 0.00129292 -0.00517397 -0.000115031 -0.00480291 -0.00184035 -0.00197967 -0.000209496 -0.00526304 0.000266605 0.000151173 0.00202789 0.000816772 7.50406e-05 -0.000100549 -0.000565141 0.000334208 0.000499662 0.00137034 0.000967342 -0.000115408 0.00272987 0.000818263 0.00516649 0.00250407 -0.00120321 0.000887366
internal_weight=570113 399546 170567 24370 21160 15905 165459 164895 132281 32614 32033 1675 130606 24922 375176 4650 370526 18947 13796 5151 351579 37052 314527 304439 60562 1737 243877 13174 17747 10088 17243 16407 15030 13729 11924 238125 58825 5255 12977 3028 19305 25725 14742 2928 220743 199844 7790 6385 192054 160476 77576 82900 77738 20899 31578 105684 5752 3224 2528 3210 15311 6308
internal_count=570113 399546 170567 24370 21160 15905 165459 164895 132281 32614 32033 1675 130606 24922 375176 4650 370526 18947 13796 5151 351579 37052 314527 304439 60562 1737 243877 13174 17747 10088 17243 16407 15030 13729 11924 238125 58825 5255 12977 3028 19305 25725 14742 2928 220743 199844 7790 6385 192054 160476 77576 82900 77738 20899 31578 105684 5752 3224 2528 3210 15311 6308
is_linear=0
shrinkage=0.05


Tree=8
num_leaves=63
num_cat=0
split_feature=19 22 2 9 11 4 4 6 4 1 1 22 0 2 7 6 6 7 12 10 18 11 12 2 9 5 19 22 10 1 19 12 8 11 1 5 2 9 10 6 6 2 18 1 0 11 1 21 0 0 6 2 6 6 10 10 6 1 1 1 1 1
split_gain=36.8572 29.9741 27.332 21.8043 18.2883 16.8948 22.7962 23.2115 21.3961 19.3958 20.1207 17.4272 18.9632 17.362 16.9289 15.9613 15.725 13.9753 13.8637 13.5881 13.3165 13.2293 12.5882 12.454 21.5558 14.3018 13.4189 11.9776 13.0684 11.9521 11.7392 15.1471 11.1542 10.7876 19.4696 14.7901 13.9451 16.4273 11.8481 11.5721 10.8833 10.7845 12.7107 11.7699 10.7413 10.7389 10.5457 10.086 11.3201 10.0722 9.9013 12.5838 11.3137 9.60765 9.37953 9.266 9.15678 10.0023 9.93833 22.4781 13.6306 9.41435
threshold=0.02000004979542171 0.053013264732662123 -0.12920480958911526 -0.34734628813981844 -1.4316285218472504 0.026085841654304848 0.082522041852569825 2.7078609537058598 -0.065699939387614023 0.41677276495138643 -0.32797748483493222 -0.0059337727102428016 0.37022400864017441 -0.087163103232350672 -0.02727606223869055 0.79787592967030485 -0.70713647342338803 0.033959661844228904 0.0098895376567423431 0.62779772559293667 -0.0046844683881831954 0.55875413576018673 0.008441704988847323 -0.14452439744597453 0.025186322843750244 -0.35335851676257624 0.0085446192123638208 0.019980901004599393 -0.08840513916538098 -0.29397703252330215 0.033618216669278687 0.0078613299188571451 0.49193201923195401 -1.0443632603468951 -0.041510493703185651 -0.33437558658534355 -0.27345717812478687 0.052795934837015189 -0.067250015486420636 -0.62244413998538128 -0.29075605757839784 -0.15126965231841358 0.011537640756696296 0.10869069320619114 0.83400749110109063 0.09357025018681682 0.35210991675298897 -0.01680307452320726 0.58505707234368354 0.15602648806985672 -0.41584608098479831 -0.027886726741131285 0.18311635210985627 0.024092387475970239 0.010880254495539898 0.015886184956991959 -0.1068736707956518 -0.37795194062635101 -0.029493799406170997 -0.0066885857185707389 -0.10929724815454291 -0.25867667406472289
decision_type=2 10 8 8 8 8 8 8 10 10 10 8 10 8 8 10 8 8 2 10 8 8 2 8 10 8 2 10 8 10 2 2 10 10 10 8 10 8 10 8 8 10 10 10 10 8 10 10 10 10 8 10 8 8 8 10 10 8 8 8 10 10
left_child=20 2 3 45 55 8 7 -7 9 10 15 17 30 -12 -10 -6 18 -8 -15 29 -1 27 -19 24 41 -25 -27 28 -16 -18 56 -32 -28 34 36 38 37 -5 -35 -37 -41 42 43 -22 50 -2 -24 -14 -49 -33 -31 -52 -53 -30 -45 -4 57 -13 60 -60 61 -59
right_child=1 -3 4 33 5 6 11 -9 14 -11 13 12 47 16 21 -17 19 22 -20 -21 23 -23 46 25 -26 26 32 -29 53 44 31 49 -34 35 -36 39 -38 -39 -40 40 -42 -43 -44 54 -46 -47 -48 48 -50 -51 51 52 -54 -55 -56 -57 -58 58 59 -61 -62 -63
leaf_value=0.0012819190391752536 0.0032711331450237208 -0.0040764467288198552 0.0096745717997857202 -0.0077662372420695186 0.0046828464148878091 0.00035313032975124069 0.0084929464920869228 0.011466603676240927 0.0044492106330251335 0.0038839258233465909 0.0051162207912407512 -0.0046450442137566453 -0.002109325633337759 -0.0030837719065247094 0.0012873658640382107 -0.0042915652907307552 -0.0092457650648095687 -0.00029080999418114344 0.0075655936282878261 -0.01027989200227088 -0.0018722332007143816 -0.0092307652502306037 0.0011570720948516225 0.008731708098304666 0.0019248238743755299 0.0026044605395963822 0.00028910198032517704 -0.010653342712273478 -0.0091058947403452623 -0.0054142710309386544 0.00059250303952787747 -0.0017984730365294211 0.0056556770783351982 0.0095169812041179594 0.00078594566045028064 -0.009044446292451918 -0.0055158710206476211 1.1202938376454305e-05 -0.00048946226166760314 0.0021269321535481679 -0.0022683722066027946 -0.0066245268633072524 0.0065184648978952684 0.0075868401652297735 0.0051249572897445889 -0.0013120489057603657 -0.0037776138444498087 0.0050035637979072393 0.0011512388810104412 -0.0073656919877198475 -0.00083855361679927704 0.00070819506798717373 -0.0076704063068290225 -0.0026760818831778211 -0.0014090005257219838 0.00099319125801474676 -0.0037850982921014335 0.0044106793452774072 -0.0097149691713349553 -0.00022818303301208698 0.0060654254071550433 -0.001962165482188115
leaf_weight=38964 2826 5380 703 881 2294 1030 548 863 564 2191 871 1274 1544 516 1460 631 591 30637 747 553 16389 1229 42525 514 5684 6614 197973 510 817 2091 7405 23243 972 539 2362 529 7181 2949 654 1731 7540 1004 504 612 510 2332 1110 2669 6676 841 8731 565 1402 2010 549 546 1851 851 627 108874 1476 1811
leaf_count=38964 2826 5380 703 881 2294 1030 548 863 564 2191 871 1274 1544 516 1460 631 591 30637 747 553 16389 1229 42525 514 5684 6614 197973 510 817 2091 7405 23243 972 539 2362 529 7181 2949 654 1731 7540 1004 504 612 510 2332 1110 2669 6676 841 8731 565 1402 2010 549 546 1851 851 627 108874 1476 1811
internal_value=2.77542e-06 -0.00037829 -0.000310812 -0.00175394 -0.00015026 -0.000178812 -4.03346e-05 0.00542303 -0.00133355 -0.000575496 -0.00107667 -8.4562e-05 -0.00038045 -0.00175131 -0.00382844 0.00274602 -0.00213246 0.000544787 0.00321579 -0.00260034 0.000426939 -0.0046038 0.00048603 0.000282605 -0.000777324 0.000409867 0.000389016 -0.00341668 -0.00255349 -0.00229388 -0.000528372 -0.00138512 0.00031535 -0.0023791 -0.00333293 -0.00121857 -0.00421647 -0.00177937 0.00403565 -0.00185854 -0.00144758 -0.00158329 -0.00130259 -0.00152756 -0.00198427 0.00119916 0.00103146 0.00163337 0.00225191 -0.00199318 -0.00226815 -0.00165277 -0.0052646 -0.00453685 0.00333544 0.00588334 -0.000297313 -0.0002411 -0.000191687 -0.000282592 0.00221336 7.60251e-05
internal_weight=570070 300291 294911 29524 265387 264138 235855 1893 28283 21693 19502 233962 159142 16577 6590 2925 15706 74820 1263 14443 269779 6026 74272 230815 24742 206073 205559 4797 4287 13890 148253 31489 198945 24366 13373 10993 11011 3830 1193 9800 9271 19058 18054 17550 13299 5158 43635 10889 9345 24084 12789 10698 1967 2827 1161 1249 116764 114913 113639 109501 4138 2662
internal_count=570070 300291 294911 29524 265387 264138 235855 1893 28283 21693 19502 233962 159142 16577 6590 2925 15706 74820 1263 14443 269779 6026 74272 230815 24742 206073 205559 4797 4287 13890 148253 31489 198945 24366 13373 10993 11011 3830 1193 9800 9271 19058 18054 17550 13299 5158 43635 10889 9345 24084 12789 10698 1967 2827 1161 1249 116764 114913 113639 109501 4138 2662
is_linear=0
shrinkage=0.05


Tree=9
num_leaves=63
num_cat=0
split_feature=23 19 22 0 7 6 11 10 0 17 0 6 8 12 0 18 10 10 6 6 10 0 10 11 11 9 0 6 22 11 1 11 1 9 0 11 18 11 10 1 10 0 1 11 19 17 12 10 23 10 0 19 20 0 10 20 0 7 23 23 6 9
split_gain=37.3005 29.1641 23.4918 19.9796 19.7699 21.9009 18.4066 26.6562 17.4342 17.0111 17.745 16.3337 15.5475 14.6306 16.9456 14.2362 14.1478 15.0828 13.9496 25.6584 15.3235 24.1725 15.1551 17.1798 14.0595 13.8256 13.7315 18.0234 13.5736 13.2881 13.2082 20.6177 14.0172 12.6944 12.4674 12.3697 15.8886 12.3319 15.9175 12.3243 17.9798 14.8302 14.9731 11.9681 11.9056 13.2808 29.2273 11.856 11.9573 11.7176 11.6889 11.6778 12.5949 11.552 11.4221 11.3743 11.0846 11.0821 11.639 11.0397 10.7763 10.7425
threshold=-0.0065119414963775765 0.033618216669278687 0.058877397219836175 0.078239868489666062 -0.13119837117019781 -0.43837538604587695 0.19725179272117363 -0.38141493972872925 0.11603403482978467 0.22445787249396934 -0.14257014697170375 -0.026662591520997366 0.08286118742139921 0.013823013353770572 -0.31460432488616991 0.008209357904163073 0.20414392465218964 0.08217473060356463 -0.0018810885969139616 0.066506726143849185 -0.12206633189148401 0.044967391125260797 -0.82513500191460598 -0.57788934440866402 -0.17049931899861068 0.56686723198722022 -0.33170384592223146 -0.56062997780136159 0.0066645044926243605 -0.20538645495630317 0.095298061116602245 0.44956028888717708 0.13994456943825606 0.37650835458051729 -0.41197736993211526 0.40017835311910188 0.022229618018313527 0.49434734381392592 -0.091796565323336951 0.024929310593343162 0.13320694124140553 0.25569169390232932 0.21602976319069908 -0.32265148495352663 0.017225877998607784 0.23040882244104569 0.01435175684205685 -0.090586052150071636 -0.028485288116557414 0.18443815338723588 -0.16946314947754604 0.02558050745345216 -0.44384263092965454 0.24690876375639556 0.060863546558894456 0.24575588079106062 -0.90586735196339185 0.15362635577155623 0.0027379150032334387 -0.016076243657201103 -0.27779334873274819 -0.0058361586139995649
decision_type=8 2 10 8 8 10 10 10 10 2 10 10 10 2 8 8 10 8 10 8 8 10 10 10 10 8 10 8 10 10 8 10 8 10 10 8 8 10 10 8 10 10 8 10 2 2 2 8 10 8 10 2 2 8 10 2 10 10 10 10 10 10
left_child=2 4 3 15 6 8 7 -2 9 13 50 33 -8 14 34 26 17 30 20 -20 21 -7 28 -24 -25 -26 27 -1 -21 -3 31 -5 -32 -9 -6 -19 44 -28 -39 40 54 -41 -43 -34 59 55 -47 -17 -49 56 61 57 -53 -45 -10 -46 -29 -16 -59 -37 -50 -11
right_child=1 29 -4 16 5 18 12 11 39 10 -12 -13 -14 -15 51 47 -18 35 19 22 -22 -23 23 24 25 -27 37 49 -30 -31 32 -33 43 -35 -36 36 -38 38 -40 41 -42 42 -44 53 45 46 -48 48 60 -51 -52 52 -54 -55 -56 -57 -58 58 -60 -61 -62 -63
leaf_value=0.0076499353517432596 0.0096993051825422366 -0.00064727619856109597 -0.0047206657726257852 -0.0011284985175333605 -0.00018351753389224743 -0.0018598239944264492 0.0029438392531953529 0.00018082858919063284 0.00020924895521659775 0.001466512696562553 -0.0018185674437635867 0.0054269201151206899 0.011480317701903543 0.0014953955174288663 0.00029251188209761345 -0.0027250124554876664 0.0026551557556050705 -0.0036965819826372398 0.0052623415919074374 0.0037677596807132382 -0.0028042768985128202 0.0077980931221865203 -0.0037493560937550104 0.0022096341281930697 0.0014146985045206644 -0.002501988344846356 -0.0022636328463657724 0.0036965111656273187 -0.004766191684213314 -0.0033900868942330839 0.0090135500011395871 0.0089535140566792699 0.0024675542833847378 -0.0080049520883449087 -0.0029985157906045924 -0.0010260716631200401 0.0036045299342044286 -0.012139305365406614 -0.0018313404705678081 0.0044421254495616378 0.0078118428872436842 0.0070007334781731463 0.0010949686330904418 0.0055622781353845373 -0.0022731043482146014 0.00059817855283932162 -0.0052765667257089711 0.0033168743297783375 -0.0018039330700860279 -0.0046192427637230544 0.0081282019158716978 -0.0028190047172072033 -0.00020295900709023943 -0.0025796935312536818 -0.0052290679842617394 -0.00058287559953599849 -0.00098225359332528191 5.7463822458531756e-05 0.01007772298960065 0.0011310386006806918 0.005414873040685747 -0.0035506450626029279
leaf_weight=643 888 39932 3443 8826 8189 2041 1253 6318 2544 46587 4566 1439 929 18846 160891 2513 4167 3088 2082 3021 11752 948 4622 4149 3327 6976 23457 1501 550 4964 661 537 8846 511 7568 9444 2320 742 756 5257 544 1140 18090 526 21853 20804 2356 3608 3300 1824 644 6040 19301 2513 1555 18280 8052 565 594 15943 612 1091
leaf_count=643 888 39932 3443 8826 8189 2041 1253 6318 2544 46587 4566 1439 929 18846 160891 2513 4167 3088 2082 3021 11752 948 4622 4149 3327 6976 23457 1501 550 4964 661 537 8846 511 7568 9444 2320 742 756 5257 544 1140 18090 526 21853 20804 2356 3608 3300 1824 644 6040 19301 2513 1555 18280 8052 565 594 15943 612 1091
internal_value=-1.41443e-05 0.000250035 -0.000633057 -0.000548843 0.000401958 0.000334145 0.00245611 0.00147227 0.000478001 0.000354737 0.00116058 0.000587603 0.00658189 0.000162749 3.91126e-05 -0.00142277 -0.000206953 -0.000309792 -0.000773927 -4.81273e-05 -0.00199132 0.00120489 -0.000536587 -0.00109628 -0.00024758 -0.00123721 -0.00187602 -0.000487604 0.00245241 -0.000950608 0.000871708 -0.000549366 0.00193221 -0.000432779 -0.00153565 -0.000584918 -0.000479287 -0.00254472 -0.00694185 0.00164111 -0.000720594 0.00208893 0.00144542 0.00153764 -0.000586165 -0.000953072 3.55642e-07 0.000247603 0.00124121 -0.00094815 0.00144211 0.000171536 -0.000826577 -0.00116909 -0.00185461 -0.00150326 -0.0002468 0.000327623 0.00519722 0.000328582 -0.000673515 0.00135163
internal_weight=570329 399714 170615 167172 354818 343480 11338 9156 304012 274882 52888 8268 2182 221994 203148 47008 120164 115997 39468 24727 14741 2989 22645 19074 14452 10303 36975 12020 3571 44896 21909 9363 12546 6829 15757 94088 91000 24955 1498 29130 4643 24487 19230 11885 88680 63293 23160 10033 7520 11377 48322 187391 25341 3039 4099 40133 9553 162050 1159 25387 3912 47678
internal_count=570329 399714 170615 167172 354818 343480 11338 9156 304012 274882 52888 8268 2182 221994 203148 47008 120164 115997 39468 24727 14741 2989 22645 19074 14452 10303 36975 12020 3571 44896 21909 9363 12546 6829 15757 94088 91000 24955 1498 29130 4643 24487 19230 11885 88680 63293 23160 10033 7520 11377 48322 187391 25341 3039 4099 40133 9553 162050 1159 25387 3912 47678
is_linear=0
shrinkage=0.05


Tree=10
num_leaves=63
num_cat=0
split_feature=19 23 2 5 5 17 10 17 10 11 10 8 4 24 11 2 9 2 10 10 5 10 2 5 11 19 10 4 1 24 10 20 10 4 11 1 2 11 5 21 21 8 17 20 1 10 22 11 21 23 16 11 1 7 19 17 23 21 19 21 12 10
split_gain=33.947 30.802 24.0871 24.643 17.3166 16.9304 27.9735 16.7127 15.7809 17.6498 15.2421 15.2215 14.9405 14.8511 14.7233 14.1352 13.6618 17.9559 16.0949 20.676 15.3818 16.1202 18.9385 16.541 13.8163 13.4936 13.1799 14.6788 16.6676 13.5438 13.6183 12.8827 12.376 12.1406 14.3723 12.0564 11.8422 11.6144 11.5358 10.5767 11.9525 10.2841 10.1655 26.9738 10.255 14.9631 13.0078 11.2343 11.1202 10.6221 10.7094 10.1801 10.1257 9.94747 9.90284 9.88696 9.75518 9.74479 9.66387 12.8002 12.5347 13.0078
threshold=0.033618216669278687 0.0011210025123045259 -0.14452439744597453 -0.56409924800558298 -0.19760837594369149 0.22445787249396934 -0.10993259934819681 2.1430601024692986 -0.17820669493360269 -1.2957221590666583 -0.32420974072298475 0.01174839848065889 0.54605521397049206 -0.0077168703390303574 -1.1269745536268878 -0.14787928318883223 0.40678462753173827 -0.44732199786537141 -0.072690196841644447 -0.038575724784108943 0.19687733656205572 -0.28371122212514882 -0.24299755813134052 -0.18338922806917188 -0.22564715361839163 0.020467432724647561 0.05876376387927338 -0.13885371033021426 0.10084059840234248 -0.012084849771358468 0.066912266937177306 -0.39841092886061891 -0.24346727443578384 0.13743606987074428 -0.40167316674554537 0.33317513723072939 -0.32749757922875095 -0.20274426417846989 -0.14473185761443055 -0.039889337407836477 0.0019846807373963371 -0.8171589773881035 -0.54821881798404626 -0.47074811108085068 -0.084775009413266808 2.2408375854106786 0.010706545068077365 -0.59054104460829115 -0.022014762478729518 0.030130775702075011 0.33975985908774625 0.51557336243310614 -0.11714988031659977 0.30239577852448252 0.0080723013396779477 -0.22522441941046592 0.025394418213460276 -0.012378828115208408 0.046830422843803642 0.022200315664716686 0.029260025011173019 -0.052718021398160848
decision_type=2 8 8 8 8 2 8 2 8 8 10 10 10 8 10 10 8 10 8 8 10 10 10 8 8 2 8 10 8 10 8 2 8 10 10 10 10 10 8 10 10 10 2 2 10 8 10 10 10 10 2 10 10 10 2 2 10 10 2 10 2 8
left_child=1 2 3 -1 -4 8 -7 16 10 -10 52 15 25 33 -13 -5 36 18 39 35 21 23 -23 24 -19 53 27 28 -21 -28 -31 55 -15 34 -2 57 -3 -12 -25 -18 -41 -38 43 -32 45 46 47 48 -44 50 -47 -46 -6 54 -11 -27 -30 -20 -34 60 61 -60
right_child=13 7 4 11 5 6 -8 -9 9 12 37 14 -14 32 -16 -17 17 20 19 26 -22 22 -24 38 -26 31 29 -29 56 30 42 -33 58 -35 -36 -37 41 -39 -40 40 -42 -43 44 -45 51 49 -48 -49 -50 -51 -52 -53 -54 -55 -56 -57 -58 -59 59 -61 -62 -63
leaf_value=0.0063519708485119883 0.00063521849936167051 -0.0012196637476827733 0.0039951767726462244 -0.002471793828367405 -0.001274144555563248 -0.0028950617789775192 0.00083737083048732338 -0.0060044619230785858 0.0073618628749142533 0.0030873723579040334 0.0053528256268589496 -0.004039461688685673 -0.006196765159264323 -0.0042992889369122917 0.0013064750979035137 -0.0094518482701215246 0.0079987862957879418 0.0024657714789695501 -0.0051640031970331974 0.00618969149564142 -0.006627089871086185 -0.004331665660478763 -0.00041637398415613689 0.0097047448933565133 -0.0078658088649121143 -0.0037261751950897325 -0.00087641307012633035 -0.0019858448418948694 0.00063898136088218595 -0.0043906242000268563 -0.009145334850920242 -0.00058373370194877603 -0.00084533899332639483 0.0072629466952011251 -0.0050143232182832433 0.0040197098480825319 -0.0025400342867936483 -0.0011507024255023042 0.0020824899499769949 0.0010878089921043765 0.0038954574470835587 0.0028015399423028495 0.0090303559600323335 0.0030532509461480869 -0.0017976941409203189 0.00079491768119598007 -0.0042496267908730392 -0.0019393632421009226 0.0028864570032395816 -0.00078546849916180878 0.0062209063230684869 0.0046361265940052954 0.0027118474401674345 -0.005050224440206922 -0.00015943275574779224 -0.0013450920520468184 0.0052326993803192617 -0.0013350739417728552 -0.0078622660477907017 0.0035432593173295615 0.00088289279122477952 -0.0028248349591493195
leaf_weight=917 11324 2559 2579 16903 4743 5448 63764 965 711 2404 3116 1707 1153 3595 5236 757 684 572 2394 2877 1074 3975 13839 556 743 6397 16476 1740 5276 1324 900 45593 36047 615 1249 777 962 880 4573 17636 4828 14067 792 911 6004 87134 681 1115 10391 11165 918 684 2398 1017 99936 13691 1479 5431 1520 826 1842 8159
leaf_count=917 11324 2559 2579 16903 4743 5448 63764 965 711 2404 3116 1707 1153 3595 5236 757 684 572 2394 2877 1074 3975 13839 556 743 6397 16476 1740 5276 1324 900 45593 36047 615 1249 777 962 880 4573 17636 4828 14067 792 911 6004 87134 681 1115 10391 11165 918 684 2398 1017 99936 13691 1479 5431 1520 826 1842 8159
internal_value=-1.52182e-05 0.000123422 -0.000227474 -0.0016917 -8.02541e-05 -0.000122103 0.000543536 0.000558108 -0.000375183 -0.000494026 0.00144839 -0.00199175 -0.000526888 -0.00108909 -8.26476e-06 -0.00277151 0.000586339 0.000472634 0.000646574 0.000466672 -0.0007744 -0.000515015 -0.00129022 0.00162786 -0.00337331 -0.000488178 0.000603505 0.00223977 0.00300324 0.000469134 0.000650826 -0.00104856 -0.00146922 0.000409426 7.36397e-05 -0.00191707 0.00192414 0.00392069 0.0029105 0.00187809 0.00169138 0.00245948 0.000706166 -0.0030107 0.000762811 0.000876193 0.00247262 0.00284517 0.00332235 0.000667335 0.000851557 -0.0011391 6.4573e-05 -0.000132058 -8.31348e-05 -0.00210349 0.0016454 -0.00250702 -0.0012589 -0.00246613 -0.00289724 -0.00361665
internal_weight=570029 504852 279350 25520 253830 251251 69212 225502 182039 170902 11137 24603 170191 65177 6943 17660 224537 206949 181617 158469 25332 24258 17814 6444 1315 169038 149867 11372 9632 138495 122019 65681 51989 13188 12573 8602 17588 3996 5129 23148 22464 15029 120695 1811 118884 112196 12979 12298 11183 99217 88052 6688 7141 103357 102340 20088 6755 7825 48394 12347 11521 9679
internal_count=570029 504852 279350 25520 253830 251251 69212 225502 182039 170902 11137 24603 170191 65177 6943 17660 224537 206949 181617 158469 25332 24258 17814 6444 1315 169038 149867 11372 9632 138495 122019 65681 51989 13188 12573 8602 17588 3996 5129 23148 22464 15029 120695 1811 118884 112196 12979 12298 11183 99217 88052 6688 7141 103357 102340 20088 6755 7825 48394 12347 11521 9679
is_linear=0
shrinkage=0.05


Tree=11
num_leaves=63
num_cat=0
split_feature=23 19 22 7 2 16 11 10 10 1 4 4 1 10 22 21 22 2 2 9 9 18 10 16 1 6 10 1 11 6 10 2 10 4 6 11 11 16 10 20 6 22 4 4 11 4 23 19 1 6 1 20 11 2 10 4 6 10 11 22 10 20
split_gain=32.1994 24.1055 20.2946 18.4851 27.5355 18.4577 17.8461 18.5832 23.5008 17.1404 14.5285 20.3634 18.4115 17.7688 14.1983 13.6531 13.2137 14.5734 13.1783 14.9186 14.5235 14.3201 13.099 13.0953 12.8005 16.059 13.6751 12.7235 12.677 12.6535 13.8382 12.0521 15.1668 17.3215 14.8108 21.8686 17.2657 11.9868 14.8474 12.4998 11.2691 12.8481 11.2971 11.0331 11.0245 15.0001 10.9427 10.5278 12.258 10.4002 10.3775 10.2232 15.7539 15.0578 12.7387 10.0449 11.1364 9.51872 15.7521 9.2965 9.29346 9.2378
threshold=-0.0065119414963775765 0.046830422843803642 0.053013264732662123 -0.13119837117019781 -0.1351319551390377 -0.42561518119180536 0.89220106502605823 -0.30210617217565955 -0.14330091011155599 0.11767236024888215 -0.13715279093090388 -0.12689306036087136 0.29990692343018494 -0.6112275067975107 0.001250357103278822 -0.078599372255166763 -0.04679755450310584 -0.1199029474304259 -0.14452439744597453 -0.16410762147843747 0.0071714886284935117 0.022229618018313527 0.098362834565351762 0.31678546753618791 -0.23298770182598053 -0.43837538604587695 -0.29607395076051662 -0.07483942336453181 0.19725179272117363 -0.052787047846751409 0.12487410718030928 -0.15807534086053654 -0.14036072621704707 -0.063974076373980976 0.045053463030375884 0.15959129654694013 -0.95126529389093806 -0.2145086069244849 -0.042569183939819039 -0.26260972547562694 -0.46452860569536719 -0.02121301764813734 0.083687723935393948 0.15385193635526898 -0.55179996184477453 -0.30408750432322301 -0.020711677436400278 0.016576234456207001 -0.79076272497593814 -0.94018924881744281 0.45923048405956818 -0.36819770625814224 0.43744531191084141 0.25084187981243694 -0.41402897038376169 -0.21128317059558083 0.79787592967030485 -0.066294222684736684 -0.085729680665298985 0.012042330558966139 0.055952661408142097 -1.238725047249186
decision_type=8 2 10 8 8 2 10 10 10 10 10 10 10 10 10 8 8 8 8 8 8 8 10 2 8 10 8 8 10 10 8 10 8 10 8 8 10 2 8 2 10 10 10 8 10 10 10 2 8 10 10 2 8 10 10 10 8 10 10 10 10 2
left_child=2 3 18 6 9 -3 7 -2 -9 44 12 14 15 -14 -12 -6 -17 -18 31 43 -21 47 -23 -7 57 26 -26 -10 -29 50 -31 32 33 -1 36 46 -34 38 -19 -40 41 42 -28 -20 49 -46 -36 -22 -49 61 -27 59 54 -54 -53 56 -56 58 -13 -50 -48 -5
right_child=1 5 -4 4 10 23 -8 8 27 -11 11 24 13 -15 -16 16 17 37 19 20 21 22 -24 -25 25 29 40 28 -30 30 -32 -33 34 -35 35 -37 -38 -39 39 -41 -42 -43 -44 -45 45 -47 60 48 51 -51 -52 52 53 -55 55 -57 -58 -59 -60 -61 -62 -63
leaf_value=-0.0066148453029854356 0.0073548246470612954 0.0044889839502130022 -0.0036376728296286264 0.00075074292136368672 -0.0043637311412053591 -0.0014032014617338254 0.010983975031928293 -0.0069394158402211852 0.0044078759680142151 0.0030459995925304199 -0.0083626894987149994 0.0089568271559439822 -0.002757874094311412 0.0041646201614467518 0.001504636316466012 -0.001470067376783844 0.0058791165548247766 -0.0011703611672240061 0.0067580898249428277 -0.0054357311908393904 0.00035889624623739011 0.003634249887488371 -0.0045585566270878522 -0.0051339845884303811 0.0063671888864602171 -0.0047754348093329993 0.00072159340171936044 -0.00057640343367478387 0.0053728117866270186 -0.0016659630559543604 0.0031346236358245519 -0.0066338248315578781 -0.010000649764030664 0.00083098341959513444 0.010790351505762349 -0.0012371673317789359 -0.0010911364536975064 0.00043060590921886727 0.00039451064267951815 0.0030265185047756221 0.0067497920641370977 -0.00080137257874538534 0.0085696720225474764 -0.0010381266813717295 0.0058059554530999974 -0.00067760089890090975 0.0061729367578804463 0.0049795445225978337 -0.002112994896418021 -0.0050927529456783411 0.0014124377600740741 0.0024124636944708199 -0.00021422251913679765 0.0052897562670239174 0.0060399944610189061 -0.0041002474805348632 -0.0031365713704137282 3.7934637402329017e-05 0.00075235679587222406 -0.00045180252230708697 -0.0010383667703380663 -0.002178101857796693
leaf_weight=2437 1350 1078 5162 3293 1451 9534 560 831 3158 2367 1328 1050 1100 5872 502 8298 1278 4053 1278 1403 33946 3661 562 3122 930 4352 1279 4974 1091 7834 1856 1230 745 1149 565 4402 2007 259952 6784 13464 612 11873 714 703 971 10850 958 958 19888 2486 802 1176 64654 1266 564 5838 796 2674 1320 14609 836 14746
leaf_count=2437 1350 1078 5162 3293 1451 9534 560 831 3158 2367 1328 1050 1100 5872 502 8298 1278 4053 1278 1403 33946 3661 562 3122 930 4352 1279 4974 1091 7834 1856 1230 745 1149 565 4402 2007 259952 6784 13464 612 11873 714 703 971 10850 958 958 19888 2486 802 1176 64654 1266 564 5838 796 2674 1320 14609 836 14746
internal_value=2.40512e-05 0.000269553 -0.000550613 0.000342784 0.000280907 -0.00178881 0.00227737 0.0018489 0.00110894 -0.00106037 0.000418101 -0.000515323 0.000532756 0.00307219 -0.00565657 0.000472786 0.000496684 0.000553846 -0.000454381 -0.000317124 -0.000374322 -0.000326278 0.00254312 -0.00232385 -0.000248611 -0.00063743 0.000493279 0.00183478 0.000494478 -0.00181105 -0.000746241 -0.00190358 -0.00145893 -0.00422954 -0.000414196 0.000844547 -0.00350581 0.000529883 0.00159181 0.00214474 0.000115552 -0.000177727 0.00353609 0.00399231 -0.00136094 -0.000144583 0.004728 -0.000410623 -0.000648641 -0.00206144 -0.00381247 -0.000698248 -0.00036796 -0.000108439 -0.00241064 -0.00319886 0.000670646 0.00208305 0.00438949 -0.00140954 0.00281378 -0.00164343
internal_weight=570582 399789 170793 386055 374091 13734 11964 11404 10054 34713 339378 37126 302252 6972 1830 295280 293829 285531 165631 151302 149321 147918 4223 12656 35296 30252 15408 9223 6065 14844 9690 14329 13099 3586 9513 6761 2752 284253 24301 20248 14478 13866 1993 1981 32346 11821 2359 143695 109749 20525 5154 108791 74294 65920 8374 7198 1360 5044 2370 34497 1794 18039
internal_count=570582 399789 170793 386055 374091 13734 11964 11404 10054 34713 339378 37126 302252 6972 1830 295280 293829 285531 165631 151302 149321 147918 4223 12656 35296 30252 15408 9223 6065 14844 9690 14329 13099 3586 9513 6761 2752 284253 24301 20248 14478 13866 1993 1981 32346 11821 2359 143695 109749 20525 5154 108791 74294 65920 8374 7198 1360 5044 2370 34497 1794 18039
is_linear=0
shrinkage=0.05


Tree=12
num_leaves=63
num_cat=0
split_feature=19 2 25 9 8 17 17 22 3 0 10 0 6 2 3 0 10 17 12 17 16 17 10 24 6 8 12 2 10 2 17 8 2 2 1 3 8 1 22 0 10 3 1 3 6 1 1 1 3 21 3 23 6 7 24 0 23 0 18 10 10 0
split_gain=30.0847 25.6799 21.9917 16.5527 14.2663 14.0579 13.6536 15.2681 12.6999 16.2096 19.3687 13.7061 12.9135 12.5044 15.7528 13.3949 21.7383 12.0293 13.0499 13.5296 12.5448 13.0859 11.9923 11.5731 11.4437 19.4803 11.1506 10.8844 18.5516 16.661 10.8346 17.4253 14.986 14.6851 12.2747 11.0751 14.7665 15.6493 10.6094 9.87639 12.8901 12.5247 12.4783 18.7829 12.2668 12.3542 12.2062 11.7338 17.2777 12.9442 10.6003 9.65245 9.61392 10.8448 10.6829 12.9406 12.6265 11.3984 9.51722 10.4858 10.1134 9.45687
threshold=0.0163548761900222 -0.1338339471076086 -0.0017079666544940512 0.61916923294908244 0.39065037493978388 0.18130014956614418 -0.42624911757784922 -0.0062543213612834946 -0.089594115690487322 0.087469334513110841 0.13320694124140553 -1.1403342524862676 0.57093321407863973 -0.094435946448652872 -0.18697955778239839 -0.2155124988868668 -0.22846354680240147 0.27884579973181739 0.013000288649053534 0.91325870702809853 -0.12980450840550176 -0.1539363247985466 0.32991110206498325 -0.0038792857987053828 0.11399788105219595 -0.13434570654003344 0.0072993028631360346 -0.27345717812478687 0.2232085021356045 -0.25066914400214824 0.34469448746971693 0.017173146339955338 -0.20386354464082615 -0.17741272366830244 -0.23819003589619259 -0.087363272203820744 -0.60807143724528356 -0.15758700126673406 0.053013264732662123 -0.15148219726370424 -0.033121131352271849 0.047799313436241504 -0.32046183311556087 0.11650853878930052 -0.68699622444069752 -0.21003345738318999 0.37591864960699023 -0.072981946726444341 0.07246941918872489 0.0011776968693350126 0.66215474890888315 0.035644140523200661 1.8145403659840043 -0.52088165730254488 -0.0025475258859400541 0.39687914817927 0.0014794823812879444 0.013875723465227091 0.017125928162706455 0.1300365318294153 0.32991110206498325 0.89806071117321096
decision_type=2 8 10 8 10 2 2 8 8 8 10 10 10 10 10 10 8 2 2 2 2 2 8 10 10 10 2 10 8 10 2 10 10 10 8 10 10 10 10 10 8 8 8 8 10 10 8 10 10 10 8 10 10 10 10 8 8 10 10 10 10 8
left_child=5 3 6 22 8 52 7 -3 11 39 12 -4 17 15 -15 23 -17 20 -19 -20 21 26 30 -13 -16 -26 -11 28 -5 -29 32 33 35 -32 -34 36 -2 -38 58 42 41 -41 43 -10 45 -44 -42 48 -43 -50 -49 -22 53 54 57 56 -56 -1 60 -60 -8 -31
right_child=1 2 4 27 -6 -7 38 -9 9 10 -12 13 -14 14 24 16 -18 18 19 -21 51 -23 -24 -25 25 -27 -28 29 -30 61 31 -33 34 -35 -36 -37 37 -39 -40 40 46 47 44 -45 -46 -47 -48 50 49 -51 -52 -53 -54 -55 55 -57 -58 -59 59 -61 -62 -63
leaf_value=-0.00075297067534404788 0.0039938680731013794 0.0010284615446634845 0.0049891633032454405 -0.0016769742535542725 0.0049624575571298665 0.0016744748520829595 -0.00057854901052618011 -0.00439469136573212 -0.00022348163268755877 -0.00050019607278178955 0.0034352310282068869 0.0017920168167700732 -0.0063375949458128805 -0.0079202901057372939 0.0011724623183011506 0.0074137530891641851 0.0014937246125897221 0.0013013175464197161 3.4400474780820218e-05 -0.0056939598882486467 -0.00040359533371041789 -0.00045645639746880819 -0.0061344252127984713 -0.0010519183707248458 -0.0085493416887516983 0.003656570896878009 0.0020178590840435932 -0.0070555024345919301 0.0057600816287398339 -0.0028969168191886972 -0.0013474015488922765 0.00031554560839990606 0.0097236892021520856 -0.01243722525967449 0.0020123222326058326 0.0025830419750027807 -0.0046024042046499247 0.00076599564309557148 -0.0029847842955251697 -0.0062566448163763489 -0.0038969295972930622 0.0034573731674330806 0.00051558378364813685 -0.01088019274774743 -0.0031439741712806068 0.0056246279605226702 0.00055504934114457229 0.0069337415739049229 -0.0025435896697830938 -0.011285093336217253 -0.0024270482110104671 -0.0030838967674452784 -0.0050524579358281994 0.0021791054534717356 -0.0014267823871565079 0.00099201392130576402 0.00092447375854284972 0.0015553219210233354 0.0019078413267394777 -0.0037502912944869407 0.0019243267439743386 0.00070686552862480657
leaf_weight=33394 1031 1819 2018 5808 1569 24664 127551 4526 1196 5953 4471 5798 775 794 3558 1711 16467 31781 4558 1331 66407 17588 824 9336 904 511 16810 2178 979 12340 554 1965 597 647 3773 2189 3475 2227 4075 2767 2133 600 6905 631 1815 1427 5527 601 963 756 607 3537 810 8113 13012 61178 10173 6367 7197 923 4167 2135
leaf_count=33394 1031 1819 2018 5808 1569 24664 127551 4526 1196 5953 4471 5798 775 794 3558 1711 16467 31781 4558 1331 66407 17588 824 9336 904 511 16810 2178 979 12340 554 1965 597 647 3773 2189 3475 2227 4075 2767 2133 600 6905 631 1815 1427 5527 601 963 756 607 3537 810 8113 13012 61178 10173 6367 7197 923 4167 2135
internal_value=-9.31967e-06 -0.000233752 -0.00010328 -0.0014258 0.000213111 0.000578097 -0.000570322 -0.00284005 0.000179253 -2.60844e-06 0.000193053 0.000971956 9.55731e-05 0.000764389 -0.00138503 0.00113653 0.00205132 0.000129311 0.000900718 -0.00126104 -0.00013416 0.000567889 -0.000251761 3.76705e-05 -0.000340208 -0.00414194 0.00135934 -0.00229135 -0.000603516 -0.00297916 4.31204e-05 -0.00258502 0.000669261 -0.00732706 0.00306778 -0.000505748 -0.00151019 -0.00250593 -0.000470233 -0.00115875 -0.00206267 -0.00373898 -0.000105274 -0.00390798 0.000579733 0.00139117 -0.000684993 -0.00176261 -0.00384352 -0.00639235 0.00223198 -0.000539178 0.000374841 0.000408123 0.000292352 0.000610797 -0.000395114 -0.00038331 -0.000396936 0.0012643 -0.000499355 -0.00236536
internal_weight=570496 412785 372063 40722 221805 157711 150258 6345 220236 179139 153211 41097 148740 39079 5767 33312 18178 147965 37670 5889 110295 40351 17282 15134 4973 1415 22763 23440 6787 16653 16458 3166 13292 1201 4370 8922 6733 5702 143913 25928 13954 6294 11974 1827 10147 8332 7660 3527 2319 1719 1208 69944 133047 132237 124124 84363 23185 39761 139838 8120 131718 14475
internal_count=570496 412785 372063 40722 221805 157711 150258 6345 220236 179139 153211 41097 148740 39079 5767 33312 18178 147965 37670 5889 110295 40351 17282 15134 4973 1415 22763 23440 6787 16653 16458 3166 13292 1201 4370 8922 6733 5702 143913 25928 13954 6294 11974 1827 10147 8332 7660 3527 2319 1719 1208 69944 133047 132237 124124 84363 23185 39761 139838 8120 131718 14475
is_linear=0
shrinkage=0.05


Tree=13
num_leaves=63
num_cat=0
split_feature=23 0 16 10 22 17 12 5 12 17 17 11 0 4 5 5 0 7 17 7 2 3 0 21 1 3 3 2 9 1 3 5 1 11 22 4 22 20 10 23 1 11 10 11 5 1 10 3 3 0 10 3 2 22 4 3 3 4 3 11 3 11
split_gain=25.6242 35.8957 24.5721 18.2096 16.0972 14.0355 17.1382 13.314 13.284 24.9225 18.5014 21.4112 17.7877 16.9163 15.9559 12.6292 19.1479 12.4033 12.2857 12.2341 15.2978 14.148 13.6495 13.3294 12.2058 11.8503 20.7474 12.693 23.6629 14.9277 14.4013 15.2988 15.8605 11.8467 11.8399 11.7785 11.751 11.7304 11.3079 11.973 10.9745 14.626 13.031 14.0246 11.5771 11.1207 10.8506 25.8323 13.7024 23.2149 11.292 10.5738 10.5559 10.8407 10.4366 10.4219 14.4308 11.9345 12.2835 10.3527 10.3084 10.9643
threshold=0.0011210025123045259 0.37022400864017441 0.516083855908959 0.50961690690290573 -0.04679755450310584 -0.41776718972437993 0.013823013353770572 -0.37440568856859557 0.013823013353770572 0.87155731335320541 0.22445787249396934 0.2353628255676371 3.6577927293560628 0.074927582308534982 -0.33975812013763607 0.18255647505909581 -0.39477896220140224 -0.095505129334344199 1.457789162057455 -0.67437962053595057 -0.19045098936746754 -0.068821329490411948 0.10709485948438539 -0.078599372255166763 0.11767236024888215 0.37044319842012285 0.28341852470424311 -0.14452439744597453 0.01891479266178785 -0.32505212617076834 -0.08821984124582756 0.16357790724332086 -0.56062680326415171 0.86967648775603024 0.053013264732662123 -0.21964715312977437 0.0030857622510704823 -0.14626779227478895 0.098103371746146736 -0.045407738082286563 0.095298061116602245 0.33283636354866963 0.23173416795202637 1.2713616561980983 -0.082760443755512766 -0.11866706152617852 0.10026832854657014 -0.037927637066294907 0.088948623100569738 -0.15148219726370424 -0.058393773678055629 -0.092840646914361544 -0.16018545397276007 -0.0076331833472496032 -0.11368837005397835 -0.094783771274068354 -0.14670263562937749 -0.068921532377564751 0.39576870104244372 0.40017835311910188 -0.091505874515571475 -0.8474671223708935
decision_type=8 8 2 10 8 2 2 8 2 2 2 8 8 10 8 10 10 8 2 10 8 10 10 8 10 10 10 8 10 10 8 10 8 10 10 10 10 2 8 10 8 8 8 8 8 10 10 8 10 10 10 10 10 10 8 10 8 10 10 10 10 8
left_child=1 7 4 5 -2 6 -3 54 10 38 12 -12 55 14 -14 19 -17 -18 59 20 35 22 52 -22 -5 26 27 28 33 -30 31 32 36 -9 40 60 -29 -23 -10 -40 42 -42 43 44 -32 -46 48 -48 -43 -50 -51 -34 -21 -54 -1 56 -7 58 -57 -13 61 -6
right_child=2 3 -4 24 15 8 -8 25 9 -11 11 18 13 -15 -16 16 17 -19 -20 21 23 37 -24 -25 -26 -27 -28 30 29 -31 34 -33 51 -35 -36 -37 -38 -39 39 -41 41 46 -44 -45 45 -47 47 -49 49 50 -52 -53 53 -55 -56 57 -58 -59 -60 -61 -62 -63
leaf_value=0.0064684292532166537 -0.0015020393051982273 -0.0044189347834540822 -0.0037688902820396577 0.0006896329984165437 -0.007014036204523311 -0.001721185826691556 0.004163994958429393 -0.0034241895750067568 0.0021401213680806298 -0.007933378875925521 -0.0028124773759154154 0.00092705555693456995 0.0073041034090130415 -0.0036739499592652737 -0.00026325651573327338 -0.0092674735059637848 0.0065885693198392678 -0.0022622961981357079 0.004240766110275432 3.0187400321767503e-05 -0.0037922380314932892 0.0068920922199394372 -0.0049805530400880219 0.00059931746053173865 0.0064904126522264769 -0.0034811334339751362 0.0058328601474813002 0.0012074038080697172 -0.0023668426262999768 0.0042202577082805356 -0.0065624686183063975 0.0073660711195894096 -0.00066921857539853932 0.0037181635383778246 -0.0084983081534398177 0.00068899027510032848 0.010952324191055816 0.0012929654655041182 -0.0079008324381307539 -0.00095585371476695049 -0.0050898363095918178 -0.00041124599611836723 0.0016098037795183853 -0.0050828602855574985 0.0038443921571020378 -0.0019065323597144898 -0.0052956152865860197 0.0033164662590323933 0.0047002938462616106 -0.010095640691664151 -0.0031835908196840945 0.0031326997943992951 0.0070566677980297941 0.0012980468460154465 -0.0010843960349994697 -0.0020325466861707102 0.0047436583594961494 0.0039721424475418305 0.0046145045601333852 0.0064197212184467127 -0.0072602536952299582 -0.0010287492465706715
leaf_weight=1031 10476 3326 3553 1823 853 1092 704 14496 2930 1275 3502 46623 700 3651 110566 810 504 1830 3174 4539 1741 2263 874 213439 1804 5195 1088 758 1497 2019 897 664 35211 604 599 5683 522 1595 647 14685 1837 14051 1558 5333 1164 3018 1098 4192 593 1090 1292 1928 1414 1936 821 4004 4111 1716 840 873 909 7361
leaf_count=1031 10476 3326 3553 1823 853 1092 704 14496 2930 1275 3502 46623 700 3651 110566 810 504 1830 3174 4539 1741 2263 874 213439 1804 5195 1088 758 1497 2019 897 664 35211 604 599 5683 522 1595 647 14685 1837 14051 1558 5333 1164 3018 1098 4192 593 1090 1292 1928 1414 1936 821 4004 4111 1716 840 873 909 7361
internal_value=-6.36904e-06 -0.000312856 0.000360078 6.4534e-05 0.000417347 2.21617e-06 -0.00291892 -0.00107843 6.09771e-05 -0.00117759 0.000194782 0.000968124 -0.000135926 -0.000325489 -0.000215583 0.000499173 -0.00264895 -0.000349052 0.00122947 0.000539981 0.0004568 0.0020556 0.000944611 0.000563768 0.00357582 -0.0011557 -0.00102917 -0.0011083 -0.00227811 0.00141581 -0.000821 -0.000152969 -0.000283109 -0.00313827 -0.00153196 -0.00109774 0.00518695 0.0045782 -0.000705509 -0.00124942 -0.00141621 -0.000802626 -0.00265412 -0.00329225 -0.00141146 -0.000305308 -0.000449501 0.00152827 -0.00106405 -0.00414609 -0.00634944 -0.00047177 0.00160159 0.00373008 0.00312145 0.00171585 0.00338675 0.000390279 -0.000879164 0.00102815 -0.0022107 -0.00165108
internal_weight=570382 310602 259780 208046 256227 204419 4030 102556 200389 19537 180852 54172 126680 114917 111266 245751 3144 2334 50670 242607 229986 12621 8763 215180 3627 100704 95509 94421 18616 3516 75805 39083 38419 15100 36722 14806 1280 3858 18262 15332 36123 24153 11970 10412 5079 4182 22316 5290 17026 2975 2382 37139 7889 3350 1852 11763 5203 6560 4844 47496 9123 8214
internal_count=570382 310602 259780 208046 256227 204419 4030 102556 200389 19537 180852 54172 126680 114917 111266 245751 3144 2334 50670 242607 229986 12621 8763 215180 3627 100704 95509 94421 18616 3516 75805 39083 38419 15100 36722 14806 1280 3858 18262 15332 36123 24153 11970 10412 5079 4182 22316 5290 17026 2975 2382 37139 7889 3350 1852 11763 5203 6560 4844 47496 9123 8214
is_linear=0
shrinkage=0.05


Tree=14
num_leaves=63
num_cat=0
split_feature=22 2 11 7 23 16 17 9 6 11 11 1 12 2 2 22 11 7 10 4 10 17 4 4 21 23 16 18 11 10 6 6 10 10 11 9 4 11 16 22 2 17 4 17 12 2 2 4 4 10 17 18 9 22 10 12 4 6 4 1 11 21
split_gain=24.3138 20.3466 19.4117 19.3681 16.53 22.5334 22.3427 15.8204 15.8443 15.7188 14.9662 14.9442 11.8811 11.7527 13.9267 13.2424 11.7261 15.8464 11.1923 15.1424 20.1015 17.5056 13.4289 12.9291 12.6525 12.0046 12.101 11.5782 11.2737 11.8002 11.1759 12.3414 10.803 25.6424 16.3683 13.1659 11.2163 10.6739 10.5899 10.1941 9.85534 27.0518 11.1189 11.1737 17.8681 10.3105 9.78427 12.655 29.2532 13.23 13.2164 10.8507 10.0228 9.72196 12.9752 11.0241 9.70666 9.66897 9.58707 9.49869 9.42501 9.35854
threshold=0.058877397219836175 -0.1338339471076086 3.2146235507869347 -1.0000000180025095e-35 0.0003220159113483839 0.74286736473908521 -0.4094711090400745 0.99992106652731272 0.13022463345862836 -1.0443632603468951 0.053189752719544965 0.11767236024888215 0.015305539159997853 -0.11411173436540185 0.017947515986116731 -0.017925340990851985 -0.16048173814948771 -0.1350888914206865 -0.13422375997081734 -0.13715279093090388 -0.035012103442307603 2.1430601024692986 -0.12689306036087136 -0.32535517020759547 -0.018594667803261477 0.035644140523200661 -0.30272371459601249 0.0056893926836983607 0.0078418994197547495 -0.07134798633055324 -0.75801007799412912 1.0024188206209024 -0.14330091011155599 -0.29607395076051662 0.35490036236658956 0.45626375793242985 0.4344430601014152 -0.31553267610353314 -0.37987385327780748 0.0011373219130285297 -0.29999862944809907 0.18130014956614418 -0.14071682813582792 -0.27646594182696771 0.005786386597821872 -0.26464801946629563 0.25084187981243694 0.30992136186545899 0.24778616814420582 -0.07471175522507667 0.086406420819667776 0.025537623987848108 -0.17125326639100605 -0.02121301764813734 0.055952661408142097 0.01163395878555562 -0.38665835288272848 -0.32141061405110471 -0.027213507083580332 -1.1588082816476302 0.2353628255676371 0.0055999898506776946
decision_type=10 8 10 8 8 2 2 10 10 10 10 10 2 8 8 10 8 10 8 10 10 2 10 8 8 8 2 10 10 10 8 10 10 10 10 8 8 10 2 10 10 2 8 2 2 10 10 10 10 10 2 8 8 10 10 2 8 10 10 8 10 8
left_child=1 9 3 10 6 13 12 8 46 11 16 40 -5 15 57 -6 37 -18 27 20 25 23 -21 -22 -24 28 -27 56 29 38 -26 -32 33 39 35 -35 53 -3 -20 -11 41 -1 -42 44 -44 -46 47 48 51 -49 -50 52 -8 55 -55 -34 -16 -15 60 -25 -58 -28
right_child=-2 2 -4 4 5 -7 7 -9 -10 32 -12 -13 -14 14 18 -17 17 -19 19 22 21 -23 24 59 30 26 61 -29 -30 -31 31 -33 36 34 -36 -37 -38 -39 -40 -41 42 -43 43 -45 45 -47 -48 49 50 -51 -52 -53 -54 54 -56 -57 58 -59 -60 -61 -62 -63
leaf_value=-0.0015695408578064866 -0.0036476497077305987 -0.00029150748288025752 -0.0072922984558218482 -0.003880688208665366 -0.0021786185990574514 -0.0058373080832841628 0.0061178995992853223 0.0086459679994957753 -0.0020275504810738829 0.0016664228910273371 0.0049864145037803401 0.0058192106538288947 0.0029467879475731668 -0.00075612001955504323 0.0079242267388271292 0.0070320800704241349 -0.0044873401457842686 0.0050445665443022945 0.005198818965267994 -0.0065761608297049473 0.0057361849404986009 -0.0075998601321700639 -0.0037863041184367121 -0.0053301932661281026 0.0066057665398669184 0.0018043691182837449 -0.0010428589419656208 0.0058899702845958551 0.0057528363070320915 -0.0015583903867622641 -0.0008967368638561359 0.0033279804243382446 0.0063974865932096411 -0.013395368843154383 0.0015032734243721813 -0.0049548987500456507 -0.0060369185808124351 0.0085202560216119435 0.00044433710546287405 -0.0019624615671951316 -0.0071158924995005056 0.0068992037051001714 0.0062506464963810616 -0.0027874077999671359 0.0036352634986029937 -0.0031880918328626518 0.0021396024639983363 0.001135783175160657 0.0022000924595098437 -0.0062058409723383919 0.011828941197869175 0.002941117274197871 -0.00014308197083564347 0.0017256499783579 -0.00098231769226062352 -0.0021197029614995699 0.00095760472120822197 -0.0057789955660635176 0.0050641889698198137 0.0015652629350348256 -0.0051722373799126756 -0.0047311151762169778
leaf_weight=6464 4543 700 879 5616 549 1437 640 515 10413 4591 3613 645 718 2951 531 1345 1581 601 1181 1003 1866 514 2747 506 594 3354 13799 1486 981 7451 13958 1972 1443 644 678 1637 615 674 128130 3344 1200 1103 930 14955 716 2430 5060 967 702 1677 724 2920 229161 9357 8388 515 13775 1418 1363 33668 656 1964
leaf_count=6464 4543 700 879 5616 549 1437 640 515 10413 4591 3613 645 718 2951 531 1345 1581 601 1181 1003 1866 514 2747 506 594 3354 13799 1486 981 7451 13958 1972 1443 644 678 1637 615 674 128130 3344 1200 1103 930 14955 716 2430 5060 967 702 1677 724 2920 229161 9357 8388 515 13775 1418 1363 33668 656 1964
internal_value=-4.80434e-06 2.44406e-05 0.000127336 0.000140253 0.000103128 0.00040285 -0.00017356 -0.000100058 -0.000117948 -0.000848941 0.00272044 -0.00169914 -0.00310641 0.000440589 0.000409078 0.0043625 0.000417398 -0.00186081 0.000461863 0.000361487 0.000497759 0.00155366 -0.000938508 0.00168441 -0.000644758 0.000251688 -0.0009224 0.00166604 0.000414643 0.00037631 -0.0001223 -0.000373576 -7.41423e-05 -0.00134444 -0.00531602 -0.00734274 0.00060699 0.00403406 0.0004878 0.000137069 -0.00187379 -0.00033435 -0.00244954 -0.00215494 0.000165706 -0.0016345 -3.57209e-05 -8.22143e-05 -4.33646e-05 -0.00352135 0.00709366 -8.7127e-05 -0.000125618 0.000814666 0.00044562 0.00415733 0.00128121 -0.00238729 0.00105738 0.00146301 0.000678617 -0.00150267
internal_weight=570558 566015 506360 505481 498312 239199 259113 252779 252264 59655 7169 28443 6334 237762 235868 1894 3556 2182 231499 213688 193414 36554 20274 36040 19271 156860 19117 17811 137743 136762 16524 15930 31212 10894 2959 2281 20318 1374 129311 7935 27798 7567 20231 19031 4076 3146 241851 236791 234147 2644 1426 232721 229801 19703 17745 1958 16325 4369 15794 34174 14431 15763
internal_count=570558 566015 506360 505481 498312 239199 259113 252779 252264 59655 7169 28443 6334 237762 235868 1894 3556 2182 231499 213688 193414 36554 20274 36040 19271 156860 19117 17811 137743 136762 16524 15930 31212 10894 2959 2281 20318 1374 129311 7935 27798 7567 20231 19031 4076 3146 241851 236791 234147 2644 1426 232721 229801 19703 17745 1958 16325 4369 15794 34174 14431 15763
is_linear=0
shrinkage=0.05


Tree=15
num_leaves=63
num_cat=0
split_feature=19 3 2 17 9 24 19 3 16 3 9 6 17 11 2 6 0 1 10 10 3 3 1 3 21 0 3 11 3 0 11 3 6 0 6 6 1 10 1 16 9 10 6 10 0 3 3 17 0 3 17 7 25 3 10 10 1 9 1 11 2 21
split_gain=25.4425 18.9572 13.5094 13.4551 13.284 13.3802 19.4235 13.7344 13.714 11.9643 11.3393 13.7004 11.2954 11.2253 12.6088 11.7159 11.1353 11.6797 13.0383 16.316 11.9218 12.3377 11.4936 13.438 11.1764 13.0973 14.2973 17.6361 10.6253 13.3567 10.1406 12.925 16.7617 11.9766 9.75103 10.8181 9.56177 9.75165 9.50768 11.7632 9.47049 9.46648 9.43762 9.31378 9.09495 10.55 9.33905 9.13928 9.31646 8.97819 11.9361 14.1355 16.1307 11.765 10.979 16.5225 19.188 12.2124 10.086 9.71931 9.56609 10.2911
threshold=0.022998406348103413 0.55720676861542484 -0.14643536484215972 0.17647203489169919 -0.21955895442883375 -0.002830516126239867 0.042288027979147033 -0.089081903663129958 -0.29222138682276694 -0.14372547726848087 -0.26420255328390524 0.38440280689101486 0.097460455748908173 -0.95126529389093806 -0.40994084261397357 -0.0093940266731750745 0.3800963864309545 0.25967532864680026 -0.040069566409516026 -0.063475739061887304 -0.084942874734302939 0.043147520427994551 1.4834050792016238 -0.12734515445944769 -0.0052759211041966412 -0.32861795519424597 -0.12347867159289587 0.42663193695104012 0.037887586315750975 0.29049519235399829 -0.69803998598508599 -0.16170225341403097 -0.0064194574167336692 -0.48070934194401427 1.8145403659840043 2.4110546816731264 0.35210991675298897 0.11521270264259025 -0.17431652286834642 0.2323292808322748 1.0121268841290079 0.0074107849278886515 -0.12352145852417799 0.062285015990241041 -0.026601115738115931 0.077262991173938936 0.30599956078534479 0.73588569335043064 -0.090346326029790716 0.047799313436241504 0.35299908143482012 -0.51166499940230359 0.005579834349298915 -0.20754536567121104 0.16124232607103681 0.081515278557409684 0.19941174427422625 -0.1936790628549169 -0.087899619972101745 0.32198514820808166 -0.29999862944809907 0.021546166713483309
decision_type=2 10 8 2 8 8 2 8 2 8 10 8 2 10 10 8 10 8 8 8 10 10 10 8 10 8 10 10 8 10 10 10 10 10 10 10 10 8 10 2 10 8 8 10 8 8 10 2 10 8 2 8 10 10 10 10 8 8 10 8 10 10
left_child=3 2 13 16 10 7 44 38 -9 12 11 -4 41 -2 -15 -16 24 -18 19 -19 22 -22 23 -20 25 30 27 -27 -10 -30 33 -32 -33 -1 40 -36 37 -25 -6 -40 -26 -8 -11 -23 45 -7 -46 48 -47 50 -5 -52 53 -53 55 57 58 -51 -57 -56 -59 -62
right_child=1 -3 4 49 5 6 9 8 28 42 -12 -13 -14 14 15 -17 17 18 20 -21 21 43 -24 36 34 26 -28 -29 29 -31 31 32 -34 -35 35 -37 -38 -39 39 -41 -42 -43 -44 -45 46 47 -48 -49 -50 54 51 52 -54 -55 59 56 -58 60 -60 -61 61 -63
